0.014826
-0.0621526
0.00138899
-0.00164754
-0.00239482
-0.00055849
0.000501975
4.8313e-05
0.000575343
-0.00586552
0.000221151
0.0353299
0.265069
0.0355754
0.0112653
0.0413853
0.0129501
-0.00583508
-0.0144077
-0.0144077
-0.00224649
-0.00202666
-8.76216e-05
-0.00011952
-0.00443219
-0.0320742
-0.0320742
-0.0320742
0.00965313
-0.0090323
-0.0183847
0.0242865
0.0108985
0.025749
-0.0128457
0.00683553
-0.000487009
0.00912014
-0.000494973
0.0246203
0.00426213
0.00356204
0.00481959
0.0021465
0.000700621
0.00170355
0.000117602
-0.00931729
-0.000680566
0.00366001
-0.00445957
0.000713729
-0.00465643
-0.00289918
-0.00270893
0.0633216
-0.0621526
-0.0621526
-0.0183747
0.0193191
0.0193192
0.00597173
0.00212967
0.0107957
0.0101763
0.0324233
-0.00301495
-0.00300118
-0.000638468
0.000437696
0.0021348
0.00119481
-0.0034506
-0.0621866
0.0803575
-0.0353299
-0.00290214
-0.00990441
-0.00990441
0.0324491
0.0324491
-0.000778199
0.000227927
0.00295108
0.00433189
0.00433189
-0.00847526
0.018838
0.00218686
0.00327396
0.0158597
0.00279955
0.00347989
-0.00731999
0.00220646
-0.0123277
-0.0123277
-0.018838
-0.0434713
-0.0434713
-0.0434713
-0.0434713
-0.0434713
-0.0434713
0.0413853
-0.0181708
0.00412021
0.0803575
0.010731
0.0023046
0.000102711
-0.00206194
-0.00417966
0.000378638
-0.00685883
-0.000851976
-0.00216457
0.00447516
0.0115948
0.00360917
0.00451028
0.00337396
-0.000380638
-0.0013183
-0.00456522
0.00137742
0.00297119
0.00912226
0.00912226
0.00912226
-0.000963457
0.0288819
0.00010477
-0.000928462
-0.00317136
-0.00882762
0.00222678
0.00869819
6.12442e-05
-6.54379e-05
0.00185724
0.0105773
0.00792922
-0.00466433
-0.00466433
0.044617
0.00868423
0.044617
0.044617
0.0102132
-0.00272307
0.00272609
0.00752458
0.0143289
0.0143289
0.00752027
-0.000675046
0.00300005
0.00118274
0.00957511
-0.00130937
-0.000268435
-0.00164976
-0.000465958
-0.00837586
0.000319284
0.0196211
0.0196211
0.00399497
-0.00335688
-0.00142208
0.00321889
0.00965313
0.00471213
0.0196211
0.0196211
-0.0112768
0.0633886
0.0633886
0.000341568
-0.00276187
-0.00925895
-0.0033763
0.00505371
0.0803575
0.0803575
0.0103948
-0.00319257
-0.00121581
0.00995174
-0.00242114
0.00243759
0.00241184
-0.000606778
0.00210873
0.000611746
0.00122573
-0.000274539
0.00375673
-0.0621547
0.0395259
0.0110952
0.0395259
0.00094113
-0.0145607
0.00130633
-0.00238427
0.000192127
0.00126276
0.00348247
-0.0028221
-0.00289913
0.0246747
0.0246747
-0.00291584
0.00315393
0.0034506
-0.0189952
-0.0189461
-0.0621547
-0.0621547
-0.0621547
-0.0621547
-0.0105316
-0.0183751
-0.0621547
-0.0173456
-0.004641
0.0803575
-0.0621547
-0.0173456
-0.0101591
-0.00344275
-0.00210902
-0.000715711
-0.011721
-0.011721
-0.011721
0.0158597
0.00407038
-0.00856898
0.00121925
0.0221163
-0.0434713
0.130439
0.130439
-0.0188355
0.130439
0.130439
0.130439
0.130439
0.130439
0.130439
0.130439
0.00261637
0.00242821
0.000177824
0.000921641
0.00169739
0.0030927
-0.000469507
-0.00215497
0.00856898
-0.00837831
-0.0621547
-0.0353299
0.00173983
0.00100978
-0.000753435
-0.000528006
-0.00278866
0.000601667
0.00140092
0.00137319
0.00131889
-0.00161535
0.0115594
0.0102224
0.0143436
-0.00176447
0.00282227
-0.00693153
0.00862156
0.00753566
-0.00304793
-0.00774335
0.00887844
-0.0181612
0.0355861
0.265069
-0.0353299
0.0355754
0.00853755
0.0355754
0.0633216
-0.00155252
-0.0149574
-0.0149574
0.000726932
0.000987212
0.00448128
0.00245869
0.0102125
-0.0317238
0.00133497
0.00419161
-0.00123308
0.00351394
0.00833426
-0.0123413
-0.0434954
-0.0434954
-0.0434954
-0.0434954
0.00453322
-0.00218768
-0.00122311
0.00116059
-0.0152112
-0.0152112
-0.00759061
-0.00627312
-0.0434729
-0.0434729
0.00600374
0.0102679
0.0102679
-0.00243189
0.0196005
0.00812319
-0.00317731
-0.000903055
-0.000675205
-0.00336661
-0.000355702
-0.000556045
-0.000211976
-4.27273e-05
0.00242775
-0.00101334
0.00107529
0.00050903
0.00764437
0.00109351
0.000766588
0.0157783
0.0157783
0.0157783
0.00434063
0.00133384
0.00300211
0.00155013
0.0193191
0.00126966
0.0633216
0.0192992
0.0102039
0.0633216
0.0633216
0.0192992
-0.0112653
0.0196005
-0.00332824
-0.000585288
0.00407897
0.00327377
-0.0107133
0.265069
0.265069
0.265069
0.0302839
0.0196005
0.0196005
0.000361283
0.0192991
-0.0128566
-0.0621866
0.00479793
0.017565
0.00516268
0.00516268
-0.00195728
-0.00129225
0.000471552
-0.00288068
0.00157642
0.0803575
0.0353297
0.000541172
-0.00799151
0.00856462
-0.00632354
0.000270757
-0.000423409
0.000287139
-0.00948832
-0.007325
-0.00119556
-7.14781e-05
-0.00749205
-0.00749205
-0.00176632
0.00752458
0.00602945
0.01295
0.01295
0.00407038
0.0129502
-0.00155316
-0.00338165
-0.0434713
-0.0434713
-0.00350191
-0.00325138
-0.00129763
0.000849645
0.000302137
0.000793432
-0.00834079
-0.0037908
0.000918358
0.00116788
0.00267087
0.000856759
0.00562256
0.00465851
0.000562143
0.00177799
0.000442879
0.000729323
-0.00592317
0.000349028
-0.0112216
-0.0183651
-0.0183651
-0.00254121
-0.00117571
-0.00329041
0.00350497
0.00482273
0.00377674
0.000188485
-0.0103821
-0.0103821
0.0355754
0.0193192
0.0633886
0.00596585
0.0242865
0.0803575
0.0108045
0.0355861
0.00480207
0.0803575
0.00927959
0.0303119
0.00308864
0.00491063
0.00615462
0.00102625
0.00234488
0.00562245
0.000700692
0.00868423
0.0143289
0.044617
-0.00628952
0.00602562
0.0413853
0.0803575
0.0105794
-0.00846379
-0.0621866
0.0108013
0.00274366
0.00559583
0.000479959
0.000704114
-0.00517473
-0.00224589
-0.00271793
-0.00365958
-0.00328663
-0.000412935
0.00405795
0.00405795
0.0039508
0.00912193
0.0302839
0.0103821
-0.0353246
0.0803575
0.0803575
0.0242865
0.0324491
-0.0621208
-0.0621208
-0.00281834
-0.0353246
-0.0621208
0.00962275
0.0103148
0.00128223
0.00126944
-0.00214664
-0.00110389
0.000417242
-1.64181e-05
-0.000672267
-0.00148851
-0.0062061
-0.0062061
-0.014554
-0.014554
0.00343809
0.0324484
0.0324484
0.0324484
0.0324484
0.00308864
0.00143682
0.00096738
0.000187723
-0.00156785
0.000358531
0.000826263
0.00786731
0.00286541
0.00190624
-0.00092076
-0.0181708
0.0082311
-0.0173451
-0.0173451
0.00493302
-0.00400637
0.000162584
-0.00097997
-0.00311795
-0.00257755
-0.00386009
0.0146816
0.00294806
0.00125452
0.00444453
-0.000929613
0.00105563
0.000959029
-0.00116072
0.000101048
0.00911081
0.000829611
-0.00177571
-0.011216
0.00911046
0.0103359
0.0196005
0.0196005
-0.035335
-0.00185984
-0.00167479
-0.00988729
-0.00589477
0.00252697
-0.000386199
0.00965651
0.00965651
-0.000614465
-0.000525971
-0.00547298
-0.00842649
-0.0621547
-0.00127024
0.00766022
0.0105354
-0.0183847
0.035335
0.0243383
0.009624
0.000212581
-0.000875301
0.00280646
0.0324236
0.0324236
0.0324236
-0.0621526
-0.0105315
0.0102111
0.0149727
0.00727031
-0.000555264
0.00957593
0.0288819
0.0107117
-0.0051268
0.00912272
-0.0105354
0.0324233
0.0324233
0.0324233
0.0324233
0.0324233
0.00314644
-0.00474036
-0.00199669
0.00205801
-0.00180942
9.91184e-05
0.00106851
-0.00567095
-0.0621547
0.0129501
0.0050373
0.0105097
0.0105097
0.0017659
-0.00281992
-0.00281992
-0.00281992
-0.000474534
-0.00184026
0.0116064
0.0116064
0.00137493
0.0116064
0.0116064
0.00115063
0.0196005
0.00370748
0.0803575
0.00490949
0.0244719
0.0803575
-0.00385079
0.00407898
0.0012404
-0.032046
-0.032046
0.0112617
-0.00400925
0.00324217
-0.0188355
0.130439
0.130439
0.130439
0.130439
0.130439
-0.0123347
0.00764927
-0.00770947
-0.0621208
0.00845483
0.0181023
0.0181023
0.0057883
0.00294356
0.00118981
0.00179386
-0.0031653
0.00268931
0.0128536
0.0257475
0.0803575
0.0303175
0.0303175
-0.0621208
-0.0103946
0.00376218
0.000503506
0.00305702
0.01295
0.00731999
-0.00627538
-0.0434713
-0.0434713
0.00239951
0.0103807
-0.035335
0.0257496
0.0803575
0.0108045
0.0102003
0.00404897
0.0107956
0.0105773
0.0193192
-0.00191853
0.0303175
-0.00845949
0.00669798
0.00052453
-0.00534895
-0.00547501
0.0244719
0.0244719
0.00692647
0.0154474
0.0243591
0.000196488
0.000416272
-0.00648615
-0.00648615
-0.00648615
-0.00214343
-0.000249533
-0.000510842
0.00116784
0.000213959
0.00169023
0.00861972
0.00115521
-0.0317238
-0.0317238
0.00122156
0.00624585
0.000895074
-0.000628064
0.00144563
0.00105134
-0.00084695
0.00492682
0.0149727
-0.00298759
-0.00469335
0.00162574
0.0033513
-0.00187308
0.00310284
-0.00759061
-0.0434729
0.00627312
0.00247333
0.00584702
-0.000398125
-2.17087e-05
0.000154339
-0.00160627
0.000986183
-0.000503459
-0.00326407
0.00074649
0.00352493
-0.00575366
-0.00365958
-0.00365958
0.0049532
0.000944884
-0.000831977
-0.000118528
0.00114639
-0.00902455
0.00115744
0.00169844
-0.00274838
0.00693087
-0.00489715
0.00093539
-0.00296665
0.00349451
0.0196211
0.0633886
0.0633886
0.0633886
-0.0029312
-0.0189944
-0.0079901
0.000632327
0.00752235
-0.000742486
0.000636061
0.0303175
0.00812323
0.00320715
-0.00902455
-0.00116685
-0.000988335
-0.00530911
0.0302839
-0.000840237
-4.4042e-05
-0.00128001
-0.000722633
-0.00189776
-0.00109415
-0.00126814
-0.00165715
-0.00115446
0.00103389
-0.00842649
-0.00328584
-0.000927747
-0.000313563
-0.000307817
0.00571632
0.00134947
-0.000506254
0.0192991
0.00356364
0.0353299
-0.0621547
-0.0621547
-0.0621547
-0.0173456
-0.0192494
-0.0183751
-0.0183751
0.00261637
-0.00174471
-0.018936
0.00984223
-0.00170766
0.0355754
0.0151448
0.000654588
0.00779922
0.0246747
-0.004933
0.0129692
0.0196211
0.0193191
0.00158753
-0.00289409
0.00208589
0.0056266
0.00239997
-0.000706734
0.00406952
0.00401146
0.00493149
0.000505564
0.00262346
0.000512257
0.00110248
0.00105497
0.00493095
0.00235745
0.00123344
0.0012843
0.00911046
0.00162574
0.000871646
-0.000645507
0.000598414
0.0154474
-0.00139149
-0.00488053
0.000184267
0.000490743
-0.000586329
0.00247066
0.000235036
0.00296422
0.00560229
0.00813203
0.00016701
0.00132372
9.02812e-05
0.000354001
-0.00243123
-0.00154275
-0.000648263
0.00308118
-0.0105276
0.0324236
0.0324236
0.0803575
0.0129692
0.0111018
0.0101751
0.000912531
0.0108045
0.000204115
-0.000195231
0.000546208
-0.000758563
0.00880686
0.0324484
0.00149754
0.0633886
0.0041214
0.00445894
0.00324731
0.000132291
0.00116148
0.00253525
-0.00111055
0.000700603
0.0069227
0.0069227
0.0049532
0.00397998
0.00370235
0.00155903
0.00575381
0.0353246
-0.00920677
-0.00897548
0.00668426
0.0193191
-0.000398858
0.0017563
-0.00131182
0.0413853
0.0413853
0.000408494
0.00114545
0.000675104
0.000517834
-0.000701264
0.00175215
0.00930454
0.00308582
0.00308582
-0.000674172
-0.00476148
-0.0090323
-0.0090323
0.00858011
0.0115594
0.00172866
-0.0434489
-0.0434489
-0.0434489
-0.0434489
-0.000352543
-0.00793575
0.014826
-0.00242462
-0.014554
-0.00085452
0.00242428
-0.0126273
-0.00322363
0.00860788
0.0069227
-0.000554677
0.000123715
-0.000427796
0.000380118
-0.00178087
0.0196005
0.0039508
-0.00385099
-0.00843334
-0.0111254
-0.0621526
-0.0621526
-0.00363835
0.0243384
0.0803575
0.265069
0.265069
0.0803575
0.0257465
0.0244719
0.000152127
0.00222511
0.00388343
0.00624088
0.000147274
-0.00247574
0.0288819
-0.0621547
-0.0111058
0.0103915
-0.00321203
0.00055184
-0.000235245
-0.000943795
0.000954998
0.00028509
-0.00069423
-0.0014522
-0.00774335
-0.00539271
-0.00155867
-0.00444591
-6.90498e-05
0.0146158
0.0146158
-0.00212923
0.0112879
0.0112879
-0.00226558
0.00357544
-0.0013044
1.81815e-05
-0.00393915
0.00107062
-0.00594029
-0.0143926
-0.00508281
-0.0143926
-0.00478454
0.0148434
0.0148434
0.00155897
-0.000233519
-0.00285812
0.018838
