0.00955589
0.00823597
-0.0118311
0.00696639
-0.00155427
-0.000184281
0.000531995
0.0246423
-0.00361171
0.00150448
0.0108041
0.0633216
0.00596557
-0.0173363
0.000343644
-0.00132019
0.0324233
-0.00338189
-0.0353299
-0.0103804
0.265069
0.265069
-0.0101777
0.0192992
0.000456047
-0.00176408
-0.00957865
-0.00142577
-0.00129763
-0.00176418
-0.00947589
0.0089854
0.00468823
0.00298887
-0.00176953
-0.0621547
-0.0621526
-0.0621526
-0.0621526
-0.00603865
0.00779923
0.0244719
0.0244719
0.0803575
0.0803575
0.0243384
0.0803575
0.0803575
0.0243621
0.0108045
0.0085491
0.000562581
-0.00208218
-0.00112662
-0.00319277
0.00271887
-0.000678049
-0.0434713
-0.0434713
-0.00757412
0.00271436
0.000727675
0.000775385
0.00299529
0.00348749
-0.00117786
0.00879292
-0.00837831
0.00446188
0.0151448
0.0151448
-0.0054764
-0.0054764
0.0243384
0.00281932
-0.000258014
0.0413853
0.0413853
0.0129501
0.0446641
0.0446641
0.0115594
0.00224343
-0.00253507
0.00018886
5.75225e-05
0.00166529
-0.00537933
0.0803575
0.0244719
0.265069
0.0353299
0.025749
0.0244719
0.0257496
-0.00314847
0.00288183
-0.00171221
-0.00107275
0.000373616
-0.00141617
0.00153362
0.000281211
0.0193191
0.0108045
0.00045153
0.00125787
-0.000915975
0.000431691
0.00144188
-0.00239535
-0.0182226
-0.00580126
-0.00268659
0.000233792
0.00317881
0.000113596
0.00155695
0.00429767
0.000160391
-0.00128945
-0.00508544
-0.00508544
-0.00508544
-0.00080303
-0.00554087
0.000407382
-0.000442011
-0.000849203
0.00995167
0.000587957
0.00669083
0.000420697
-0.00425991
-0.00425991
-0.00169204
-9.58886e-05
-0.0013177
0.000210624
0.000144543
0.000370915
0.00134578
-0.00947749
-0.00388443
-0.00847564
0.00928494
0.00397569
-0.00505371
0.0196211
0.00897426
0.00101261
0.0242865
-0.00110696
-5.67821e-05
0.00011987
-0.0183847
-0.00561445
-0.0111093
-0.0183847
-0.0032544
0.0242865
0.0103821
-0.00493304
0.00891806
0.0103359
-0.019239
-0.019239
-0.0621208
0.00207202
-0.00603585
-0.00243632
0.000392762
-0.000364985
-0.000272973
-0.00192363
0.00349563
0.00330534
0.00415409
-0.00837553
-0.0621526
-0.0621526
-0.0621526
-0.0621526
-0.0621526
0.0353297
0.265069
-0.00266198
-9.12823e-05
0.00862156
0.00455384
-0.0621866
-0.0621866
-0.0621866
-0.00916048
-0.00265029
0.00734905
0.00734905
0.000466275
0.0012055
0.00038664
-0.000519894
0.00274053
0.00963543
-0.000101844
0.000520496
0.00140711
0.00065619
0.000816339
-0.000123252
-0.00289709
0.0105276
0.00813034
-0.000637771
-0.00267894
-0.00159309
-0.00176348
-0.00195748
-0.00314302
0.000633384
-0.00510225
0.00506627
0.00408455
0.0013882
0.00376804
0.00079323
-0.00177339
-0.00487503
0.00235745
-0.000939173
-0.00658531
0.000534635
0.000449728
-0.0173451
0.0196005
0.0108952
0.00346724
0.00464958
0.000527079
-0.000394616
0.130439
-0.0188382
0.044617
0.0143289
0.00116294
0.000128181
-0.000652051
-0.000332149
0.0113277
0.0113277
0.00236815
0.0151749
0.0151749
-0.0024456
-0.00468641
-0.00468641
0.00771956
0.00167022
0.000680596
-0.00158406
3.53544e-05
0.00246043
0.00363638
0.00317779
0.00151579
-0.000402828
-0.000293799
0.000508981
-0.00283752
-0.00283752
-0.00967343
0.0129501
0.044617
0.044617
0.044617
-0.00868423
0.00141638
0.00026382
0.000542327
0.00250506
0.00467951
0.00205057
0.0151277
0.0151277
-0.00897548
0.0078828
0.0149727
0.00810274
0.0355861
-0.0106897
0.00525564
-0.00380633
0.00421036
-0.0192488
-0.00536005
-0.00209248
-0.00279023
-0.0189456
-0.0189456
0.00928502
-0.00847564
0.000127746
0.000536578
0.0103357
0.0103357
-0.000810794
-0.0026791
-0.00896719
0.0633216
0.0633216
0.0633216
-0.0173456
-0.0621547
-0.0621547
-0.00575366
-0.00437395
-0.0108165
8.67524e-05
0.000196463
0.00266131
0.000168494
0.00143093
0.000338553
0.0024236
-0.000336175
-0.00043032
-0.000804404
-0.00174201
-0.00690451
-0.00690451
-0.00158926
-0.00246108
0.0030429
-0.00021963
0.00995174
0.000250931
0.00105924
0.0108041
0.0196005
0.0633216
0.0633216
0.0633216
0.0192992
0.0413853
0.00559568
-0.00353595
-0.0116421
0.00119269
-0.00169229
-0.00942678
0.00407418
-0.0123277
-0.0123277
-0.0123277
-0.00436888
-0.0056168
-0.000181908
-0.0123347
0.00319362
0.130439
-0.00176733
-0.00177822
-0.00535082
0.007325
0.0157944
0.007325
0.00102924
0.00175747
0.00467951
0.00467951
0.000692004
-0.00915232
0.0193191
0.00272242
-0.010379
0.0243383
0.0246747
0.0246747
0.0101999
0.0803575
0.0101765
0.0193191
0.0413853
0.01295
0.0413853
0.00456204
0.0193191
0.0633886
0.0633886
-0.0353299
0.265069
0.0051332
-0.0072164
-0.00589501
-0.00580126
-0.00580126
-0.00335038
-0.00345153
-0.00246747
0.00123604
0.000574497
0.00773032
0.00406622
-0.00467122
-0.00857755
0.00602561
0.00100665
0.00233361
0.015891
0.00624585
0.0446641
-0.00151078
0.0063018
0.0026347
-0.00948544
0.00486103
0.00486103
-0.00223688
-0.00295227
0.00119554
0.0115562
0.00751436
-0.00635357
-0.00319076
-0.000842633
-0.00225063
-0.0014067
0.0803575
0.000477379
0.000141747
-0.00181504
-0.00084504
-0.0181704
-0.0621526
-0.0621526
0.0126341
0.000805559
-0.000243599
-0.00221877
-0.00132962
-0.00164291
0.00293189
-0.0192488
-0.0353246
-0.0621208
-0.0621208
-0.0621208
-0.0621208
-0.0621208
-0.0621208
0.0126273
-0.0621208
-0.0173363
0.00915232
-0.00302911
-0.000489065
-0.00187503
0.0089603
0.0089603
0.00189678
6.97468e-05
-0.000330389
-0.000426277
-0.00457464
-0.00457464
-0.00457464
-0.0038335
0.000138061
-0.0005736
0.00516132
0.000223434
0.000107795
-0.00118421
-0.0108182
-0.0621208
0.0105276
-0.0111178
-0.0173451
-0.0181704
0.0111056
0.0803575
-0.00265656
0.000144736
-0.000670601
-0.000994691
-0.000187861
-0.000215601
0.000329977
0.000628086
0.00965294
0.000178388
-0.000643763
-0.000551655
-0.000874137
0.000150872
0.00311901
0.00167573
-0.000807365
0.00236062
-0.0145544
-0.0145544
-0.00133634
0.0155114
0.00503393
0.0047024
0.00328783
0.0128535
0.000526239
0.00441997
-0.00535704
0.00061477
-0.00116945
-0.000519036
0.0014678
0.00445726
0.00145253
-0.00317617
0.00147792
-0.000453673
0.00165151
-0.0189456
-0.0077532
0.0114597
0.00135208
-0.000174863
-0.00110704
-0.0173451
-0.0173451
0.0803575
0.0803575
0.0101765
0.0242865
0.00480207
0.00356204
0.00589046
0.00392008
0.00143351
-0.0010127
0.00052125
0.000413813
0.0196211
0.00152418
-0.000175409
0.00359922
0.0151448
0.0353299
0.265069
0.00493302
0.0303175
-0.00122904
0.0192991
0.0192991
0.0192991
0.0192991
0.0192991
0.00433077
0.00610648
-0.0125127
0.00306418
-0.0189557
-0.00843334
-0.01818
-0.01818
-0.000262553
-0.00530552
-0.0173451
-0.000711419
0.000507744
-0.000918571
-0.00121451
0.0112351
0.0112351
0.0119527
0.0119527
-0.00213392
-0.0072466
0.00246816
0.00405795
0.00240994
0.00735506
0.00785935
0.00243665
0.0192992
0.00823594
0.0031638
0.0803575
0.0803575
0.0257465
0.00317779
0.0129692
0.0288819
0.0803575
0.0803575
-0.0353246
0.00594029
0.00151756
0.00102547
0.000728793
0.00298759
-0.000427665
-0.00128736
-0.0320742
0.00868691
-0.0320742
-0.0320742
-0.0320742
-0.0320742
-0.0320742
0.265069
0.0803575
0.0803575
0.00189156
-0.0320741
-0.00924912
-0.00119692
-0.00119692
0.00789567
0.00467453
0.00203225
0.000140613
-0.00222304
-0.000328517
-0.000818629
-0.000533471
0.000376097
0.00368586
0.009384
0.00440573
0.00369153
-0.0118213
-0.0118213
-0.0118213
-0.00113194
-0.00389595
-0.000739635
-0.00170249
-0.0014792
-0.00109262
-0.00309098
0.00292286
-0.000353214
-0.0025791
0.00201243
0.000362308
0.00214715
0.0257465
0.00382706
0.0107278
0.0803575
-0.0353297
0.0302839
0.0355754
0.0803575
0.0107118
0.0246747
0.00315611
-0.0015096
-0.00537933
-0.00875261
0.000138178
-0.000274987
0.00288135
0.000790857
-0.00537164
-0.0022406
-0.000496326
-0.00324116
-0.0123413
-0.0434954
-0.0434954
-0.0434954
-0.0434954
-0.00282274
0.000476923
0.0149873
0.00180313
0.0016117
0.00300214
0.00634318
0.0193191
0.0193191
-0.000867804
0.00315508
0.00304583
0.00315425
0.00589644
0.265069
0.0803575
0.0633886
0.0633886
0.00315914
0.00589644
0.0102125
0.00788272
0.0633886
0.0355861
0.0107966
-0.00436599
0.000986183
-0.00187524
0.000489795
-0.000918917
0.000542946
-0.00091133
-0.00128363
0.00191607
-0.000186939
-0.0101679
-0.00443137
-0.00233559
0.00274803
-0.00236311
0.000430049
-0.00218144
-0.00249286
-0.0011921
-0.000508068
-0.000203978
-0.000118053
0.00101793
-0.00176249
0.00114269
-0.00177268
-0.000124456
0.00359335
-0.000457551
-0.000525799
0.000632056
0.00042434
-0.000301378
0.00279466
-0.00269114
-0.0149259
0.0025844
-0.00125742
-0.00186831
0.000667719
0.0395259
0.011095
0.0395259
-0.00438294
-0.00326402
-0.000732453
0.00324182
0.00323431
0.00332824
-0.00131199
0.00863283
-0.0180519
-0.00258073
0.00343596
-0.0010402
0.000177662
0.00572828
0.00113071
0.000160569
-0.000797374
-0.000331439
-0.000181066
0.000100957
-0.00346701
0.0030896
-0.000314988
-0.00203438
-0.00603615
0.0353297
-0.0621208
-0.0621208
0.0633886
0.0633886
0.0196211
-0.00583819
0.00911046
0.00965651
0.0102679
0.000366424
0.0155114
0.0303119
0.0633216
0.0803575
0.00481219
0.00128487
-0.0012058
0.00085259
0.00252377
-0.0434489
-0.0434489
-0.0434489
-0.0434489
-0.0434489
-0.0434489
-0.0183751
-0.00324039
0.000497052
0.0027462
-0.0182136
0.000464148
0.000439893
-0.000215013
0.00282731
0.00813199
0.00256717
0.035335
0.0803575
-0.00321044
-0.0111881
0.00166653
-0.00478914
-0.000523527
-0.0110946
-0.019239
0.00887844
-0.00334314
-0.00197949
-0.00122156
0.00752027
-0.00286636
-0.00925082
-0.000373072
-0.00187246
-0.00930953
-0.00930953
-0.0030205
-0.00120425
-0.009435
0.00635437
-0.00458007
0.00813203
0.00803956
-0.00846042
0.0355861
0.0633886
0.0193191
-0.00266552
-0.0111058
0.0129501
0.0129501
0.000427939
-0.002569
0.0193191
0.00274174
0.00325297
-0.00148136
-0.00130212
0.000545985
0.0324233
0.00347195
0.00347195
0.00170058
-4.1777e-05
0.000233501
-0.000656278
-3.54398e-05
0.000160873
-0.000151872
-0.00153368
0.000201942
0.00602559
0.00116879
0.00475125
0.00024757
0.00279671
0.0107956
-0.0190047
0.000252028
0.00751869
0.0395259
0.0395259
0.00510225
-0.000933257
0.0193191
0.0084346
0.0633886
0.0633886
0.0633886
0.0193191
0.0196211
0.0633886
0.265069
0.265069
0.0803575
0.0803575
-0.0353246
0.265069
0.0803575
0.265069
0.0243591
-0.0189456
-0.0189456
0.00116421
-0.0022101
0.0129628
0.000558213
0.00240993
-0.00102184
-0.000813791
-0.000117247
0.000116739
-0.000212595
-0.00240768
0.000492217
0.00277189
0.00433647
0.0119374
0.0039766
-0.00282401
0.00773032
0.00125584
-0.000483174
-2.11205e-05
-0.0125196
-0.0063533
-0.0434489
0.00069208
-0.00230245
0.00284084
-0.00845963
-0.0434729
-0.0434729
-0.0434729
-0.0434729
-0.0434729
-0.0434729
-0.0434729
-0.0434729
-0.0434729
-0.0434729
-0.0064468
0.00314954
-0.000446144
5.66946e-05
0.00055376
-4.71623e-05
-0.000877209
4.17228e-05
0.000944644
0.000923843
0.0025653
0.0633216
0.00209763
-0.00589501
-0.00128613
-0.00584437
-0.00890573
-0.00890573
-0.00383238
-0.00118332
-0.0128457
0.0803575
0.0803575
0.0243621
0.0069227
0.00315611
0.00372877
-0.00911023
0.00377674
-0.00071511
-0.000293306
0.00177526
-0.000469762
0.00204635
0.000223052
0.000318621
0.0112198
0.0112198
-0.00282028
0.00397598
0.000426138
-0.00189735
-0.00508544
-0.000193524
-0.000223593
-0.00176623
-0.00235301
-0.00133785
-9.17313e-05
0.00179885
0.0246423
-0.035335
-0.000681239
-0.00114825
-0.00049222
0.00128879
0.009653
-0.00778511
-0.000684957
-8.85165e-06
0.000555569
4.92111e-05
0.00744028
0.00239586
-0.00441251
-0.00289328
-0.00300371
0.0113454
0.0113454
0.0113454
0.0113454
-0.0182136
-0.000622367
-0.00262544
