-0.00223615
-0.00239678
-0.0053954
-0.0116016
-0.00279641
-0.00154165
-0.00834079
-0.00356841
-0.00349125
-0.00341933
-0.0434713
0.0143436
0.0143436
0.0446641
0.0051285
-0.0063612
0.0446641
0.0446641
0.0446641
-0.0027206
-0.00629531
0.000262244
0.00218575
0.0020408
-0.000978714
0.00402762
0.0111847
-0.000862098
0.00731999
-0.0434713
-0.0434713
-0.00869563
0.00249655
-0.0320741
-0.00590002
0.0119364
0.0119364
0.0119364
0.00426187
-0.00910534
0.0112879
0.00135978
0.00189686
0.00965651
0.00965651
0.0803575
-0.035335
0.0128535
0.0106866
-0.0353299
0.0633216
-0.0621526
0.0288819
0.0288819
-0.00133985
-0.00585719
-0.0189461
-0.0173456
-0.000278788
0.00168761
-0.00254219
-0.00133324
0.00915627
-0.000514862
-0.000846855
0.00240089
0.000426299
0.000372093
-0.00234023
0.0009023
-0.00774726
-0.0111056
0.00181483
-0.0143999
-0.00508544
-0.00426608
-0.000760624
0.000123378
-0.00131745
0.00489634
0.000217911
0.0026301
0.00919838
0.00809729
0.00467951
0.00531734
0.00432311
-0.00909526
-0.00909526
-0.00909526
-0.00264678
0.00181984
0.000433132
-0.00759726
-0.00759726
-0.00759726
-0.000254712
-0.000381806
0.00471993
0.0324233
0.00569505
0.00367556
0.0324233
-0.00955924
0.00995174
0.0324233
0.0102676
-0.00775534
0.00692647
0.000393533
-0.0118099
0.00217746
0.000666104
0.0108073
0.0107102
0.0103359
-0.00463023
-0.00737636
-0.00554424
-0.00554424
0.00104656
0.000379256
-0.00127755
0.000318894
-0.000852804
0.0633216
0.0633216
0.0150455
-0.00238911
-0.00238911
-0.00422226
0.0025955
0.000607594
0.000368676
0.000583396
0.00530633
0.00905032
0.00184362
0.00919838
0.0155114
0.0250862
0.00120456
0.0633216
0.0803575
-0.00846379
-0.00245415
0.0101765
-0.0173544
0.00445066
0.00995167
0.00400692
0.0315271
-0.00247933
0.00451307
-0.00838265
-0.0190047
0.000146425
0.00153362
0.00237183
0.000355945
0.0196211
0.0084346
0.000621578
-0.003158
-0.00164805
-0.00302676
0.00148142
0.00261226
0.00216764
-0.000634558
-0.000211807
0.000699785
0.000513854
-0.01818
-0.00846379
-0.00775018
-0.00838265
-0.0147764
-0.00843334
-0.00388732
-0.00538418
0.00121047
0.00153463
-0.00457037
-0.00144678
0.00341793
-0.00106029
0.00145535
-0.000858072
-0.0180424
-0.00542084
-0.00583765
0.00134267
-0.00171148
-0.000760981
-0.000154303
-0.000258402
0.000981854
0.00547483
0.00268395
0.00635312
0.00118422
0.000747271
0.00735506
0.00405795
0.000737822
0.000670499
-0.000367129
0.000707287
0.000779754
0.000120588
-0.00178554
9.72263e-05
0.00847248
0.0089854
0.0315271
0.0315271
0.0315271
0.0315271
-0.00307573
-0.000350693
0.000748635
-0.000349252
0.0149028
0.0149028
-0.00385955
0.00282616
-0.00457521
-0.00177531
-0.0103807
-0.00438753
0.0128458
0.0803575
-0.00915232
0.0196211
-0.00323055
0.0803575
0.0803575
0.265069
0.265069
0.265069
-0.0353246
0.00474466
-0.0190047
-0.00669577
0.0128458
0.0257465
0.00820611
-0.00353169
0.00345244
-0.000547698
0.00367598
0.0193191
0.0633886
0.0633886
0.0633886
0.0633886
-0.0316696
-0.0110946
-0.00141159
0.000435738
0.00178225
-0.00214041
0.00563912
0.00563912
-0.00124141
0.000798687
-0.000291054
-0.00115376
0.00287032
0.0196211
0.0355861
0.0803575
0.0242865
0.0803575
0.0154414
0.0355861
0.0355861
-0.00344736
0.00200052
0.0353297
0.00161612
-0.0621866
-0.00838222
-0.0111093
0.000162338
-0.00266754
-0.00176637
0.0021421
0.018838
0.00177479
-0.00731999
-0.000289109
-0.00146391
0.000990083
0.0013247
0.00405561
0.00255921
0.00216274
0.00413039
0.044617
-0.018838
-0.0123277
0.0221163
0.0221163
-0.0188382
-0.0027077
0.00822863
0.00627141
0.00310284
0.011095
0.0395259
0.0395259
-0.00948832
-0.0317238
-0.0025876
0.00279363
0.00452139
0.000603792
-0.0123277
0.0115594
0.130439
0.130439
0.130439
0.130439
-0.0188382
-0.0123347
-0.00266754
-0.00466433
-0.00774972
0.00149579
0.0027724
0.00275325
-0.000618327
-0.00624275
-0.00627545
0.0023579
0.000793133
0.000530657
0.00559828
-0.00620687
-0.0090703
-0.0090703
-0.00294053
-0.0181612
-0.0083712
-0.0316696
-0.0621208
-0.00827721
-0.0621547
0.0107118
0.0128504
0.0257475
0.0803575
0.00479296
0.0302812
-0.0103163
-0.0621866
-0.0621866
0.0355861
0.0243621
0.00781803
0.00482613
0.00493126
0.0251312
0.00383309
0.000917422
0.000780105
0.00111783
0.00180078
0.00250404
-0.000371159
-0.00204169
-0.00534895
-0.00334089
-0.00266756
-0.000588931
-0.00915496
0.00464975
-0.000467403
-0.000103794
0.00263338
-0.00287903
-0.000576872
-3.38358e-05
0.000153332
-0.0320741
-0.0320741
-0.0320741
-0.0320741
-0.0434713
-0.0123343
-0.0064468
-0.0123343
-0.0123343
-0.0434713
-0.0434713
-0.0434713
-0.0434713
-0.0434713
-0.00461946
0.00627289
-0.0434713
-0.00449268
-0.0434713
-0.0434713
-0.0434713
-0.0040091
0.00600342
0.00119319
0.00347509
-0.0123413
-0.0188407
0.00869295
-0.00942678
-0.00288559
-0.00761182
0.00375667
-0.00409275
-0.0112653
-0.00989595
-0.00989595
-0.00132419
-0.000206229
-0.0192494
-0.00537547
-0.00243493
-0.00967379
-0.00967379
-0.00967379
-0.00267729
-0.00627561
-0.0123347
-0.0434729
0.00955961
0.000740951
-0.00400912
3.71288e-05
0.000289606
-0.00438202
-0.0101765
0.0108045
-0.00984495
0.00823597
-0.0321023
0.0112768
0.0193191
0.000494615
-0.00404067
-0.000240154
0.00395313
0.0315269
0.00928487
0.0315269
-0.00445774
7.42935e-05
0.000895404
0.000182116
-0.00117565
0.00281927
0.00432053
0.00432053
0.0146816
0.0146816
-0.00252507
0.00312224
0.000454838
-0.00530829
0.000906184
0.00530398
0.000469933
-0.000904982
-0.00563551
0.0056022
0.0119524
0.0119524
-0.00032474
-0.000743511
-0.00221276
-0.000189846
0.0010141
0.0108012
0.0244719
-0.0621547
-0.00561445
-0.00561445
0.00962485
0.0303175
0.0107957
-0.00131352
-0.00793461
0.0103961
0.00354582
-0.000199072
-0.00433247
-0.0145607
-0.0145607
-0.00251812
0.000199526
0.000328988
-0.00150484
-0.000558302
-0.00040268
0.000965286
-0.000322798
-0.00264195
0.00878992
0.0154534
0.265069
0.265069
0.0803575
0.0803575
0.0803575
0.0108985
0.0353246
-0.00063382
0.00569505
0.0324233
0.00132066
-0.0621547
-0.0105316
0.0111768
0.0192991
0.00058422
0.00856462
0.0413853
0.0413853
-0.0621547
-0.0621547
0.044617
-0.0123277
-0.0123277
0.0188355
0.0102224
0.0143436
0.0221163
0.130439
0.130439
0.130439
0.130439
0.130439
0.130439
0.00309689
-0.00759648
-0.0125127
-0.00238137
-0.0125127
-0.00376594
0.00143537
0.000376799
0.00132466
0.00121792
-0.00260059
0.000899504
-0.00331698
-0.018985
0.000261417
0.00525215
-0.0144004
-0.0144004
-0.00276392
0.00863283
0.0251312
-0.00129279
0.000251638
-0.00143512
-0.00793575
-0.0189456
0.00434918
-0.00281992
-0.00281992
0.00296332
-0.0112217
-0.00327686
-0.00434371
-0.00169267
-0.0007666
0.00503631
0.00599939
0.0129501
0.0129501
0.00610648
0.0157633
0.00731531
0.000702019
-0.00584211
-0.00547697
0.00133904
0.00683167
0.035335
0.265069
0.265069
0.265069
-0.010815
0.0803575
0.265069
0.265069
0.0302812
-0.0621208
-0.0621208
-0.0621208
0.00142993
-0.0189952
-0.00620622
-0.0145544
-0.0316967
-0.0316967
-0.0316967
-0.000940295
0.00931115
-0.000298203
0.00165681
-0.00382343
-0.000113501
0.000565339
-0.00196783
-0.00226656
-0.00035105
-4.15767e-05
0.00242953
0.00596559
0.00225841
-0.00958033
0.00995174
0.00995174
0.0324233
0.0227841
0.0227841
-0.0035621
0.0446641
0.0446641
-0.00875261
-0.00274625
0.00732407
0.00751631
-0.0434713
-0.00449268
-0.0434713
-0.0434713
0.00834246
-0.00108256
0.00136701
-0.00211537
0.00813203
0.00276141
0.00315176
-0.000370307
-0.00178736
5.90685e-05
0.00429767
0.00911081
0.00930454
0.00930454
0.00930454
-0.00244696
-0.000296582
0.00376804
0.00382605
0.00382605
-0.0316967
-0.0111018
-9.35226e-05
0.00137784
0.00284673
0.00391537
0.0108041
0.025749
0.025749
0.00962356
0.025749
0.00315323
0.00180207
0.00488143
0.0154534
0.025749
0.00455384
0.00838222
-0.00191295
0.000592839
0.000890217
0.00167283
0.00387918
0.00282739
0.0151448
0.0151448
0.0151448
0.0111018
0.00928479
0.00267087
-0.00759219
-0.0434713
-0.0434713
-0.0123343
0.0012231
-0.00284987
-0.00128576
-0.018985
-0.018985
-0.018985
0.0101985
0.265069
0.265069
0.0126273
0.0803575
0.0355754
0.0803575
0.035335
0.035335
0.035335
-0.0111734
-0.0320741
0.00561974
0.00272223
-0.00584117
0.00137564
-0.000844646
-0.00282276
-0.0144077
-0.0144077
0.000619845
-0.000911389
0.000281043
0.00868423
0.0105276
-0.0192488
0.0633216
0.0633216
0.00314809
0.000589501
0.0221102
0.00600342
0.00610807
0.0129501
-0.00372617
-0.0123343
-0.0434713
-0.0434713
-0.00449268
0.0110952
0.00268518
0.00274544
0.0143289
0.00748923
0.044617
0.00635357
0.044617
-0.0320742
-0.00198589
-0.0434729
-0.0434729
0.0188407
-0.0434954
-0.0434954
-0.00443092
-0.00510292
0.0395259
-0.00443419
-0.00975755
-0.00948544
-0.00538418
-0.0118311
-0.00185105
-0.000547765
0.00084063
0.000692608
-0.002889
-0.000508559
0.00263338
-0.00149719
-0.00115393
0.00869563
-0.00253813
0.00254407
-0.00342076
0.0102132
0.0143289
0.00748923
0.044617
0.00328933
-0.000292821
-0.000576983
0.000207188
0.00294551
-0.00364087
0.00481915
0.00475225
-0.00452501
0.000528482
0.00392008
-0.0192592
-0.00328967
0.0324484
-0.00406218
0.0196211
0.0193191
0.0193191
0.0050117
0.0245983
0.0154414
0.00787276
0.265069
-0.00478841
0.00787276
0.0355754
0.00487811
0.00517711
-0.00388772
0.000637698
-0.00184029
0.0243384
9.47191e-05
0.00121705
0.0056266
0.0243591
0.0243591
0.0353297
-0.0190047
-0.00838265
-0.0621866
-0.0173544
-0.0183847
0.265069
0.0803575
0.0107957
0.00174271
-0.00169259
-0.0111021
0.00328518
0.00270089
-0.00461459
-0.00180959
-0.00271759
-0.00290077
-0.00290077
0.000103127
0.0125049
0.00276719
0.000152376
0.000239025
0.0633886
0.0633886
0.0085246
0.000190951
-0.000401217
0.000146636
-0.00248638
-0.000388028
0.00017126
0.00559171
0.0324233
0.0324233
0.00995174
0.0105316
0.0129501
0.0129501
0.01295
0.00611766
0.00602562
0.00232612
-0.0010505
0.0221102
0.130439
0.0115562
-0.00157241
-0.00056426
0.00932399
0.00932399
0.00296571
-0.00466711
-0.00456724
-0.0128566
0.00135187
0.00957499
0.00957499
0.00957593
-0.000161856
-0.000548094
0.0046532
0.0014649
0.00813034
0.0633886
0.0302839
0.0181215
0.0181215
0.00837921
0.0024571
0.000255808
-0.00524775
0.00614605
0.000888889
0.00172469
0.0353299
0.265069
0.265069
0.0803575
0.00326857
0.0246747
0.0108012
0.025749
0.0041898
-0.0128535
-0.00457098
0.00409456
-0.000999752
0.00605409
-0.00443158
-0.0053811
-0.00974943
-0.0316967
-0.0316967
0.0196005
0.0633216
0.0192991
-0.0189461
0.0192992
0.0192991
-0.00320626
0.00561571
0.00804505
-0.0621866
0.00404224
-0.00242467
0.00965313
0.00823249
0.00461245
-0.00974943
-0.0316967
-0.0316967
0.00124366
-0.00330479
-0.00130233
0.00092275
-0.000588425
7.28567e-05
-0.00942698
0.00737297
-0.00453285
-0.00989574
-0.0054938
-0.00246252
0.000579523
-0.00439613
-0.00584521
-0.0105316
0.0010926
0.00590002
0.00131532
0.00137984
0.00810274
0.0193191
0.0196211
0.0803575
0.0803575
-0.0353246
0.265069
0.0803575
0.0355861
0.00375906
0.00296815
-0.00478841
0.0103359
0.0103357
0.00454625
0.0315271
0.00328841
0.00282261
0.00752235
0.00752235
0.00214299
-0.000880263
-0.000498911
0.000544006
0.00088053
0.00300421
0.00265111
0.000499407
-0.00204066
-0.00231349
-0.000858484
-0.00633691
-0.00114322
-0.00234145
-0.00178712
-0.00234145
0.00103227
-0.000436378
-0.000224208
-0.00341281
0.00228795
-2.94598e-05
0.000899652
0.0003631
0.00261657
0.00168215
-0.000225266
0.000489616
0.00997993
0.00420981
0.00379531
-0.0108182
