0.00100904
-0.000229976
-0.00588829
-0.0182136
0.0243384
0.00331278
-0.000823671
-0.00774627
0.0193191
0.00597171
-0.000195863
0.00121705
0.00126449
0.00214312
0.000536649
0.0011313
-0.00475481
-0.000563725
-0.0039339
0.000512696
-0.00081391
0.000578032
0.00440738
0.00285712
0.00184902
-5.91247e-05
0.000846763
-0.00286346
0.0246423
0.0302866
0.0803575
-0.00301727
0.00441575
0.0146158
-0.00443158
-0.00104303
-0.000955558
0.00110429
0.00332346
0.00337141
-0.0151484
-0.00801626
-0.00290086
-0.00074485
-0.000300382
-0.00669577
-0.00366172
0.00284328
-0.000207746
-8.50056e-05
-0.00223368
-0.00389538
0.00063904
0.0157944
0.00600778
0.000810985
-0.00189192
0.00445726
0.000158571
0.000692608
0.00272207
0.00168994
0.00111157
-0.00537948
-0.0621547
-0.0621547
0.00359686
0.00167647
0.000120344
-6.21895e-05
0.000771878
0.00161771
-0.00227693
0.0108013
0.000768464
0.00820662
-0.00138667
0.0084582
0.0084582
-0.0621547
-0.0173456
-0.0353299
0.00114273
0.00589046
0.00561571
0.00561571
0.00317678
0.00346623
0.000506548
0.00136537
-0.00880716
0.00462844
0.00748844
0.00922639
0.00343694
-0.000129322
0.00304684
-0.00162802
0.00382982
0.00151709
0.0302839
0.0242865
-0.035335
0.0103948
0.0242865
-0.0126343
0.00348749
0.0803575
0.265069
0.265069
0.0242865
0.0103821
-0.00124709
0.000448386
-0.00535704
0.0084582
-0.0189952
-0.0189952
-0.0189952
-0.00858011
0.0158753
0.0158753
0.00504389
0.0129501
0.00845938
0.00857007
0.0129501
0.00228741
0.00300801
0.00788276
0.00235862
0.00107706
-0.00537665
0.0013202
0.00162885
0.00162884
0.00265606
-0.00737636
-0.0192488
-0.00179069
-0.000325389
0.0196211
0.0633886
0.0196211
0.000138158
-0.000652643
-0.0014284
0.000463271
-0.000831884
-0.000211533
-0.00928945
0.000680439
0.00109975
0.000414968
0.00173032
-0.000336983
-0.000361077
0.00228561
0.00472442
0.00840434
0.00301037
0.00398911
-0.000569774
0.00023753
-0.00117163
-0.00517473
0.0027405
-0.000205039
-7.44272e-05
-0.000219681
-0.000345746
0.00101346
-0.000359778
0.00049992
0.000398082
-0.000392587
-0.00128394
0.00304369
0.00368962
0.000430702
-0.000782127
-0.00581705
0.000206359
-0.000126647
-0.00203195
-0.00275463
-0.00197802
0.0125049
-0.00241133
0.00129367
0.0102132
0.00207855
0.0115594
-0.000297054
0.000292817
0.00163455
0.000492741
-0.00117432
-0.0117417
0.00216694
-0.00601639
-0.00114758
0.00459851
0.000907242
0.00472503
0.0027822
0.00169495
0.00226433
-0.000605458
-0.0621208
0.00329685
-0.00133431
-0.0152112
0.00868691
0.00407331
-0.000513688
-0.000799192
-0.00376594
-0.00353421
0.00267714
0.00504383
-0.00105294
0.00305861
0.0103948
0.000676915
9.06743e-05
0.00285839
-0.0621526
-0.0621526
-0.0621526
0.00257966
0.00110222
-0.0076053
-0.00507969
-0.00024284
-0.00882063
-0.00260789
0.0149716
0.00245609
0.000346252
-0.000205732
-0.00147916
0.0114597
0.0114597
-0.00042902
-0.000706269
-0.000424891
0.00927132
0.265069
0.0803575
-0.0353297
0.00679707
0.0257475
0.00500231
-0.00033356
-0.00163681
-0.00110365
-0.000589951
0.000191096
-0.0023252
0.0016373
-0.0010412
0.00254143
0.00481959
-0.000551505
-0.00340635
0.265069
-0.0353297
-0.0621547
0.00475225
0.0803575
0.265069
0.265069
0.0803575
0.0803575
0.0105773
0.000150263
0.0039349
-0.0128458
0.0803575
0.00267873
0.00105982
-0.00346434
-0.0009963
0.00650858
0.00286545
0.00911048
-0.00111873
7.14342e-05
0.00765973
0.000751215
-0.000348149
-0.000329109
-0.00317633
0.00402419
0.00402419
0.0112198
-0.00177294
0.00221845
0.00232771
0.000601299
-0.00149315
0.0148434
0.0148434
0.0148434
-0.000265505
0.00588106
0.000231776
-0.00148194
-0.0353299
0.265069
0.00389277
-0.00583533
0.00399298
0.00965294
-0.00247546
-0.0182136
-0.00685883
0.0019042
-0.00101592
0.000892642
0.0006303
-0.00276731
-0.000932539
-0.00145328
0.00559554
0.0061181
0.00753043
-0.000243063
-0.000711953
-0.000956164
0.0114476
0.0114476
0.00197036
0.000120561
-0.000883095
0.000807357
0.00624225
0.0193191
0.0013675
0.00161247
0.0009474
-0.00222442
-0.0189557
-0.00443991
-0.00553673
0.00176209
0.000919965
0.00183545
0.000381234
0.000679211
-0.0621866
-0.0621866
-0.0190047
-0.0190047
0.0395259
-0.00984796
-0.00257152
-0.000466265
0.000337353
-0.000823257
0.00380621
-0.00032061
-0.00244431
0.00370064
0.00101416
0.00041658
-0.00138667
0.0129114
0.0257465
-0.000367428
-0.00193981
-0.000908284
0.0090379
0.0017277
0.0090379
-0.0023158
0.00280603
0.00135516
-0.00936118
-0.000427335
-0.00276686
0.0193191
-0.0112732
-0.000655726
0.00744028
0.0803575
0.265069
0.265069
0.0803575
0.265069
-0.0621866
-0.0621866
0.0353297
0.0803575
0.0803575
0.0242865
0.0302812
0.00922639
0.0109258
-0.00256944
0.000687825
0.00224436
0.000697217
-0.00230103
0.00534716
0.00334514
0.00124869
-0.000177342
0.000132378
-0.000217146
0.00135963
0.000258512
0.000712354
-0.00148538
-0.0027929
-0.000586116
-0.00196068
0.00259131
0.000393023
-0.00383745
-0.000918133
0.00271581
0.00569505
0.00402835
0.00218206
0.00132911
-5.91549e-05
-0.00321841
-0.0183747
-0.00137807
-0.000508924
-0.00429079
0.00104137
-0.000596826
-0.00268518
-0.00198589
-0.00942698
-0.0320742
0.00108573
0.00389837
-0.00169611
0.0027744
-0.00757412
-0.0128489
-0.0621866
-0.0621866
-0.0192592
-0.00177547
0.00411556
-0.00401146
0.00868691
0.000534497
0.0036953
0.00264463
0.00813203
-0.000827417
-0.000624391
0.00129606
0.00965991
0.00965991
-0.00107841
0.00405795
-0.00226629
0.0633886
0.0633886
0.0633886
0.0633886
0.0108045
0.0315269
0.0111018
0.00405452
-0.018985
0.0803575
0.0803575
0.00919838
-0.00148203
-0.00271204
0.00116089
0.00347776
0.00451307
0.000899975
-0.000884831
-0.00443476
-0.0043048
0.00106734
-0.00223162
-0.00583402
-0.00647506
-0.00174222
-0.00174222
-0.00268323
-0.00574609
-0.00290208
-0.00574609
-0.000594704
-0.00478971
0.000640437
0.00240378
0.0112198
0.00402419
0.00589244
0.0193191
0.0803575
0.00683371
0.0251312
0.00863198
0.0087212
0.000737387
0.0288818
0.265069
0.0288818
-0.0621547
-0.0621547
0.0150294
0.0129114
0.0250862
0.0250862
-0.00118104
-0.00274114
-0.00231488
0.00561579
-0.00390609
0.014887
0.014887
-0.00269178
0.00459376
-0.0181612
-0.0621208
0.265069
0.265069
0.265069
0.0803575
0.0803575
0.00336698
-0.0353299
0.0803575
0.0803575
0.265069
0.265069
0.265069
0.265069
0.265069
0.265069
0.265069
0.265069
0.265069
0.00825558
-0.0103804
0.265069
-0.0103976
-0.0173544
-0.0621866
-0.0190047
-0.00127525
-0.00213746
-0.00586017
0.00371075
0.0119214
0.0119214
0.0119214
-0.00422462
-0.00774516
-0.00868423
-0.032046
0.00145877
0.00210107
-0.00273839
0.00965655
-0.00409975
-0.00250298
-0.00787552
0.00449412
0.00288791
-0.000624706
0.000376675
0.00148489
0.000965398
0.00140465
0.00325709
0.00325709
0.00965647
0.0303175
0.00127108
-0.00047667
-0.00406031
-0.0024045
-0.000526248
-0.000471206
0.00488143
0.00111143
0.00668042
0.000565581
-0.00489715
-0.00390939
-0.00204667
0.00105668
-0.00759061
0.00288032
0.00401146
0.00602529
0.00602529
0.00602529
0.00114863
0.0112732
0.0633886
0.0633886
0.0111881
0.0193191
0.0633886
0.0103821
-0.0020729
-0.00585706
-0.00332677
-0.00376399
-0.00376387
-0.00376387
0.000438881
-0.0026791
-0.000132864
0.00183753
0.00265883
-0.00937585
-0.00937585
0.0193192
-0.00334514
-0.0111881
-0.00119471
-0.00270198
-0.00846042
-0.000590552
-0.00143856
-0.00127825
-0.000906561
0.000489406
-0.000517603
-0.00128627
0.00465438
-0.0621866
-0.00354582
0.00683553
0.0288819
0.0105773
5.94202e-05
-0.0015201
0.00503631
0.0413853
0.0413853
0.00503631
0.000875656
0.000573893
-0.000392938
0.00565508
0.0103359
0.00334514
0.0633886
0.0196211
0.0633886
0.0193191
0.0085246
-0.000821969
-0.000122335
-5.53984e-05
-0.000600787
0.000355561
-0.00114247
-0.00343765
-0.00159471
-0.00333949
0.00339399
0.00579658
-0.000501695
9.73386e-05
-0.00256755
0.000958204
-0.000469455
-0.00122696
5.95966e-05
0.000434161
-0.00369973
0.0288819
0.0288819
0.0021465
0.0027577
-0.00254746
-0.00316216
-0.00778943
0.0021679
-0.00114648
-0.0112653
-0.0112653
-0.00361276
-0.000251514
7.3769e-05
2.67967e-05
-0.00647394
0.000691419
0.0103948
0.0353297
-0.00443137
0.018838
0.018838
0.00241284
0.00120576
-0.00196589
0.00257676
-0.00554443
-0.00589577
-0.00087422
-0.0083712
0.0111734
-0.00458085
-0.0621208
0.00381691
0.00381691
0.0057883
-0.00919686
0.00317032
-0.00126814
0.00146109
0.000399188
0.00627141
-0.00627312
0.0125049
0.0125049
0.00096373
0.0102679
-0.00989574
-0.00241262
-0.00241262
-0.00331924
0.000205994
-0.00104477
0.000338861
0.00307072
-0.00530829
-0.00530829
-0.0189557
0.0288818
0.00539738
-0.00221157
-0.00135528
-0.00128504
-0.00128394
-0.000646758
0.00075594
0.000443039
0.000227109
-0.00040835
0.0257475
0.00927959
0.00963543
0.0257475
0.265069
0.265069
0.265069
0.265069
0.265069
0.265069
0.0633216
0.0633216
0.0633216
0.0192992
0.0192992
-0.00243744
0.009208
0.00239535
0.0633886
0.0633886
0.0633886
0.00466076
0.0196211
0.00390286
0.00318546
0.0101999
-0.0103821
-0.00669577
0.0803575
-0.00942678
-0.0320741
-0.00101996
0.00064677
0.00931115
-0.00079287
-0.00132928
-0.00334312
0.0243591
0.002552
0.0192992
0.0803575
0.0803575
0.0353299
-0.000365963
0.00185724
0.000689407
0.0303119
0.0803575
0.265069
0.265069
0.0803575
0.0242864
0.0803575
0.0803575
0.0103821
0.0103181
0.0103915
0.0103181
-0.0353299
-0.0173456
-0.00793461
-0.00601639
0.00177986
-0.00136592
0.000312516
0.0018576
-0.000195018
-0.0320742
-0.00868691
-0.00142838
-0.00739201
-0.00209318
-0.0116065
0.00787321
-0.000337634
0.00251613
7.38987e-05
7.9733e-05
-0.00658432
-0.00243343
-0.00967343
-0.00967343
-0.00283752
-0.00319449
0.000185
-0.0103166
-0.00127325
-0.0192592
0.000647598
0.000849747
0.000638942
-0.000281106
0.00222566
0.00614585
0.00614585
-0.00316967
0.00301525
0.0006928
0.000254318
0.0112989
-0.00470151
0.00167649
0.00282811
0.00912324
0.00083269
-0.00648615
-0.00198452
-0.00648615
-0.00415409
0.00732405
0.000387317
0.00144185
0.00311901
0.000529497
-0.000128799
-0.00490735
-0.000618362
-0.000303931
-0.00382527
-0.000730905
-0.000820576
0.000832206
-0.000506309
-5.54417e-05
-0.000162794
-6.0839e-05
-0.000639161
-0.00188719
0.00128686
0.00735775
-0.00112989
-0.00323647
-0.000426422
0.00812158
0.000891522
0.000659845
-0.0019335
-0.00272742
0.00441788
0.0324484
0.0324484
0.0103359
0.0103359
-0.0316967
-0.0316967
0.00880686
-0.032046
-0.0032322
0.00984223
0.00377872
-0.00586554
-0.00118476
0.000414858
-0.00156179
0.0043539
-0.00584521
-0.00180207
-0.00176984
-0.00156219
-0.00101327
-0.00388243
0.00407241
0.00429767
0.00847526
0.00928487
0.0315269
0.00679214
0.00752458
0.00752458
0.00257522
0.00232492
0.00219327
-0.00194089
-0.00601639
-0.00130083
-0.00129927
-0.000551616
-0.00018342
0.0143436
-0.00319078
-0.00177636
-0.0117909
-0.00316368
0.0024593
-0.00273986
0.0446641
0.0446641
0.0446641
0.0446641
0.00749692
-0.0044283
0.00101061
-0.00104992
-0.00072271
0.000677294
-0.00170403
-0.000880365
-0.00233272
-0.00176458
-0.0025659
-0.0025659
-0.0012441
-0.0190047
-0.00775018
-0.0108182
-0.0192494
-0.00699236
0.00439028
-0.0189557
-0.0189557
-0.00254886
0.000614806
0.00347232
0.000521592
0.00159942
0.00255269
0.0196005
-0.000405668
-0.00069122
0.000228881
-0.00137294
-0.00279403
0.00102624
0.00296718
0.0010481
0.00180174
0.0023687
-0.00102524
-6.04431e-05
0.00273178
0.0105097
-0.00246509
-0.000850761
0.00138714
0.00752901
0.00752901
0.0039484
0.00861388
-0.0145544
0.0113277
-0.0014214
-0.0110946
0.0324491
0.00965294
0.00379634
-0.00565643
0.00296341
-0.000744142
-0.00627561
0.0102224
0.130439
