-0.000682939
-0.00259694
0.00244708
0.00105428
0.00838425
0.00312759
-0.00086809
-0.00314939
0.00804141
-0.00337435
0.00488773
-0.00301928
0.000396373
-0.00162715
-0.000581601
0.000869509
-0.000611593
0.00146435
0.0410972
0.00355083
0.00382443
0.00291385
0.00714065
0.000682906
0.000814757
0.0149267
0.0149229
-0.00230006
0.000504036
0.00213578
0.0159729
0.00240039
0.00917526
0.00225865
0.00553468
-0.00513812
-0.000869234
-0.000803027
0.000642039
0.0012066
-0.0015516
0.0258664
0.00230134
-0.000803012
-0.000803552
0.000563308
-0.000570301
0.00214522
-0.00303249
-0.000337182
0.0138668
0.00449035
0.0181425
0.0149991
0.000611456
0.00485677
-0.00229947
-0.00080258
0.00146387
0.00396517
0.00396612
0.000251691
0.0156207
-0.0121379
0.00607765
0.00413358
-0.00123902
0.000662242
-0.000728897
-0.000989054
0.00466404
0.000611135
-0.000544735
0.00520812
0.00155071
-0.00179362
0.00493894
0.00302133
0.00301901
-0.00419622
0.00291299
0.0220362
-0.00606484
-0.000465801
0.00285533
0.00502024
-0.00239961
0.0066201
0.00255597
0.00356383
-0.00520556
0.000868316
0.0167748
0.0220362
-0.00175905
0.00123902
-0.00123883
0.000611456
0.0101445
-0.0023111
0.00128098
0.0067984
0.0039668
0.00155093
-0.00291137
0.00506326
-0.000465541
-0.00162573
-0.00543102
-0.00230057
0.000943453
0.000520299
-0.00105351
-0.00138374
-0.0016715
-0.00229949
-0.000185401
-0.00793183
0.00804169
0.0035488
-0.00302067
0.00544318
-0.00881071
0.0021736
0.00394481
0.0143844
-0.000803109
0.000988637
-0.00163881
0.000683186
-0.00210728
0.00329516
0.000252247
0.000804363
0.00352313
0.0195894
0.00372238
-0.00210714
-0.000748504
0.000570305
0.00124578
-0.0010546
0.00444395
-0.000683194
-0.000982849
0.00105389
-0.000748358
0.00118125
0.000719616
0.00137678
-0.000943038
0.00215241
-0.00123803
0.00302139
-0.00221807
0.000198052
0.00926561
0.0149256
-0.000504036
0.00342152
0.0105597
0.00433907
0.000931636
0.00589932
0.00583929
-0.00133941
0.00086963
-0.00118145
-0.00139274
0.0037025
-0.00239861
0.00449078
-0.00221742
0.00146454
-0.00138378
-0.00215487
-0.00215221
0.00105479
-0.00221757
-0.00396592
0.00428579
0.00607487
0.0109526
0.0086551
-0.000802388
-0.000802749
-0.00089721
0.000616394
0.00664284
-0.00606721
0.0228623
0.0268321
0.00468399
0.000683003
0.00607123
-0.000802836
-0.00049618
0.000748518
0.000982263
-0.00382325
-0.00421258
0.00302333
0.00972984
0.0193253
-0.001464
0.00105491
-0.000570112
-0.000803477
0.000683645
0.00570282
0.0220365
0.00121869
0.00108352
-0.00105357
-0.00069193
-0.00089668
-0.0012987
0.00804088
0.00229987
0.00372035
-0.00335358
0.00105494
-0.00276775
0.000802393
0.00216596
0.00122379
-0.00138358
-0.00326939
0.00635587
0.00260914
-0.000802732
-0.00291074
0.000719479
-0.000899377
0.00113964
-0.00175888
-0.00273038
-0.000495235
0.00382318
0.00180587
0.00963598
-0.00413208
-0.000428714
0.00219518
0.000748025
0.00221747
0.0121626
-0.00501736
-0.00697402
0.0268068
0.0220261
-0.00434002
-0.00843537
0.0220234
-0.000868979
0.000611543
0.00444792
0.00396782
0.0165767
0.00973442
-0.00155237
0.00098282
-0.00246247
0.000661808
-0.0024773
0.00449473
0.0055416
0.00369938
0.0203101
0.00162695
-0.000520313
0.0188837
-0.00520739
-0.00164023
0.0174109
0.00793372
0.00205885
-0.00066155
0.000868579
0.0174082
0.00312971
0.00176064
0.00290159
0.00268357
0.00837676
0.000611005
-0.00104037
-0.000778175
-0.00880617
0.00440793
0.00834247
-0.00116192
0.0193225
-0.00371866
-0.00462543
0.0188813
0.00239807
0.0104102
-0.00100571
-0.00098936
0.00517498
0.00304209
0.000465391
0.00221803
0.00257099
0.0143889
0.0188866
-0.00175955
0.00502007
0.00502318
0.000988382
-0.00138456
-0.00155183
-0.00231076
-0.00273054
0.00382194
-0.00434031
0.00366239
-0.00723036
0.0039668
0.0165684
0.0143838
0.0132513
0.00230091
0.0228549
0.0038133
0.00146511
-0.00123807
-0.00650788
0.0154668
0.014384
-0.00138463
0.00127331
-0.00123893
0.000897511
0.000802825
0.000802921
-0.000611318
-0.00182766
-0.00123813
0.00290628
-0.00153024
0.00502135
0.010954
-0.00167262
-0.00105362
0.00142023
-0.00213522
0.0220389
-0.0014972
-0.00462734
-0.00208414
-0.00089707
0.00116187
0.000868176
-0.00100507
-0.00179333
0.00110169
0.00134045
-0.00396648
0.00431333
-0.00570088
0.000305779
-0.00302117
0.00466294
0.00182612
0.0011151
-0.00161562
-0.00509434
0.0126232
0.0174015
0.0143816
0.000875612
-0.000803099
0.00200406
0.00521032
0.0167859
0.00834458
-0.00172341
-0.00127375
0.00291406
-0.00124685
-0.00335387
0.014917
0.00138366
-0.000873501
0.00230925
-0.00162545
-0.00697253
0.00869021
0.0266574
-0.0053102
-0.00230872
0.00206624
0.00444501
-0.000943411
-0.000396382
-0.00440441
0.00372129
0.00335583
-0.00335246
0.0312704
-0.00877506
-0.00284359
0.00168828
0.00168958
0.00612614
-0.00182787
0.000802708
-0.00160712
0.000868946
0.0114156
-0.00462565
-0.00276746
0.00569364
0.000884189
-0.00155242
0.000684034
0.000376778
0.000868195
0.000429169
-0.00543057
0.00506191
0.00834318
0.00764751
-0.00544157
0.00466157
0.00149727
-0.000520091
-0.001299
-0.00105384
0.000719006
0.00105424
-0.000545453
-0.000718844
0.00865442
0.00929097
0.0149923
0.0187235
0.00247794
-0.000377971
-0.00382339
0.000520809
0.00470997
0.0266699
-0.00167194
0.00251019
0.00291171
0.00838266
-0.00221785
-0.0029116
-0.00146436
-0.00138309
0.00105367
0.0127782
0.00973338
-0.0029671
0.00302338
-0.000682835
0.0046263
-0.000868602
-0.00382253
0.00097031
-0.000943867
-0.0027631
0.00503988
-0.00396482
-0.0016725
0.012784
0.016572
0.0138712
-0.00335461
-0.00324134
0.00290167
0.000868129
-0.000982843
0.00118155
0.00396657
0.000546788
0.000611328
0.00834161
-0.00182656
-0.00642169
0.00301824
0.0127742
0.00440601
0.000611882
0.00326947
-0.00438968
-0.00413166
-0.00120674
-0.000641232
0.00427555
0.00325526
0.000802912
0.00286545
0.002913
0.00146375
-0.00206096
0.00155833
0.00162667
-0.00291135
0.0067954
0.0174071
0.0138685
-0.00520713
-0.00377355
0.00449523
0.00393731
0.0127802
0.00310278
0.000989058
0.00837804
0.0028353
-0.00335367
-0.000869475
0.00105409
0.0086887
0.0165658
0.00937567
0.00462701
0.000802925
0.00358593
0.00291132
0.000465681
-0.00064106
0.00470789
0.00134093
0.0029133
-0.000442943
0.00381566
-0.000982807
-0.00369656
0.0017522
-0.000869038
0.002004
0.000867935
-0.000611306
-0.00382171
0.00139211
0.000442732
-0.00338875
0.000611933
0.0266699
-0.00247743
0.00116242
-0.000983115
-0.000988136
-0.0012225
0.00335539
0.00145673
0.00105385
-0.000661508
-0.00213527
-0.00466382
-0.00152519
0.000661144
0.00110205
-0.00152593
-0.00210937
0.0220389
-0.00439254
0.00105483
0.0109556
-0.00501865
-0.00352405
-0.00793046
0.000497452
-0.00146441
0.0028345
-0.00302012
0.00291296
0.00162674
0.0109534
-0.00141951
0.00589733
-0.00219493
0.000748587
0.00215298
-0.00219625
0.00139229
-0.00359016
0.00936538
0.000305519
-0.0035247
0.00210828
-0.00071833
0.00188743
0.0114208
0.0203037
0.0147192
0.00281642
0.00611859
-0.000803126
0.000802783
0.00218676
0.00369821
-0.00363374
-0.00105446
0.00175961
-0.00200232
0.000661701
0.00462599
0.00192432
0.0266699
0.00607806
0.0268318
0.0143917
0.000802734
0.00129936
0.00110932
-0.00105377
0.00276664
0.00239907
-0.000442603
0.00105493
-0.000752864
-0.000683032
-0.00185755
0.00226143
0.000869076
-0.000867575
0.00462674
0.000143424
-0.00583718
-0.00173759
-0.000885684
-0.00071833
-0.000718619
0.0196848
0.00192357
-0.00105388
0.000683362
0.00206627
0.00124647
-0.00248076
0.000662672
0.00203537
0.000611397
0.00149665
0.0143895
0.0188954
-0.00501892
-0.00081475
0.0022186
0.00314932
0.00372145
0.000611642
0.000802902
-0.00192302
-0.00105412
0.00229967
0.00834394
-0.000651919
0.00080293
-0.00105378
-0.000674265
0.00139245
-0.00230972
-0.00697244
-0.00134044
-0.000943597
-0.00162692
0.00449471
-0.00302057
0.000807535
0.00299877
-0.0072356
-0.00162671
0.00142079
0.000867934
0.0193282
0.0101337
0.00192309
-0.00145678
0.000661377
0.00059217
-0.000988248
-0.00396397
-0.00302028
0.00155344
0.00382217
0.00176053
-0.00105454
0.000802993
-0.000896767
-0.000803109
0.00335505
-0.000669274
-0.000897329
0.00302024
0.000982771
0.00160556
0.000752959
-0.000897663
0.00342369
0.012169
-0.0056977
0.00152567
-0.00257029
-0.00880827
-0.00335412
-0.00371859
0.00314944
0.0113621
0.00612013
0.00937771
0.00169013
0.000868227
-0.000471269
0.000900144
0.00210707
0.0100437
-0.00462517
0.00138405
-0.00072993
-0.00369536
0.00382371
0.00108576
0.00270367
0.00239378
0.00937103
-0.00396596
0.00713271
0.00679906
0.00488454
0.000719014
-0.00129807
0.001054
-0.00302003
0.0188933
0.00462932
-0.00056256
0.0023104
0.00138384
0.00118158
0.00569651
0.00271578
-0.00175149
0.00105448
0.00356244
0.000814329
0.00175163
0.0030189
0.0167748
0.0202942
0.00551141
-0.00396614
0.00834659
0.000320735
-0.00129839
0.00764606
0.0060738
0.00150963
-0.00384697
-0.00793246
0.0083433
0.0018496
0.000802393
0.00207036
-0.00255315
-0.00247733
0.00175822
-0.000233104
0.00551056
-0.00273225
0.00256932
-0.00123823
0.00382425
-0.00583629
0.00713592
0.00118124
-0.000198236
-0.00145688
-0.000896583
0.00231097
-0.00139339
-0.00105375
0.00105415
-0.000982674
0.00270237
-0.00138453
0.00433928
0.00396447
0.0138659
-0.00569775
0.000311002
0.000988574
-0.00382133
0.000661654
0.00296608
0.000982614
0.00221674
0.000661664
-0.00226146
0.00123918
-0.00179405
-0.00419471
0.00105535
0.0164988
0.0054378
0.00210999
-0.00146486
0.00881072
0.0132547
0.012169
0.0038243
0.00150926
-0.00697183
-0.000569821
0.00382425
-0.00440538
-0.00382349
-0.00371912
0.00214589
-0.00305049
-0.000885462
0.00462686
0.00143732
0.00382249
0.0044918
-0.00239757
-0.00216651
0.000989034
0.000988329
0.00290587
0.0023991
0.00168927
-0.000442862
-0.00221788
-0.00396501
0.000616457
0.000982322
0.000545782
0.00087967
-0.00180542
-0.00372001
-0.00372094
-0.00123907
0.00159931
-0.00215416
-0.000803041
0.000698528
0.0109548
0.0037215
-0.00276687
0.0121513
-0.00740055
0.00302187
0.00551085
0.000982325
0.000611419
0.0352173
0.000983556
-0.000803099
0.000973886
-0.000802559
-0.00396525
0.00138497
0.000682812
0.00542753
0.00382194
0.001509
-0.00281593
0.0220258
0.00471012
0.00414369
0.00105411
-0.00196521
0.0167781
0.000896769
-0.000767648
0.0025541
-0.00382337
-0.00247716
-0.0121413
0.00303309
0.00121723
-0.00273122
-0.00562866
0.00421286
0.00393679
-0.00607098
0.00210766
0.00461737
0.000879527
0.00105348
0.000485017
-0.000682817
-0.00216783
-0.000868239
-0.00175882
-0.0010545
0.00214434
0.00301887
-0.000897051
0.00118202
0.000401376
0.000545188
-0.000364858
0.000495886
0.00127338
-0.000778779
-0.00493858
-0.000683139
0.00146457
-0.00210899
-0.00246802
0.000802329
-0.00843435
-0.00488256
0.000610942
0.0196981
-0.0187255
0.00937544
0.000352084
0.033953
0.0109545
0.00834171
0.00270431
0.00145624
-0.000682971
0.00129962
-0.000752687
-0.00061165
-0.000556703
0.00302218
-0.00195669
0.00804294
0.00188726
0.00382449
-0.00151046
-0.00438964
0.00160484
0.00936038
0.000611814
-0.00396541
0.00335632
0.00240032
-0.00396677
0.000305982
0.000306189
0.000802825
-0.00168955
0.00180009
0.00239757
0.0167717
-0.000661776
-0.000803178
-0.000683124
0.00116277
0.0258476
0.00607822
0.00723431
0.0228548
0.00973152
0.0195919
-0.00301931
-0.00878424
0.000814705
0.00221838
0.00302051
0.00105482
-0.0018865
-0.000802984
-0.0010535
0.00337507
-0.00243932
0.000682942
0.000504054
0.0121571
0.00382272
0.00164141
0.00273116
0.00352402
0.00105379
0.000989954
0.00462689
0.000868593
-0.00188733
0.0018261
-0.00129875
0.00230953
0.00168878
0.00520986
-0.00256973
0.0013834
0.000989557
0.000802559
0.000640675
-0.00244563
0.000611614
-0.00155254
0.00449248
0.000661997
0.001182
0.00381508
-0.00569511
0.000802644
-0.000752712
0.00221808
0.0220285
0.00338902
-0.00246859
0.000943437
-0.00159931
0.000867892
-0.00142321
0.000802955
-0.00229979
-0.00221663
0.00186487
0.00543833
0.00155829
0.00247848
0.000803423
0.00502175
0.00386765
0.00127342
-0.00369736
0.0138668
0.0138679
0.0167748
-0.00124013
0.00569779
-0.00162678
0.000494998
0.00230948
0.0029124
0.00221863
-0.00182752
-0.000896765
0.00206939
0.00276863
-0.00123896
0.000897032
0.00406851
0.00081416
-0.000611635
-0.000377497
-0.00155139
0.00198439
0.00189684
0.00247692
0.0187198
0.0148423
0.0156166
0.00358744
0.00735191
-0.00104065
-0.000428707
0.00961259
0.00382341
0.00396362
0.00218338
-0.00123792
0.00167135
-0.00123862
0.00105411
0.0023101
-0.00089654
-0.00213478
0.000396096
0.000804304
-0.000867841
0.00064129
0.00160477
0.00210779
0.0228516
-0.00396466
0.00396706
-0.00419457
0.0220261
-0.00764568
0.000802825
0.00290288
-0.00138504
-0.00291221
0.0022174
0.00443575
-0.0013399
-0.00189522
0.00302397
0.000662312
0.000337144
0.000545133
-0.00120731
0.0113666
-0.00553837
0.000484738
-0.000661148
0.00352158
-0.00216627
-0.000868736
0.00105404
0.00192191
-0.00941815
0.000563496
-0.00291136
0.00039596
-0.00382295
0.0079665
0.0147238
-0.000803157
-0.00138459
-0.000983593
-0.00138479
-0.00124566
0.00162672
0.000465763
-0.000803099
-0.00110249
0.00462876
-0.000943165
-0.000983142
0.0010544
0.00502
0.00229984
0.00461756
0.0030226
-0.00466204
-0.00352196
0.000942832
-0.000610967
-0.00426988
0.00834341
0.0149212
0.0195844
-0.000802613
-0.00427125
-0.00162573
-0.000869129
0.00210837
0.00173674
0.0149155
0.00188669
0.000879323
-0.00462517
-0.0032664
0.00462676
0.000802825
0.00129782
0.00138954
-0.000520223
0.00462822
-0.00175206
0.00302132
0.00221674
-0.00129833
0.000661962
-0.000765859
0.022847
0.0165685
0.0143873
0.000683386
-0.00462734
0.017408
0.0143876
-0.00229978
-0.00291127
-0.00642291
0.00259
-0.00173879
0.000232615
0.00151143
-0.00396272
0.0143838
-0.000364772
-0.00129886
0.0228624
0.0127802
0.0149256
-0.00356318
0.00105409
0.00926369
-0.00440557
-0.00037659
-0.00440333
-0.00335477
-0.0021359
-0.00080308
-0.00138369
0.00123919
-0.00138378
0.000719711
0.00741309
0.00121791
0.00180423
-0.00189479
0.00501851
0.00964687
0.00137731
0.0015785
-0.000802552
-0.000896285
0.00335378
0.00868397
0.00413097
0.00413442
0.00793538
0.0109551
0.00504061
0.0121985
-0.0017945
0.0167859
0.00167238
-0.000683395
0.000558025
0.0026711
-0.00607496
0.000683539
-0.00193504
-0.00221791
0.00270373
0.000989061
-0.000802639
0.00179362
-0.000683354
-0.000285274
-0.000520427
-0.00303152
0.00162678
-0.00396522
0.00151672
-0.00123767
0.00301981
0.00352759
0.00612332
-0.00218716
-0.00270343
0.00382451
-0.00299672
0.0107018
0.00358509
0.0025547
0.000612184
0.00036001
-0.00712887
0.0167859
0.00961109
0.00292958
0.00291231
-0.000683321
0.000718627
-0.00145499
-0.0027631
-0.00607558
0.00068293
0.00583934
-0.0034227
0.00338749
0.000365159
0.00501922
-0.0100406
-0.00462511
0.000682552
-0.00271169
0.0071289
0.0173989
-0.00230006
-0.00192231
0.00335579
0.00291069
0.000748176
0.00167258
-0.00118193
0.000498025
0.00926634
-0.00291064
-0.00115549
0.00110922
0.000974148
0.00371979
0.00834352
-0.00155189
-0.002912
0.00180413
0.016778
-0.00105453
0.00074845
0.0055119
0.0220362
-0.00396262
0.000802885
0.000674129
0.000611124
0.000232631
0.00277154
-0.00146451
-0.000305477
0.000573718
0.00066204
0.000569711
-0.000878327
0.00291294
0.00315269
-0.00310519
-0.00381353
-0.00259705
-0.00352326
-0.0039669
-0.000471444
-0.00396373
-0.00105351
-0.00210765
0.000776708
-0.00271138
0.00335336
0.000407517
-0.00520777
0.0010538
-0.00105383
0.00369807
0.00543788
-0.000661144
0.0012977
0.00195962
-0.00301909
0.00550699
-0.00302085
-0.00607603
0.0258615
0.000803328
-0.000662003
0.00110917
0.00213774
-0.00550906
0.00276863
0.00230043
0.00925126
0.0195919
-0.00142329
-0.00137815
0.00123833
-0.00129747
-0.000669525
0.00462898
-0.00384387
0.00138577
0.00162571
-0.000682768
-0.000442751
0.00240056
-0.0029122
-0.000484738
-0.00077684
-0.00462543
0.0024779
-0.00259745
0.00271303
0.000988403
-0.00444696
-0.00185725
0.000803192
-0.00502079
0.00256996
-0.000868296
-0.00256909
-0.00607393
-0.000661338
-0.00230888
0.00466364
0.00834236
0.000868389
0.000661885
0.00369656
0.00358764
-0.00260683
-0.000803109
0.00604371
0.00066138
0.000321353
0.000753389
0.00937448
0.00369753
0.00108301
0.0149203
0.0173973
-0.00151012
0.00139243
0.000661249
0.0297935
0.0352353
-0.00607406
-0.00166556
-0.00582351
0.0149231
0.0149204
0.00369989
0.00396607
0.00661826
0.000520445
-0.00629047
0.0105594
-0.00248771
-0.00112591
-0.000753442
-0.00217408
0.012622
0.00502376
0.000897511
0.00138417
-0.00150849
-0.0013854
0.000802919
0.000899715
-0.00221769
-0.00089729
-0.00488337
0.00301997
-0.000988138
-0.00127298
-0.00444593
0.00611881
0.00865302
-0.000570017
0.000611124
0.00080277
-0.0029099
0.0149934
0.0109559
0.00449002
0.00228275
0.00291097
0.00382361
-0.0039669
-0.00462729
0.0109543
0.00462387
0.000284536
-0.000396155
-0.000802999
-0.00230031
0.00196551
0.00160561
-0.001042
-0.000921551
-0.000557561
0.000616407
0.0104178
0.0058261
-0.00607587
0.00138427
0.00462633
0.00865347
-0.000683339
0.000748347
0.00104013
0.00160692
-0.00603971
0.0193282
0.00382397
0.00210128
0.00764444
0.00712924
-0.00155288
-0.00382277
-0.00129892
-0.00305102
0.00106051
0.00325288
-0.00108336
0.000611493
0.00506056
0.00587913
-0.00162673
0.00123887
-0.00796237
0.00192281
0.000869088
0.00804546
-0.00302061
0.000570428
-0.0016716
-0.00108362
0.000943988
0.00926369
0.0038568
0.00163927
-0.00136537
-0.00276878
-0.00206849
0.00543839
-0.00138365
0.0114123
0.00466338
0.0087881
-0.00394555
-0.00440382
-0.00160601
-0.000989137
0.00129894
0.0012978
-0.00192221
0.00804393
-0.00611772
0.00248765
-0.00550994
0.00143745
-0.00206751
0.000396303
0.000802768
0.00162776
-0.00396432
0.000520342
-0.00605985
0.0050196
-0.00544182
-0.00462713
0.00203641
-0.000766198
-0.00157422
-0.00162707
-0.00118182
-0.0035864
-0.00396503
-0.00134001
-0.000869188
0.00188791
0.00382389
0.00396444
0.00257071
-0.00542434
0.00128817
0.010135
-0.00963203
-0.00291115
0.00328372
0.0077229
-0.00793128
0.00372161
-0.000880119
-0.00569867
0.00679675
-0.00382249
0.0021084
0.012618
0.0048819
0.00382206
0.00260783
-0.00136614
0.00136446
-0.00193446
-0.000885175
0.00230142
-0.000815549
-0.00587043
0.000988965
0.000983236
0.0165741
0.00590056
0.018879
-0.00470775
-0.000802489
-0.00461945
-0.00553646
0.0297935
0.000519869
0.00713314
0.00935901
0.0149256
0.0188886
0.0188866
0.0297819
0.00837594
0.00937421
-0.00302035
-0.00314909
0.0041343
0.00130019
0.00327092
0.000719054
0.00589957
0.00192162
0.00210613
0.000520255
-0.00155219
0.00291101
0.00314807
0.00246157
0.000364693
0.000718785
-0.00231127
0.016778
-0.00142287
0.00587784
-0.00369938
0.00168892
0.000867637
0.0132575
0.00462018
0.00123856
0.00551153
-0.00162735
0.0149198
0.00302435
-0.00520495
0.00270213
0.00143661
0.0039653
0.00145045
0.00200346
0.00133962
0.00607765
0.0143821
0.0121926
0.00369652
0.00152511
-0.00221725
0.000661571
-0.00138433
-0.00382367
-0.00301954
0.00105411
0.0014219
-0.00167194
-0.000803061
-0.000802334
-0.000503485
0.00518042
0.0067979
-0.00105376
-0.00462539
0.0228435
0.00028475
0.000868554
0.00050353
0.00437379
0.0014369
0.0058218
-0.00129841
0.00190249
0.0266574
0.0101392
0.000802355
-0.00382334
0.00137829
0.00354987
0.014384
0.00638095
0.00612279
-0.000988472
-0.00162597
-0.00129811
0.00369999
0.0144524
-0.00393731
0.00105414
0.000442465
0.0167763
-0.0061189
-0.000581295
-0.000815067
-0.00247597
0.00213515
-0.00155198
0.00869106
0.00880673
-0.00301993
0.0220234
0.002217
0.00382225
-0.000503825
-0.00168287
-0.000868056
0.0149197
0.000753181
0.000897333
0.00257125
0.0027673
0.00025242
-0.00218663
0.00291474
-0.000503619
0.00231029
0.0114054
0.0266574
0.00382177
0.0203005
0.00396705
-0.00586874
0.00120565
-0.00129938
0.00369953
0.00352488
0.00325326
0.00173806
-0.00723615
0.00382423
-0.00382456
-0.00520622
-0.00221693
0.00230933
-0.000286921
0.00105389
0.00681114
-0.00105386
0.00302143
0.00285311
0.00127371
0.000943929
0.00134102
0.00382254
0.00462822
0.00838266
0.0143855
-0.00462676
-0.000682557
-0.00382258
-0.00325448
0.00115415
-0.00553646
0.00393698
0.00462403
0.0030204
0.00291044
0.00937103
0.00396692
-0.00221726
0.00444511
-0.00413056
0.001163
-0.0021092
0.00138412
0.00105444
-0.00123951
0.00342599
0.00302158
0.000563724
0.00521186
-0.00221791
-0.000753388
-0.00137729
0.00926369
0.00906174
-0.00382342
0.00315134
-0.00155807
-0.000520349
-0.00171989
0.0113616
0.0228516
0.0109553
-0.00138462
0.00291313
-0.000519994
0.00259729
-0.00462571
0.000683048
-0.00195668
-0.00380875
0.0228441
0.00218387
0.00396622
0.0188813
0.000612583
-0.00162721
0.00206714
0.00352515
-0.00230053
0.00123904
0.000682141
0.00713001
-0.00514073
0.00211004
-0.00149092
-0.00628856
0.000943945
-0.00071821
-0.00110149
-0.0011823
-0.00276829
-0.00123905
0.000305311
-0.00182384
0.001115
0.000748786
0.00661674
0.0101337
-0.00793077
-0.00129844
-0.00213535
0.00352551
0.0040437
-0.000582145
0.00249
-0.00291132
-0.00239834
-0.0034065
-0.00230956
0.0127733
-0.00105449
-0.00124672
-0.000868359
-0.00105394
-0.00160611
-0.000875072
-0.000674053
0.0113644
-0.00513996
0.00301967
-0.00120593
-0.00141894
-0.00155841
0.000504063
0.00230967
0.0126175
0.00123982
-0.000752688
0.00105488
-0.00793255
-0.00239861
0.00168878
0.00396849
-0.00462489
0.000802476
-0.000611295
0.000868548
-0.000465545
0.00434219
-0.000581508
0.00607409
0.00145518
0.00774397
0.0172739
-0.00175991
-0.00205969
-0.00230267
-0.000802874
0.000504386
-0.00118143
0.011362
-0.00221767
-0.00461952
0.014383
-0.000661654
0.00167194
-0.000802838
0.00607794
-0.00192347
-0.000401888
-0.00462627
-0.00324119
0.00396574
-0.00276572
0.0204287
0.00175116
0.00149066
-0.0014908
0.00563061
-0.00203534
-0.00054557
0.000988384
-0.0032404
-0.00192239
-0.000876574
-0.00629051
-0.000802652
0.00303389
-0.00127387
0.000802639
0.00162701
-0.00381262
-0.000885794
-0.00200229
-0.00116272
-0.000897333
0.0105619
0.0167859
-0.00396614
0.0010539
-0.000815328
0.00115447
0.0109562
-0.0030204
-0.00462495
0.00105407
0.00335563
0.010955
-0.000949317
0.00301967
0.0025701
-0.00880602
0.00342057
0.0143821
-0.00299595
-0.00607125
-0.00105382
-0.00230024
0.0174015
0.00714215
0.0109576
0.00926561
0.00714483
0.000467663
0.00116225
0.0022184
-0.00257031
0.00109154
0.0021743
-0.000611239
-0.00413097
-0.00185014
0.010563
0.0113644
0.00291307
0.00129832
0.00340825
-0.00138472
-0.0014495
0.000803382
-0.00105457
0.00249027
-0.00877713
0.00963598
-0.00108041
-0.00080304
0.00302172
0.0022187
0.00382542
-0.0014638
0.000897446
0.00123798
-0.00326364
0.000949778
-0.00369703
0.00714132
-0.000581152
0.000611822
-0.00168408
-0.00246951
-0.00550894
-0.000683186
0.00188679
0.005697
-0.000943879
-0.00213667
-0.00296608
0.00393449
0.0339391
0.00485967
-0.00228367
-0.00105393
-0.00239861
0.000396061
-0.000868371
0.00404311
-0.000753464
-0.00213542
-0.00077702
-0.00179446
-0.0010536
0.0079652
-0.000748465
-0.00124586
0.0027681
0.00248798
-0.00111499
0.00133947
0.0149267
0.00449099
-0.000611328
-0.000719386
-0.000661631
-0.000802169
-0.00106046
0.00112601
0.000563166
-0.000944478
0.00260778
0.00105445
0.0114149
-0.00231027
-0.00179501
-0.00123756
-0.00105412
0.0109535
-0.00520514
0.000683139
0.00302288
-0.00697415
0.00462701
-0.00129936
-0.000611264
0.0100387
-0.00058106
-0.000545027
0.000802863
-0.00110921
-0.00501947
0.00926643
-0.000766207
0.0117545
0.014384
0.000931636
-0.000749137
-0.00337551
0.00320763
-0.000753375
-0.0010545
-0.00105447
0.00221853
-0.00138502
0.0132596
-0.000520458
0.00128604
-0.000682863
0.00396733
-0.0032428
0.000520147
0.00138419
0.00205905
0.00462876
0.00068293
-0.0010539
0.00466134
-0.00146467
-0.000802301
0.000948982
0.00180283
-0.000611311
0.0258476
0.00488507
-0.00382366
0.00217365
0.000869452
0.00358809
-0.00175206
-0.00935529
0.000520274
-0.00650708
0.000396489
-0.00243921
0.0109583
0.00501875
0.003827
0.0138668
0.0143868
-0.000611212
0.00106215
-0.000948727
0.00160451
-0.000443997
-0.00440354
0.00724017
0.000840954
0.00419862
-0.0104145
0.00301915
0.00291088
-0.00302035
-0.00149036
-0.0046597
0.00302097
-0.000698779
-0.00189549
0.01262
0.00793538
0.00396596
0.0066174
0.000802839
-0.00082606
-0.000610917
-0.000869035
0.00291328
0.000428761
0.00382514
0.00462844
-0.00570845
-0.00335392
-0.00129835
0.00218713
0.00351748
-0.00793391
0.00302125
0.00151244
-0.00352416
-0.00713019
0.00105354
0.00396975
0.000466053
-0.00196583
0.0132596
0.0127802
-0.00105456
-0.00248838
0.0024613
0.000944308
0.00254825
0.00255537
-0.0013411
0.00905932
0.00352285
-0.00607587
0.00587348
-0.000305974
0.00213473
-0.00173714
-0.00291221
0.000748365
0.00520705
0.0031533
-0.00216622
-0.00210825
0.000982828
0.00123948
-0.00162658
-0.00037649
0.00301997
-0.0014566
0.00129939
-0.0013854
-0.00210889
-0.00213661
0.00276877
-0.00369717
0.00396765
0.00396533
-0.00271521
-0.00587409
0.0023104
0.00169068
-0.0055066
0.000497495
0.00188791
0.00162695
-0.0060647
-0.000519852
-0.00291106
-0.00068745
-0.00462517
0.000450092
0.00382456
0.00325634
0.00834396
0.00382472
0.00338787
-0.0071301
0.00138583
0.00826246
-0.00462698
-0.00129851
-0.00115067
0.00465792
0.0109518
0.00972968
0.0204184
0.00123915
0.000868162
0.000802863
0.00335575
-0.00179432
0.000365039
0.00192188
-0.00449354
-0.00105389
0.000753544
0.00216822
-0.00493811
0.00396765
0.00838346
0.00333326
0.00386765
-0.00075368
0.00116211
0.0174082
0.0127802
-0.00123926
0.00611949
0.0149242
0.00834264
-0.00382339
-0.00130618
-0.00569613
0.00543577
-0.000545286
-0.000582058
0.0149198
0.00105487
0.0039699
-0.00607317
-0.00291132
-0.000803626
0.00303389
-0.00396499
0.000942388
0.00180383
-0.0104132
0.0127742
0.00221666
0.00335559
-0.00155827
-0.00104024
0.003965
0.00296613
-0.00793245
0.00206652
0.0030211
0.00291024
-0.00461771
-0.000286701
-0.00231138
-0.00303465
-0.0014649
-0.00229996
-0.00248785
-0.0031048
0.00270158
0.000496319
-0.00123887
-0.000661628
0.00162767
0.00105414
0.00146488
-0.000949222
0.00167105
0.00123775
0.00221675
-0.00796139
0.000988814
0.000718937
-0.000803002
-0.00582094
0.0127742
0.0143875
0.00396828
-0.00462489
0.0127768
0.00162657
-0.00393449
-0.000637007
0.00173698
0.0023012
0.00094321
-0.00213661
-0.00382267
-0.000503945
0.00210851
0.00219563
-0.000988238
0.00221771
-0.000311873
-0.00105432
0.000520029
-0.00105395
0.00138929
0.013257
-0.00697329
0.00520929
-0.000830126
0.00302201
0.000376951
0.00188739
0.0012977
-0.00105415
0.000752923
0.00611693
-0.00381156
-0.000640633
0.00382519
0.00239916
0.0039642
-0.000683048
0.00396634
-0.000376725
0.00326623
0.0132586
0.00352342
-0.00246951
0.00462647
-0.00118228
-0.00121878
0.003565
0.000982079
0.00679576
-0.00398796
-0.0023006
-0.000718698
-0.000611598
-0.00369877
0.00462822
0.00106043
0.00089699
0.000442631
0.0104179
0.00191201
-0.000504165
-0.00105447
0.00302147
0.010952
-0.00963177
-0.00120677
-0.00326334
-0.00256907
0.00542926
0.000748034
-0.00123802
0.0159711
-0.00129889
-0.000921917
0.00291069
-0.00188686
-0.00123823
0.00337471
-0.00531121
-0.00256989
0.00123919
0.000233263
0.00865701
-0.00248794
0.000943296
-0.00138315
-0.000802732
0.000868453
-0.00542767
0.00342236
-0.00290309
0.00215344
-0.00326584
0.00260447
-0.000802412
0.026815
-0.00276763
-0.000814906
-0.00203437
0.00210964
0.0165717
-0.00386918
0.0018873
0.00612162
-0.00196589
0.00937248
0.00382449
0.00302205
0.00396574
-0.00502022
0.0100976
0.0109551
0.0149193
0.00382467
-0.002912
0.00302014
0.00326852
0.0149242
0.0113614
0.0149134
0.00868575
0.000583392
0.00127266
0.000395955
0.0012388
0.000520947
0.0121496
0.00230003
0.00352313
-0.00123805
-0.00358599
-0.0039642
0.00396739
0.00137847
0.000305872
-0.00192277
-0.00146398
0.00396633
-0.00195659
-0.00352273
-0.00230765
0.0127744
-0.000868306
0.00179454
-0.000562601
-0.00149739
0.00172102
0.000581086
0.0109528
-0.0019039
0.0109527
0.00231029
-0.00180419
-0.00283353
-0.00302036
-0.0100379
0.000874188
-0.00664132
-0.0012384
0.000504492
0.00868928
0.000807912
-0.00162605
-0.000982995
-0.000982902
0.000988551
-0.000802338
0.00123801
-0.000520405
0.000868685
-0.00167259
0.00192279
-0.000803467
0.0167796
0.000352117
-0.00216735
-0.00146512
-0.00192342
-0.00302103
-0.000168618
0.000868434
0.00393679
-0.00301968
-0.000611501
0.00159931
0.000471658
-0.0016266
-0.00384443
0.0159795
0.00124018
0.000943523
0.00396611
0.00449237
0.00120635
-0.00182364
0.00105334
0.00219474
0.000144127
-0.000815328
0.00936082
-0.00123811
0.0029697
-0.00606559
-0.00129963
0.0138668
0.0110035
-0.00301982
0.00342064
-0.00302031
0.00834363
-0.0104133
0.00520801
0.000670149
0.00138977
-0.000803061
-0.00130351
-0.00108027
0.00734995
0.0021071
-0.000611573
-0.00192247
0.00144941
-0.000803228
0.00256989
-0.00014146
0.0126215
0.00270504
0.00638454
0.0030358
0.00338901
0.00382672
0.0203101
-0.00165638
0.00369725
0.000443068
0.00268276
-0.0100406
0.0167859
0.00301975
0.00192263
-0.000843923
0.00382277
0.00314903
0.000922818
-0.00230066
0.000943718
-0.0039444
0.00926369
0.010559
0.0113611
0.000503419
-0.000988826
-0.00188735
0.00273013
-0.000401675
0.00302206
-0.00175944
-0.0093605
0.00723533
0.00662013
-0.000520099
0.00485737
0.0079313
0.00775009
0.0155542
0.0149963
0.00342101
0.0159731
-0.000868722
0.00973458
0.0132603
-0.000868475
-0.000503982
0.00421638
0.000520001
0.000611456
0.000504017
-0.00366326
0.000814186
0.00146394
0.00124026
0.00239861
0.00449221
0.00707578
0.00589957
0.00249044
-0.00358612
-0.00382295
0.001241
-0.00146516
-0.00326581
-0.00149621
-0.00105454
0.000545075
0.00218642
-0.00352384
-0.00192321
0.0410972
-0.00396596
0.00186449
0.00221715
-0.00239989
-0.000351963
0.007646
0.0127766
0.0165744
0.00312774
-0.00501983
0.0144524
0.00607187
0.00372392
0.00179347
0.0039668
0.00102143
0.000682924
-0.00080331
0.00216735
0.00200437
-0.00123934
0.00105455
-0.00136804
0.0266449
0.00553335
-0.00320659
0.00396671
0.00465987
-0.00607301
-0.00221835
0.00105429
0.00271627
0.00089707
0.00355019
0.00461985
0.00326644
0.000611214
0.0033866
-0.00217365
-0.0019646
0.00462311
-0.00381178
0.00162695
-0.00120712
-0.000661304
0.000802825
0.00188761
0.00138394
0.0030195
0.0127828
0.000815101
0.00231001
0.00502241
-0.00335358
0.00291296
-0.00431276
0.00356276
0.00052033
-0.00276239
-0.00335431
0.000611814
0.000662238
0.00352344
0.00247908
-0.00142188
0.00129742
-0.00090202
-0.00382189
0.000748163
0.00105525
-0.00326707
-0.00427115
0.000748199
-0.00296589
0.0046601
0.0167748
-0.00440408
-0.00337551
-0.000495199
-0.00105403
0.00213719
-0.00259627
-0.000802767
-0.000921304
0.00145658
0.00335535
-0.00129929
-0.00166547
0.000869169
-0.00080249
0.00145877
-0.000802658
0.00134006
0.000520533
0.000570023
0.000900013
0.00371989
0.00162716
0.00926561
0.00521022
-0.00338579
-0.00146393
-0.00291132
-0.00470752
0.000869534
-0.00158536
-0.00276896
-0.000988206
0.00834286
-0.00230042
-0.00248838
0.00396515
-0.00302085
-0.00146403
0.000896997
0.0351985
0.00611937
0.00396686
-0.0010542
0.012778
0.00116183
0.00185788
-0.0018576
0.0144363
0.00303264
-0.00291134
-0.000581493
-0.00146448
0.000141097
-0.0006117
-0.00221736
0.000503726
0.00098862
-0.0187111
-0.0083759
-0.00191213
0.00723533
0.0121685
-0.00182694
0.00509596
0.000879453
0.00138344
-0.00123864
0.000802952
0.0036974
0.00213572
0.000611314
-0.00607301
0.00461867
0.00837594
0.0104178
0.00520902
-0.00764528
-0.0024773
0.00299789
0.00868981
0.00139173
-0.00105452
-0.00052037
0.000802608
-0.00466552
0.00372186
0.00612649
0.0174124
-0.00302024
-0.00326686
-0.000802521
0.00138488
0.00285575
0.0035249
0.0107069
0.00281667
0.0149212
-0.00276446
0.00151685
0.00356257
0.00134123
0.00123837
-0.00086902
-0.00129798
-0.00196451
0.00433825
0.00138494
-0.000718756
-0.000802559
-0.00138382
-0.00162695
-0.00052028
-0.000682853
0.00396747
0.0143873
-0.003021
0.00877519
-0.00628966
0.00837906
-0.000376369
-0.00172113
0.00290453
0.000718779
0.00449151
0.00247837
-0.00218669
-0.00438928
0.00168927
0.00105477
-0.00210902
-0.000562759
-0.003966
-0.00396811
-0.000802608
-0.00520647
0.000718321
0.00221841
-0.00195731
-0.00440288
0.00471025
0.00303203
0.00134023
-0.00302109
0.00270202
0.00587965
0.00114036
-0.000661434
0.00246951
-0.00396701
0.0013928
0.00105352
-0.000611364
0.000752729
0.000683386
0.0010063
0.00214568
-0.00219431
-0.000661477
0.0046266
0.00611729
-0.00129798
-0.00105359
0.000802684
-0.00509447
-0.00296685
0.00399123
0.00335779
-0.000337122
0.000684004
0.00488706
0.0165717
0.00162662
0.00276998
-0.00230031
-0.00105397
-0.000983161
-0.000815524
-0.00210789
0.0038223
0.0297935
0.00440343
0.00255564
-0.000636086
-0.000884933
0.00219501
-0.00129785
0.00175775
-0.00044965
0.001241
0.00175869
0.00635431
0.0030232
0.00219566
-0.000802721
0.0114061
0.014922
-0.00523921
0.00843742
0.00936563
-0.000815464
0.00396569
0.00257021
-0.00396673
0.00825857
0.01262
0.0010604
0.00865369
-0.00372199
-0.00230862
-0.00569658
0.00167218
0.0101343
0.001219
-0.00302055
0.00393883
-0.00080259
0.0195895
0.00326888
0.00396444
-0.000651792
-0.00301946
-0.00396523
-0.00606894
-0.00120667
0.00213604
-0.00160513
0.0058257
0.000611069
-0.00123799
0.000661728
0.000943151
0.0220285
0.0174027
-0.000557259
0.00218541
-0.00352221
0.00123895
0.00129864
-0.000305674
-0.00291059
-0.00120672
0.000520773
0.000661806
-0.00466266
-0.00195651
0.00040115
-0.00391557
-0.0010549
-0.0013847
0.00247993
0.000896483
0.00105412
-0.000748455
0.00155157
0.00230098
0.00081469
-0.00061663
-0.00462495
0.00291221
0.000640458
0.000570108
-0.00105354
-0.000717968
0.00162505
0.00210939
0.00382524
0.0101398
-0.00428734
0.00105506
0.00061138
0.00129961
-0.00216632
0.00363262
0.00155811
0.00218099
-0.000989063
-0.00381252
0.00607791
0.000503714
-0.00396396
-0.00110106
0.00162644
0.00213723
-0.00120771
0.022863
0.0193344
0.00302153
0.00926716
0.00370082
0.011365
-0.00231041
-0.000496037
-0.00291282
-0.0024386
0.000616297
-0.00105462
-0.00155127
0.00661835
0.00105412
-0.00324121
-0.00302055
0.000988372
0.00936058
-0.00935768
-0.0005202
-0.000803088
-0.000869421
-0.00138378
0.00145558
0.000945322
0.000401419
0.00136734
-0.000570282
0.000803184
0.0011157
0.0228624
0.0181482
0.000661677
0.00612563
0.0188842
0.0173971
-0.00254964
0.00480941
-0.00162605
-0.00299789
-0.00396647
0.0165717
0.00192225
0.00249034
-0.000802933
-0.00105479
-0.00217674
-0.00324198
0.0143851
0.0038544
-0.000748167
-0.000803088
-0.000683479
0.00396537
0.00895554
-0.00404419
0.00291258
-0.00105387
-0.000683189
-0.00116274
-0.000803099
0.00302011
0.00110805
0.00138516
-0.00108177
0.000620243
0.00120593
-0.000748482
0.000442993
0.00244436
-0.00155184
0.00414065
-0.00302025
0.00569651
0.00219492
0.000286713
0.00638235
-0.00189507
0.00105445
-0.00427328
0.00118272
0.00138422
0.000718163
-0.00230057
-0.000520129
-0.000376881
0.00213615
0.003823
-0.00182682
-0.00123954
0.00120535
-0.00248756
0.000661241
0.00865369
0.00230126
0.00123842
0.00146545
-0.00116173
0.00629239
0.000802843
0.00396407
0.00466409
0.00074842
0.000868739
-0.0048855
-0.00167261
-0.00291243
-0.000545183
0.00162769
0.00611858
0.00582131
0.0066171
0.00834296
0.0132596
0.00168946
-0.00462729
0.00393883
0.00461966
-0.00461779
0.00804169
0.00488582
-0.000683153
-0.00138404
-0.000616795
-0.00231056
-0.00239907
0.00052019
-0.00391394
-0.00116289
-0.00196481
-0.000611364
0.000752854
0.0174126
0.00291308
-0.00105445
0.00210682
-0.00210839
-0.000777704
0.00449304
0.00302186
0.00302124
-0.0017369
-0.00146358
-0.00256975
0.00121903
-0.00167147
-0.000611685
-0.00162735
0.000802405
0.00105452
-0.000305997
0.00865437
0.0113657
0.00354823
0.0174109
-0.00462571
0.00128409
0.00439482
0.0352353
-0.000428531
-0.000988606
-0.00105524
0.00210885
0.00213526
-0.000982689
0.00113962
0.00612075
0.000563647
0.00221842
-0.00377427
0.00606359
-0.000682971
0.00066155
0.00629358
-0.00271391
0.000396518
-0.000752906
-0.00291187
-0.00216608
-0.00326858
-0.00255501
0.00104045
-0.0030311
0.0352111
0.00486096
0.0037224
0.00865302
0.00440237
0.00255373
0.000547332
0.000748044
-0.00136617
-0.000868747
0.00229952
0.00382635
-0.000611756
-0.00120735
0.00123775
0.00517663
0.00440163
-0.00105403
-0.00396439
0.00413269
-0.00501847
0.00470853
-0.00358542
0.00302078
-0.00075318
-0.00372002
-0.00419635
-0.00162737
-0.00440472
-0.00338794
0.0013893
-0.00221739
0.00466236
0.00404377
0.0143867
0.0195895
0.00480622
-0.00396298
-0.00129872
0.000674243
-0.00312724
-0.000670489
0.00369775
-0.00431057
-0.000197963
-0.000988909
0.000747954
-0.00231019
0.00058123
0.01262
0.00488814
0.00466358
0.00129824
0.000636999
0.00917527
0.000198201
-0.000660938
-0.00210776
-0.00229914
0.00105425
-0.00291043
0.000748254
-0.00105427
-0.00352179
-0.00121918
0.00774385
0.0032642
0.00221687
-0.0021947
-0.000141712
-0.00337431
0.00611757
0.00200346
-0.00192348
0.0022165
0.00301932
-0.00217397
-0.000803016
-0.00352416
0.00606572
0.00271355
0.00123822
0.010418
0.00462698
0.00444774
-0.00105445
0.00123901
-0.000802376
0.00488753
-0.000107527
0.00271449
0.00145581
-0.00191204
-0.00764506
-0.0016402
-0.00193508
0.0114102
0.00723292
-0.00328431
-0.00396712
0.00771935
0.0220365
-0.00302043
-0.000802573
-0.00192225
-0.000989273
0.00431482
0.0174028
0.0204262
0.0108593
0.0352183
0.00449221
0.0103145
0.00219537
0.0058968
-0.000683418
-0.000868029
0.00121888
0.00276701
0.0109525
-0.00162715
-0.00531133
0.0228513
0.010561
0.018212
0.00123841
-0.00396564
-0.000802984
-0.00396542
0.0030197
0.00188624
0.00166233
-0.00216678
-0.000802781
-0.00118186
0.00276747
0.00764751
-0.00291221
0.0080424
0.00723692
-0.00356444
0.00936807
-0.0029112
0.000989064
-0.000520451
-0.000802686
-0.00162612
0.00382269
0.00206542
0.00231166
0.000765763
0.000896935
-0.000803099
0.000284645
0.00255583
0.0015173
0.00396501
0.00404613
-0.00470935
0.00291326
0.00228362
0.0149222
-0.00149567
-0.00963203
-0.00382011
0.0059014
0.00291239
0.0188863
0.00162624
0.0015591
0.000896808
-0.0036967
-0.00247669
0.0133094
0.00196489
0.0165687
-0.00428515
0.00662019
0.00138428
-0.00105431
-0.000611501
0.00329475
0.00149752
0.0029113
0.00607532
-0.00382341
0.00587784
0.00440729
0.00356423
0.00123913
-0.000765903
-0.000815262
0.00173682
0.00396775
-0.00325202
0.000443062
0.00385096
0.00129835
0.0410972
0.00834443
0.0109534
0.0127804
-0.00273008
0.00182786
-0.000802683
0.00120631
-0.00105489
-0.00138471
-0.00111485
0.000988553
0.00105451
-0.00118228
0.000306471
-0.000107355
-0.00419471
0.00130583
-0.000466787
-0.000611572
0.00123906
0.00105423
-0.000661631
0.00834394
0.00582251
0.00168828
0.000260609
0.00105394
-0.000718897
-0.00291152
0.00302179
0.00179551
-0.000504114
0.0195894
0.0410779
-0.00325136
-0.00352403
0.000683139
0.0167827
0.00222011
-0.00248838
0.00865555
0.00372094
-0.00218642
-0.000582662
0.00136636
0.00105351
-0.0100394
0.0117625
-0.00404463
0.0167796
0.00462782
0.00335575
0.00396657
-0.00326988
0.00385826
0.00290561
0.0030221
0.000503841
0.00105414
-0.00230035
0.00129887
0.00611673
0.00396668
-0.00271453
0.00304109
0.000401058
-0.000251916
0.00462698
0.00179456
0.00502169
-0.00325377
-0.00520369
-0.00187922
-0.000682829
0.00268276
0.00123987
0.000637397
0.00249031
0.00310288
-0.0010535
-0.00384606
0.00356405
0.000311479
0.000802902
-0.00138331
0.000168734
0.00127307
0.000611723
-0.000900346
-0.00150876
-0.00299648
-0.0130063
0.00607749
0.0055103
0.0149252
-0.00427183
0.000803168
0.00180386
0.00080294
-0.000683371
-0.000718692
0.00138362
-0.00219554
0.00195747
-0.00225883
0.00465903
0.00165739
0.00420943
0.00276756
0.00136541
0.00276761
0.00118262
-0.001162
-0.000611411
-0.000988181
-0.000868317
-0.00520858
0.00500212
-0.00105381
0.000520299
0.00129816
0.0143837
0.00961324
-0.00214378
0.012169
0.012779
0.000944125
-0.00200258
0.00182332
0.00466262
0.0193316
-0.00214496
-0.00105412
-0.00462483
-0.0019661
0.00291349
0.00518919
0.00230116
0.00714009
0.00713253
-0.00787458
0.00108391
-5.39184e-05
0.000896441
0.000661378
0.00213479
0.0041363
-0.000683502
-0.00075285
-0.000377734
0.0050215
0.00110977
0.00635442
0.0063807
0.0165663
-0.00281683
-0.00355083
0.00680611
0.0013832
0.000611526
-0.00068333
-0.000922228
-0.00192211
0.01056
0.000636634
0.00259537
0.00123863
0.00501857
0.000503875
-0.00396671
-0.00105442
0.000748684
-0.000983326
0.00127381
0.0339386
0.0173973
0.00247827
0.00462658
0.00259556
0.013252
-0.00213527
0.00283393
-0.00122269
0.00612132
-0.0029674
0.00335559
0.000802829
0.00449128
-0.00723216
-0.00230046
0.00191208
0.00105414
0.00612487
0.00188624
-0.00105388
-0.00123877
0.00188741
0.000748437
0.00291102
-0.0061165
-0.0121433
-0.000520471
-0.00273497
-0.00105348
0.00246841
-0.00195755
-0.00315202
0.00129851
0.00105429
0.000802968
0.000802825
0.00795938
-0.00200304
0.00466086
0.00167282
0.00259797
0.0109592
0.00115057
0.00123913
0.00369651
0.00713693
-0.000661378
0.00486205
0.00118261
0.00326626
-0.00166564
-0.00520847
-0.00431234
-0.000815549
0.00488911
0.0039698
0.0035229
-0.000814837
-0.00175198
-0.00440408
0.000868309
0.00301919
-0.0009886
0.00607479
-0.000306071
0.0149179
0.0165663
0.00764902
-0.00192228
-0.000305812
-0.000570203
0.00146418
-0.00139237
0.00462233
0.00961109
-0.00239734
-0.000611347
-0.0013
-0.000868947
-0.00123923
-0.000173827
-0.00520784
0.00335378
0.0113649
0.00520981
0.0086898
-0.00092155
-0.00219422
0.00105427
-0.00162512
0.00230098
-0.00413498
0.0143798
0.000897047
0.00301901
-0.00129813
-0.0030291
-0.000753174
-0.00248956
-0.00301861
0.0195889
-0.00495673
0.00520771
0.00462557
0.00173993
0.00607765
0.00310409
0.0266574
-0.00089729
-0.00301841
-0.000943813
-0.00215612
-0.0102068
-0.000900448
0.00520739
-0.00180282
-0.0023105
0.00247751
-0.00105506
-0.000718315
-0.000902337
-0.000546928
0.00124715
0.00713523
-0.00162531
-0.00326987
-0.00680987
0.00146437
0.00462701
0.00248801
0.00834584
-0.00189613
0.00192235
0.000879585
-0.00352192
0.00462658
0.00396652
0.0167763
0.00471126
-0.00355022
0.00302158
0.00149661
-0.00273099
0.000520268
-0.000465664
0.00182774
-0.00291023
0.00168954
0.00502505
-0.00221797
-0.00310278
-0.00134038
-0.00315207
0.00354765
-0.00217428
-0.00544163
0.00251045
0.00396437
-0.000988829
0.00105452
0.00240066
0.00105424
-0.000442682
0.000682747
-0.000131738
-0.00231086
0.00221742
0.00239865
-0.00301933
0.00449206
-0.00273439
-0.00138462
0.00105412
0.000611866
-0.000377687
0.00271539
-0.00118169
0.00583647
-0.000284728
0.0015585
0.00358829
0.000802677
0.00607479
-0.00138388
-0.00200376
0.00327074
0.00520796
-0.0029117
-0.000753478
-0.000580905
0.00118193
0.00146426
0.00607561
-0.00123873
0.0167742
0.00607479
0.00273064
0.00396688
-0.00127674
0.00138345
-0.00230013
-0.00291131
0.0023012
0.00466323
-0.00138447
-0.00303103
-0.00167245
0.00248987
0.00398945
0.000580942
0.00502171
0.00239853
-0.00444644
0.00333145
-0.000753296
0.00213588
0.00396739
-0.00165398
0.00352385
-0.00439004
-0.00315085
0.0063553
-0.00221713
0.00123979
-0.000611318
0.00462823
0.00470872
0.000943547
-0.000466474
-0.000244526
0.000611778
-0.00291166
0.000845024
-0.00413479
-0.000636874
-0.000988337
-0.000802542
-0.00179415
-0.000803442
0.00164067
-0.00299736
0.00355105
-0.00138422
-0.00105454
-0.00213547
0.00462249
0.00068318
0.00550735
0.00713503
0.0044946
0.00335575
0.0110009
0.00478903
0.00437176
0.00123936
0.00162675
-0.00089729
0.000802815
-0.000776776
0.00713296
-0.00285449
-0.00413166
0.000868493
0.00543216
0.00837537
0.00123791
-0.00230873
-0.00276985
0.00713228
-0.00146497
0.000897591
-0.000748676
-0.00569502
-0.000897295
0.00182676
-0.00302047
-0.00210772
0.00179318
-0.00105448
-0.000988773
0.00188725
-0.00355136
0.00439126
0.0114193
-0.00413363
0.00587685
-0.000973038
0.000616628
0.00462051
-0.00160575
-0.00139191
0.000640815
0.00188761
0.00352296
-0.000943264
0.0014554
0.00462687
0.00168866
0.00826278
-0.00607425
0.00449379
0.0117558
-0.000764657
0.000753447
0.000611182
0.00173674
0.00607304
-0.00396456
-0.00138465
-0.00248973
0.00462904
0.00462864
0.00221839
-0.00230053
0.0410752
0.0083849
-0.000616224
-0.000753608
0.0030214
0.00166316
-0.00192219
0.01262
0.00094316
-0.00629205
0.00543253
-0.00230071
0.00462966
0.0174042
-0.00326853
0.00354834
0.00517498
-0.00105389
-0.000662126
0.000988962
-0.000988343
-0.000610863
-0.00382459
0.0159754
0.00607479
-0.00105377
0.022847
-0.00396481
0.00291068
-0.00440483
-0.00382217
0.0228548
-0.000401162
0.00192149
-0.000826498
0.00354866
0.0351995
0.000698579
-0.00185728
-0.00248817
-0.00195757
0.00221813
0.00487699
-0.000802319
-0.00291098
0.00061087
0.00774839
-0.00302117
0.000803082
-0.00312579
0.00123973
0.000503699
-0.000982252
0.00502031
-0.00259632
0.00179397
-0.00162619
0.00291443
0.000841032
0.00462387
0.0087834
0.0410752
0.000753091
-0.00388218
-0.000611999
0.00168857
0.00206698
0.000503887
0.000616394
0.000396407
-0.000802279
0.0036958
0.00138294
-0.00271405
0.0046209
0.00329588
0.00193403
-0.00396653
0.00291235
-0.00149664
0.0014655
-0.00146404
0.00382454
-0.00216569
-0.000573706
0.00302262
0.0127782
0.0258476
-0.000841581
0.000752675
0.00332991
0.00607065
0.00192339
0.00542608
0.00961324
0.0035229
0.00257296
0.000802767
0.00192328
-0.00396485
-0.00371845
0.00162633
-0.000981831
0.000983182
0.00612216
-0.00396517
-0.00935744
0.00127435
0.00803591
0.0010547
-0.000661341
-0.00304958
0.000310723
0.000989208
0.000922237
-0.000897113
0.0013851
-0.00314959
-0.0008028
-0.000581285
0.00105383
-0.00196655
-0.000683371
-0.00352294
-0.0038117
0.00138416
-0.000683389
0.0030217
0.00281521
0.0061173
-0.000802995
-0.000442803
0.00444838
0.00326705
0.00521142
0.00149677
0.00834265
0.0132586
0.0035658
0.00449375
0.0109534
-0.000520446
0.0268318
-0.00328419
0.00105526
-0.00194204
-0.000875201
0.00167151
0.000803126
0.00462621
-0.00248762
0.000752914
0.0352308
0.00865701
0.0109565
-0.00520844
0.00192285
0.000511558
-0.00291092
0.0167827
0.0031526
0.000802256
0.000520299
0.00111537
0.00190612
0.000378024
0.00123843
-0.0104145
0.00382425
-0.000401045
-0.00167213
0.0149242
-0.00393653
-0.00192353
0.00413209
0.00230163
-0.00180468
0.00502186
0.00834388
0.000802898
0.001722
0.00193568
0.00054545
0.00414573
-0.00419513
-0.00426968
0.000921534
-0.00179292
-0.00382412
0.000802393
-0.0027631
0.0118463
0.00501984
0.00052064
0.00248123
0.0156207
0.00240056
-0.00303492
-0.00520924
-0.00176055
0.00793538
0.00123915
-0.00225923
-0.00066084
0.00115122
-0.000311282
-0.000661623
0.00195674
-0.0060711
0.0109541
0.00270413
0.0109522
0.0088477
-0.00105383
0.00471079
-0.000620181
0.0109526
0.0193253
-0.00599488
-0.000802573
-0.000802666
-0.00371963
-0.00105465
-0.00607463
0.00381413
0.000802997
-0.00167241
-0.00061196
0.00569784
0.00381314
0.0132987
-0.00396677
0.00247896
0.00138346
0.0149212
0.00087957
0.000364761
-0.00088564
0.00291141
0.00105387
-0.0030204
-0.000803403
0.00714483
-0.00162666
0.00121884
0.00080324
-0.00230013
-0.000803022
0.00075362
-0.00160003
0.00175998
0.00138491
0.00121763
0.00138472
-0.00291187
0.00182841
0.00571189
0.00804187
-0.0035216
0.00105424
-0.000896727
0.00168383
-0.000814523
-0.000982204
0.000610997
0.00175869
-0.000661855
-0.00583756
0.00230085
0.0035546
-0.00518616
0.00771729
0.00210901
0.0052052
-0.00180438
-0.00291239
0.00105417
-0.00185725
-0.00382331
-0.00105448
0.00303199
-0.00281515
0.0266574
0.0266574
0.00834399
0.00192272
-0.0016083
-0.00371901
0.00105352
-0.00382129
0.00342669
-0.00105451
-0.00138483
-0.00259739
-0.00382178
0.0010056
0.00167218
-0.00144921
-0.00221802
-0.00130637
0.0228624
-0.004446
0.000988508
0.0046757
-0.0104161
0.0228578
0.00396621
0.000896825
0.0352308
0.000869243
-0.000719291
-0.0052068
-0.00520727
0.00123953
0.0010548
0.00926582
-0.0029672
-0.00520727
-0.00291154
0.00396579
-0.0031496
0.0118887
-0.00382309
0.00502203
0.000569771
-0.0016394
0.00105358
-0.00283328
0.000251941
-0.00196524
0.00396765
0.000611931
-0.0052086
0.0051727
0.00217492
-0.00440356
0.0030217
0.01262
0.000503511
-0.0008026
9.13936e-05
0.00396688
0.0268253
0.00299965
0.00877386
0.00868798
0.0172789
0.0167815
0.00431608
-0.00450181
-0.00462409
0.000988674
0.00273134
-0.00462701
-0.00210847
-0.000841456
0.00414247
0.00175944
-0.00326989
0.00134419
-0.00149019
0.00355223
0.0266574
-0.00433914
0.00444785
-0.00136831
0.0015319
0.00105488
-0.00105447
0.00195819
0.00589616
-0.0025471
-0.000802614
-0.00175835
0.00105396
0.00221732
0.000661405
-0.00162637
-0.000943827
0.000802857
-0.00230073
0.00191273
-0.00396541
0.00712838
0.00712881
0.00413625
0.00803591
-0.00127649
0.00173685
-0.00713001
-0.00215521
-0.00258195
0.000611482
-0.00461715
-0.00587427
0.00488778
-0.00276694
0.00217379
0.00276261
-0.00629099
0.0149265
0.00834458
-0.00302071
0.00273273
0.00186625
0.0228659
0.0149267
0.001162
0.00260558
-0.00162494
0.00276681
0.00215298
-0.00192215
0.00542579
0.00520338
-0.000376844
-0.00273139
-0.00105405
-0.00488678
-0.00108514
-0.00338615
0.00230028
-0.00215577
0.00100564
-0.000569865
-0.00520647
0.0167795
-0.0011157
0.00272976
0.000807529
-0.00122349
0.00396407
0.00105453
0.000683097
-0.00162688
0.00329588
0.000217672
0.00396768
-0.0018496
-0.00248818
-0.000896947
-0.000683244
0.00213619
-0.00228885
-0.00302113
-0.00243848
0.00291075
0.000674265
0.0104102
0.00184959
0.00315212
-0.00122269
0.00270323
0.00230112
0.00502169
-0.000972782
0.00462394
-0.00335383
0.0113621
0.0113604
0.0228551
-0.000569886
-0.000174306
0.00352191
-0.00155236
-0.000943969
-0.0021097
-0.00723447
-0.00106107
0.00182656
-0.00138822
-0.00470662
0.000520144
0.0143867
-0.00359003
0.00146506
-0.00259696
0.0010542
0.0133211
0.000971158
-0.00167215
0.0021954
-0.000611548
0.00281611
-0.00607574
-0.00550951
0.000802863
0.00152561
0.00123882
0.0018865
-0.00229978
0.00590072
0.00291258
0.0126252
0.0109562
0.00382254
0.00257113
-0.000661089
0.0156082
0.00384404
0.0114061
0.0266449
-0.000868309
0.00587289
0.0173989
0.00301934
-0.000545357
0.00338752
-0.000879546
-0.000465602
0.000682492
0.00120764
0.000803125
-0.000826473
0.00382267
0.000503477
0.0060759
0.00136641
-0.000815663
0.000503677
0.00612309
0.00479282
0.000975376
0.00270352
-0.00419667
0.0149244
0.00123943
-0.00221791
0.00221874
0.00283373
-0.00396564
-0.00188779
-0.00130697
0.000580721
-0.00305121
0.00137725
0.00396641
0.00123902
-0.00214514
-0.00105479
-0.00150903
-0.000520451
0.00123934
0.00133998
0.00337309
0.00590116
0.0167748
0.00520624
0.00259675
0.00168842
0.00221683
0.000520274
0.00219692
0.00160667
0.0121672
0.018891
0.014386
0.00247878
0.0047095
-0.000814599
0.00176215
0.00105379
0.00105381
-0.0012173
0.00302061
-0.000683153
0.00121793
-0.00105443
-0.0011617
-0.00607272
0.00137743
-0.000697947
-0.00462707
0.000803441
0.00160718
-0.000748093
0.00393564
0.000581165
0.0165741
-0.00303353
0.00328582
0.0100937
-0.00301905
0.00393846
0.00462577
-0.000661777
-0.000868713
0.0013921
-0.00382303
0.0188837
-0.00215452
-0.00105418
-0.000412936
0.00129876
0.00219419
-0.00219502
-0.00396536
0.00105385
-0.00105393
0.00276706
-0.00080216
0.00105378
0.000982828
0.00213578
0.00450437
0.00105408
0.000803088
-0.00221739
-0.00205988
0.0063785
0.00681408
0.00139267
-0.00302091
-0.000661815
-0.00210741
-0.000748831
0.00396756
0.00137774
0.000520411
0.00440343
0.00462834
-0.0032511
0.00166623
0.00259531
0.00168939
0.00521006
0.00276588
-0.00230867
0.000802615
-0.00246981
0.00462866
-0.00184849
0.000683204
-0.00413049
0.00393467
-0.000611298
0.0143873
-0.00221694
0.0266574
-0.00301932
0.00531064
0.0109594
0.0127828
0.00612021
-0.00440344
0.000921184
-0.00123833
0.00267019
-0.000841546
-0.00162692
-0.00146494
-0.00105402
-0.000259909
-0.00299508
0.00145693
0.00276775
0.000563233
-0.00105397
-0.000287262
0.00106046
0.00834141
-0.0037192
-0.00105445
-0.00230838
-0.00116104
-0.000610875
-0.000520193
0.00146433
0.00302174
-0.00305122
-0.00192263
-0.00356397
-0.00382254
0.00109427
0.00260726
0.00358869
0.00804074
-0.00123914
0.000166107
-0.00520592
-0.00105445
0.000803441
-0.00607275
0.00123906
0.0104165
0.00301934
0.00637871
0.00792812
0.00283411
0.00462204
0.00302134
-0.00210776
-0.01215
-0.0084404
-0.000661057
-0.000358803
0.00116232
-0.00723281
0.00466388
-0.00243921
-0.000611306
0.00606956
-0.00553844
0.00502111
0.010561
0.0029128
0.00428902
-0.00184987
-0.000337007
0.000752855
-0.00569442
0.00382478
0.00105455
0.000974276
0.000611088
-0.000669314
0.000616444
-0.000982864
-0.000982928
-0.00462605
0.00106022
-0.00118209
-0.00382232
0.000245899
-0.000748795
0.00382524
-0.00342433
0.00501875
-0.00391415
-0.000803022
0.00221856
0.000683212
0.0174126
0.0143895
-0.00203437
0.0126182
-0.00369539
0.0195855
0.00369868
0.000802658
-0.000944455
0.0121708
0.00804464
0.0173971
0.0204184
0.0127828
-0.00462701
-0.00162553
-0.00086903
-0.000753008
0.00335575
0.000496189
0.00342256
0.00221856
0.00607123
0.00342211
0.00146532
0.00520941
0.00138457
0.00273232
-0.00123966
0.000569865
0.002309
0.000442606
0.00382225
-0.00123933
0.00462381
0.0132539
-0.00138406
0.000661348
-0.00470726
0.00266981
-0.00439191
0.00175868
-0.00256865
0.0195925
0.00291328
-0.000485064
0.000442802
0.00291126
0.00257112
-0.00358612
-0.000305718
0.00505576
-0.00210005
-0.00127304
0.00221747
0.000897572
0.0021075
-0.00607246
0.00136634
0.00354918
0.00396521
-0.00301975
-0.000611621
-0.00203428
0.000520274
0.00302143
-0.00195785
-0.000611448
-0.00138406
0.00150981
-0.00247677
0.0155542
0.00513187
0.00253755
-0.00276813
-0.00291154
-0.00221777
-0.00146478
0.00865302
0.00419782
-0.00221768
-0.00240032
-0.00502028
0.00335514
-0.00248744
-0.000484875
-0.00105387
0.000988574
-0.00098282
0.00179347
0.0127802
-0.00146496
0.000748281
-0.00291058
0.000802787
0.000611185
-0.00105455
0.00664823
-0.00712672
0.00462624
-0.00192221
0.00381462
-0.00404463
0.0149203
-0.000988968
0.00213609
0.00157423
0.00291301
0.00372248
0.00396425
0.000682812
0.00928536
-0.00206827
0.00501819
-0.00143603
-0.00607587
-0.00105423
0.0010416
0.00152545
0.0013779
-0.00219587
0.00774565
0.0053142
0.00267055
-0.000683173
-0.0016263
0.00834244
0.0109529
0.0039343
-0.00843616
-0.00335318
-0.00188653
0.00301932
0.00637949
0.000989395
-0.00138346
0.000991935
0.0143898
0.000443133
0.000896533
0.000989251
0.000687882
-0.00301992
-0.00569613
0.0228441
0.00210773
-0.000902044
-0.00146407
-0.00129776
-0.000284755
-0.00163948
0.0003775
0.017408
-0.0005456
0.0127804
-0.00219425
0.0143866
0.00587489
-0.00310423
-0.000260118
-0.000989033
0.00104043
-0.00129929
-0.000804061
0.000897004
-0.00138459
0.00138503
0.000814309
-0.00129909
0.000611098
-0.001385
-0.00050354
0.00138944
0.000802597
-0.0013845
0.00175802
-0.00281506
-0.00167208
0.000116241
-0.000802628
-0.00168896
0.00302081
-0.00256995
-0.00115432
-0.000376503
0.00517891
0.0027178
-0.000814456
0.00213624
-0.000682971
0.00129822
0.000611199
-0.00520539
0.0174071
0.000661612
-0.000562801
-0.00230972
0.00162561
-0.000868844
0.00352519
0.00221821
0.00231035
0.00868824
-0.000485348
-0.000802163
-0.00150944
-0.00080269
0.000611322
0.00105482
0.00123933
0.000877202
0.000876574
-0.00213588
0.000752746
0.0188904
0.00105503
-0.00314949
0.00520624
0.00355048
0.000989498
0.0220365
0.0018865
0.00143775
0.00325488
-0.000581412
0.000484927
-0.00179672
-0.000671821
0.00396714
-0.000718246
0.000983026
0.000803804
-0.0016063
-0.00162612
0.00465065
0.00215523
-0.000803109
-0.000661171
0.00834299
0.000611485
0.00337539
0.011362
0.00065155
0.0048397
0.00186786
0.0104125
0.00129796
-0.000682983
0.00382477
0.0167815
0.00396867
0.0138679
0.000442682
0.0009219
0.00133964
0.00449087
0.000244526
-0.00299877
0.0109553
-0.00550992
0.0143835
0.00590418
0.00443046
0.00335415
0.00146557
0.00219561
-0.00826194
-0.00606484
0.000802133
0.000611138
0.000814766
-0.00080248
0.000988665
-0.00105443
0.00042848
0.00440653
-0.00200291
0.00184966
-0.00335358
-0.00440472
-0.000753356
0.000982273
0.00973338
0.0107069
-0.000286998
-0.00301989
-0.000495277
-0.000683183
-0.00674581
-0.00142316
0.00090068
0.00105429
-0.00080305
-0.00335445
-0.000442841
-0.00118234
-0.000503357
-0.000982989
-0.0010542
-0.000900484
0.00440266
-0.0012387
0.00176064
-0.002571
0.00381471
0.0204293
-0.00213515
0.00188705
-0.00138336
0.00793478
0.0339568
0.0144426
0.00935977
0.00734995
0.000748089
0.000464607
0.0037219
-0.00239861
0.00335676
0.0193253
-0.00160524
0.0109902
0.00396447
-0.000545169
0.0121425
0.0351941
0.0238198
0.00151777
0.0258476
0.0113628
-0.00023302
0.00134165
0.00444821
0.0109525
0.0113627
0.00182688
-0.00396642
-0.00301993
0.00257125
-0.00382116
0.00301868
0.00230105
0.0188931
-0.000661538
-0.00382295
-0.00335412
0.000841163
-0.00160591
0.00935973
0.000868621
0.00189504
0.00301932
0.0113657
0.00122267
-0.00382404
0.000619065
-0.000617277
-0.00299648
-0.00124651
0.0061197
-0.00162565
-0.000611744
0.000869581
-0.00123803
0.000803881
-0.00371813
-0.00396666
0.00105408
-0.00325213
-0.000988771
-0.00196513
0.004388
0.0193225
0.00396853
-0.000611263
-0.00381163
0.00466166
0.00542915
-0.00569863
-0.000802452
-0.00607422
0.0143873
-0.00110818
0.000802863
0.00105403
-0.00175822
0.00175959
0.00607723
0.00335543
0.00094436
-0.000748736
0.00249012
-0.00382116
0.0086915
0.00190323
0.00382389
0.00118278
0.00259567
0.000885429
-0.00105383
-0.00248759
0.000885075
-0.00246871
0.0149185
0.00098855
0.00080336
-0.000611548
0.000983105
0.00138386
-0.00382313
-0.000786197
0.000944258
-0.00301957
-0.000868757
-0.0017514
-0.00120704
0.00136459
0.00145869
0.00450111
0.0069876
0.000802865
-0.00163859
-0.00607288
-0.00382414
0.00543887
-0.00382267
0.00382431
-0.00299737
-0.00629107
-0.00137905
-0.00105427
-0.00110922
-0.00610774
0.00673629
0.010559
0.00682113
0.00110864
0.00291518
-0.00335396
0.000896962
-0.00520575
-0.0030194
0.000896722
0.00291219
0.00255545
-0.00143661
-0.00231096
0.000803397
0.000868784
0.0121496
0.0204309
-0.00844049
-0.00396642
-0.00247812
-0.0040446
0.00355027
-0.0121279
0.00302045
-0.00550893
0.00354707
0.0025482
0.000285098
0.00149546
-0.000683339
-0.00462097
0.00396834
0.00162783
0.00105317
-0.000616739
-0.00369572
0.00106081
-0.0013647
0.0109529
0.00382227
-0.00326723
0.00589771
-0.000484767
-0.00080291
0.00834071
0.000802886
0.00372238
0.0193282
0.0143793
0.00608494
0.0143876
0.00210837
-0.000683171
-0.00291215
0.00697693
0.000880549
0.000815642
0.00393562
-0.0093618
-0.00175882
-0.000802628
-0.00352294
-0.00550786
-0.00123932
0.00354915
-0.00291179
0.00291094
0.00118289
-0.0038096
-0.0046271
0.00431592
0.00723654
-0.00210829
0.00248842
0.000943536
0.00520734
-0.00520557
-0.00437157
0.000545068
-0.00255503
0.00260495
-0.000868539
-0.0013686
-0.00551018
-0.00105485
0.00074834
-0.00826077
0.00843941
0.0352184
0.0083795
0.0196908
-0.00611901
-0.000900475
0.000803306
-0.00138342
0.0133156
-0.00607587
0.00662292
0.00396746
-0.0046256
-0.00123923
-0.00123874
-0.00697097
-0.000682921
-0.00138365
0.00230123
0.0149203
-0.0012981
-0.000868266
0.0143814
0.00393883
-0.00229941
0.000683831
-0.00393749
-0.00182519
0.000465505
0.000802912
-0.00129803
0.000896985
0.000305639
0.000748657
-0.00105456
-0.00105437
-0.000803211
-0.000581295
0.00381529
0.00774934
0.00413123
-0.00168886
0.00629132
0.000520346
0.00115104
0.00270235
-0.00291248
-0.00221794
0.00257967
-0.000989004
-0.00611896
-0.00369591
-0.00324257
0.00221842
0.000662321
0.000748702
0.00221856
0.0129954
0.00837089
0.00352519
-0.00352374
0.000662242
0.00105471
0.00396662
0.00176289
0.0138679
-0.000465511
-0.00134058
0.00151135
0.000748275
-0.000803147
-0.00273143
0.00210909
0.00382295
-0.00168906
-0.000232867
-0.000753041
0.00213781
0.00123918
0.0188904
0.018212
0.0109546
0.0149193
-0.00396561
0.00210707
0.00291326
0.00129807
0.00138416
0.00444717
0.00146404
0.000611486
-0.00105392
0.000777439
0.00712463
-0.000661191
0.0086528
0.0202942
0.0188843
0.0228516
0.00517663
-0.000661477
0.00607136
-0.00210896
0.00129915
-0.000396542
0.00276775
0.000989109
-0.000305358
0.00868773
0.0188886
0.00315202
0.00697817
0.0083792
0.0030526
0.000682957
-0.000504104
-0.00129824
0.00081447
-0.0027633
-0.00129849
0.00175858
-0.00713044
0.0352183
0.00881026
0.0100458
0.00607479
-0.00520662
0.0010199
0.004883
-0.00129752
0.000873847
0.00637889
-0.00138457
0.00110877
-0.000943202
0.00110916
0.00213656
0.01262
-0.0044044
-0.00382211
-0.000803099
0.00246916
-0.00173689
0.00463174
-0.00247748
0.00201163
-0.00229954
0.00175856
-0.000803116
-0.0039647
0.00488622
0.015623
0.00104401
-0.00520617
-0.00396597
0.00221791
0.000988454
0.000719847
-0.000377632
0.00248965
0.00173977
0.000401519
0.00396447
0.000611259
0.00196522
0.014726
0.00590078
0.00611825
-0.0012389
-0.00396379
0.000675088
0.00214433
0.0061188
-0.00162656
0.00520538
0.0082587
0.00120745
0.00160591
-0.00196522
0.00358597
-0.00338654
0.00320843
-0.00244625
-0.000808056
0.00413382
0.00138368
0.00587075
0.00259773
0.000989059
0.0044061
-0.00320814
0.0058764
0.00393679
0.00210779
0.00192445
-0.00179348
-0.00302019
0.00382323
0.00221771
0.00333149
-0.000674445
0.0013827
-0.000682739
0.000260205
0.000305841
-0.000897229
-0.000442894
0.00276572
0.0020688
0.00230882
-0.0013845
0.000377363
-0.00195668
0.00291291
0.000786345
0.000868641
0.00129866
-0.00105383
-0.00146554
-0.00302071
0.00247873
0.00162652
-0.0010538
-0.00138373
0.00291167
0.00393207
0.00376394
-0.00381051
0.00936781
-0.00520672
-0.00186214
0.00465861
0.0174071
-0.000869177
-0.00162648
-0.00221818
0.00443443
0.000845853
0.000404513
0.00713228
0.0268321
0.00124024
0.00196571
-0.000306152
0.00102077
-0.00587065
0.00462876
0.000611485
0.00146488
0.0174017
0.0121962
0.0109572
0.00192179
-0.00877877
-0.00542718
0.00612598
-0.000503798
-0.000802292
0.0025714
0.00352376
-0.000662042
-0.0011623
-0.0025799
-0.00471015
-0.000942851
0.00255022
-0.00302004
0.00834307
0.00260802
-0.00259861
0.00462876
0.00570371
0.00291328
-0.00543837
-0.00607259
0.0033744
-0.00382171
0.00120639
0.00105377
-0.000988726
-0.000337083
0.000611536
0.00229931
0.00327269
-0.00354975
-0.000896722
-0.000982231
0.00965859
-0.00606714
-0.00462593
-0.00488447
0.000442635
0.00303352
0.0121425
-0.00149523
-0.000258276
-0.00371918
-0.00462729
-0.00462571
-0.00086819
0.00206728
0.0109978
0.000640403
0.00190351
0.000504031
0.00230929
-0.0015524
0.00973458
-0.00325282
0.00774397
0.00449386
-0.00271401
0.00127371
-0.0013835
0.00248912
0.00105412
0.00216793
-0.00520661
-0.00369582
0.00607765
0.000465954
0.00230224
-0.00230013
-0.00221788
-0.00192168
0.000611084
-0.00162776
-0.00255439
-0.00219538
0.00190309
0.0174055
0.00105511
0.00102129
-0.000661623
0.0019227
-0.00462698
0.0167827
0.00230029
-0.00221729
-0.000682816
-0.000747989
-0.000662184
0.000988833
0.00397033
-0.00123894
0.00301926
0.000443227
0.00431482
0.00520635
-0.000401082
-0.00105414
0.00105448
-0.00125696
0.00929331
-0.000504004
-0.00149601
-0.00825859
0.0058747
0.00462605
0.00606248
0.0352111
-0.00543917
0.000364814
0.000802912
0.00937248
0.00299816
-0.00587841
0.0035499
-0.0014637
-0.00105387
-0.00168862
-0.000520451
-0.00155138
-0.000570254
-0.000504017
-0.00381176
0.00249111
-0.00143717
-0.000989058
0.000396759
-0.00382314
-0.00291184
0.00146436
0.0022187
0.00488432
0.00302082
0.010423
0.00175886
0.000718921
0.0022995
-0.0039636
-0.000942929
0.0126231
0.00371965
0.00302134
-0.00162618
0.00142276
0.0101343
0.00543788
0.0105594
0.00543817
0.000989907
-0.00230942
0.00219461
0.000942778
-0.0012401
0.00396801
0.00590028
0.00302188
0.0107069
-0.00369704
-0.00302117
-0.000683153
-0.00291243
0.00803441
0.00421929
0.0143876
-0.00502028
0.00302183
-0.000802859
-0.00219616
0.00105429
-0.00129849
0.00175897
0.00396756
0.00218761
-0.00093115
0.0182077
0.00396822
0.00440586
-0.00860874
0.00186452
0.000683572
0.00206712
0.00162604
0.0410559
-0.00248783
-0.00382384
0.0138712
0.00291136
0.00611744
0.00276401
0.00138516
0.000661549
-0.000337114
0.0041297
-0.00514219
0.00590302
-0.00276958
0.0066187
0.0100461
-0.00105399
-0.000661833
0.00247054
0.000683012
0.00382426
0.00462958
-0.00168796
-0.000545279
-0.000896588
0.000802767
0.00488553
0.00612124
0.0143855
-0.00352252
0.00355138
0.0113674
-0.00356527
-0.00189522
-0.00124079
0.00138503
0.00106036
-0.000661912
-0.00137726
-0.014838
0.00606219
0.0071243
-0.00230956
0.00396425
0.00121796
-0.00382342
-0.00219614
-0.000488132
-0.00206085
-0.00303844
-0.000442623
0.00139217
-0.00276849
-0.00213566
0.00300119
0.00396828
0.00173289
-0.000661275
-0.00129892
0.000943868
-0.00230135
0.00249111
0.00291126
0.0016278
0.00165564
0.0140186
0.00312688
0.00285394
-0.00230067
0.00146426
0.000252309
-0.00105446
0.00843387
0.000802912
0.00664641
-0.00105393
0.00926369
0.00502179
-0.0025697
-0.00129876
0.0021366
0.0010058
0.000803389
0.000765342
-0.00315134
0.0032407
0.00396574
-0.00396564
0.00188743
0.00169066
0.00382535
0.0101392
0.000562805
0.000944327
-0.000803157
-0.00080305
0.0266574
-0.00105308
-0.00582397
0.00543165
-0.00479168
-0.000273851
0.00260788
0.000640685
0.00155161
0.0165706
0.000988975
0.000802895
-0.000802597
0.00145051
-0.00303385
-0.000662163
0.00488444
0.00372222
0.000198361
-0.000494938
-0.00136602
-0.00247702
0.00160555
-0.00513976
-0.00228254
-0.00382339
-0.00118161
0.0173989
0.0138668
-0.00382339
0.00612072
-0.00520844
0.00589973
0.0121977
0.0046263
-0.00155133
0.000748302
0.000802836
0.00300202
-0.00248895
-0.000465818
-0.00372042
0.00606629
-0.012146
-0.00520924
0.00257179
0.00146406
-0.00320763
0.00733672
0.00175875
0.00928964
0.00449649
0.00661656
-0.00607243
0.00612015
0.000803041
0.00396737
-0.00290298
0.00393865
-0.00764238
0.00291125
0.00611726
-0.00129855
-0.0079294
0.00358545
0.00145511
0.000989077
0.00333255
-0.00179717
-0.000640531
-0.00118144
0.00301981
0.00337325
-0.00230929
0.00104045
-0.000661446
0.00143755
0.00521007
0.000496134
0.0013646
-0.0017589
-0.00173772
-0.000442581
0.00105476
-0.00214402
-0.00185008
-0.000802432
0.00105445
0.00213873
-0.0011623
-0.000661775
-0.00118214
-0.000982849
0.00413427
0.000377077
-0.00382321
0.00210847
0.00145545
-0.00304219
0.00381082
0.00396377
-0.00162607
0.000752769
-0.00550983
0.00325457
-0.00501956
0.00155161
0.00192185
0.00466098
0.0060421
0.00105396
-0.00698548
0.00229926
0.00917854
0.00358716
0.0127742
-0.0012183
0.00210751
-0.000989314
-0.0022164
0.00352147
0.00413756
0.000897051
-0.0029116
0.00129825
0.00105467
0.00382524
-0.00105448
0.0029129
0.00466311
0.000815074
0.000252092
0.000988539
0.000988543
0.000868659
0.00382212
-0.00127258
0.0127771
0.0193282
0.0167748
-0.000570083
-0.000841423
-0.000803265
0.00123828
0.000802639
-0.00301957
-0.00210761
0.000802912
-0.00531217
-0.00290955
0.00804407
0.0022997
0.0109522
0.00106151
-0.000669831
0.000257362
0.00105389
-0.00123863
-0.0022888
0.000748649
-0.000943701
-0.00247739
-0.00569828
0.00426953
0.00110873
0.00562853
-0.00228084
-0.00305095
0.00462005
0.00844468
0.00105454
-0.00542705
-0.00196393
0.000868153
-0.00210763
0.00123933
0.0149252
0.0143876
0.00396788
0.0174045
-0.00179505
0.00352532
0.00479295
0.00804407
-0.000868117
0.000683203
0.00138323
0.00129976
-0.00213732
-0.00138372
-0.00086827
-0.00196594
-0.000868658
-0.000611823
0.000520413
-0.00049483
0.00123971
0.010414
0.00302219
0.0061188
-0.00796277
0.00697616
0.00111112
-0.00230076
-0.0017514
0.00221729
-0.00186161
0.00865623
0.00440631
-0.00413072
0.000436006
0.000802751
0.00105441
0.00396741
-0.00138338
0.000803382
-0.00105456
0.00276877
0.000217747
-0.00098829
-0.00105348
0.000897028
0.00393967
0.00462876
-0.00382237
0.000748207
-0.000897355
0.000988481
-0.000868249
0.0143898
0.00396395
0.00302127
-0.00302014
0.000260591
0.00713972
0.00774651
0.00270381
0.0023094
-0.00160605
-0.00936264
-0.000377616
0.00449221
-0.00248715
-0.00221758
0.0022175
-0.00216632
-0.000683157
0.000183458
-0.00116236
-0.0038117
0.00504773
0.00335559
0.00218826
0.00182637
0.00877535
0.00532318
0.000776698
0.00230949
-0.0011624
-0.00173769
0.00543836
0.0023105
0.00607794
0.00466136
-0.000442481
0.00488442
-0.000868661
0.00105387
0.00124642
0.00105386
-0.00138297
0.00056989
-0.000802677
0.00937103
0.0220285
0.00381158
0.0039643
0.0044041
0.000982614
-0.000519997
0.0014648
0.000878418
0.00803407
0.00444435
-0.00607317
-0.00764678
0.000141016
-0.00302003
-0.00936014
-0.00352403
0.0105628
0.014929
0.00329772
-0.00372088
0.000982517
-0.0010545
0.00100556
0.000661144
0.0016268
-0.00542938
-0.0104154
-0.00259621
0.00502231
0.0052065
-0.000495053
-0.000802973
0.00123922
-0.00462698
-0.0044044
0.0030216
0.00291157
-0.00221709
0.000244875
0.000661192
0.00123893
-0.0060759
-0.00118137
-0.000251928
-0.000869243
0.00129748
0.00124015
0.00414107
0.00607794
-0.000503311
0.000803099
0.00120635
0.000748592
-0.00168198
-0.00302029
0.00488646
0.0029124
-0.00086868
0.000428928
-0.00105448
0.00382451
0.00466298
0.00462898
0.00162773
-0.000983028
-0.000683306
0.00105387
-0.00080259
-0.00192336
-0.000563013
0.000814515
-0.00046537
0.00191154
-0.00296792
-0.00162723
-0.000943071
-0.000815144
-0.000803137
0.000661639
0.000497896
0.00449443
0.00122295
-0.00396584
0.00146457
0.00273367
-0.00182824
0.000562613
-0.00100564
-0.00276885
-0.00175198
0.00175356
-0.00377355
-0.0013656
0.00481133
0.00123909
-0.00273086
0.0143812
0.00385517
-0.00352219
0.000499338
0.00635439
-0.0010552
0.0143849
0.00396782
-0.00215585
0.00865224
-0.00382262
-0.00291232
0.00396801
-0.0014553
-0.00123937
0.0035644
0.00260719
-0.0039639
-0.000359815
-0.00302017
0.00520794
0.00396644
0.00210838
0.000776537
0.00276845
-0.012146
0.00326968
0.00325473
0.00192447
-0.0023111
0.00543314
0.00198407
-0.00118191
0.00221791
0.00206843
-0.00146462
-0.000802696
-0.000503898
-0.0025894
-0.00396273
-0.000802537
-0.00230904
0.0113655
0.00936781
0.000869579
0.0140166
0.0006832
0.00291332
-0.00105451
0.000661642
0.000396302
0.00105394
0.00504944
0.000803677
0.00226026
0.000612301
0.00358548
0.00587138
-0.00210909
0.00393322
0.00352581
-0.00146365
-0.000948579
0.0165663
0.00462577
0.000310557
0.00105411
-0.00105382
-0.00326752
0.00834394
-0.000401314
-0.00462919
-0.00518691
0.00138425
0.000802618
-0.00648123
0.00210817
0.00167194
0.00466175
0.0174053
0.0228513
-0.00173677
0.00550948
-0.00382267
0.000803456
-0.0010208
0.00281747
0.00105486
0.00191427
0.00607409
-0.00393731
0.00804339
-0.00419531
0.00926504
0.0077468
-0.00162588
-0.00335358
0.00466208
-0.00396638
0.00270172
0.000802958
0.00881026
0.0195889
0.00105406
-0.00501813
0.00105392
0.00138412
0.00137703
0.00248762
-0.000520115
-0.00382295
-0.00583798
0.00327155
-0.00105415
0.0025714
0.000547173
0.00335524
0.0109546
0.00145468
-0.000520364
-0.00462734
0.00382459
-0.00427043
-0.00105377
0.00167202
-0.00129874
0.00637967
0.0165743
0.00440322
0.00213604
0.0109517
0.0034212
-0.00146459
0.00501819
0.0193316
-0.00301945
0.00637729
0.00607106
0.00111034
-0.00396704
0.00462848
0.00793054
-0.00260667
-0.000803175
-0.00733838
-0.00142316
-0.000841858
-0.00296774
-0.00739839
-0.00230031
-0.00301975
0.00214488
-0.00129923
0.0018967
-0.00221742
-0.000777389
0.000544782
0.000396025
-0.00104037
0.00175153
0.00162747
0.00291107
0.000375795
-0.000364817
0.0195989
0.00926577
-0.0012075
0.00110776
0.00340739
0.00138503
0.00105491
-0.000803334
0.000802687
0.00134034
0.00221804
-0.00607272
-0.00285407
0.000504028
-0.0025697
-0.00358556
0.00192176
-0.000641298
-0.00299695
-0.00501909
0.0204325
0.00214523
0.00335329
-0.00470789
-0.000519937
0.00502169
0.00965719
-0.00358742
0.000683221
-0.00105388
0.00145705
0.00382402
-0.000803032
0.00449555
-0.0031288
-0.0010546
-0.000753608
0.000814676
0.0100969
0.000401197
0.00291324
-0.000465894
0.00396742
0.00356423
0.000815442
0.000351255
0.00471103
-0.00440397
0.00291276
0.0109536
0.00127909
0.0044937
-0.000802618
-0.00146422
-0.00052055
-0.000581375
0.00607778
0.000611751
-0.00105452
-0.00488387
0.00462403
0.00160561
0.00180333
0.00146532
0.00276487
-0.000396194
-0.00880944
-0.00440453
-0.00239527
0.0174071
-0.00681163
0.0109535
-0.000562852
-0.000683293
-0.000880701
0.00188552
0.00247847
-0.00520836
0.00396709
0.0126239
0.000943835
-0.00291129
0.00868921
0.00569415
0.000401216
0.00312613
-0.00145483
-0.00314944
-0.00243999
0.00221858
-0.00129889
0.000868788
-0.00229977
-0.00040108
-0.00210792
-0.00105402
-0.000337387
0.000802649
0.000802843
0.0028328
0.0054079
0.00314914
0.00157386
-0.000364699
-0.000718627
0.00179361
-0.00273269
-0.00352278
-0.00352256
-0.00462543
0.0027673
0.00162711
0.0022888
-0.00396464
-0.00146478
0.000982849
-0.000697989
0.00255487
-0.00440215
0.00356328
-0.00175827
-0.0038544
-0.0012225
0.00662046
0.00637778
0.00329588
0.000869252
-0.00221746
-0.00381073
-0.0018029
0.0113642
-0.00369829
0.000563481
-0.00155224
0.00396512
0.00439429
0.00393883
-0.0039648
0.0030211
-0.00674883
-0.000841307
-0.000989105
0.00110994
0.00462822
0.00462904
0.00396782
0.00327182
-0.00440398
-0.00166564
0.00393989
0.00230876
0.000488298
-0.000841586
0.00123868
0.0083434
-0.00520672
0.00121748
-0.00291111
-0.000611556
-0.000661913
-0.00129848
0.0174082
-0.00607422
-0.000640967
-0.00182364
-0.000949881
0.00210827
0.00352519
-0.00302091
-0.000611389
0.000815432
0.0021097
-0.000682803
-0.00162839
0.0013647
-0.00326569
0.00352306
0.00111553
0.00110163
0.00137774
0.000802863
-0.00325327
0.000972793
-0.00105392
-0.00210918
-0.000869256
0.0204221
0.00583934
-0.00139239
0.00393864
-0.000989488
0.00210791
-0.00462283
-0.00335509
0.0188842
-0.00239871
0.0220261
-0.00606369
0.00206895
0.000641279
-0.00094323
0.00180399
0.000897028
0.000636571
-0.00162663
0.00681412
-0.00138463
-0.000897113
-0.00229937
0.0113643
0.00105425
-0.00221767
0.00764455
-0.000868867
-0.00129847
-0.00628884
-0.00080284
0.0167827
0.0205163
0.00352205
-0.00358399
0.00354827
-0.000544917
0.000988264
0.0046263
-0.00221729
-0.000943604
0.00105432
0.000868562
-0.00210882
-0.0093622
0.00149709
0.000466091
0.00149625
-0.000673889
-0.000503982
0.00180683
0.00299648
-0.00326772
0.00431405
-0.000661338
0.00129914
0.000683548
0.00105425
0.000802815
0.00759705
-0.00138456
-0.00123948
-0.00384598
-0.00291123
0.00612255
0.0013848
0.00221813
0.00352381
-0.00396628
0.00167207
-0.000897314
-0.00520766
0.00258157
-0.000504181
0.00698419
0.00449261
0.000402426
0.000252105
0.00214861
0.000792487
0.00713271
0.00146536
-0.00326645
0.00149772
0.00231075
-0.00328431
-0.00302112
0.00440716
0.00929247
-0.00037649
0.00145132
-0.00396584
0.00396506
-0.00102077
0.0083433
0.00248017
0.00381441
0.00094371
0.0101392
-0.00326635
-0.00116234
0.000661386
0.000897596
0.000869267
0.00192377
0.00315168
-0.000376853
-0.000748649
0.000661924
0.00324236
0.00868822
0.00271549
-0.00301858
0.00371955
-0.00396442
0.00115076
-0.00114903
0.00192447
0.00145199
0.00231209
-0.000545666
0.00102006
-0.00396526
0.00291122
0.0113666
0.00247837
0.0228624
-0.000611277
0.00105355
-0.00530908
0.0268178
0.0149216
-0.00520764
-0.00396751
-0.00188816
0.000815432
0.00175878
0.00231198
-0.00061124
-0.00335509
-0.00542927
-0.000682971
-0.00231056
-0.000885553
0.00098841
-0.00607587
0.000814369
0.00213449
0.00138347
0.00187952
0.00219689
0.0014908
0.00230105
-0.00230024
0.000611138
-0.000610982
-0.00155208
0.00105983
0.000556947
-0.00105393
0.00105418
-0.000803109
0.000718713
0.0018035
-0.00520924
0.00462876
0.00105388
0.000753492
-0.0043933
-0.00129769
-0.000661184
0.00180442
-0.0108558
0.00396678
0.000471883
-0.00514053
-0.00396694
0.0167859
0.0109575
0.0132541
0.0127766
-0.00501966
0.00173946
-0.000428714
-0.00162668
0.0108639
0.000990457
-0.00213667
0.000978
0.00764751
-0.000718854
0.000988877
0.00804227
0.00661727
-0.00118167
0.000562683
0.000520274
-0.00324178
-0.000401143
0.00396667
0.00427509
0.00471094
-0.002136
0.00550788
0.00569683
0.00291088
0.011365
-0.00144899
-0.00380991
-0.00255091
0.0113667
0.00124068
0.00961109
0.0109559
0.00291204
-0.0028153
0.00961249
0.00302135
0.0228516
0.00607409
0.00936264
-0.0007778
0.00118266
0.00150944
0.0109565
0.0034273
0.000802595
0.00218849
0.00462511
0.0140206
0.000942795
0.00303326
-0.00175989
0.00325298
0.000581152
-0.000868707
0.000802725
0.00087662
0.00449363
0.00521003
-0.000803299
-0.000982997
-0.000869444
0.00396528
-0.000471606
0.00606574
0.0174047
0.00325397
0.0046579
0.0228406
-0.00380991
-0.000661614
0.002767
0.00468125
0.000465438
0.00936538
0.00277056
-0.00396649
0.0149222
-0.00255171
0.00106049
-0.00550899
0.00399198
-0.00372134
0.000166298
0.000802863
0.0149227
0.0174015
0.000802415
-0.00213659
-0.00326728
0.00442935
0.00837827
-0.00276932
0.00734691
0.000802484
0.00259633
0.0012996
-0.00205826
0.000611127
0.00462652
-0.00462495
-0.00248822
-0.000802853
0.00303744
-0.000868393
0.000233284
0.00273378
-0.00221757
0.000989008
0.000683289
0.00396662
-0.00144902
0.004046
-0.000401551
0.00604163
0.00228362
0.015462
-0.00149557
-0.00299648
-0.00396527
0.00342595
0.0109539
0.00190988
0.0030193
-0.00230868
0.0109551
0.000982225
0.000718485
-0.00396549
-0.00396541
0.000449828
0.0010549
-0.00302091
-0.000896436
0.00281498
-0.00196587
-0.00792867
0.00291088
0.00396395
0.00895153
-0.000868988
-0.000545229
0.00106077
0.000557358
0.00219763
-0.000974261
0.000869954
0.0113649
0.00217492
0.000969706
-0.00257065
0.00838666
0.00936563
0.00259823
0.00196719
0.0121644
-0.0029117
-0.00488559
-0.00257098
-0.00281513
0.00301837
0.0174001
0.00518748
0.00486105
0.000670405
-0.00054567
-0.00675097
0.00396485
0.00220863
0.0033549
0.00291245
0.000943652
0.00356139
0.00105419
0.00520856
0.00296823
0.00217955
-0.00219628
-0.00111568
0.00129896
-0.000989461
0.000748438
0.00382341
0.000520286
0.00338765
-0.00167235
0.0021078
0.016776
-0.00230067
-0.00466482
0.000990003
0.00105409
0.00291332
0.00276982
-0.00175871
0.00195648
-0.000841826
0.00439278
-0.00583629
0.00124687
0.00210792
0.00465586
0.0220362
0.00129805
0.000682974
0.00123901
0.0133156
0.00607422
0.00335436
0.00138406
-0.00155129
0.000520384
0.00462599
0.0228513
0.00134003
0.00396915
-0.0021083
-0.000484805
-0.00603971
0.0339391
0.00276823
-0.000814695
-0.00302049
-0.00285449
0.00681937
0.00221889
-0.00243821
-0.000443062
-0.00206739
0.00501819
0.00213776
-0.000753486
0.00607248
0.00393698
0.00115148
-0.00301944
0.00707372
0.00270742
0.00231101
0.00501813
0.000802691
-0.00129915
0.000869516
-0.000496191
-0.0039312
0.00354837
0.000841383
0.0011511
-0.0104169
0.00146552
0.00230134
0.00176025
0.00138511
0.00838717
-0.000611092
-0.0010599
0.000141512
0.0174097
0.0174109
0.0127828
-0.00396533
0.0109572
0.00127307
0.0113602
0.000796491
0.00382199
-0.00230087
0.00105382
0.000988836
-0.00396633
-0.00239899
-0.000442222
-0.000661588
0.0118473
-0.0038229
0.0167748
0.000777295
-0.00569524
-0.00326714
0.00056998
-0.00213516
-0.00382122
-0.00324143
-0.000989024
0.000945277
0.00129756
-0.00723036
0.000922698
0.00244673
0.00551329
0.00404487
0.0011625
-0.000611409
0.00246934
-0.00935808
-0.00175198
-0.00268128
-0.00462701
0.00105409
0.00607833
-0.000803044
0.000611427
-0.00358684
0.00145567
0.00301997
0.0228594
-0.00384746
-0.00520948
0.0109546
0.00397038
-0.00221743
0.0093734
0.000563299
0.000495844
-0.000868979
0.00396535
0.000814861
-0.000943579
-0.00440269
0.00611584
0.00466027
0.004663
0.00230963
0.0126233
-0.000988577
-0.000611734
0.00607521
0.000988893
-0.00229991
-0.00136646
0.000983189
0.0010534
-0.000503825
0.000973268
0.00612317
0.0165767
-0.000884913
-0.00520676
0.0143849
0.00301877
-0.00221725
-0.000141066
-0.00118204
0.00061159
0.00105382
0.00607479
0.00198523
0.0113611
-0.00123836
0.000611434
-0.00127316
-0.0014494
-0.000802662
-0.00290977
0.000611419
-0.00229978
0.00358785
0.00302012
-0.000982109
0.00393661
0.003373
-0.00290207
0.00254976
-0.000989533
0.00342374
-0.00191339
-0.000802912
-0.00391593
0.00192511
-0.00134228
-0.000661447
-0.000520026
0.000661338
-0.00138503
0.0032653
0.000989488
0.0093549
-0.00587052
-0.00302004
0.00105412
0.00396596
0.0024782
0.00219662
-0.00127357
0.00352491
-0.00124637
-0.00149603
0.000869261
-0.000611277
0.00105419
0.00071899
-0.00105448
-0.00291175
0.00369905
0.00086927
0.00230914
-0.00302001
-0.000748795
0.00231017
0.00105419
-0.00326668
0.00869054
0.00590093
-0.00105354
0.00397033
0.00393296
-0.000803157
0.0132575
0.00221836
0.00544155
0.005414
0.00291232
0.00440352
-0.000989294
0.00267878
0.00213743
0.0022831
-0.00123872
-0.00384629
0.000803169
0.00068345
0.00356201
-0.00352362
0.000803382
-0.00326751
0.00136549
0.00098235
-0.00116221
0.000868087
-0.000428463
0.000983208
0.00124025
-0.00175833
0.00105424
0.00439005
-0.00440462
0.000802404
0.000803306
0.00105491
-0.00205912
-0.000611857
-0.00291187
-0.0062894
-0.000899562
-0.00210727
0.0126233
0.0165741
0.00249091
0.00494079
0.00449351
-0.00471006
-0.00162644
0.0127802
-0.00218782
0.000611131
0.00606292
-0.000683204
-0.000581295
0.00936224
0.00393634
0.00249095
0.00260507
0.00302219
0.00249229
-0.00123951
0.0188842
0.0138644
0.00153026
0.000867926
-0.00136558
0.00182673
0.00466054
0.0029129
0.00838027
-0.00061124
0.000944202
0.00162675
0.00612554
0.000989273
0.000803449
0.00105474
0.00428793
0.00936038
-0.0071262
-0.000802127
0.0066177
0.010563
-0.00520844
0.00293136
0.00335555
0.00291294
-0.0027134
-0.00462387
-0.00583483
0.000520299
-0.000661582
0.00105483
0.0022182
-0.000636969
0.00206834
-0.00210809
-0.0012977
-0.00118239
0.000687852
0.000684107
0.000982555
-0.00123839
-0.00230915
0.000520324
-0.00301932
0.00440812
-0.00102037
-0.00129764
0.00230978
-0.000896703
-0.000868356
0.00612202
0.018888
0.0105622
-0.00320877
-0.000868797
-0.0020029
-0.00213527
0.00146416
0.00134158
0.00396512
0.000885192
0.00283405
0.000879794
-0.000544742
-0.000802559
-0.00302018
-0.00177136
0.000802902
0.00064043
-0.00607304
-0.0024896
0.00352353
0.0193225
0.00972968
0.0100937
0.00396765
-0.000885765
0.0110014
-0.000520055
-0.00066235
0.00176053
0.000842228
0.00551189
-0.000495235
-0.000802462
0.000802808
-0.00129877
0.000616739
0.00774397
-0.00134027
-0.0008967
0.00105406
-0.000989221
0.0046799
0.00231101
-0.00175952
-0.00371997
0.00440343
-0.00787318
0.0038115
0.00521065
-0.00481213
0.00713941
-0.00787688
-0.00231001
-0.00270547
0.000885464
-0.00144909
-0.00502011
-0.00338665
0.0228516
-0.00542727
-0.00488323
-0.000896985
0.0029112
-0.00229988
-0.00240032
-0.00396615
-0.00211069
0.0104199
0.00517663
0.0126252
0.0126215
0.00607765
0.0203101
0.00881201
0.00195812
-0.00213575
0.0105634
0.000944437
0.000874615
-0.00358613
-0.00168865
0.00396686
0.00356485
-0.00381141
-0.00371875
0.00393467
0.00543741
-0.00607301
0.0027125
0.00534139
0.00211011
0.00129729
-0.00440397
0.00449386
0.00327138
-0.00291233
-0.00189628
0.00229915
-0.00155181
0.00105485
0.00520481
-0.00247704
0.00314909
-0.00462489
0.000401224
-0.00167207
-0.00153213
0.000868259
0.00188761
-0.000187642
-0.00427048
0.0011112
0.00068358
-0.00105447
0.000988714
-0.00190387
0.012779
0.0188902
-0.000802987
0.00973169
-0.00530908
-0.00248861
-0.0029925
0.000842237
0.00031044
0.00382227
-0.00356553
-0.0029122
-0.00396498
0.00105488
0.000611953
0.00247851
-0.000988688
0.000803445
0.00221723
-0.00391509
0.000802863
-0.00213667
-0.000244717
0.00136547
0.00216552
0.00941919
0.000338426
-0.00462409
-0.00111564
-0.000802431
0.0035239
-0.00162618
-0.00488631
-0.00377355
-0.000943868
-0.00196589
-0.0043126
-0.00124007
-0.000988447
0.000637085
0.00276569
-0.00134063
0.00396769
-0.00470986
0.0028165
-0.00326635
-0.00136697
-0.00196598
-0.00398966
0.00105424
-0.000547049
0.00192239
0.00358577
-0.00431073
0.00371998
0.00449045
-0.00271381
-0.000988882
0.011364
-0.00144841
0.00257022
-0.00396514
-0.00513871
0.0266574
-0.00569511
0.000841469
-0.000982198
-0.00080749
0.00105463
-0.00044285
0.00155238
-0.000995279
-0.000802666
-0.00629005
0.00301901
-0.000429029
0.00470924
0.0029115
0.00271303
0.00138515
0.00143745
0.00276608
0.00061228
0.0268293
0.00589845
-0.0026789
0.00302124
-0.00019807
-0.00217224
0.000982555
0.00105387
-0.00470716
-0.00146353
-0.00291214
-0.00195693
0.00291245
0.00759025
0.00396846
0.000232821
-0.00440368
0.000683533
0.00105377
0.00607521
0.00465703
-0.000753071
0.0142211
-0.00427043
-0.00105445
0.000988772
-0.00129766
-0.00248015
-0.000581388
0.00196719
-0.00462495
-0.0012396
0.00413505
0.0105628
0.00517738
0.000611153
-0.0012387
-0.00404476
0.00255063
0.0188842
-0.00146441
-0.00291085
0.00662189
-0.00138418
0.000465652
-0.00283377
0.00105407
0.000465681
-0.000611227
-0.000982877
0.00396469
-0.000752701
0.00105424
-0.00138422
-0.00105388
-0.000504006
-0.0010541
0.00168839
0.0016001
0.00485905
0.0268092
-0.00167101
-0.00248939
0.0052025
0.000682986
0.00123929
-0.00642169
0.00230874
0.00384574
0.00444449
-0.00396587
-0.00396592
-0.00583634
0.00440832
0.00917527
-0.00290274
-0.000896502
0.00175916
0.00162739
-0.0020041
-0.00382339
0.00290283
0.000868842
0.000943188
-0.00105373
0.00105409
-0.00133943
0.00431356
-0.000803099
0.00133967
-0.0012465
-0.00037635
0.000583082
0.00382272
-0.0037206
0.012202
0.00462919
-0.000948976
0.0113667
-0.00256975
-0.000803027
-0.00271391
-0.00520739
0.00396486
-0.000661798
0.000943718
0.0012393
-0.00230024
0.0024883
-0.00412953
-0.00260664
-0.000358963
0.000897724
-0.000766684
0.010559
-0.0030498
-0.00089976
-0.000802785
-0.00192372
0.00040172
-0.00607587
-0.00607587
0.00355396
0.0204309
0.0149227
-0.000530717
0.014384
0.00129804
-0.000520451
0.00544428
-0.00152524
0.00215445
0.00388332
-0.0019238
-0.000803185
0.00570155
0.0195889
0.00397095
0.0050532
-0.00291186
0.0228513
0.00276596
-0.00523668
0.0167717
-0.00607259
0.00448917
0.00291092
-0.00094325
0.0109946
0.000442753
-0.00116321
0.00381346
0.000611598
0.00176053
-0.00723538
-0.00382147
0.00301956
0.0228522
0.00502141
0.000748107
0.00246892
0.00635353
-0.00326503
0.00502162
-0.00502018
-0.00382331
0.00168801
0.00543288
0.00173695
-0.00607149
-0.00146466
0.0048604
0.0174097
0.00221823
0.00116044
-0.00230973
-0.000519924
0.00964038
0.00247754
-0.00105422
0.00160003
-0.000814997
-0.00302131
-0.000718794
-0.00301892
0.00635481
-0.00124614
-0.000673731
0.00291307
0.00303042
0.00218787
0.0182055
0.00124105
0.000472488
0.0017938
0.00232477
0.00105414
0.00195819
0.00105488
0.0021087
0.00247768
0.0038135
0.00485877
0.00301962
0.00145762
0.00145557
-0.00381051
0.00116284
-0.00171946
0.000662059
-0.00102084
-0.00172125
0.00061723
0.0023079
0.00326935
0.00520745
0.00517844
0.0113642
-0.00963657
-0.00302031
0.00206819
0.00638347
0.0149214
-0.00825881
0.0266699
0.00356371
-0.00200285
0.00249134
0.0143827
0.0155542
0.00257031
-0.0029099
0.00229974
0.00134139
0.014384
0.000901737
0.000661625
0.000868554
-0.0013653
0.00152652
0.000753054
-0.00431317
-0.00337603
0.00500396
0.0048874
-0.000662053
-0.00214398
0.00105449
0.000683506
0.0029132
-0.00352279
0.00218904
0.00273346
-0.00145011
-0.00396566
0.00635442
-0.00291186
0.0182098
0.0196884
0.00449494
0.00589771
-0.0032112
0.00834469
0.000943437
0.00105399
0.000519838
0.000364585
-0.00462593
-0.00396477
0.000273773
0.00130054
-0.00180416
0.000611377
-0.000428901
-0.00138422
0.00129872
0.0041414
-0.000813902
0.00419443
0.00352519
0.00302022
-0.00291187
-0.00314983
0.00175884
-0.00213468
-0.00271483
0.002716
-0.0037185
0.00606744
0.00372332
-0.00520858
-0.00120678
0.00198368
0.00466245
0.00466253
-0.000661645
0.00834401
0.00338748
0.0159752
0.00471328
0.0105641
0.0196995
-0.000610919
-0.000661979
0.000803339
-0.000186106
0.00259676
0.0019659
0.00356278
0.00136625
0.0114055
0.0228516
0.0105634
-0.000661512
0.0010544
-0.00230009
-0.00291123
-0.00291255
0.00880686
-0.00697479
0.0174015
0.00231012
-0.00123799
-0.00461841
0.00230122
0.0093599
7.83012e-05
-0.0046175
0.00936082
0.00351923
-0.00396663
0.00210791
-0.00105304
0.00259637
0.00396801
0.000988964
0.00371824
0.00231023
-0.000401253
0.000942742
0.00366279
0.00488835
-0.004132
-0.000900329
-0.00230035
-0.00880944
0.0167748
-0.00182688
0.00110818
0.00712878
0.00607271
0.00302197
0.00326752
0.000802853
-0.0016266
0.00301995
0.00382482
0.000611832
0.00246934
-0.00697339
0.00157827
-0.000682851
0.00105527
0.001458
-0.000803251
0.0012458
-0.00231062
0.0037235
0.00520996
-0.00291175
0.00231007
0.000748402
-0.00123937
0.00276971
0.00139275
-0.00105445
0.00146393
-0.00216793
0.0104181
-0.00160614
0.00260672
0.00471277
-0.00179818
-0.00413479
-0.000442367
0.000611314
0.00155082
-0.0029653
0.00138456
-0.00097358
0.000880776
0.00414281
0.00118195
0.0023
0.0018677
0.00381262
-0.00320867
-0.000748236
-0.00129922
-0.00155902
-0.00221788
0.00354865
0.00105417
-0.000988964
-0.00582178
-0.00221724
-0.00247704
0.00160555
-0.00462658
0.000989161
-0.00196446
0.00382456
0.00837701
-0.0038216
0.000876694
0.00168949
-0.00124559
-0.00167197
0.00642539
-0.00105417
0.00520938
0.000982989
-0.0013849
-0.000896765
0.00188641
0.0100456
-0.000661121
0.00396284
-0.00229959
0.0101398
0.00502145
-0.00173797
0.00478984
0.0044033
0.010557
0.0173998
0.00270457
-0.00206733
0.00396635
0.00337409
-0.00302048
-0.00291235
-0.00488605
-0.00396709
0.000682641
0.000661221
0.000504054
-0.00396714
-0.00162612
-0.000661538
0.00136866
0.00461803
0.000988493
-0.00291142
0.00127817
-0.0084386
0.00230925
0.000753154
0.00302205
0.0032105
-0.00396732
0.000969626
0.000767641
0.00230239
0.000802863
0.000442521
0.00268455
0.000777421
0.00155829
0.000803344
0.001218
0.00162667
-0.00221657
-0.000944592
-0.00444613
0.00865437
-0.0014633
0.00358611
0.000990282
0.00285533
0.00611844
0.00127258
-0.00179415
0.0140186
0.00355191
-0.000520399
0.000982875
0.00219489
-0.00105446
-0.00175196
-0.00162672
-0.000921195
-0.00143717
0.00134089
-0.000545024
-0.000696871
-0.0014649
0.0113593
-0.00210718
0.00488334
-0.00105403
0.00315246
0.0009441
0.00396476
-0.00192215
-0.00607301
0.00127337
-0.000683162
0.00396667
-0.00291042
-0.00011651
0.000396438
0.00381314
0.000868339
0.00116398
-0.00326594
-0.00228691
-0.000988956
-0.0035202
-0.00764678
0.00173795
0.00215582
0.00804339
0.00612162
0.00105404
-0.00493808
-0.00440526
0.00485636
-0.00358468
-0.00382186
-0.0016262
0.00465944
-0.00175863
0.00521032
0.0149222
-0.00825902
0.0036963
0.00356518
0.000662321
-0.00118226
-0.00136741
0.000563302
0.0017376
0.00396364
0.0086528
0.00381164
-0.00273105
0.000896448
-0.00305074
0.00146519
-0.00188069
-0.00221788
-0.000305469
0.0043144
0.0132603
0.0100937
-0.00583927
-0.00248861
0.00192227
0.00221702
0.00803725
-0.00229873
0.00637899
-0.0046271
-0.00291058
0.018891
-0.00502049
0.0205024
0.00080354
-0.00569921
0.000583266
0.00937567
-0.00838161
-0.00291241
-0.00138459
-0.00369597
-0.00221739
0.00342039
-0.00210915
-0.00066196
-0.000753125
-0.000520324
0.000982802
0.00138498
0.000581267
0.00382436
0.00501854
0.0220338
0.00462926
-0.00786476
-0.0093601
-0.0012176
-0.00168847
-0.00530902
-0.00530825
0.00271123
0.0019568
-0.00607178
0.000141571
-0.00123904
0.00175997
0.004136
0.000126986
-0.00105374
0.00396701
0.0101296
-0.00372078
-0.00231032
-0.00396565
-0.00219682
-0.00219612
-0.000661628
0.000802884
0.00118236
-0.000815385
0.00354845
-0.00787168
-0.00255051
0.00121943
-0.000251915
-0.00396653
0.00260731
-0.0039669
-0.00302003
0.00382444
0.0133211
0.00607187
0.00215731
0.00396709
0.00102148
-0.0041303
-0.00162723
0.00122278
0.00638333
-0.000802902
0.000611401
0.00123947
0.00320796
-0.0100404
-0.00210915
-0.00396601
0.000948855
0.0167859
-0.00570088
0.026825
-0.00582318
0.00342379
0.000288216
0.00128367
-0.00206647
0.00312654
0.0127802
0.00544563
0.0238311
0.00431292
-0.00396817
0.00803886
-0.00443202
0.000520122
0.00156004
0.00146456
-0.00248785
0.000802815
0.00208182
0.00124054
0.0126202
-0.002845
0.0193344
0.00240007
0.00305052
0.000495794
0.00396792
0.00356362
0.00340444
0.0104223
-0.00396611
0.00111527
0.000545009
0.00372099
-0.000581295
-0.00138421
0.0060759
-0.00396708
-0.00116338
0.000868371
0.000868371
0.000683204
-0.00127284
-0.0044034
0.00105424
0.000636857
0.00068358
0.00382389
0.0266574
-0.00461809
-0.0087848
-0.00302071
-0.00066197
-0.00105423
0.00335314
0.00146436
-0.00247718
0.000803403
0.00440548
-0.000753441
0.00105421
0.00834307
0.00589988
0.00302049
0.000141529
0.000868927
0.00160511
0.0016885
-0.00086847
0.00340107
0.0155567
0.0109556
0.00376266
0.0132513
0.0054352
0.00175951
-0.00314948
-0.00419622
-0.00444587
0.000520128
-0.0055329
-0.000718416
-0.00675105
0.000868711
0.00123764
0.0127771
0.00396615
0.00303007
-0.00175892
0.00142314
-0.000802123
0.00118157
0.000107297
0.00444884
-0.00335445
0.00303144
-0.00115461
-0.00326778
-0.00291196
0.00105343
-0.0032428
0.0101392
0.00440279
0.00335387
0.00439441
0.000748631
0.00257084
-0.00301807
0.00382524
0.00396495
0.00413153
0.00382451
0.00637778
0.00251105
0.0149208
0.0352183
-0.00466209
0.00291094
0.00182679
0.00865358
-0.000803075
0.00221796
0.0339391
-0.0071262
0.0167748
0.00123953
0.00804393
0.00638284
0.000520642
-0.000841565
-0.000618824
0.00803449
-0.000802842
-0.000442952
0.00281574
0.00440674
0.00230105
-0.00105439
-0.00396537
-0.00214431
-0.0030205
0.00354905
-0.000942908
-0.000869276
-0.00302127
-0.000697451
-0.000661021
0.00105506
0.0023008
-0.00221697
0.00271469
0.00230885
0.00382245
0.000943795
0.00466198
0.0143833
0.0105607
-0.00352416
-0.00153111
-0.0021979
-0.00162562
0.0025098
0.00173674
0.0105594
-0.00123887
-0.000311175
0.0015277
0.00276999
0.0204288
0.004134
0.00325448
0.0203101
-0.00281548
0.0143867
0.0109562
0.000748574
0.00138332
0.013867
0.0100434
0.00396651
0.0165637
0.00371918
0.0174027
0.0113614
-0.00268224
-0.000803133
0.000982953
0.000815096
0.0030407
0.00301994
0.000544917
0.000777915
0.00105451
-0.00603923
-0.00162648
0.00381
0.000305389
0.00520756
0.00302146
0.0058393
0.00052033
-0.00221791
0.00122305
-0.000442726
0.00606928
-0.00218793
-0.00607603
0.000803568
-0.00462393
-0.00291155
-0.00550879
0.0220338
-0.0050212
0.00486035
-0.00276878
-0.000661637
-0.00105441
0.00123823
0.00276775
0.000141101
0.00925802
-0.00880815
0.0173988
0.00254976
0.000661979
0.00110987
-0.00582178
0.00413012
0.000896679
0.00611916
-0.00301959
-0.00247883
-0.00080304
0.00607752
-0.00520728
0.00712915
-0.00138519
0.00129811
0.00381302
-0.00291235
0.000868457
0.00504252
0.00213506
0.00335574
0.00225907
0.00192198
-0.00248798
-0.00354959
0.00257088
-0.0019218
-0.00607301
0.00462409
-0.000396296
-0.00502084
0.000943091
-0.000885034
0.00138253
-0.00216578
0.00111618
0.00277045
0.00964038
0.00248879
0.00381185
0.000545699
0.00138419
-0.00444629
0.00138372
-0.00216658
0.00635442
0.0132575
0.00396642
-0.00123949
0.000636516
-0.00105455
-0.00105328
0.00611053
0.0020049
0.00137031
0.00291328
0.002913
-0.00396401
0.00142183
-0.000661728
0.000988837
0.00167133
-0.000897089
0.000376201
0.000563143
0.00180509
-0.000504016
0.000843531
-0.00105503
-0.00133966
-0.00066172
-0.000611328
0.00449523
0.00302218
0.00481307
-0.00190312
0.000428311
-0.00381073
0.0046273
0.00804016
0.0193225
-0.00160528
0.00356605
0.000582393
0.000673949
0.00937544
0.00352364
0.0016712
0.0228578
-0.00118216
0.0029141
0.00865577
0.00291385
-0.00162594
0.0126213
0.00380908
-0.000802884
-0.00371863
0.000503746
-0.000868612
-0.0104145
0.0143858
0.0044487
-0.000141477
-0.00240034
0.00291088
0.00370046
-0.000337141
0.0159775
0.00449841
0.00168992
-0.00133959
-0.0028153
0.00303573
0.00111072
-0.00162667
-0.00248807
0.00804088
0.00291239
0.000640493
-0.00382248
0.00372325
0.00080304
0.00936538
0.00521022
0.00335496
0.000376686
0.001626
0.00219418
0.00462483
-0.00213588
0.00123802
0.0143852
0.00635304
0.00101956
-0.00175791
0.00301938
-0.00607587
-0.00239907
0.00419611
0.000661858
-0.00163948
-0.00325202
-0.00520811
0.00046631
0.000661014
0.0126202
0.00804407
0.0024912
-0.00239861
0.000465811
0.000802658
-0.000897345
-0.00106107
0.00138556
-0.000520244
-0.000611625
0.0114109
-0.0018576
0.0132603
0.00501867
-0.00501892
-0.00243899
-0.00326893
-0.00381006
0.000752931
0.000640945
0.0149237
0.00382264
0.0143871
-0.00603923
0.00439033
0.00114316
-0.00440408
0.00105344
0.00210788
0.001923
0.000988629
0.00105415
0.000802677
0.00122295
0.00210837
-0.000803018
-0.00607558
0.0167796
-0.00444689
0.000869497
-0.000305825
-0.000802775
-0.000989307
-0.00179328
0.000896985
0.00301909
-0.0060711
-0.00530966
0.00713748
-0.00488545
0.00503814
0.000943594
0.00396761
0.000520611
0.000922322
0.00105424
0.000815138
-0.00352362
0.00129836
0.00069788
-0.000803147
0.00061674
0.00111516
0.00210695
-0.000748081
-0.00543843
0.00283489
0.00281637
-0.0010539
0.000982222
0.00182633
-0.0035651
-0.000748667
0.00270743
0.0113667
0.0103206
-0.00195689
0.000969917
0.00118156
-0.00211045
0.00257087
-0.00427084
-0.00138412
0.00106069
-0.000885769
0.00935724
0.00146432
0.00661454
-0.00299695
-0.00155086
0.000970834
0.00089654
-0.00210887
-0.000683666
-0.000938896
0.000922501
0.000921463
-0.00205938
-0.000922271
-0.00162549
-0.00105429
0.00068349
-0.00160582
0.00611584
-0.00190479
-0.00352403
-0.0016262
-0.00160526
0.000802241
0.0173989
0.00127646
-0.00301985
0.0109507
-0.000988602
0.00382412
0.00173936
0.00352176
-0.000802281
-0.000465818
-0.000520483
0.00352305
0.0149222
-0.00138366
0.0023013
0.0029052
0.00190581
0.00382449
-0.0033542
0.00382449
0.00176004
-0.00146434
-0.000897151
-0.000400944
0.00271664
-0.00230013
0.0165663
0.00195812
0.00396765
-0.00356475
-0.00291118
-0.00443534
0.00520675
0.000748612
-0.00562721
0.00301941
-0.000802936
-0.00105456
0.00221888
0.00219557
0.00166498
0.00543836
-0.0088073
-0.000896722
-0.00587178
0.0142275
0.00661394
0.022847
0.00520903
0.00302123
0.00607181
0.00162719
0.000989408
0.00440428
0.000884788
0.00310278
-0.00382277
0.00712905
0.0068088
-0.00105425
0.00462853
0.000943315
0.000896869
-0.000187235
-0.000284729
-0.00520913
0.0228406
-0.00291137
-0.00270421
0.000503711
-0.000868083
-0.00301854
0.0029112
0.00302113
0.000273291
0.00355417
-0.00299745
-0.00259771
-0.00826129
-0.00396402
0.00205882
0.00138373
0.00206542
0.00444478
-0.00393583
0.00935578
0.014382
0.00589733
0.0046599
0.00229985
0.00270207
-0.00221709
0.000520185
-0.00193489
0.00520867
0.00662224
0.00145563
0.00302091
0.00834377
0.0113666
0.00302042
0.00229992
0.000636443
-0.000198085
-0.00210944
0.000611368
-0.000868952
-0.000591701
0.00301942
0.00056974
0.000719073
-0.00582225
-0.00031243
0.00865442
0.00834394
0.00462097
0.00315264
-0.00396626
0.00396801
0.00276527
0.00230196
0.00179359
-0.00248882
0.0039656
-0.00396604
-0.00080343
-0.014838
0.0012176
-0.000442579
-0.00291164
0.00182793
0.00168956
-0.00180266
0.00074906
0.00463183
-0.018718
0.00249019
-0.00189594
0.00270454
0.00123937
0.000989133
0.00185717
0.0010538
0.00326898
-0.00462495
0.00440601
0.00612262
0.00431567
0.00301998
0.0039669
-0.00610889
0.0121644
0.00342264
-0.0041313
0.00291162
-0.00248956
-0.00123875
0.00255485
0.00267028
0.000581218
-0.006118
0.000949633
-0.000942745
0.00396792
0.00449386
-0.00123913
0.0100376
-0.00163992
0.00531391
0.0173989
0.00356291
0.00290412
-0.00071887
-0.00248962
0.000616302
0.00607479
0.000944282
0.00221681
0.000377164
0.000942852
-0.00105417
-0.000803123
0.000611869
0.000305336
-0.00680793
-0.00793077
0.000753466
-0.000988857
-0.00089685
-0.000778545
-0.00123882
-0.00149684
0.00276892
-0.00139323
0.0069864
-0.00302076
-0.000358775
0.0339349
-0.00162662
0.000989678
-0.0027629
-0.0038229
0.00562968
-0.00793257
0.00396818
0.00612072
-0.00248884
0.00123964
-0.00188629
-0.0010546
-0.000683092
0.000802442
-0.000683121
0.000868048
-0.00138463
0.0122039
0.0017588
-0.00218399
-0.00105361
-0.000982231
-0.00213512
0.00179403
-0.0010546
0.00250964
0.00440642
-0.00291175
0.00247702
-0.00110169
0.00542898
0.000662515
-0.00108315
0.00366284
0.00142276
0.00167197
0.00118178
0.00190423
0.00231056
-0.00221705
-0.00179361
0.00155788
-0.00149048
0.00216648
0.000921688
-0.00146519
0.00162666
0.00358748
0.00175958
-0.00143703
0.00246046
-0.000661624
0.00219537
0.000662092
-0.00372063
0.00210837
0.00221802
0.000803475
0.00486205
-0.00301935
0.0100961
-0.0024385
0.0113656
-0.00440269
0.00342001
0.012622
-0.000896564
0.000897468
0.000752887
0.00138823
-0.000943969
0.00611714
-0.00466481
0.00713895
0.0143894
0.00486205
-0.00206709
0.000802358
-0.000671615
-0.0035627
-0.00462734
-0.00462688
0.00607587
0.00221753
-0.0130067
-0.00520691
0.00937889
0.0079358
0.000896637
-0.000611212
-0.00542548
-0.00271441
0.0048858
0.000943461
0.000378972
-0.000285052
0.00291138
-0.000802978
0.00230933
0.00142244
0.00723609
0.00521017
0.000661338
-0.000944047
-0.00105457
-0.00123913
0.00129805
0.00397067
0.00371998
0.00251192
0.000718512
0.0143851
0.0203101
0.000802853
-0.00116221
0.000803143
0.00611954
0.00129775
0.0104116
0.000428714
-0.00396518
0.0012389
-0.00393449
-0.00214406
-0.00232366
0.00302223
-0.00130604
-0.00302138
0.00520902
0.00393679
0.00138376
-0.00335307
0.0159752
0.00271306
0.00485802
0.018717
0.00196419
0.00590205
0.00273335
-0.0038236
0.00175235
0.0188863
-0.00396652
0.000989088
-0.00116237
0.00399123
0.0258565
0.00382248
0.00105388
0.00793359
0.0101439
-0.000880383
-0.00384561
0.000802858
0.00105412
-0.00155918
0.00355598
0.00291324
0.0046683
0.000682989
-0.00122261
0.00369772
-0.00697183
-0.00273143
-0.00138372
-0.00155236
-0.00543061
0.0132561
-0.00369667
-0.000803012
0.00607778
0.00145079
-0.000611131
0.00127284
0.00449273
0.00303035
0.00168946
-0.00123869
0.000661479
-0.00382313
0.0132575
0.0046263
0.000683389
-0.00175882
-0.00173759
-0.00123803
-0.00231073
0.000803431
-0.00431276
0.000802559
0.0046208
0.0105641
0.00123984
0.00471157
0.00146454
-0.00196441
-0.0100367
-0.00396584
-0.000520413
0.00176363
0.00172115
0.000674402
0.00162783
0.00118176
0.00465567
0.00826112
0.000428944
0.00105471
0.00157443
0.00355165
0.0220365
0.00868885
0.0130006
0.00488253
-0.0100406
0.00396625
0.00611857
0.00531291
0.00142295
0.00192384
-0.000803138
-0.000802628
-0.00607301
0.00607304
0.00255625
-0.00138373
-0.000428463
0.00342092
-0.000748337
0.00396714
-0.00291162
0.00865415
-0.00301956
-0.000841032
0.00151646
-0.00303089
0.00569931
0.0121685
0.013867
0.0167815
0.0143876
0.00213688
-0.00433766
0.0138644
-0.00244496
0.00713523
0.00281558
-0.000682841
-0.00712663
0.0132596
0.0258614
-0.00550935
-0.000557682
0.00735281
0.00221812
0.00260585
-0.00105426
0.0220389
0.00102158
