0.00185749
0.000802847
-0.00138321
0.00396653
0.000765479
0.0109518
0.0155526
-0.000802582
0.019693
0.019693
0.00189624
-0.00239861
-0.00303089
0.00049528
0.00501819
0.00384469
0.00302147
-0.00358488
0.0167717
0.00612436
0.0021085
-0.00396435
0.0203101
0.00396709
-0.00291185
0.00327075
0.00925876
0.00607692
0.00697408
0.00589905
-0.00335392
-0.00124079
-0.0012985
-0.000581493
-0.00138354
0.00865415
0.0117598
0.000683208
0.0104164
-0.00569788
-0.00396541
-0.00283337
0.00865482
-0.00129809
0.000814479
-0.00123916
-0.000401088
0.00105495
0.0114072
0.000989371
0.00276486
0.000896703
0.00466403
-0.00105392
0.000569811
0.00271616
-0.00138465
-0.000989199
0.000442991
0.0113638
0.000896746
-0.00530926
0.0193253
-0.00146382
0.000616937
-0.00301937
-0.00192089
-0.00440557
-0.00162692
0.00162787
0.000520299
0.00138362
-0.000616096
0.00151076
0.0159772
-0.000974395
0.000683986
-0.000803065
0.00520862
0.00612522
-0.00291047
-0.0039343
0.00139245
0.00443575
0.0010542
-0.0010544
-0.0010536
-0.00146477
0.000611882
-0.00127683
0.00462595
0.00315238
-0.00273121
-0.00219759
0.00221816
-0.00109454
0.00134319
-0.003823
-0.000616883
0.0022166
0.00834394
0.00531422
0.00291251
0.0113657
0.0020691
0.000544915
-0.000285872
0.00466166
-0.0187211
0.00427229
0.00542946
0.00396566
0.00168951
0.00895323
-0.00179419
-0.00488385
0.00176364
-0.00106074
-0.000748452
-0.00162587
0.000802535
-0.00225931
0.00105426
0.00291314
0.00543836
0.00247692
-0.00880617
0.00291314
-0.00501864
-0.0027686
0.0202942
0.00485644
-0.00196455
0.00105421
-0.0025967
-0.000982268
-0.00217301
0.000442753
0.00080257
0.000592153
0.00440407
-0.0039669
0.00637992
0.00138508
0.00162889
0.0167796
0.00607181
0.00176008
-0.00200369
-0.00149683
-0.00501982
0.00532277
-0.00843481
0.0039643
0.0104165
-0.00185008
-0.00382313
0.00520814
-0.00210818
-0.00230877
0.000802632
0.00291076
-0.00502
-0.000569845
-0.00712887
0.00502062
-0.0009829
0.004495
0.00396811
-0.000867341
0.000989118
-0.000718157
0.00221888
-0.000873766
0.00382155
-0.00382295
0.00230894
0.000661806
-0.00123905
0.00428493
0.00838028
0.00146569
0.000545028
0.00203637
0.0025098
-0.00155185
0.00105484
0.00937248
-0.00606512
0.0149265
0.0140186
-0.00230013
0.0174104
0.0228623
0.00116213
0.00961044
-0.000545192
-0.00138461
0.00382377
0.00158543
0.00138463
0.000803296
0.00179415
0.0149269
-0.00382303
0.00111008
-0.000581493
0.000803005
-0.0010542
-0.00698605
0.00155198
-0.00129887
0.00607421
0.000719057
-0.00109011
0.00176075
-0.00229977
0.0029118
-0.000273496
-0.00248759
0.014386
0.00105389
-0.00105383
-0.00124526
-0.000143948
0.00114959
0.00396473
0.00569796
0.00105388
0.00509405
-0.000868116
-0.000802731
-0.00326617
0.00612414
0.00195705
-0.00396682
0.00325669
0.0182075
0.00803519
-0.00105407
0.000503809
-0.00105355
-0.00284472
-0.00338543
0.00661904
-0.000943868
0.014452
0.00129977
0.000611508
0.00834215
-0.00276211
0.00291121
-0.00138462
0.00310394
0.00138343
-0.000752985
-0.000748508
0.00335371
-0.00382061
0.0017626
0.00396513
0.000520346
0.00184389
0.0109556
-0.00064129
0.00105549
-0.000555622
-0.00520588
0.000610913
-0.00372113
0.00231195
0.00182707
0.00434193
0.000868816
0.000841504
-0.00352388
0.0044061
0.00141951
0.0013671
0.000611471
0.00470822
0.00046542
-0.000442766
-0.00179313
0.000682817
-0.00232461
-0.00192159
-0.00488346
-0.00257839
-0.00109454
0.00189683
-0.00217365
-0.00325206
0.0220285
0.0138685
0.000683171
0.00138331
0.00488492
-0.0018271
-0.00105333
0.000802639
-0.0019233
0.00105427
-0.00226061
0.0127766
0.00764455
0.00291166
0.0109529
0.00230196
0.00105451
0.00192286
-0.00104107
-0.00268293
0.0220258
0.0144394
0.000802618
0.00396447
0.000841338
0.00061124
-0.00123889
0.00291102
0.00240007
0.00449734
0.000682912
0.00521074
-0.0030198
0.00326787
0.00680954
-0.000395963
-0.00219408
-0.0027693
0.00149719
-0.000802628
-0.00162568
0.00462396
0.00301935
-0.00607301
-0.00185769
0.000570472
0.00138497
-0.000868669
0.000377434
0.000401026
0.00462577
-0.00247853
-0.000802929
-0.00213537
-0.00962973
0.00248962
0.00302145
0.00271173
-0.00075318
0.000662181
-0.0010545
-0.00129839
0.00149619
0.0205024
0.0312871
-0.00396511
0.00590174
0.00142297
-0.000988884
-0.00291239
-0.00372042
0.00865437
0.00865566
0.00629317
0.00382516
-0.00382412
0.00936558
0.00129816
-0.00105451
-0.00471024
0.00465922
0.000611865
0.00146514
0.00127274
0.0149153
0.00324366
0.000412618
0.00583545
-0.00150921
0.00465974
-0.00514029
-0.00152451
-0.00381163
0.00795927
-0.00583716
0.00803306
0.00396681
0.00973169
0.00149048
0.0121977
0.00326963
-0.00108548
0.000503999
-0.00157587
-0.00129806
-0.000868404
-0.00461886
0.0174099
-0.000520292
-0.000803449
-0.00348212
-0.00105419
-0.000815602
-0.00138462
0.00105321
0.00248884
0.0109577
0.00138326
0.000979927
-0.00326526
-0.000520432
0.00302001
0.00118179
-0.00488458
0.00081595
-0.000569729
-0.00276883
-0.00210763
-0.000777689
0.00138326
-0.00221683
0.00868439
0.0020668
0.0025958
0.0032404
-0.00248798
-0.00152573
0.000305385
0.0100386
0.0165746
0.000802532
0.0010545
0.0174001
0.00734888
0.0195844
0.00462403
0.000803296
-0.00133998
-0.000803125
-0.00396501
0.000802559
-0.00607288
0.00105419
0.00413594
0.0038133
-0.000611306
-0.00192153
-0.00291241
0.00124517
-0.000611062
0.00466732
-0.00172135
0.00366663
0.0109548
0.00926303
0.0109589
0.00302148
-0.00136698
0.0144394
-0.00175165
0.0193282
-0.00192355
-0.00106115
-0.00396527
-0.00138312
0.00514531
0.00465944
-0.0032836
-0.00248785
0.0167748
0.00213582
-0.00352134
-0.000617004
0.0023005
0.00462057
-0.000294688
-0.000683074
-0.00335477
0.00973338
-0.00302103
0.018725
-0.000285395
-0.00162663
0.000682841
0.00105388
-0.00179353
-0.000868167
0.00219551
-0.00121805
0.000442705
-0.00138381
0.000815917
-0.000973907
0.00145624
0.012779
-0.00092183
-0.00302028
-0.00213515
0.00291104
-0.00335456
-0.000570039
0.000943317
-0.000442429
0.00521021
0.00115511
-0.00291135
-0.00470983
0.014917
0.00440619
0.000661395
0.00257047
0.00462645
-0.000802393
-0.00604065
-0.000670028
-0.00231167
0.00372042
0.00123896
-0.000801889
-0.000943879
0.00080277
0.00105407
-0.000520324
0.0109561
0.00396782
0.00167261
0.00102113
-0.00466259
0.0228513
-0.00146458
-0.00176035
0.00302202
-0.000949135
0.000748312
0.00404311
-0.000359632
-0.00381274
-0.00520598
0.00134099
0.00118187
0.00606367
-0.00149613
-0.000802528
-0.00396613
0.000803411
0.00053402
0.0174104
0.000988963
-0.00396573
0.00607463
-0.000682693
0.00077759
0.00358696
-0.000611248
0.00543632
0.00449403
0.00108322
-0.00133995
-0.00310266
-0.00404476
0.00961249
0.0127753
-0.00335358
0.00138406
0.00793359
-0.00301993
0.00520499
-0.000719638
0.00105422
0.00302124
0.00396628
0.00803602
-0.00461907
-0.00074802
0.00542926
0.00712915
-0.00167257
0.000989572
-0.000841612
0.00123921
0.0052094
0.00129813
-0.00674925
-0.00074884
0.000802405
0.00105385
-0.000803044
-0.000807964
0.000312125
0.00376476
-0.00080258
0.000611161
0.0062935
0.000661169
-0.00291187
0.00230175
0.00698762
0.00335411
0.00250976
-0.00291189
0.00444545
0.000842098
-0.00123949
-0.00607259
-0.000802559
0.000495747
0.000803397
0.00247739
0.00803611
0.00551279
0.000120405
0.000802948
0.00105401
0.00271606
-0.0027633
0.00917386
-0.00427012
-0.00431073
0.00335336
0.00926504
-0.00501983
-0.0010536
-0.00276371
0.0195925
0.0132513
0.00352379
0.000989129
-0.00302071
-0.000885375
0.00315226
-0.00607587
0.000868352
0.0144394
0.0132987
-0.00152457
0.0044457
0.00612072
0.0005202
-0.000683501
0.0013655
0.000868105
0.00145489
-0.0058232
0.0027033
-0.00162754
0.0105634
0.00327254
0.000804163
0.00162654
0.00396921
-0.00520924
-0.00302047
0.00213583
0.00638441
-0.000944183
-0.00105447
-0.00105407
-0.000580735
0.00152736
0.00582188
-0.00338643
0.00493576
0.00335298
-0.0038229
-0.0130035
0.00396742
0.00191243
0.00502171
0.00221767
0.0055066
-0.00382206
0.00321063
0.00449536
0.00302154
0.00105391
0.0149252
0.00176272
0.00342255
0.000611456
-0.00105417
0.000921559
-0.00281641
0.000520579
0.00213765
0.00123954
0.000802858
0.00192277
0.0138696
0.00834258
-0.00152516
0.0044061
0.0132561
-0.00248881
-0.000922077
-0.00302049
-0.000921957
-0.0004951
-0.000803863
0.00138453
-0.000902767
0.000868065
-0.000683489
0.00419815
0.00486067
0.000472217
0.00124094
-0.000868918
-0.00200396
-0.00396682
0.0105598
0.00517844
0.00354764
-0.000897016
0.00413516
0.0051931
0.00396406
-0.00229947
0.0028323
0.00531186
-0.00413062
0.0109524
0.00302097
0.0132534
0.00291244
-0.00520661
0.00371774
0.00382666
-0.00088132
-0.000520445
-0.0012983
-0.00143662
-0.00210843
0.0012387
-0.00144919
0.00369664
-0.000503833
-0.00162741
0.00523837
-0.00219645
-0.00123798
0.00606551
0.00162585
-0.000503371
-0.000899558
-0.000982676
0.00127314
0.00520705
0.000748639
0.000376618
-0.00221674
0.000442711
-0.0012389
-0.00205929
0.026815
0.00963704
0.00607422
0.00381471
0.00393712
-0.00302036
-0.00337567
-0.00149036
0.000803161
0.00682102
-0.00080198
0.00427046
0.00302095
0.000396552
0.00167411
-0.000803109
-0.00276918
-0.00102115
0.00106001
0.00255569
-0.00462415
0.0114123
0.00611673
0.00188752
0.00302147
0.010955
0.00299965
0.00163707
0.00303082
-0.00228739
0.0113616
0.0159734
0.00712844
0.00396441
-0.00291037
-0.00192296
-0.000662362
-0.00366326
0.0035501
-0.00372014
0.0039404
0.00080295
0.00105419
0.000802728
-0.00138425
0.00098224
0.00172059
-0.00281462
0.0101413
0.00342418
0.000642673
0.00302297
-0.00936064
0.00310241
0.00105493
0.00129836
-0.00102553
-0.00326364
-0.00213521
0.000364735
0.00105419
0.000868625
-0.000520268
-0.00396528
-0.00162787
-0.000803593
0.00068318
-0.0030311
-0.000336609
0.010557
0.00462483
0.00583812
0.0044946
-0.00105455
-0.00680787
0.00221785
0.012169
0.0165767
0.0165791
-0.00352201
0.00638006
0.00213587
0.000778621
0.0010542
-0.00047245
0.00271708
-0.00116185
-0.00111488
-0.0014205
-0.00348324
0.00302178
0.00291144
-0.00764824
-0.00120584
-0.000611509
-0.00192358
0.000942343
-0.000683588
-0.00137782
0.00213854
0.00462387
-0.000988315
0.00283421
0.00355276
0.00230112
0.00420915
-0.00160529
0.000141332
0.000401079
-9.16841e-05
-0.000896829
-0.00118228
0.00105469
0.00486007
0.00589833
0.00396456
0.00276651
-0.00356291
0.00094388
-0.00230057
0.00221702
0.00335387
0.0149991
0.0149227
0.00612162
0.000899946
-0.00315076
-0.00501966
0.014929
0.00793791
0.00396706
0.00259545
0.0107018
-0.00396582
0.00680661
0.00137727
0.00714147
0.000869072
-0.00462701
0.00396712
0.00286617
0.00926696
0.00470848
0.010559
0.0204221
0.00661808
0.00793359
0.0127804
-0.00396582
0.000943106
0.0060655
-0.00396666
0.000520347
-0.000867671
0.00221832
0.00130571
-0.00138323
0.0266449
0.0196835
-0.00213517
-0.00168865
0.00937421
0.0312704
0.00569615
-0.00162783
-0.00276888
0.000869016
0.00413363
0.00210934
0.0016259
0.00404564
0.000982478
0.00210711
0.0069878
0.000718712
0.00138306
0.00216749
0.00160535
0.00157475
0.000885133
0.00371955
0.000982598
-0.000611061
-0.000442876
-0.00396448
0.00381
0.00681088
0.00167146
0.000682743
0.000520509
-0.00129879
0.0018256
-0.000922242
-0.00168896
-0.00259605
0.000396577
0.00607479
0.0187098
0.00335314
0.0022171
0.00189605
0.00247851
0.00301983
-0.00042872
-0.00335461
-0.00291166
0.0114214
0.00182878
-0.00283449
0.0121513
0.0410779
0.00488327
-0.000802805
-0.000338117
-0.00080305
0.00105332
-0.00087474
-0.00139286
0.00276826
-0.00382454
-0.000989235
-0.0013844
0.00111603
0.00192362
0.00462381
0.000661488
0.000868951
0.000503677
0.00167122
-0.0012404
-0.00413473
0.0149218
0.00764902
0.0258614
0.0113627
-0.00210902
0.00520797
0.00166647
0.00611896
-0.00162676
0.00146407
-0.00108396
-0.00356571
0.00221842
0.000988424
-0.000802522
0.00210817
0.00643092
0.00142749
0.00249033
0.00325421
0.00607523
0.00462657
0.0193225
0.00089707
0.000661416
-0.00230071
0.00281565
-0.00168928
0.0052097
-0.00607587
0.00521021
0.00058199
0.0149265
0.0204293
-0.00462822
0.0027704
0.000803306
0.00196473
-0.00163992
-0.000520451
0.000988495
-0.00382337
-0.00440428
0.00189479
0.00195651
-0.000748711
-0.001054
0.00210693
-0.00186375
0.00136634
-0.00488542
0.00327061
0.0149244
-0.00413062
0.00553468
-0.00216721
0.0266574
0.00281723
0.00550762
0.00396801
0.0410972
0.00396671
0.00110131
-0.000868938
-0.000661604
-0.00105428
0.000504115
0.00928832
0.00973187
-0.00584
-0.00583743
-0.00520557
-0.00164008
0.000749027
-0.00105451
0.00145707
0.0143845
-0.000753136
-0.000868424
0.00122242
-0.00371983
0.00129778
-0.00514271
0.00679442
0.0052052
0.000428745
-0.00583972
-0.00243846
0.00712881
0.000611322
-0.000359117
0.00502193
0.00172092
-0.000897023
-0.00188669
-0.0100404
0.00326993
-0.00413076
-0.00396554
0.00239708
0.00105337
0.000503449
-0.00105447
-0.000943315
0.0017597
-0.00080258
0.00396766
-0.00215428
0.000748289
0.00136611
-0.00093997
-0.0010545
-0.00312654
-0.00302076
-0.000569825
0.00440304
-0.00698707
-0.00260686
-0.000803044
-0.000661509
-0.00105457
0.011756
0.00276351
0.0041312
-0.00335461
-0.00542776
0.00271627
0.00301966
-0.00189915
0.0339609
0.00382302
0.00502406
-0.00502018
0.00462381
0.00606661
0.000803026
-0.00121814
0.000897489
-0.000803116
0.010835
0.0155526
0.00285533
0.00540887
0.00155166
-0.00218633
0.000807624
-0.00587052
-0.00160595
0.00302074
-0.00372136
0.00358785
0.00382456
0.00382466
0.00061668
0.000835328
-0.00246034
-0.000636027
0.000442759
0.00145874
-0.000802713
-0.00335287
-0.00502018
0.00105377
0.000429012
0.00462236
0.00303389
-0.00316164
0.00354881
-0.00105443
-0.000718292
-0.00351726
0.000611843
-0.00413268
-0.00531121
0.0266449
0.0195856
-0.00230058
0.000570013
-0.001307
0.00404411
-0.0012981
-0.00129752
-0.000611514
-0.00138378
0.00167316
0.00462599
-0.000868434
0.00396665
-0.00066154
-0.00105407
0.00369569
-0.0011817
0.00642627
0.0132548
-0.00352256
0.00440655
0.00105486
0.00312643
0.00562631
0.000364953
0.000581886
0.00681132
0.000752852
0.00105333
0.000337152
-0.00141758
-0.00301998
0.00127855
0.00312884
0.00413335
-0.00213668
0.00077716
-0.00210925
-0.00338803
-0.00260695
-0.00628909
-0.00462387
0.0143793
-0.000495557
-0.00105381
-0.0013926
0.00221874
0.0148456
0.00404636
0.00259472
-0.00192296
0.00191244
0.011364
0.012622
0.00895323
0.00249221
0.0165717
0.00440548
-0.0044454
-0.00175199
-0.000674311
-0.00877877
0.00160511
0.000944291
0.000943847
-0.00196556
0.0173971
0.00247765
0.00382201
0.00502148
0.00129827
-0.00502189
0.0069879
0.0114017
0.0138653
0.00129806
0.00291328
-0.00192261
0.00259726
0.00231063
-0.00291146
0.00518765
0.000611446
0.00192283
-0.00105419
0.00501967
0.00382255
0.00382222
0.00542727
0.00110826
0.000989106
0.0174099
-0.00138459
0.0023104
-0.00196446
-0.000814676
0.000777793
0.0167827
0.0113638
-0.00195686
0.0113638
0.00291135
0.00419746
0.0174055
-0.00123846
-0.000519994
0.000718909
0.00105361
-0.000921404
0.0101337
-0.00290964
-0.00764361
-0.00520739
-0.000636725
0.00290305
0.00382516
0.0174027
0.000943634
0.000573437
-0.000802376
-0.00105384
0.00465943
0.000251968
0.00396793
0.000520185
0.00138334
-0.00291068
-0.000428494
0.000661184
0.00162699
0.0339568
-0.000377482
0.00606277
-0.000718476
-0.00239519
0.00843331
-0.00172096
-0.00321156
0.000802721
-0.000305314
-0.000949327
-0.00352273
0.00188614
0.00413599
0.0127742
-0.00239961
0.00302269
-0.000611403
-0.000802552
0.00466266
0.00488903
0.00570311
-0.00302003
-0.0016062
0.0149198
-0.00247788
0.00146509
0.00296605
0.0114055
-0.000682935
0.00105478
0.00138509
0.000520299
-0.000802875
0.00354808
0.00449524
0.0011152
0.00182784
0.002913
-0.00138429
-0.000777592
0.00342388
-0.00124058
-0.00129775
0.00352517
0.00488753
-0.0035239
-0.00443266
0.000988982
0.0010539
-0.00213588
0.00196464
0.003823
0.00276844
-0.000465705
0.000948752
-0.000803137
0.0016269
-0.00061168
0.00382227
0.000900856
0.00239599
0.00105408
0.00122298
-0.00127346
-0.000612079
-0.00116292
-0.00120708
0.000988599
-0.00160448
-0.000545121
-0.00273262
0.00115113
-0.00337415
-0.00229865
0.00462411
0.00465189
0.0019229
-0.00167157
-0.00037673
0.00342441
-0.00175812
0.00462605
-0.000683433
0.000777357
0.00276568
0.000869479
0.000867745
0.00771729
0.00145648
0.000982566
-0.000661974
-0.00094351
-0.00462713
-0.00542968
-0.000661548
-0.00302085
-0.00963631
-0.00733682
0.0147192
0.00206709
-0.000943705
0.000802536
0.00803989
0.00611584
-0.00607587
0.0154668
0.00105353
-0.00136648
-0.00118217
0.000611319
0.0080409
-0.000868127
0.00354875
-0.00136634
0.00544155
-0.00382423
0.00221832
-0.00160524
-0.00239384
-0.00276334
0.00440384
0.00162746
0.000611393
0.000520353
-0.00291001
-0.00485954
-0.000802395
-0.00440408
-0.00723302
-0.000305625
0.0046589
-0.00386863
0.0013856
0.00105319
-0.00123803
-0.00273178
-0.00290948
0.00230084
-0.00650526
-0.00337467
-0.00247692
0.00607534
0.000982519
0.00628998
0.00462563
0.0220365
-0.00826066
0.00413917
-0.0038223
-0.00026029
-0.000442838
0.00382672
0.0188819
-0.00396523
0.00834377
-0.00239861
0.0062899
0.00937421
-0.00396464
0.00179407
0.000661678
0.00260475
0.00075387
0.00105439
-0.00129773
-0.00413344
-0.000611277
0.00105479
0.00291414
0.00413227
0.0109522
0.00837089
-0.00396519
0.00396749
0.00393846
0.000989014
0.00834443
-0.00681107
0.00303322
-0.000545238
0.000815581
0.00291035
-0.00489211
-0.000815189
0.00105444
-0.00382337
-0.00502011
-0.00124579
0.000802725
-0.00136691
0.00185714
-0.00221746
0.000401231
0.00219563
-0.00230017
0.000581585
-0.000875612
-0.00301965
-0.00240035
-0.00188669
0.00105377
-0.000942896
0.00179321
0.0069853
-0.00881084
-0.00138472
0.000682995
0.00136144
0.00582732
0.0010533
-0.00155235
0.00230054
0.00138434
-0.000661583
0.00098862
-0.000503714
-0.00935529
-0.00176019
-0.000661495
0.00723906
0.00179355
-0.00136574
0.0021361
-0.00878443
0.0121571
0.0132575
-0.00205988
-0.00213657
-0.00462539
-0.0032662
-0.00248701
0.00260647
-0.00219421
0.00303222
-0.00229902
-0.000616036
0.00302129
-0.00880815
0.00129938
0.00105487
-0.0016057
0.00396739
-0.000807564
0.000581153
0.00175837
0.000294639
-0.00291136
0.00521007
-0.00607616
0.0167796
-0.00569828
0.00713255
0.00100638
0.000748154
-0.000611871
0.0193344
0.00444858
0.00302187
0.00382309
0.00259609
0.00543469
0.00462406
0.000661161
-0.000943782
-0.00200245
-0.0104118
-0.00936244
-0.000611501
0.00115104
0.00325271
0.00247788
0.0188839
-0.00796216
0.00105386
-0.000683101
0.00291235
0.00607655
-0.000896808
-0.000748026
0.00462418
0.00392882
0.00612054
0.000869062
0.000802618
-0.00514126
0.000611425
0.000612402
0.00569779
0.00793709
0.0266574
0.00607765
0.00162632
-0.000661121
0.00086777
-0.000802666
-0.0035239
-0.00449404
0.00396682
-0.00054517
0.0019426
0.00462483
-0.00123864
0.000611456
0.00583545
-0.00138376
0.00543887
0.0101323
-0.00190314
0.00137646
0.000922113
0.00462375
-0.000729411
0.0127802
-0.00175803
0.0143793
0.0173998
-0.00880602
0.0055131
-0.00291229
0.0228659
0.00175888
-0.00302063
-0.000802628
0.00437645
0.0165717
0.017408
-0.0029122
0.00129844
-0.000562745
-0.00129841
0.000945254
0.0046594
-0.000983031
-0.000611427
-0.00167162
-0.00276804
0.00105442
0.00146416
-0.00112523
0.00195825
-0.000661665
-0.00356422
0.000337036
0.000748017
0.00213707
0.00230768
-0.00144768
0.00109486
-0.000983071
0.00138428
-0.000442699
0.0010542
-0.000545508
0.0204288
0.00175948
-0.00258872
0.0013798
-0.0038133
0.000364694
-0.000611538
0.00764896
0.000896533
0.00607393
-0.0044034
0.00937222
0.0165717
-0.00291189
0.00444829
0.00244701
0.00302001
0.0167748
0.014382
0.00804339
0.00834318
0.00611829
0.019585
-0.0014549
-0.000637444
0.000377869
0.0020355
0.00276833
-0.000306363
0.00283498
-0.00413076
-0.00123901
0.000661607
-0.000988619
0.00155207
0.0113648
0.00257035
0.00394254
-0.00105465
0.00122267
0.000661896
-0.00276716
0.0083792
0.000611198
0.000141559
-0.0012984
-0.00129771
-0.00462729
-0.000616832
-0.00382295
-0.00239759
0.00382183
0.00796433
-0.0013899
-0.000682971
-0.0039677
0.00217895
0.000921636
-0.000814798
0.00231332
0.00162771
-0.00393634
0.0297733
0.0048887
-0.00382412
0.00929247
0.004495
0.000671665
-0.0013399
0.00488336
0.00056256
-0.00276741
0.0174017
-0.00239399
0.004134
-0.000618934
-0.003253
0.00146511
0.00124616
0.000401725
0.00205926
0.000982178
-0.00337293
-0.00434041
0.0117598
0.00569511
0.00129704
0.00074916
-0.0019659
-0.00284772
0.000651762
-0.0024867
0.0143825
0.00440279
0.0174097
0.00162673
-0.000802661
-0.00520673
-0.00569793
0.000802569
-0.000683171
0.00449469
0.000403509
0.000868119
0.00105476
0.00110869
-0.000464464
-0.00121831
-0.000396373
-0.000803099
0.00587784
0.0167859
-0.00324193
0.00462842
0.0143825
-0.000661152
-0.0012399
-0.000753156
0.00258993
0.00607995
0.00219463
0.014382
0.000753059
0.00542746
-0.000640833
-0.00160544
-0.00291106
0.00210838
0.00105363
-0.00393653
-0.00607587
0.0149232
-0.00221778
0.00255447
0.00635546
-0.00396817
0.00123915
0.0013792
0.000640646
0.000683117
-0.00291203
0.00248918
0.00337471
0.00138431
0.00138493
-0.000868434
-0.0030204
-0.00160573
0.000464904
0.000803612
-0.00116372
0.00612216
0.000802834
0.000616444
0.00116372
-0.00372131
0.00466098
0.00166363
0.00382379
0.00501857
-0.00440453
0.000868398
0.00384608
-0.00123974
0.00382664
0.00570311
-0.00276422
0.00105434
0.00774746
0.00342223
-0.00382331
0.00661727
-0.00173751
-0.00462489
-0.00248027
0.000660956
0.00231069
-0.00105451
0.00291326
0.00612057
-0.00396555
0.000520079
0.0228624
0.0113657
0.00607794
-0.0104148
-0.00462517
-0.00133998
0.000465999
0.000616417
-0.00116293
0.00134024
0.00612607
-0.00230042
0.00283434
-0.00291142
-0.000868876
-0.00243839
-0.00302017
0.00680617
0.00080207
0.014917
0.0174042
0.00146444
-0.000868883
-0.00105451
0.00563038
0.0297978
-0.00182711
0.00380821
-0.00221746
-0.00105353
0.00936781
-0.000777287
0.00301954
-0.00230031
0.00149677
-0.00210961
-0.00276813
0.00369711
0.0352254
0.000944089
0.00196576
-0.000988894
-0.00372119
0.00291142
-0.000401607
0.0147217
0.00462932
0.00843742
-0.00123972
0.00105348
-0.000942798
-0.00325105
-0.000896765
0.0029124
0.00804559
-0.000683694
-0.00134097
-0.00052049
-0.00192312
0.00428875
0.000753137
0.0044287
-0.00105453
-0.000802792
-0.00283277
0.0193344
0.0159758
-0.00105382
-0.000718534
0.000948762
0.000899873
-0.00607107
0.00162725
0.00973475
0.0203005
0.00162536
-0.00291015
-0.00302051
0.000391002
-0.00396466
0.00302406
-0.00129896
-0.00086818
0.0113616
0.019595
-0.00583765
0.00246944
0.00302183
-0.000802639
-0.00118183
-0.00462277
-0.00569444
-0.00129839
-0.00221769
-0.00381176
0.00803989
0.0220389
0.00356649
-0.00291043
-0.00880816
-0.00431137
0.001061
-0.00291037
0.00325397
0.0051727
0.00137723
-0.000232555
0.00105412
-0.000652015
-0.000640848
0.00462664
0.000752942
-0.00230765
0.00803837
0.0228551
0.0138679
0.0105607
0.00260572
-0.00133966
0.00972951
0.00413428
0.000786909
0.000802836
-0.000662408
-0.000943668
0.0228435
-0.0029114
0.00246229
0.00965321
0.002912
0.000569835
0.00419782
0.000988148
0.000465971
0.00188745
0.00149738
-0.00061109
0.00230039
0.000662022
0.00326312
0.00431447
-0.000802957
0.00517395
0.0011816
-0.00255392
0.00127642
-0.000802803
-0.00520868
-0.00302017
-0.00221805
0.000612604
-0.003823
-0.00105437
0.000581467
-0.000841006
0.0012178
-0.00396718
-0.00335436
0.00501913
-0.00144891
0.00462824
0.00606646
-0.00396615
-0.00210759
0.00325412
0.0017597
-0.00155126
0.00162695
-0.00210837
-0.000465409
0.00118158
0.0352165
-0.00792862
0.000989084
0.00834071
0.000616362
-0.000428715
0.000661131
0.00342152
-0.00413132
0.00502165
0.00160017
0.00607409
-0.00188637
0.00129867
-0.000869002
-0.00102087
0.0046263
0.000802358
0.00462689
0.00550867
0.000802902
0.00105425
0.000802912
0.00396849
-0.000401132
0.00033738
-0.00136643
0.000897709
-0.00276994
-0.000803137
0.00086868
-0.00116322
-0.000616514
0.00221854
0.00844099
0.0052139
-0.00335436
-0.000803022
-0.00963644
-0.0039655
0.00160703
0.00200422
0.00381374
-0.000504053
0.000753547
0.0167796
-0.0022176
0.0165663
0.0149195
0.0113608
0.00371955
0.00168864
-0.00155091
0.000803802
0.000611195
0.00138405
0.00259655
-0.00607098
-0.000640784
0.00372314
0.0149157
-0.00102076
0.000322895
-0.00723559
0.00301947
0.00462621
0.000802645
0.000982953
-0.00276918
0.00352506
-0.00105482
-0.00381349
0.00542899
0.000989879
-0.00182739
0.00466086
0.00206804
-0.000803119
-0.00276841
0.0228435
0.00606033
-0.00271417
0.00427052
-0.000376857
0.00123859
0.00301942
-0.00466048
0.00302104
0.00396644
-0.00136705
0.00225857
-0.000973925
-0.00501674
0.00248942
-0.0100417
0.00494092
0.00502028
-0.00255299
-0.00218719
0.00877557
-0.0022168
0.00466123
-0.00302056
0.0167834
0.0149252
0.000868325
-0.00302094
-0.00291313
0.0048889
0.000944077
0.00712887
0.0174055
-0.00936244
0.0127771
0.0266574
0.0410752
0.00431364
-0.00123935
-0.000943138
-0.00129804
0.00834469
-0.00382295
0.00256987
-0.00509129
-0.00335412
-0.00396648
0.00271416
0.000661647
-0.00129854
0.0014373
-0.0014957
-0.00396406
0.00162585
-0.00146576
0.000503133
0.00285324
0.00396651
-0.00068333
0.00175967
-0.00398915
-0.000921377
0.000945115
0.000803382
-0.00335509
0.00611876
0.0010544
-0.000337182
0.00607508
-0.00105447
0.00084183
0.00258093
0.00396763
-0.00371942
-0.00152564
0.00123782
-0.00144921
0.000669661
0.0101403
-0.00488727
-0.000683212
-0.00324112
0.00173808
0.00283274
0.0167748
0.0104137
0.0165661
-0.00733627
0.00393449
0.00440601
0.0159795
0.0105606
0.00440163
-0.00301971
0.00168851
-0.00421071
0.000485005
0.00661385
0.000520324
0.00440728
-0.00105359
0.00216698
-0.00221693
0.001116
0.00342344
0.00299965
-0.00273173
0.00190298
-0.00129803
0.000611273
0.00068285
-0.00256975
0.00396801
0.00175868
0.00221736
0.00834296
0.00393883
-0.00276981
0.0149267
0.004136
0.000581691
0.00868562
-0.00247848
-0.00358529
0.00590026
0.00926655
0.00195793
0.00326877
0.00382356
0.0062939
0.00358801
0.000662234
0.000868645
-0.000544458
0.00167194
0.00146419
0.00302147
-0.000718249
-0.000815282
0.000611479
0.00105521
0.000661152
0.00162574
0.000748017
0.0109508
0.01056
0.00961324
-0.00216632
-0.00120668
0.0006409
-0.00607125
0.00325421
0.0149193
-0.000232906
0.00247837
0.00139235
0.00188718
-0.00520672
0.00462898
0.000396077
0.000428463
-0.000943721
0.0046791
-0.0012073
-0.00462587
0.00302147
0.0352065
0.00479129
0.00612234
0.000651739
0.00077749
0.00326912
0.00273289
0.00462563
0.000802829
0.000691105
-0.00115442
0.00105357
0.000896808
-0.00221764
-0.000573615
-0.000611327
-0.000868607
0.000884935
-0.00825859
0.0018668
0.000802772
-0.00291106
0.00369546
-0.00372022
-0.00138459
0.0142278
-0.00281546
-0.00105451
-0.0012187
0.00607765
-0.00105452
0.00123822
0.0044909
-0.00530966
-0.000661509
-0.0010552
-0.00439191
-0.000396271
-0.00462633
0.00765075
-0.00793127
0.00239703
0.00414208
-0.00680938
0.00500553
0.00219487
0.00868527
0.00302111
-0.000868988
-0.00142467
-0.00404532
0.0132523
-0.00488362
-0.00080295
0.00105358
-0.00123798
-0.00461737
0.00329668
0.00440559
0.00100564
0.0104932
0.0104165
-0.00462511
-0.00210889
0.00302083
0.00396613
0.0019577
0.0114109
-0.0121443
0.00322953
0.00232511
-0.000950205
0.00384648
0.00462652
0.00104301
-0.000661317
0.00461943
0.022863
0.00175936
0.00826246
0.0016268
-0.00396458
0.00166488
0.000197891
-0.00195695
-0.00123936
-0.00230099
-0.00502022
-0.00151157
0.0352353
-0.00936264
0.00352551
0.00291102
0.00291308
0.00129832
0.00462418
0.00124693
0.00486197
0.000442435
-0.00352273
0.00221666
0.00355041
0.00291269
0.00247849
-0.00826025
0.0126214
-0.00371893
0.00396712
0.0022591
-0.000868371
-0.000520476
0.00039614
0.000581496
-0.000259978
-0.00120519
-0.000896684
0.00303184
0.00094882
-0.000378204
0.00221816
0.00189482
-0.00276191
-0.00142342
0.0138668
-0.000868902
-0.00105437
0.00123985
0.000662317
-0.00520877
-0.00221798
-0.0012386
0.00465937
0.0174099
0.0149991
0.0220258
0.0174015
0.00143876
0.00462674
0.00714147
0.00247878
0.00396809
0.00315457
0.00352342
-0.00607604
-0.000803099
0.00518916
0.00299802
-0.00080304
0.00134003
0.00230087
0.00973475
-0.00793183
0.00382478
0.00217354
-0.00396572
-0.00151079
0.00247702
0.00396574
0.00138422
0.00607534
-0.00200307
0.00251025
0.00180346
-0.00384364
-0.00111573
0.00381129
-0.00462553
-0.00501966
0.00231102
0.000429052
0.001384
0.000897608
0.00168978
0.00834467
0.000611518
-0.000661988
-0.000944595
-0.000661806
0.000748039
0.00118112
-0.00105371
-0.00188686
0.00129806
0.000982566
0.00102145
0.000661086
0.00504331
0.0165741
-0.00215281
-0.00210852
0.00462387
0.0030189
-0.00116227
0.00488629
-0.000496249
-0.00248838
-0.00123954
-0.00229971
0.0109542
0.0188842
0.000683263
-0.000802783
-0.00203522
0.000843826
0.00206637
0.00230106
-0.0023006
0.0132596
0.000989068
-0.000251848
0.00865634
-0.00396582
0.00134139
-0.00123939
0.00271454
0.00192197
0.00917854
-0.000683348
0.00335543
0.000897329
0.000119984
0.0055346
0.00196497
0.000897634
0.00179366
-0.000753596
0.0035644
0.00462387
0.00520903
0.00301983
0.00793331
0.00606899
0.0054375
0.00544387
-0.0038117
0.00302227
0.0188856
0.0149185
0.016778
0.00338526
-0.000140731
0.000945127
0.000802787
0.000214181
0.00185125
-0.00217342
0.00355166
0.00337451
0.0188863
0.0067979
0.000141047
-0.00139251
-0.00291029
0.0132513
0.0193225
0.00246783
-0.00182651
-0.00606444
0.00182774
0.00771935
0.0083792
0.000581155
0.000637031
0.00396617
0.000401151
-0.00173823
0.00326731
0.00504117
-0.00146401
0.00697547
0.00106039
-0.000520346
-0.00105443
-0.00248646
-0.00138378
0.00105394
-0.000944975
0.00249223
0.000885088
0.00296556
0.0143873
-0.000944105
-0.00302017
0.010956
0.00129824
0.0022166
-0.00880873
0.00142013
0.00606901
-0.00016883
0.0101412
0.0188904
0.0228516
-0.00129885
0.000662011
-0.00697182
0.000802628
-0.0016269
0.00182259
0.000802743
0.00612038
0.00869004
0.00589771
-0.00462517
0.00396784
-0.00175962
0.00105584
0.00167209
0.000748111
0.000592266
-0.000662018
0.00123863
0.00210919
0.00440622
0.00354995
-0.00963203
0.000748118
0.00505982
0.00105491
0.00098894
0.00291116
-0.00221756
0.00291244
-0.00230951
0.00176006
0.0138644
0.00325412
0.00105386
0.0048901
0.00433898
-0.00371946
-0.00502022
-0.00188654
0.00352551
0.0030377
-0.00283322
0.0127802
-0.00844013
0.0174126
-0.00276918
-0.010417
0.00466093
0.00877807
-0.00582215
-0.000185336
0.00160497
-0.00121784
-0.00382049
0.00087972
0.000778039
0.000675539
-0.00176019
-0.00105414
-0.00138459
0.00221765
0.00394217
0.000611131
0.000989163
0.0016739
0.00160547
0.00176053
-0.00606228
-0.000611546
-0.00044422
0.00182445
-0.0031262
0.0010539
0.0143849
0.00182672
0.000616454
0.00352532
0.000141881
0.0086898
-0.00380969
-0.00570761
-0.00182719
-0.0033744
-0.000618784
-0.00604161
-0.00182659
0.00120631
-0.00105372
-0.00146459
0.00211004
0.0014148
-0.000428875
-0.00215619
0.002108
0.0204999
-0.00606397
-0.00229989
0.000868611
0.000814977
0.00326728
-0.0036988
-0.0121517
0.00803338
-0.00502036
-0.00433673
0.00229926
-0.00377355
-0.00462735
0.0167796
0.00358851
0.00283222
0.00520691
-0.0010543
0.000217563
0.0113604
-0.000896734
0.00421298
0.000377731
0.00404683
-0.00607587
-0.000944118
0.00257113
0.00180479
0.0060787
-0.000443296
0.00145461
0.00681201
-0.00439291
0.00256981
0.00431153
-0.00398791
-0.00105356
0.00431372
-0.00629182
-0.00396456
0.0182057
0.0167748
0.00611049
0.000944179
-0.0011269
0.00134018
0.00396646
-0.00221725
0.00302067
0.0228406
0.0109507
-0.00138331
-0.000661482
0.00413385
-0.000983314
0.0052052
0.0174017
0.00259712
0.00414193
-0.000718157
0.000942594
0.000802677
0.00301908
0.0159748
-0.00123909
0.00040107
0.00210858
0.00123909
-0.000815121
0.00803257
-0.00291166
0.00413312
0.0138653
-0.00155227
0.000519843
0.00239455
0.000943262
0.00232445
0.00335318
0.0100375
0.00569887
-0.00186446
0.000803016
0.00302091
0.0121966
-0.00110818
0.00428606
0.00138422
-0.0016726
0.00468458
0.0104223
0.00239865
0.00094983
0.00230797
-0.00303097
-0.00248798
0.00299965
0.000286843
0.000989208
0.00247057
-0.000581493
0.000683012
0.000311074
-0.00439291
-0.00166275
0.00221859
-0.00056984
0.00139316
0.00271642
-0.0010544
-0.00105399
-0.00462353
0.0142211
-0.000856968
0.00179367
0.00138456
0.00123763
0.00092206
0.00301915
0.00129794
-0.00172199
0.0133211
-0.00356388
0.0053142
-0.00358563
0.0258614
-0.00221809
0.0016266
0.000748163
0.000921776
0.0018876
-0.00196446
0.00210838
0.00335329
0.00230138
-0.00255457
0.000747908
0.00138503
0.0003055
0.00394193
-0.00793179
0.000803244
0.00105395
0.0030325
0.00210974
-0.00681237
-0.000868459
-0.00146489
-0.00461885
0.00488452
0.0122024
0.00376303
0.00105409
0.00260565
-0.00571037
-0.000753774
-0.00106076
0.000988914
0.0012733
0.00146485
0.00462848
-0.00396708
0.000982792
-0.0020666
0.00221866
-0.0011823
-0.000944039
0.000896985
0.0016047
0.00356662
0.00175983
-0.00227995
0.00517588
-0.00230858
0.00466048
0.0132568
-0.00326826
0.00936807
0.0132534
-0.0023991
-0.00607435
0.000922331
0.00192447
0.00191115
0.00230233
0.00834416
0.00257149
0.0174045
0.000989313
-0.000868903
-0.00936289
0.00123804
0.00461811
-0.000562916
-0.00273037
-0.000661787
0.00865499
0.0173971
-0.00276406
-0.00299789
0.0174124
-0.0121517
0.00765159
0.00105423
-0.00303159
0.00517319
-0.00221773
0.0023008
0.00612075
-0.00157443
0.0101403
-0.00213521
-0.00200423
-0.000719344
0.00925377
0.00302367
0.0297892
0.0047113
0.00210837
-0.000520122
0.00381715
0.00466209
-0.00114898
0.00865291
-0.00290948
0.0006827
-0.00520658
-0.00291132
0.0202942
0.00382173
0.00105394
-0.00248956
-0.000752983
0.00221793
-0.000520141
0.00462624
-0.00080248
0.00138456
0.00273197
0.00520936
0.00461954
0.00520717
0.0173989
0.000310585
-0.0058244
-0.00166517
-0.000682889
0.00449422
0.00661658
-0.0012384
-0.000442797
0.00138567
-0.00105418
-0.00105447
0.00246949
0.0080424
0.00342385
-0.000949115
-0.000520438
-0.000748729
0.0030214
-0.000611361
-0.00162729
-0.00180415
-0.000753551
-0.00116256
0.00396495
-0.00302067
0.00206892
0.000547129
-0.00466469
-0.00221801
0.00502523
-0.00372166
0.00470794
-0.00291182
-0.00542912
-0.000982831
0.00061662
0.00168842
0.00273044
-0.00792949
-0.0072319
0.00607521
-0.000983058
-0.000802853
-0.0104961
0.00707578
0.00299965
-0.00115545
-0.000948792
0.000752887
0.00138461
0.00396564
-0.00092198
0.0021677
0.0114131
0.00185714
0.00175983
0.00118119
-0.00168872
-0.000868371
-0.00301954
0.00221832
0.00326917
-0.00697379
0.022847
0.0010541
0.00219486
-0.000983206
-0.000465675
0.0024692
0.00569887
-0.0060848
0.0238198
-0.00843644
0.0069707
-0.00179306
0.00113951
-0.000867671
0.000520245
-0.000660992
0.0032404
-0.000563197
-0.00146497
-0.00326929
0.00315322
-0.00382295
0.001626
0.000943416
-0.00136627
0.00040131
-0.000802298
0.00175983
0.000288818
0.00963413
0.0127831
0.00155168
0.00052127
-0.00302071
-0.00382342
0.00612016
-0.000944446
-0.00138458
0.00869509
-0.00145521
-0.000377052
0.000503595
-0.00162638
-0.00192317
0.000503788
0.000943638
-0.000520109
0.0019854
0.00257112
-0.00792991
-0.0010545
-0.000802421
-0.00124069
0.00166631
0.000305579
-0.000868694
0.00105412
-0.00935788
-0.000616538
0.00607765
0.0113667
0.00337686
0.00638333
0.000442408
0.000661825
-0.000683339
0.00129768
0.00105424
-0.00105446
-0.00155237
0.00105459
-0.00105396
0.00105412
0.000520413
0.00248861
0.00249074
-0.00382319
0.0113634
0.0132575
0.0268208
0.00466223
0.0149171
0.00116237
0.00134202
-0.00097447
0.00302158
-0.000519837
-0.00936264
0.00786197
0.00257099
-0.00396671
-0.00303147
0.0165682
-0.00381274
-0.00304041
0.00239961
0.00124013
-0.00123869
0.000442785
-0.00138422
-0.00291077
0.00086953
-0.00382337
-0.00247576
0.0113611
-0.00221788
0.00146444
0.00291136
-0.00433723
0.014919
0.00248838
-0.00230035
0.000661385
0.00521042
0.00665025
0.00936558
0.00247739
0.00804074
0.00105439
0.00356388
0.00162616
0.000869261
0.00462898
-0.0060759
-0.00570001
-0.00098282
-0.00257033
-0.0028335
0.00301923
-0.000748281
0.000802989
-0.000982807
-0.00146401
0.00358821
0.00517712
0.00354823
0.0127793
0.000943945
0.0104102
0.00503775
0.0228441
0.00503814
0.000661131
0.001924
0.00587357
0.0203037
0.00382657
0.00396434
0.00834488
-0.00145673
-0.00382361
0.00502231
0.00138475
-0.00230867
-0.00352384
0.0174071
-0.00256938
-0.000868888
-0.00243938
0.000682962
0.00965719
0.0220338
0.00679925
0.0109588
0.00466161
0.00105378
0.00635311
-0.00131054
-0.00381099
0.000616407
0.000611464
0.00584137
-0.00210808
-0.000683254
-0.00213667
0.00153024
-0.00291029
0.00221823
-0.0014637
0.00134054
-0.00136593
-0.00221726
-0.000982414
0.0126202
0.00216818
-0.00562822
0.00291205
0.00877835
-0.00105422
0.000674431
0.00189587
0.00834307
0.0143889
0.00173925
-0.00396718
-0.00162583
-0.000233033
0.000944546
0.00133966
0.00105484
0.0109572
0.010835
0.00607351
0.00765014
-0.00200368
0.00335628
-0.000899724
-0.00061913
0.00105429
-0.000885174
-0.00935744
-0.00393449
0.00302141
0.00396501
0.00257032
0.010561
0.00195783
-0.000943813
0.00342019
0.0143827
0.00271523
0.00273229
0.00396782
-0.00129853
0.00607492
0.012778
0.0071243
0.000718474
0.00679527
0.00612014
0.00462381
0.000776654
-0.00134012
0.000983129
-0.00229979
-0.00180296
0.00607421
0.00926572
0.000718432
-0.00276632
0.00124029
-0.00162671
-0.000683036
-0.00382423
0.00179475
0.0140145
0.00105366
-0.00150842
0.000943855
-0.000869221
-0.00123809
-0.00105442
0.000868371
-0.000988571
-0.00155141
-0.00123888
0.00964038
-0.00606543
0.00136593
0.000974143
0.0339349
0.00210804
0.0228441
0.00869106
0.0113646
-0.00302071
0.00333251
0.0054352
0.00271637
0.00138375
0.00248145
0.00382496
0.000611843
-0.000802876
-0.00301919
-0.00358654
-0.00372037
0.00200543
-0.00302032
-0.000802355
0.00138405
-0.00114986
-0.000574326
0.00635352
-0.00173747
0.00381999
0.00661835
0.00130018
0.00160467
-0.00291153
0.00134002
0.000636396
-0.0010862
0.000251676
0.00607765
0.00129837
0.00369761
0.00291083
0.000989421
0.0258476
-0.00123927
-0.00110141
-0.002059
-0.00129767
-0.00382251
0.0121667
-0.000803027
0.00155171
-0.000611328
-0.00396616
0.00427156
0.0035225
-0.00189479
-0.00239785
0.00267001
0.00219531
-0.00190156
0.000943359
-0.0016264
-0.00377441
-0.00105439
0.0143811
0.0127771
0.0195925
0.003965
-0.00210718
-0.00129939
0.00396712
0.00878702
-0.00114799
0.00569524
-0.00155253
0.000686877
0.0013834
0.00381435
0.00358948
-0.00291221
0.0228487
-0.00381128
0.00276342
0.00342221
-0.00281601
0.0220234
0.014922
-0.00229954
-0.00440408
-0.00138482
0.00213719
-0.00520833
0.00382514
0.00662224
-0.00470826
0.00642539
-0.000803114
-0.000897286
-0.00195681
-0.00276775
0.0188839
0.0352065
0.0352065
0.0228516
-0.00155129
0.00162773
0.00926577
0.0109581
0.00393245
-0.00380991
0.00607744
0.00231084
0.00291221
0.00139291
-0.000611198
-0.00244518
-0.000989303
0.0174108
-0.00231001
-0.00247739
0.000778639
0.000840916
0.000652189
-0.000683445
-0.00404446
-0.00110818
-0.00146481
-0.00276346
0.00961109
0.0080424
-0.00301999
-0.000581585
-0.000520178
0.000948857
-0.000988348
-0.00116308
-0.00145364
0.0030198
0.00302253
0.00106056
-0.00080284
0.00396806
0.000868734
-0.00071848
-0.00270526
0.00427052
0.000982869
0.00175967
0.0182035
0.0193253
-0.00291089
-0.000611123
0.00123781
-0.000465647
-0.0010544
-0.00462533
-0.00723309
0.000682766
-0.00437354
-0.00166482
0.00837832
0.00118195
0.00066148
0.0014499
0.00302143
0.00382248
0.0023938
0.0352129
0.000718687
0.00257983
-0.001957
-0.00629107
0.00481307
-0.00193421
-0.00462406
0.00138426
-0.00225897
0.00266963
0.00465861
0.0105632
-0.00396755
-0.000753528
0.0132547
-0.00106102
0.00714009
0.00352176
-0.00299614
0.00136576
-0.00138341
-0.00210789
0.00105387
0.00105417
0.00285492
-0.0010539
0.000880091
-0.00276732
0.00276605
-0.00371975
-0.00123907
0.00381176
-0.0010858
0.00837355
0.0113644
0.00221859
0.00281498
0.0149198
0.00412896
0.000244168
-0.00520522
-0.00396635
-0.00520842
0.0005455
-0.00381315
0.00302245
0.00210909
-0.00276811
0.000504006
0.022863
0.00396828
0.00962947
0.0017938
0.0228435
-0.00371973
0.00129773
-0.00530825
-0.00302113
0.000942774
0.00366448
0.0121966
-0.0014648
0.000503994
-0.00352384
-0.000748347
-0.000983372
0.0058385
0.000661356
0.00105987
0.000637085
0.00192447
-0.000661463
0.00396552
0.019588
-0.00230015
0.000611322
-0.00133903
0.00105444
-0.000682706
0.000802959
0.00396916
-0.00138459
0.0109544
0.00110987
-0.000842021
0.00661665
-0.00230877
-0.00963177
0.00382451
0.00449151
-0.00520539
0.00155876
-0.00607396
0.000943287
0.00033709
0.00304901
-0.00326942
0.000581388
-0.0010547
0.00138413
-0.00210915
-0.00276863
0.00167321
-0.0010544
-0.00604153
-0.00221739
0.000442879
0.00612162
-0.000802499
0.00637726
0.00843726
-0.00462517
0.000942697
0.00396742
0.00080331
0.00713297
-0.00302098
0.0039625
-0.00105387
-0.00146404
0.00136908
0.00162841
0.00384863
0.00869286
0.00156
0.013257
0.000495302
0.000989775
-0.000465447
0.000682957
-0.00488629
0.00712918
-0.00935977
0.0133094
0.000747975
0.00250966
0.0012382
-0.00225725
0.0193344
0.0143917
0.00164052
0.00221753
-0.00382339
0.0193373
-0.00230962
-0.00520822
0.00682254
0.00292843
-0.00352281
-0.00582356
-0.00642169
-0.000873749
0.00219563
0.00329813
-0.000988931
0.0195949
0.00335346
0.00461798
0.000305997
0.00105511
0.00428581
-0.00232469
0.000611314
-0.000921277
0.00300183
0.000396355
-0.000896924
0.00105414
0.00192334
0.000495157
-0.000803525
-0.00502022
0.0010548
-0.000841735
0.00216837
0.0108398
-0.000581097
-0.000803147
0.0010545
0.00185825
0.00315241
-0.00221615
0.00382251
-0.00607301
0.00682102
0.0410779
-0.00312654
0.0039662
0.00354862
-0.000868255
-0.00260802
0.00926696
0.00291271
0.000982368
0.000377468
0.0013928
0.00213724
-0.00173642
-0.000141663
-0.00105414
0.00200234
-0.00880474
-0.0071242
0.00396715
-0.00413014
0.00105483
0.00355447
0.00206731
-0.00520633
0.00175816
0.0034225
0.00302176
-0.00440503
-0.00396722
0.0113627
0.00735084
-0.00291304
0.00108154
-0.000661439
0.00129795
0.000753051
-0.00382384
-0.00314983
0.0021352
0.00661904
-0.00248943
0.00550762
-0.000988336
-0.00080295
-0.00583465
0.00205895
-0.000974576
0.000616574
0.00256987
0.0071376
-0.00413123
-0.00335489
-0.00146522
0.000637372
0.000684172
0.000896471
-0.00098859
0.00338981
0.00108277
-0.00179419
0.00080226
0.000803999
0.00118181
-0.00123947
0.0149185
0.00449649
-0.00080332
-0.0038117
-0.000868434
-0.000869161
-0.00273105
0.0187195
0.0052069
0.00470852
0.0149233
-0.00105386
-0.00139169
0.000661073
-0.000777221
0.00105419
0.00219547
0.000581268
-0.000825107
0.00734691
-0.00116235
-0.00315159
0.00163897
0.00160589
-0.00320895
0.00160495
-0.00124597
-0.003019
-0.00843356
0.0113638
0.00662003
0.00382379
-0.00271473
-0.00843644
0.0220234
-0.00320734
0.00467889
-0.00495434
-0.000674691
0.00155177
0.000803071
-0.000802618
-0.00393564
-0.00123917
0.00138415
-0.000504163
0.00340842
0.0143891
0.0107018
0.00260516
-0.00520872
0.0149265
0.000814032
0.00611712
0.00382227
0.00230037
0.000749113
0.00276624
-0.00462539
0.00213593
-0.000802738
0.00130659
0.00661597
-0.000868644
0.0023081
-0.00166433
0.00301948
-0.00520808
-0.000748154
0.000922038
-0.00284635
0.00926438
0.00219387
0.00356423
-0.00326646
0.00312667
0.000520236
0.00803429
0.00467717
0.00335539
-0.0018043
0.000497313
-0.000616269
0.00105414
0.00607765
0.00105385
-0.00230972
-0.0039669
-0.00302038
-0.000807676
0.00543691
-0.00180517
0.00520825
-0.000611193
0.00382524
0.00562846
-0.00184903
0.00105385
-0.000753015
0.00342615
0.0121926
-0.00105378
0.00394725
0.00110894
0.0044913
-0.00302042
-0.00118121
-0.00225958
0.00382425
0.00138346
0.00868981
0.00582413
0.00081599
0.000765703
0.00302158
-0.000815492
-0.00138374
-0.000988533
0.00160596
-0.00142035
0.000377359
-0.000682771
-0.00136674
0.00218734
0.00337332
-0.00488337
-0.000868784
0.0052084
-0.000802552
0.00256919
-0.000868865
0.00303379
-0.00396662
0.00216881
0.00136694
-0.000294722
-0.0008023
0.00793667
0.00301936
-0.00231076
-0.0025902
0.0107018
0.014917
-0.000802737
-0.00381423
-0.00182763
-0.00315092
0.0055067
0.0149208
-0.00303353
0.00257093
-0.000718269
0.0109565
0.00803519
0.00247733
-0.00291359
0.000581307
-0.000803082
0.000294887
-0.00188595
0.011365
0.000870443
-0.00462517
0.00335367
0.00179827
0.0220258
-0.0030193
0.00462418
0.00105412
-0.00335383
-0.00606599
-0.00173748
0.000400981
0.00396792
0.00393661
0.016776
0.00611635
0.00466214
-0.00196598
0.00145025
0.00221742
-0.0038117
-0.00352403
-0.000616754
0.00105424
0.0012399
-0.00122314
-0.00382193
-0.00162699
0.00260589
-0.00256975
-0.000305892
0.00917527
0.00714215
-0.00291089
-0.00384622
0.00195939
0.00303559
-0.000497068
-0.00129909
-0.000949348
0.0174126
0.00335106
-0.00713053
0.00638284
0.0080441
-0.000611526
0.00385477
-0.00470778
0.00281739
-0.00105383
-0.0032663
-0.00105451
-0.00382267
-0.00396227
-0.00520289
-0.00230877
-0.00175833
0.0203101
0.00462701
0.000921692
-0.00315128
0.00467932
0.000669353
-0.00326396
0.00589771
0.0113621
0.0140186
0.011362
0.00291308
0.00804393
0.01262
0.00628798
0.00302133
-0.00120638
-0.00182774
-0.00166571
-0.000640327
0.00439156
-0.00825973
0.00396573
0.0143858
-0.00542767
-0.000748795
-0.00248926
0.00607765
-0.000802666
0.00173767
0.00774934
0.00754512
0.00192292
-0.00145583
-0.00607782
0.00444409
0.00278329
0.000802777
-0.00838029
-0.000520351
0.00865623
0.0109572
0.00139184
0.0019229
-0.00569792
-0.00520615
-0.00129839
0.0038229
-0.00419499
0.00412995
0.000610952
0.00111457
0.000814539
0.00105386
-0.000698015
0.00155278
-0.000443998
-0.00520712
-0.00440472
0.00291243
-0.00531003
-0.00106064
-0.0013778
-0.00396512
0.00192234
-0.00230925
-0.000311035
0.00080258
0.000802711
0.00230917
0.000988336
-0.00210728
0.00462686
0.00681132
-0.00144902
0.00396528
-0.0022168
-0.000562613
-0.00115473
-0.000555168
0.00105422
-0.000683371
0.00532235
0.0109532
-0.00168812
0.00129846
0.000802539
0.000321307
-0.000611635
-0.0012399
0.00246048
-0.00101936
-0.00216685
0.00127935
-0.00217333
0.00611861
-0.00326912
0.0109555
0.0127766
0.000982807
0.00123878
-0.002166
0.00291294
0.00257942
-0.000611178
-0.00520819
0.0297935
0.00590409
0.00111484
-0.00396682
0.00247871
-0.00501966
-0.00382356
0.00146471
-0.0052086
-0.00326506
0.00138876
0.00175147
-0.0017589
0.00396896
-0.000973196
-0.000949135
0.0030195
0.00628741
0.00302161
-0.00302071
0.00105419
0.00221828
-0.00302044
-0.00340203
0.000428463
-0.000803078
-0.00587052
0.0030511
-0.00138413
0.00612124
-0.000896943
0.000943767
0.00155173
-0.000803099
-0.0034244
0.00054517
-0.00607081
0.00105325
-0.00216685
0.00080258
0.0012977
0.000611401
-0.00105354
-0.000485159
-0.000611627
0.0156207
-0.00629183
0.00679428
0.00697104
-0.00356519
0.000141426
0.00935445
-0.00796226
0.00257055
-0.00124628
0.00396633
0.00433919
0.0132534
-0.000869211
0.00167173
0.000944304
-0.00396505
0.00195825
0.0174071
0.0352173
0.000902039
-0.000412846
0.00589899
0.0165717
0.00925876
-0.00844068
-0.00396801
0.00221771
-0.00240022
0.00335713
0.00520756
-0.00712672
-0.00156161
-0.00129784
-0.000777565
-0.000683277
-0.00352326
0.00210878
-0.000983064
-0.000464693
0.0156314
0.00479054
-0.00153026
0.00462898
-0.00230871
0.0092652
0.00325412
-0.000802843
-0.0007489
-0.00145495
-0.00167262
-0.00175196
-0.00162675
0.00342071
-0.00291197
0.000807208
0.00462381
0.00210741
-0.000558275
-0.00066159
0.00299965
0.00195813
0.000504376
-0.00071869
-0.00118162
0.0113663
0.00517663
0.00166676
0.00611999
-0.000857911
-0.00326707
-0.00488214
-0.000752531
0.000921585
-0.000504173
0.00050355
-0.00175198
0.00205833
-0.000802825
-0.00396649
0.00396737
0.00277045
-0.000922003
-0.00642313
0.00080276
0.00105538
0.0195925
-0.000988384
0.00195795
0.00382323
0.00162666
0.00146557
0.00260556
-0.00562879
0.00137827
0.000814566
-0.0021527
0.0351995
0.0113638
0.0121482
0.00248838
0.00929247
0.00302035
0.00396692
-0.00118209
-0.000748552
-0.00136617
0.00698973
0.000185149
0.00465985
0.00713895
-0.0030311
-0.000803213
0.00384822
0.00118191
-0.0022174
0.00312678
0.00144831
0.0043377
0.00129788
0.0043377
-0.00291121
0.00210791
0.0195919
-0.00239848
0.0013937
0.000683171
-0.000337029
-0.00105451
0.00302012
0.00961044
0.00635386
0.00270209
0.00123915
0.000718996
0.000683571
-0.00697314
0.0143793
0.0195855
-0.00291098
0.00155137
-0.00137888
-0.00162638
0.000885234
0.000581414
0.00406851
0.0039664
-0.00105442
0.00213579
0.00382674
0.0109544
0.000897028
0.00142188
0.00173708
-0.0043376
0.00231012
-0.00213517
0.000616571
-0.00042873
0.0109546
-0.0029122
-0.000495951
0.00247814
0.00155278
-0.00520673
-0.000682753
0.00965859
0.0132528
0.0147192
0.0052044
0.00176264
-0.000504189
-0.0010543
-0.00094255
-0.000896966
-0.000683412
0.00116232
0.00105419
-0.00520533
0.00803154
-0.0039642
-0.00219482
-0.0010545
-0.00513956
-0.00180434
0.00291239
-0.000442753
0.000642691
0.000378834
0.000504312
0.0174126
0.0127828
0.00449374
0.0150003
0.00606928
0.0109546
0.0143857
0.0159748
-0.00355056
-0.00127824
-0.00184978
0.00144984
0.00354999
0.0113631
0.000896943
-0.00299686
0.00114092
-0.00123901
-0.00257073
-0.00256814
-0.00449624
-0.00247716
-0.000900403
0.00118191
0.000683539
-0.00145612
-0.00281521
0.0105622
0.00774565
0.000765997
0.00138429
0.00146568
0.0007486
-0.00404467
0.0126252
0.000988672
0.000814997
0.00501875
0.00413377
0.0109543
-0.00382414
-0.000273123
0.00531421
0.0174109
0.0109572
0.00664552
-0.00396524
0.00440343
-0.00396584
0.00935964
-0.00161485
-0.00182697
-0.00335445
-0.00396596
0.00342039
0.00302008
0.00635452
0.00179475
0.00124121
0.00825997
-0.0035221
-0.000988222
0.0010549
0.00149774
0.000467003
-0.00372145
0.0195925
-0.00296811
0.00229925
0.00120694
0.0022166
0.000868195
-0.0010545
0.00155184
-0.00310493
0.00138375
0.00291085
0.00192212
0.00325716
0.00230195
-0.00396676
-0.00080295
0.000520274
-0.000752993
0.00162567
0.00221722
0.00218078
-0.00231034
-0.000401047
0.00155126
-0.00246802
0.00192198
-0.00221756
-0.00607587
0.00461922
0.00247562
-0.00302113
0.00144978
-0.000814914
0.00105424
-0.00123887
0.000868625
0.00210878
-0.00080296
0.00723062
-0.00200213
-0.00462517
0.00382459
-0.00206915
0.00662019
0.00138569
0.00071879
0.00396782
0.00521042
0.000803016
0.00138379
0.00290255
-0.00173764
-0.000682781
0.00270439
0.00232529
0.00271381
0.0149204
0.00259741
-0.000305997
0.0159711
-0.00502028
-0.00229979
0.00382155
0.00138434
0.0132534
0.0121708
0.0167827
0.00260717
0.00146551
0.000611113
-0.00513996
0.000569957
0.00504291
0.00520755
-0.00136528
-0.000802736
0.00796025
0.0228441
0.0004287
0.0100445
-0.0018284
0.0132561
0.00123906
0.00087367
-0.000868434
0.0167748
-0.00248819
0.0109551
0.000802911
0.0012981
-0.00583897
0.00335178
0.00510532
0.00116389
0.017408
0.006127
0.00268298
0.00449473
-0.00217233
0.00380897
0.000988514
0.00637729
0.0109541
0.00804407
0.0126232
-0.00793254
0.00123939
-0.00291176
-0.000305511
0.000842228
-0.00129884
-0.00105351
0.00335628
-0.00219596
0.00521205
-0.000562734
0.00937862
-0.00393653
-0.000777189
-0.00243743
-0.000815589
0.00803694
-0.00299752
0.00172276
0.00145706
0.00162745
0.00713797
0.00196546
0.00449151
-0.00371938
-0.00146389
-0.00050377
0.00393865
0.00372392
0.00219633
0.000449482
-0.00230977
0.00257149
-0.00396563
-0.00173744
0.00382389
0.0174001
0.00712881
-0.00155841
0.00136594
0.00123912
0.0266699
-0.002196
-0.000611403
0.00277038
0.00358735
-0.00326734
0.00284543
0.00256975
0.0046684
0.0121571
0.0174126
0.0228624
0.0113657
0.00488816
-0.000467247
-0.00301957
-0.000520451
-0.00291166
0.00281761
0.0149242
-0.00382384
0.00247849
0.00338752
-0.00291161
0.000641511
0.00143745
-0.00105472
0.000683106
-0.000504047
-0.000252071
-0.00136701
-0.000496147
0.0038223
-0.00369739
-0.00167269
-0.000611307
0.00167319
0.00543577
-0.00607301
0.0266449
0.00834215
0.010561
0.0038255
-0.00230046
0.000496381
0.000921381
0.00449443
0.00102114
0.0054312
0.00302216
-0.000803069
0.0016264
0.000802863
0.0165684
0.00396744
-0.00381315
0.00774839
-0.00115091
-0.00520924
0.000232758
0.0037006
0.000988475
0.000611427
-0.00160642
-0.000616883
0.000869497
0.00052042
0.000988894
-0.000897028
-0.00324273
0.00284855
0.00396457
-0.000305964
0.00188839
0.0188856
-0.00281506
0.000869338
0.0012239
0.00210711
0.00936038
-0.001902
0.0016278
0.000429144
0.0127802
0.00131127
0.00160025
0.00188669
0.00291111
0.0101337
0.0109507
-0.000286914
0.00219485
0.00192311
0.00271244
-0.00182656
0.00230868
0.00325231
-0.0010547
-0.00335391
0.0012987
-0.000974216
0.000897113
0.000802734
0.000305827
-0.00185777
0.000748218
0.00396763
-0.00607318
0.000661346
0.00120803
-0.00697392
0.0195984
0.00803967
-0.00176314
0.00239477
0.00283336
0.000661334
-0.000802971
-0.00291214
-0.000988962
0.00865577
0.00198389
0.00396787
0.00358883
0.0165687
0.000841253
-0.00326757
0.00314949
-0.00195683
-0.00301928
0.0105612
0.00961324
-0.0030188
0.00105394
-0.0058232
0.00414052
-0.00428433
-0.00291041
0.00173607
0.00462658
0.0046268
-0.00219332
0.000582786
0.013259
-0.00391572
0.000503847
0.000803147
-0.00162672
0.000803296
0.00114948
-0.00431031
-0.000921776
-0.00089999
0.00105422
-0.00382211
0.000683501
0.00129842
0.00381368
0.00393661
0.00210796
0.00302056
0.00371828
-0.000990651
0.00129769
-0.000868795
0.00834458
0.00382227
0.000611419
-0.00129864
-0.00462495
0.000401815
0.000988974
0.00291047
-0.00569831
0.00382514
0.012778
-0.00607149
-0.000661357
-0.000428606
-0.000442826
-0.00291165
-0.000428656
0.000683544
-0.00089991
0.00156168
-0.00396582
0.00366331
0.00673757
0.00271132
0.00520573
-0.00291239
0.0122005
-0.00115129
0.00123783
0.00210812
0.0143837
-0.000661231
0.000717814
-0.000942807
0.0101364
0.00396507
-0.000311749
-0.000777522
0.00341957
-0.00105429
-0.000869481
0.000718546
0.00221679
0.00160567
0.00281658
-0.00382116
0.00837263
-0.00394367
0.00192221
0.00291204
0.00543108
-0.00105442
0.00543262
0.00129774
0.00116217
0.00342171
-0.000921445
-0.000970174
-0.000660937
0.00050416
-0.00138323
-0.00382249
0.000983602
-0.00105453
0.0030214
0.00607479
0.00607275
0.00462658
0.000141481
0.00587298
0.00587642
0.00542727
0.0012398
0.0133105
0.00342481
0.00291134
0.00145503
0.00464991
0.000611395
-0.00792948
-0.00303965
0.00583812
0.0052052
0.000988168
-0.00100609
0.00843754
-0.00302126
0.00145906
0.00155072
0.0202942
0.00543825
0.00635492
-0.00213658
0.000683106
-0.00138369
-0.00352066
0.000982568
-0.00396709
-0.000287335
0.00196475
-0.0056953
0.006353
0.00244694
-0.00599738
0.0132562
-0.00098299
-0.000661378
-0.0039646
-0.00134011
-0.00146337
-0.00133881
-0.00276763
0.00136594
-0.00291128
0.00039656
0.00396692
0.00449343
0.00283548
0.00138374
0.000944077
0.00481008
-0.000401312
0.000661346
0.00462822
0.016778
0.00149807
-0.00396682
0.00466526
0.00396801
-0.00404433
-0.00050375
0.00638191
-0.00105485
0.00480934
0.00210841
0.000988901
0.00033699
0.00225907
-0.00138553
-0.00189479
-0.00325242
-0.00697306
0.012782
-0.00502097
-0.00396638
0.0143871
-0.00488487
0.00356584
0.00466062
0.004132
-0.00123882
-0.00291132
-0.00358509
0.0173973
-0.00080249
0.00642876
-0.00462437
-0.00878004
-0.00290985
0.00214572
0.00123886
0.0149963
0.000232619
-0.000306033
0.005901
0.0132596
0.00325417
-0.0033544
-0.00340121
0.0130133
0.00520983
0.00138293
-0.00324144
-0.00276251
0.00302165
-0.00302062
0.00129879
0.00232421
-0.00825786
0.00462403
0.00210753
-0.00607401
-0.00393768
-0.0121519
0.00878839
0.00569779
0.00123906
-0.00291174
0.00173652
0.00142379
-0.00105362
0.000377008
0.00246894
-0.00249019
0.00266939
0.00355043
0.000662162
-0.00138407
-0.000802556
0.00124661
-0.00137881
0.00267168
-0.00285352
0.00105417
0.00681937
-0.00105462
-0.00723546
0.0121672
-0.0018609
0.00440559
0.00105519
-0.000989614
-0.0015251
0.022847
0.00192287
0.00369596
0.00302219
-0.00396531
-0.00196556
0.0016266
0.000989021
0.00230949
0.00094327
0.00168954
-0.00462483
0.00106146
0.00486096
0.00066178
0.00115394
0.00213531
0.00604419
-0.00502011
0.00138424
-0.0022172
0.000364846
0.00302103
0.00231017
0.00149694
-0.00372042
-0.00787168
0.00105494
0.000661816
0.0014635
-0.00179535
0.00105412
-0.00129803
0.000802863
-0.000682973
0.000611901
-0.00152627
-0.002283
0.00466294
0.0017597
0.00310654
-0.000377859
-0.000662019
-0.0014908
0.00149123
-0.00273263
-0.00352372
-0.00291161
0.00149672
-0.000982579
0.000841107
-0.000611377
0.000896808
-0.001278
0.00192352
0.000777242
0.00327034
-0.00189634
-0.00175916
-0.00255429
-0.000748894
0.000802832
-0.000868371
0.014922
0.026825
-0.00523759
0.0410559
0.00543202
0.00175886
0.000611848
-0.00123899
0.00302074
0.0228406
0.00231012
-0.000802618
0.00105422
0.000989209
0.0109534
-0.00431276
0.00369761
-0.00530926
0.00167117
0.00105425
0.000897328
-0.00936264
0.0174027
0.0147192
-0.00160542
0.000503595
0.00520624
0.0149248
-0.00221728
0.00129841
0.00210773
0.00382524
0.00521031
0.00105451
-0.0104115
0.00118184
-0.00259636
-0.00149493
-0.000619947
0.00077765
0.00370052
0.00488965
0.00116359
0.000636939
0.00413778
-0.000777791
-0.00221739
-0.000662018
0.00080322
-0.00396714
0.00291346
-0.00413166
0.00486061
0.00352331
0.00713842
0.00138496
-0.000815054
0.000802923
0.00433986
0.00291304
0.002767
0.000465484
0.00356632
-0.00754051
0.0041363
-0.00413448
-0.00138372
0.00543499
0.00145523
0.000802825
-0.00105444
-0.000869169
0.00291271
0.00291064
0.00221744
0.000674037
0.000718447
0.00105422
0.000563517
0.00192241
-0.00138456
0.000661346
-0.00607301
-0.00129823
-0.0104155
-0.00421754
-0.00396528
0.00138507
0.00396763
-0.00843449
-0.00371942
-0.00431073
0.00434172
-0.00138504
0.000616725
-0.00230925
0.00129816
0.00105389
0.000401141
-0.000305913
-0.00302026
0.0022175
-0.00256975
-0.00210109
0.000982965
0.00192153
0.000442326
-0.00382181
0.00466123
0.00776197
0.0113621
0.0058755
-0.00221726
0.0109594
-0.00301984
-0.00115504
0.000816155
-0.000637254
-0.00138468
0.00175876
0.00868798
-0.00325377
0.000869497
0.00105421
0.000611517
-0.00787688
-0.000803128
-0.00110198
-0.00105414
-0.00113983
0.00431405
0.00795938
-0.000896498
-0.00175952
0.00396816
-0.00583909
0.0195919
-0.00488442
0.00175961
0.018879
0.00462676
-0.00381266
0.00488726
-0.003373
0.000611298
0.00019787
0.001738
0.00054493
-0.00611078
-0.00299648
0.00462461
0.00314904
-0.000412663
0.000944266
0.00462674
-0.00296703
0.0182077
-0.0033524
-0.00369536
-0.00607272
-0.000922242
0.00106066
-0.00167146
0.00462834
0.000989016
0.00437606
0.000503534
0.000484875
-0.00213517
0.0127771
0.000776809
0.0012055
0.00834518
-0.00124549
0.00210871
-0.00382386
-0.00553961
0.00105419
-0.00302127
0.00075291
0.00502121
0.000661816
-0.00129847
-0.000286876
0.000802666
-0.00138502
0.00191192
0.000974167
0.00105478
-0.00607604
-0.000827246
0.000683171
-0.00101987
0.00303619
0.00276891
0.00372065
-0.00551068
0.00221859
-0.00105383
-0.00440279
0.000802946
-0.00188705
-0.00502069
-0.00219599
0.012148
0.0266574
0.00221871
0.00221798
0.00612147
0.0173998
0.0109556
0.0204215
0.00607819
0.00381176
0.00179388
-0.00607301
-0.00607149
0.00895153
-0.000748821
0.0019236
0.00138455
0.000803136
-0.00173761
0.000868511
-0.000802666
-0.00080304
0.000581415
0.00324236
0.00138466
-0.00136591
0.00396649
-0.00358894
-0.0016047
0.000869156
0.00342734
0.0188856
-0.00182656
0.0195849
0.0109524
0.00393467
0.00182646
0.019585
-0.00246844
0.00271494
0.00413619
0.000945277
-0.00462605
-0.000661654
-0.000520843
-0.00220977
0.00087357
0.0039668
-0.000322694
-0.00299774
0.0030211
0.00146341
-0.00167134
0.0056982
-0.00291075
0.00314769
0.00285533
0.00550717
0.00315168
-0.00501885
-0.0012382
-0.000617058
0.0117598
-0.00089707
0.000896748
0.00713296
0.00221723
0.0174097
-0.0007531
-0.00075381
-0.00570064
-0.00562893
0.00440644
-0.00143659
-0.00221775
-0.00291076
-0.0104169
0.00697769
0.00502022
-0.00396362
-0.00611801
0.005697
-0.00276739
-0.00162643
0.000305531
0.00291367
-0.000982644
-0.000868734
0.00219478
-0.00105392
0.00113948
0.000752819
-0.000815182
0.00371918
0.00124523
-0.000682508
-0.000885555
0.00106096
-0.00213726
0.00136503
0.00493731
0.00291245
-0.00382331
0.0165687
-0.00247727
0.00268446
0.00273187
0.00221811
0.00917501
0.00105483
0.0060702
0.00276805
0.000869292
0.00136665
-0.0011557
-0.00134032
-0.00292971
-0.00335436
0.00189796
-0.00302174
0.00396854
0.00260788
0.00210838
0.0352165
0.0174001
-0.00111473
0.00462409
0.0027673
-0.00305088
0.00607752
0.00115528
0.0109555
0.00793024
0.00134084
-0.00221648
-0.00461774
0.00637835
-0.000611583
0.00396262
-0.00326571
0.00123834
-0.00221718
0.0174109
0.00302072
0.002283
0.0109579
-0.00123826
-0.00221682
0.00137723
0.00371896
-0.00098877
-0.00713019
0.00291271
-0.00133962
0.00248926
-0.00396583
0.00195944
-0.00335387
0.00136941
0.00105681
-0.00248788
0.00774502
0.0143845
0.00354968
0.00826014
-0.00381302
0.00869286
0.00175961
0.00176008
0.000305889
0.00804393
0.00271277
0.00396687
-0.00105428
0.000661509
0.0006611
0.00637992
0.00139167
0.0062875
0.00444556
-0.000802838
-0.000520451
0.00105426
0.00165564
-0.000683362
0.00485904
-0.000777671
-0.0010535
-0.000748017
0.000988651
-0.00123929
-0.00396417
0.00303219
0.0036967
-0.000503865
0.00462892
-0.00248943
-0.00138285
0.00145465
0.00335411
-0.00247748
-0.00356357
0.0182098
-0.000803099
0.00301985
0.00195815
0.00246978
-0.00129907
0.00868812
0.0132527
0.0167763
0.0140166
-0.000813905
-0.00291162
0.00146408
0.00229955
-0.00433982
0.0007185
0.000396384
-0.00291243
-0.00764528
-0.000580928
0.00205914
-0.00105451
0.0156166
0.0352111
0.00926385
-0.00105397
0.00248929
0.0126215
0.00189464
-0.0018267
0.009634
0.0167827
-0.00570121
0.00149792
0.00372078
0.00257058
0.000485051
0.00136621
-0.00124083
0.00196539
-0.000417722
-0.000802612
-0.00115544
-0.00213651
0.00381547
-0.00146457
-0.000868562
-0.00188748
0.00570187
0.00662021
0.00612071
-0.000611774
-0.00205918
-0.00396542
0.0086887
0.00138409
-0.000472035
0.000868775
0.0143821
-0.0039669
-0.000982807
0.00105342
0.0020614
-0.00136665
0.0020356
-0.00291174
0.00804393
0.00501881
0.0188863
0.00315023
-0.00520808
0.00325258
0.000897016
0.000982807
0.000752973
0.000342554
0.000880002
0.00138388
-0.00086959
0.0030348
-0.00138319
0.000661183
0.00116257
0.00291111
-0.00352237
0.00834085
-0.00221756
0.0238198
-0.00382231
0.0143844
0.00231015
0.0059019
0.00291132
-0.000661385
-0.00123876
-0.00157371
-0.00105427
0.00302174
-0.00102146
-0.00501926
0.0039663
-0.000812992
-0.00259574
0.0266574
0.00326853
-0.00105417
-0.00052014
0.000683098
0.00937421
0.00138513
0.000683195
0.00369651
0.00520481
0.00037872
0.00369918
-0.00382311
0.00302157
0.00698521
0.00230925
-0.00129933
0.00521032
0.00449116
0.0113683
0.00149677
-0.0032836
-0.000641008
0.00270432
-0.00134012
0.000802836
0.00449616
0.00257026
0.00136595
-0.00440408
0.0143793
0.00247738
-0.00144878
-0.00105457
0.000802991
-0.000485159
-0.00462511
-0.000803099
0.000611641
0.00105498
0.00155285
0.00352532
-0.00881071
0.00396867
0.00834161
0.0029118
0.0030211
0.0173993
0.00247741
0.0132534
0.00834188
0.00543569
0.00134093
-0.00155134
0.000988815
-0.00502028
0.0054352
0.00589883
0.000661437
0.000503511
0.0012989
0.00354886
0.0104103
-0.000635849
0.0032676
0.00128607
-0.000802661
-0.00155128
0.00104479
0.000748245
0.0046588
-0.00105358
0.00167216
0.00326372
0.000897004
-0.00273076
0.00291276
0.0266574
-0.00462495
-0.0096319
0.00299789
-0.00291128
-0.0029099
0.00868755
0.00120679
-0.000661049
-0.000688059
-0.00299648
0.000719484
0.00105382
0.000842077
0.00104075
0.0013845
-0.00052007
-0.00291201
0.00230116
-0.00230036
0.00127297
0.00123974
0.0142278
-0.000661616
-0.0028153
0.00466134
0.0149256
-0.00462627
-0.00168263
0.00105413
0.0127768
0.00255597
0.00396601
0.00167324
-0.00396891
-0.0039655
0.00192194
0.00356593
0.00129891
0.00450638
0.0352298
-0.00219636
-0.00276841
-0.00118114
0.0109503
-0.00230873
-0.00276911
-0.00355281
0.00257112
0.0029107
0.0174099
0.00213586
0.00188766
-0.00291154
0.00230127
-0.00582225
0.00231071
0.0410752
-0.00607587
0.000442381
0.00129835
0.00229999
0.00661748
-0.00462511
0.0041412
0.0149963
0.000989043
-0.000869243
0.000749101
-0.000412695
0.00352398
0.000827535
-0.00105424
0.00352364
0.00192312
0.00240032
0.00175884
0.00396658
-0.00488503
-0.0030202
-0.000806639
0.0228594
0.0339568
0.00260511
0.00129857
0.000982481
0.00145728
0.000802912
0.000868929
0.0220389
0.0046618
0.00488099
0.0113602
-0.0082568
0.000792694
0.00134087
-0.00102045
-0.00195728
0.00291281
0.00162729
0.00427305
0.0133105
0.00607136
0.00611757
0.00396782
-0.00121713
0.00335767
0.00713305
-0.00136555
-0.00205823
-0.00285366
0.00612436
-0.000640487
0.00198507
-0.00382223
0.0174047
-0.00291161
-0.00582205
0.00713262
0.00607451
0.00396533
0.00105421
-0.00326927
0.000748618
0.000259897
-0.000777032
-0.000896175
-0.00396564
-0.0051412
-0.000260061
0.0012386
-0.00196589
0.00160573
-0.000545445
0.00247896
0.00046631
-0.00509602
-0.00382356
0.0220389
-0.00106112
-0.00146434
0.0025791
-0.00129842
0.000868562
0.00129823
0.000748608
-0.000982784
-0.00137862
0.000879546
0.00130948
-0.00138407
0.00382451
0.00396804
-0.00248842
0.00793645
0.00299847
-0.000337378
-0.00105351
-0.00138999
0.0016275
-0.00206674
0.0109525
0.0105612
-0.00221743
-0.00520323
-0.0008027
-0.000802581
0.0220261
0.00926385
-0.00105377
0.000616577
-0.000814358
-0.00230012
-0.00229975
-0.00139248
0.00352513
0.00210815
0.0165687
0.00257136
0.00865555
0.0174124
0.00301963
-0.0033863
0.000948042
-0.00243916
0.00105481
0.00352191
-0.00105383
0.00382302
0.0228487
0.00182878
-0.00127251
0.0014552
0.00138422
-0.00413283
0.00917644
-0.000944065
-0.00569853
-0.0121462
-0.00382339
-0.000429023
-0.00124004
-0.00056289
-0.00061168
0.0109946
-0.00123992
0.000868707
-0.00392934
0.00105388
0.000395884
0.00217429
-0.00825836
0.00431356
-0.00259811
-0.000682972
0.00462904
0.00102115
-0.00200497
-0.000661057
0.000611126
0.000370442
0.00271367
0.00273132
0.00462658
-0.00163571
0.00167203
0.00162711
-0.000982231
-0.00102205
-0.00488411
0.0061197
0.00145548
0.00354964
0.0149193
0.00612519
-0.000973869
-0.00133949
0.000611177
0.0143814
0.00673757
0.00382524
-0.000251705
-0.00230024
0.00431263
0.00291275
0.00192226
-0.000520656
0.0035247
0.00077794
-0.00404388
0.00192287
-0.00123907
-0.00299796
0.000803054
0.00551088
-0.00281477
0.014919
-0.00356361
-0.000896896
0.00834595
0.00155034
0.000377211
-0.00111491
0.0012388
-0.00229881
0.00834443
-0.00650598
-0.00192358
-0.00681129
-0.000286733
0.00190923
-0.000686574
-0.0023006
-0.0187111
-0.00101987
0.00182695
0.002716
0.00052047
0.00123896
0.00145526
-0.0024867
-0.00712706
0.0268092
0.00637967
-0.00172024
0.00230106
-0.000897345
0.000251735
-0.00382494
0.00098972
-0.00221742
-0.00203572
0.0113667
0.0105619
0.0140186
0.00396901
-0.00396597
-0.00462573
0.000802825
-0.00268418
-0.00129759
-0.00105339
-0.000683501
0.00713605
0.00105367
-0.00221757
0.00249187
-0.000748594
0.00138339
-0.00607401
0.00105396
-0.00110771
0.00180225
-0.00569653
-0.000305458
0.00342064
0.000868603
-0.00213516
0.00291094
0.00179296
-0.00337372
-0.000803119
0.000244861
-0.00382264
0.00448841
-0.00488273
0.0113656
-0.00680908
0.000803317
0.00116177
-0.00276662
0.00440631
0.0188931
0.0132575
0.0165741
0.00302176
0.00144962
0.00302146
-0.000943498
-0.00116119
-0.0029095
-0.000982797
-0.00366372
0.000748383
-0.000496382
-0.00221785
0.0143812
-0.00290525
-0.00462633
-0.000943902
-0.00291229
-0.00129801
0.0110021
0.00382472
-0.00105433
-0.000519797
-0.00105443
0.00182812
-0.00215152
0.00462359
0.00393661
-0.0029122
0.0019228
-0.00142325
0.000921898
0.00105425
-0.000580551
0.000868997
0.0312802
0.00607791
0.000662486
0.00138416
0.00218547
0.0228549
0.00260771
0.00337702
-0.00462729
0.00352517
0.00230108
0.00118169
0.00510589
0.000378452
-0.00129854
0.000802976
-0.00257007
0.00272982
-0.00290399
0.00448917
-0.0028328
0.000351585
0.000802618
0.000803261
-0.000803071
0.00105412
0.00180271
-0.000683339
0.000443469
-0.000988998
-0.00196472
-0.000897271
0.00520727
-0.00936551
0.000921786
0.00611874
0.0159729
0.0155575
0.00302072
0.00834271
-0.00396609
0.000922702
-0.00180371
0.00080295
0.000900709
0.00138461
-0.000803099
0.0019658
-0.00094395
0.00276735
-0.00230841
-0.00260813
0.00504331
-0.0034244
-0.00098356
0.0100929
0.0188886
0.00583934
0.000748715
-0.00200417
0.00191154
0.0113651
-0.00210702
0.00219419
0.000641081
-0.00105447
0.00207044
-0.00352503
0.000752887
0.000683074
0.000803181
-0.00162605
-0.00167228
0.00068306
-0.0079318
-0.00105479
0.014921
-0.00146414
0.00257108
-0.000520556
0.000581611
-0.00105427
0.00116375
-0.00168894
-0.000948689
0.00267073
-0.000943518
0.000803355
-0.00130607
-0.000519994
0.00129845
-0.000616375
0.000814725
0.00105432
0.003549
0.00118255
-0.00105398
-0.0029976
0.0159734
0.00231102
-0.00160546
0.000683985
0.00440857
0.00120625
-0.00301984
0.0143852
-0.00155322
0.00145672
-0.00221745
0.00354903
0.0019571
0.00396754
-0.000748645
0.00206077
0.00338563
-0.000802991
0.000581335
-0.0009891
-0.00502007
-0.000682941
-0.0011623
-0.000305462
0.000793016
-0.00470716
-0.00129922
0.000995642
0.00146454
0.000185284
0.00462337
-0.00195747
0.0127813
0.00369989
0.00094373
-0.000803349
0.00880558
-0.00381058
0.00248086
0.0009945
0.00162703
0.00068358
-0.000982609
-0.00162583
0.00774746
-0.00182697
0.00129848
0.00221846
0.00121707
-0.00123898
-0.00105448
0.00698863
-0.00440549
0.00961259
0.000990435
0.000562978
0.0017597
-0.000683324
0.00129806
-0.00129838
0.00218761
-0.00520533
0.0109544
0.00471272
-0.000581823
-0.000802874
0.0149195
-0.00268293
0.00531221
0.00138369
-0.00680938
0.005513
0.000555894
-0.000442862
-0.00118165
0.000718686
0.0167827
-0.00356467
0.00502228
0.0058393
0.00462966
0.00431031
0.00239916
0.0143894
0.000802825
0.000611852
0.0121667
0.0149157
0.00110808
-0.000396221
-0.0035225
0.00352314
-0.00179344
-0.00105397
0.00175878
0.00146525
-0.000396373
0.00246859
-0.00352221
-0.00570088
-0.00109038
0.00488747
-0.00396639
-0.00210941
-0.00138463
-0.00352416
0.00612015
0.00175775
0.0268211
0.0010544
0.000611232
-0.00284612
0.00466256
0.00869039
0.00471024
0.00145728
-0.00302043
-0.00105348
0.000803678
0.0165711
0.000802127
-0.00105404
0.0143895
0.00128554
0.000520673
0.00340086
0.00112564
-0.00104103
-0.00488522
0.0220258
0.0167781
0.0202942
0.0113638
0.00258106
0.00123753
-0.00196617
0.010135
-0.00381144
0.0039668
0.00466128
-0.00326792
0.00291294
0.00662116
-0.00396565
0.0149203
-0.0022992
0.000983345
0.00276837
-0.00162555
0.0228594
0.017408
0.0010843
-0.00172129
0.000989805
0.00324317
0.000943394
-0.00396666
0.00638113
-0.00134136
0.0352298
0.0188881
-0.00087944
0.00160662
0.0030193
-0.000896746
0.00105411
-0.000802634
-0.00259802
0.0027125
0.00466288
-0.00139277
-0.000803175
0.00115461
0.00520833
0.00290059
-0.000748483
0.000503574
-0.0029672
-0.00440397
0.00520881
0.0149197
0.00607492
0.0010542
0.000944225
0.000581493
0.00105388
-0.000983014
-0.000442905
-0.000520122
-0.00129837
-0.00143713
-0.000683298
0.00111469
-0.0021083
-0.00302122
-0.00221725
-0.000428806
0.00396771
0.0173993
-0.00382161
-0.00291221
-0.000260366
0.0071243
0.0138653
0.00488284
0.00175959
-0.00583629
0.000611411
0.00394269
0.000868117
0.0143862
0.00404666
-0.00382269
-0.00352387
0.000983706
0.0020579
0.000896985
0.00247812
0.00105379
-0.000520353
0.00291221
0.00834518
-0.00189461
-0.00569498
0.00449281
-0.0019229
-0.00462483
-0.00221716
0.00123878
0.00465922
-0.000520153
-0.000777373
0.000982164
-0.000637031
0.000897553
0.00366326
-0.00606426
-0.00216507
0.00302092
0.00168946
0.00372349
-0.0039656
-0.00249039
0.00382451
0.00382477
-0.0038117
0.000802521
0.00276815
-0.00218421
0.0167796
0.00141522
0.0022184
0.00520801
-0.00488418
-0.00520868
-0.00256989
-0.00155231
-0.00426946
0.00713978
0.000547269
0.000802902
-0.00285477
-0.000611411
0.00210841
-0.00162672
-0.000682634
0.000802486
0.00502114
0.00382451
0.00681937
-0.00160636
-0.000377585
0.000485112
0.00607409
0.00243854
-0.000683329
0.00291287
-0.000803164
-0.00259846
0.000943352
-0.00175205
-0.00299158
-0.00074792
0.00155134
0.018888
0.0050222
0.0039642
0.0113611
0.0173971
-0.0005811
-0.00167155
-0.000803263
0.00520666
0.00396407
0.00105381
-0.00136683
-0.000989467
0.000503896
0.000683171
0.00396571
-0.00587065
0.000558162
0.00774946
-0.00396561
0.00582149
0.00116238
0.0014388
-0.00247718
0.0014638
-0.00520754
0.0159734
-0.00324017
0.00182449
0.00142321
0.00342304
0.0104164
-0.000900106
-0.00139195
0.00231164
0.0013411
-0.00247718
-0.000899634
0.00611922
-0.0046271
-0.00138509
0.0101398
0.00804559
0.0079353
0.010561
-0.00302076
0.00145507
0.00105424
0.00165037
0.00172386
-0.00520819
-0.000581235
-0.00168791
0.00138889
0.00283428
0.0010559
0.0109544
0.00444771
0.00925377
0.000868662
-0.000802628
0.000982828
0.000682981
-0.000897371
-0.000989558
0.00612335
0.00105399
0.00198352
-0.000814171
0.00137715
-0.00221778
0.00396769
-0.0003648
0.00220822
-0.000942901
-0.00129927
0.00543216
0.000803313
-0.0014961
-0.00210865
-0.000547069
0.000465412
0.000802843
-0.000616413
-0.000944014
0.00210796
-0.00291042
0.00217456
-0.00712887
0.00268298
-0.0038216
0.000752922
0.000982712
0.00520811
0.00291259
0.00281709
-0.0017208
-0.00355003
0.00433819
0.00244014
0.00129799
0.00162724
0.00501867
0.00337352
0.00175957
-0.000401704
-0.00168789
0.0173993
0.00723034
-0.00440389
-0.00382313
-0.00105428
0.000841782
0.0339349
0.00661394
-0.0015256
0.00834086
0.00327253
0.0268321
0.00723374
0.00219551
-0.00127791
0.0193344
0.00396622
0.00936038
-0.000988369
-0.00462517
0.00105358
0.0126231
-0.0060759
-0.00118147
0.00352176
0.00354736
-0.00291146
-0.000868619
-0.00413018
0.00502124
0.00826218
0.00382472
-0.0100406
0.00382454
0.00270764
-0.00255387
0.010955
-0.00128154
-0.00843481
-0.00315016
-0.000683326
-0.00218573
0.0188863
0.00110145
0.00138347
0.000273911
-0.000803729
0.000869007
0.000869229
0.00302032
0.00120811
0.00521046
0.00129871
-0.000611606
0.000611419
0.00191097
-0.00118118
0.000661094
-0.00427287
0.00134455
0.00273125
0.000364731
-0.00342208
-0.00271138
0.0054352
0.00352179
-0.0104094
0.00302251
0.00105424
0.0071399
0.000661806
-0.00108359
0.00302111
-0.0130003
-0.000973903
-0.000487989
-0.00404363
0.000484622
0.00213579
0.00230098
0.000683171
0.00110159
0.000581152
-0.00514099
-0.00105515
0.00301977
-0.000803099
-0.00172053
0.00520745
0.0127744
0.000661881
0.00219555
-0.000983026
-0.000661823
-0.00179453
0.00372296
-0.00502022
-0.000804099
0.00173649
0.00680938
0.00270315
0.000815195
0.000619978
-0.00256995
0.00342087
-0.00136677
0.00937862
0.00612106
0.000896645
-0.00283389
0.00121901
-0.000611719
0.0149242
0.0143889
0.00926696
0.00213618
-0.00338615
0.0017218
0.00276741
0.0104138
0.019689
0.0142275
-0.00764544
0.0126212
0.00466333
-0.00239861
0.00221797
0.00291221
-0.000752788
-0.00139266
0.00697135
0.00166597
-0.00513865
0.00136849
0.00167256
-0.000943808
0.000305821
0.000682897
0.0024391
-0.000943705
0.00637879
0.0196954
0.0054357
0.00520822
-0.000503867
0.00210992
0.00230141
-0.00291033
-0.00292825
-0.000611664
0.000682873
0.000429119
-0.00146398
-0.000814546
-0.000545114
-0.00963177
0.00192242
0.0268174
-0.000442558
-0.00146459
-0.000767441
-0.00068333
-0.00258941
0.00302192
0.00607106
-0.00162575
0.00865426
0.00803626
0.00230996
0.00192255
0.00175947
-0.00444564
-0.00105339
-0.000988332
-0.00256989
0.0109581
-0.00326428
-0.000428705
-0.00138369
0.0143793
0.00326837
-0.00144869
0.00502114
0.00394043
-0.00276797
-0.00352187
0.00105393
-0.000982218
-0.00210766
0.000753688
0.00290612
0.00116359
-0.00611847
-0.00325342
0.00180528
0.000949357
0.00239907
0.00054606
-0.00155129
0.000519963
0.00765014
-0.00146458
-0.00127351
0.00219693
0.00291088
-0.00562659
-0.00301993
0.000814435
-0.00102071
-0.00145481
-0.00080305
-0.00248004
-0.00520354
0.0182077
-0.00162574
0.00239314
0.0126218
0.0165711
0.00396652
-0.00520624
0.00173647
-0.000252027
-0.012147
0.00217492
0.00218423
0.0038211
-0.0025978
0.00149723
0.00661774
0.0143811
0.0228441
-0.000868366
-0.00192237
0.00382389
-0.000611061
-0.00138407
-0.000396375
0.00116311
-0.00138449
-0.00520278
0.0149195
0.00440606
0.00865555
0.0149252
0.0113674
0.0113657
-0.000143673
0.00793372
0.0167827
0.0268253
0.0142278
0.000376169
-0.00192315
-0.000520451
0.0193253
0.00127388
0.00936538
0.00570254
0.0009828
-0.000868607
-0.00276371
0.00291164
-0.00352232
0.00206702
0.000683692
0.00127886
0.00372115
0.0143811
0.00276588
-0.000803262
0.00194099
0.00152743
-0.00105443
0.00155868
0.00396481
0.00195664
0.00444746
0.0015802
0.000718233
-0.000694436
0.00162559
0.000174215
0.00146347
0.0196835
0.000570159
0.00302238
0.000662244
-0.000661148
0.00342078
-0.00413344
0.00502151
-0.00221747
-0.00381198
0.00570311
0.00865634
0.00123844
0.00449335
0.00426906
0.00396646
0.000557457
-0.00109063
-0.00136654
0.000868648
-0.00466315
0.014382
-0.00382207
-0.00290162
-0.00281473
-0.00299774
-0.00276713
0.0174055
0.013867
-0.00230063
0.000652049
-0.00520858
-0.00340591
0.00230903
-0.00302055
0.00232589
-0.00019794
0.00803306
-0.00195567
-0.00273044
-0.000753307
-0.00230007
-0.00302004
-0.00133818
-0.000869056
0.00926572
0.00162564
0.00143688
-0.000669491
0.00105419
0.00302002
0.000944182
0.00936058
-0.00138388
0.000683245
0.00299824
-0.000376608
-0.00105414
-0.0018576
-0.00138504
0.00124074
0.00255539
0.0060677
0.00837577
0.0080409
-0.00124008
0.00776197
0.00638216
0.00582784
0.0132596
0.0100976
0.00440567
-0.00793183
-0.00108537
0.00191152
-0.00291215
-0.000880562
0.00105428
0.0024002
0.00213666
0.00205903
0.00213598
-0.000896896
-0.00162605
-0.0035638
0.00372187
0.00129801
0.0013849
0.00291102
0.0014976
-0.00583556
0.00607921
0.0268178
-0.00433914
-0.00230892
-0.00149048
0.00116264
-0.00520924
0.00804012
0.00466161
0.00112636
0.000569831
0.00764299
0.010955
0.00205906
0.0071376
0.00291192
0.0204293
-0.00257065
-0.00105432
-0.00123894
0.000520286
0.000803092
0.00102119
0.00793148
0.00219576
0.00086833
-0.00160572
0.00071881
0.00341991
-0.00129874
-0.000719396
-0.00358512
-0.00176035
-0.000765416
-0.000869161
-0.00042931
-0.00396466
0.00326877
-0.0010542
0.00371976
0.00116126
0.00127326
0.00305254
-0.00094373
0.00129735
-0.00337492
0.00352455
0.004136
0.00151763
-0.00230867
0.00105494
0.0035499
0.00792884
0.00230008
-0.00391519
0.00355048
-0.00081494
0.000803382
0.0632612
0.0228441
-0.0032415
0.0109536
0.00804169
0.00105424
0.000983565
0.0220261
0.00753967
0.00097348
-0.00160526
0.00221664
0.00642337
-0.00210842
-0.00213462
0.000802984
-0.00104156
0.00486165
-0.000777129
0.0010541
-0.0023105
-0.00502036
-0.00102457
0.00301963
-0.00520531
-0.00134012
0.00231028
-0.00326826
0.00028674
0.00462359
0.0014972
0.00320827
0.0149246
0.00192228
0.00396625
-0.00116294
0.00255569
0.00354898
0.00543858
-0.000803232
0.00162753
-0.00105353
0.000611764
0.000943506
0.00127855
0.000520274
-0.0010545
-0.000562748
0.00449545
-0.000442635
0.00501875
0.00470783
-0.00200365
-0.00382379
-0.00382412
-0.000943462
0.00129957
-0.00462633
-0.00210944
-0.00182731
0.000504368
0.00210835
-0.00146506
0.0019646
0.000943359
0.00179536
-0.00136721
0.0071376
-0.00192215
0.00449396
-0.00109454
0.0046624
-0.00396393
0.00440458
0.000496407
-0.000885188
0.000562716
0.00192202
0.00221854
-0.00826101
-0.00843934
0.0149193
0.00520838
0.00123818
-0.000240592
-0.000616994
-0.000944574
0.00444892
0.00635541
-0.000803157
-0.0027631
-0.0018865
0.00276745
-0.00127677
0.000900247
0.0104967
0.00134133
-0.00248938
0.000802986
0.00324229
-0.00301941
-0.00248935
0.00195668
0.000687049
-0.00138363
-0.00050388
-0.00129887
-0.000611403
0.000814336
0.00255605
0.00462822
-0.000867671
-0.00175918
0.000520196
0.0021364
-0.00355225
0.00118153
-0.000879412
0.0126215
0.00419475
0.013252
0.00325377
-0.0010538
0.00232508
0.000494871
0.000141087
-0.00381453
0.00393768
-0.0033742
0.00196632
0.00607765
0.00291247
-0.000803262
0.00291349
0.00520846
-0.000814914
0.00342071
0.00502212
0.000868153
0.00261031
0.00531492
-0.00094406
-0.000868685
0.00210806
0.00337603
0.00192447
-0.00037722
0.00466293
-0.000570206
0.000802891
-0.00513996
-0.000442753
-0.00129898
0.0410752
-0.00206775
0.00466121
0.00382323
0.0188954
0.00517663
-0.00396664
0.00123913
-0.000520232
-0.000896505
-0.00221731
-0.000777544
-0.00381302
-0.00299839
0.00106075
0.00396792
0.00520984
0.014384
-0.00495579
0.00136622
-0.00129878
0.00231052
0.00138407
0.0143814
0.00520587
0.013252
0.00221756
0.00105348
-0.00190235
0.00723604
-0.00192288
0.00118265
0.0100469
0.00105457
0.000922487
-0.00273128
0.00449085
0.014922
0.0174071
0.010561
0.0143816
-0.0039653
-0.000570117
-0.00162595
0.0032108
0.00502523
0.00413625
0.00488774
0.00247753
-0.00358597
0.0121649
0.00396606
0.000140819
0.0196848
-0.00607149
0.00510349
-0.000982509
-0.00134027
-0.00118117
0.0352183
0.000661635
-0.00569383
-0.000364761
0.00105395
-0.000748639
0.00480814
-0.00302084
0.000943411
-0.000611306
-0.0010543
-0.000949318
0.00440495
0.00355016
0.00358524
0.0025714
-0.00681258
-0.00433921
0.000466279
0.00230113
0.00302096
-0.00162788
0.00138419
0.000661825
-0.000944794
-0.00271401
-0.0104133
0.0410559
-0.00837703
0.00141502
0.0029113
-0.00200336
-0.00152509
0.00466054
-0.000471226
0.000841866
-0.000896679
0.00662021
0.00589973
0.00461762
0.00520894
0.00520822
-0.00337508
-0.014846
0.0066187
-0.000988486
-0.000611635
-0.000520147
-0.00396664
-0.00542875
0.000922153
0.00462674
-0.00380991
0.00713673
-0.00462387
0.00167191
-0.000815127
0.00046572
0.0127753
0.00895323
0.00105398
0.000802628
0.00413358
0.000520026
0.0132596
0.00291328
-0.00142599
0.0228594
0.000982405
0.00200302
-0.00044257
0.00160681
0.00110951
-0.00273205
-0.00520808
0.00342179
-0.00143701
-0.00182659
0.00793709
0.00302196
0.00120796
0.00543776
-0.000868644
-0.00396623
0.00146434
0.00139233
-0.00056974
0.00120768
-0.000401837
0.00210853
0.0228441
0.00105416
0.00551238
-0.00470784
-0.00102145
-0.000641431
-0.00175929
-0.00134136
0.00229926
-0.00138471
-0.00514353
-0.00488361
-0.00276968
0.00258895
0.00963704
0.00681452
0.00936538
0.00123937
0.00462658
-0.00325326
0.0022174
-0.00301898
-0.00192215
0.0228441
0.00219496
0.000661184
0.0266574
-0.00136594
0.00182934
-0.00221791
-0.00712672
-0.000922869
0.00396806
-0.00543926
0.0046268
0.0268133
0.00606284
0.00113984
0.0297733
-0.00299789
-0.00462571
0.00168954
0.00301901
0.00105487
0.000520579
0.000520629
0.012782
-0.000748263
-0.000814993
0.00550898
0.00793359
0.00206733
-0.00880955
0.00774299
-0.00281567
0.012169
0.00865291
0.0159795
0.000495396
-0.000803226
0.00664564
-0.00276752
-0.000661445
0.00629158
0.00589787
0.00449265
-0.00105445
-0.00230939
0.000116611
-0.000981859
0.00356167
-0.000803226
0.00337326
-0.00162646
0.000682756
-0.00296727
-0.000428523
0.00105429
-0.00382366
0.00127613
0.002915
-0.00138419
-0.00325206
0.00247824
0.0104087
0.000868453
0.000988521
-0.00396536
0.00404503
0.00607833
0.00440352
0.00462834
-0.00129891
0.000400734
-0.000802308
0.000390809
0.00834222
0.000617384
-0.00168891
-0.00195788
-0.0035239
0.00440677
-0.000803442
0.0149256
0.0126214
-0.00143645
0.00260681
0.0143895
0.00243866
0.000364377
0.00936534
0.0196937
0.00583721
-0.0012991
-0.00105527
-0.00061159
-0.00431276
-0.00396514
0.00281649
0.0220258
0.00471038
0.0035657
0.00325252
-0.000504276
-0.00114944
0.000827532
0.0013399
-0.00290956
0.00164087
0.000636478
0.00382309
-0.00230087
-0.00382248
-0.00105454
0.00162656
0.00635455
0.000802902
-0.000670226
0.000616351
0.00500172
0.000661543
-0.000287432
0.00259757
0.00138415
0.000683032
-0.00610902
-0.00259691
0.00121794
0.00326963
-0.000803147
0.00105424
-0.00192341
0.0126239
0.00705802
0.000545816
0.0149265
0.000612576
0.00260731
-0.00371895
-0.00248983
-0.00440536
-0.00440312
-0.000988944
0.00105448
0.00137694
0.00192293
0.0109559
-0.00291088
0.00210222
0.00188791
0.00145538
-0.000802991
0.0012461
0.000897329
-0.00302003
0.00393679
-0.00098294
0.00372119
-0.00138357
0.0167796
-0.000982415
-0.00366322
-0.00877528
0.0109934
0.00123884
-0.00105412
-0.000682841
-0.00285338
0.00139148
-0.00569867
-0.00164071
0.00255373
0.000504349
5.3978e-05
0.000465583
-0.00291189
-0.000682739
0.00325381
0.00382519
-0.00221743
-0.00248622
-0.00139224
0.00168815
-0.000802789
0.00273049
-0.00256987
0.0132586
0.00270305
0.00659182
-0.000661509
0.00153145
-0.000897316
-0.000285222
0.0032836
0.0167748
-0.00155127
-0.00123903
0.00397054
-0.0018865
0.00793475
0.000803334
0.00124601
-0.000637537
0.000611506
0.00637992
0.0167748
0.00661437
0.000428673
0.000698009
-0.00137692
0.0022181
0.00628807
0.00105407
-0.00335412
0.00221744
-0.000611598
-0.00276936
-0.0012783
-0.00611719
0.0147214
0.0159777
0.0188887
-0.00610774
-0.00302064
-0.00583743
0.00427409
-0.000896942
0.00607123
-0.00462387
-0.000983261
-0.00396594
-0.000943429
-0.00136611
-0.0016009
-0.00291243
-0.00123881
0.00105411
-0.000396112
0.00155196
0.0228551
-0.00281601
0.00302169
-0.00080271
-0.000989295
-0.00098225
0.000897028
0.00590085
0.00582652
-0.00570122
0.000661357
0.00520825
-0.0187111
0.00192201
-0.000616823
-0.00221746
0.00105483
-0.00629149
0.000466278
-0.0121517
0.0041379
0.00878436
-0.0011814
-0.0062914
0.00396758
0.000611837
0.00268298
0.00502156
0.0038229
-0.00461823
0.00302181
-0.00335358
0.0105628
0.0126195
0.00462607
0.0352298
-0.00259806
-0.00396374
0.00218722
-0.00257008
-0.00381142
0.0072334
-0.00520727
-0.000570235
0.00129848
-0.000376878
0.000868717
-0.000900137
-0.000611367
0.00146435
0.000718584
-0.00130284
-0.000992422
0.00382155
-0.00127362
-0.00366367
0.00123835
-0.000520398
0.00176323
0.0174099
0.00937248
0.00173826
0.00121779
-0.000729169
-0.000841429
0.000869441
-0.000683189
-0.00396522
-0.002195
0.000868675
0.00712918
-0.000988606
-0.000802715
0.00129835
-0.000748776
-0.000498211
0.00179511
0.00176035
-0.00681163
-0.00116298
0.00114958
0.00369759
0.0126232
-0.00168885
-0.0027635
0.00382323
0.00421787
-0.00385553
0.00382419
0.00105376
-0.00239924
-0.000868836
-0.000364928
0.00326997
0.00502343
0.00440601
0.00590004
0.0018876
0.000611456
-0.000974171
0.000544608
-0.00462332
0.00139167
-0.000868157
0.00302219
0.0109572
0.0196884
0.000611774
-0.00230007
-0.00326649
-0.000983105
0.000683106
0.00325421
0.00431153
0.000616312
0.00440301
0.00583866
-0.00520739
0.00712833
0.0121966
0.000748527
-0.00116268
-0.000619103
-0.0009434
0.00371868
0.00381552
0.0167827
0.00335779
-0.00302113
0.00248889
0.00173926
-0.000611627
0.0010408
0.000719269
-0.00248755
0.00517465
0.0220234
0.00834465
-0.0023991
0.0104178
0.00926634
0.00301952
-0.00291201
0.00134036
-0.00138431
0.00123878
-0.00793309
0.00393768
-0.00128245
0.00120713
-0.00352278
0.000982953
-0.00340099
0.00138348
-0.000803213
0.00449249
0.00517573
-0.00396584
0.000719031
0.014918
0.000803088
0.00155202
0.0339391
0.000581072
0.00210894
0.000991422
0.000802467
0.00326963
0.000661419
-0.00144896
0.00276247
0.00155112
-0.000611306
-0.00182743
-0.000640437
0.00520495
0.00267878
0.0204262
0.00321026
-0.00281503
0.00110915
0.0114149
0.010956
0.00191261
-0.000802852
0.0173993
0.0312704
0.0132523
0.00299824
0.00466048
-0.00470841
0.00230214
-0.00382404
-0.0012181
-0.000321102
-0.000251647
-0.000803546
0.00466169
0.0167827
0.0195889
0.011364
-0.00301977
-0.00138924
0.00520878
0.00381234
-0.00396582
0.0143867
0.00466293
-0.00326777
0.00217197
-0.00213587
-0.00444553
-0.00221746
0.00638347
-0.000450293
-0.000802984
0.00393449
0.00488432
0.000897771
-0.00382225
-0.00105384
0.00681747
0.00175941
0.00210089
-0.00382311
0.000545868
0.00501819
0.0013846
-0.00162584
0.000869399
-0.00314786
0.00112494
-0.00111499
0.00543893
-0.00480942
0.0410559
0.00239865
0.00335436
0.00162539
0.000897511
-0.00127373
-0.00136635
0.00553969
-0.000896885
-0.000814284
0.00291234
0.0143875
0.0204247
-0.000661508
-0.000544765
-0.00437236
0.0165661
-0.00175781
0.00895153
0.00221836
-0.00302046
-0.00352442
0.0297892
0.000503862
0.00127431
0.00571444
0.0132596
0.0109559
-0.00531174
-0.00206689
-0.00105411
0.00123693
0.00837263
-0.00105402
-0.00106017
-0.00382309
0.00206925
0.000970001
0.00247849
-0.000636688
0.00326393
-0.00160525
0.00179809
0.00219485
0.000969891
-0.00276918
-0.00168878
0.00587366
-0.00163975
-0.00396685
-0.000370564
0.0021453
0.00080304
0.0167748
0.00937248
0.00449053
0.0083759
0.0126239
0.00105812
0.00396437
0.00247739
0.00608119
0.0149206
-0.00314938
0.0114198
0.00837767
0.00926369
0.00129868
-0.00141879
0.0105585
0.00520825
0.00206815
-0.000802912
0.00834437
0.00118257
0.000748245
-0.00162663
0.000376669
-0.00462735
0.00682102
0.010313
0.000869526
-0.000260252
0.0011512
0.00310351
-0.00109002
-0.000520413
-0.00335322
-0.00291168
-0.000661482
-0.00301822
0.0167717
-0.00173739
0.000293774
0.000520001
-0.00124591
-0.000401079
-0.00182826
-0.0060759
-0.00276281
-0.00188761
-0.0030202
0.00105379
0.0172739
-0.00444572
-0.00396533
0.00120622
0.00612117
0.00372095
0.014384
0.004495
0.00369632
0.00606603
-0.00462495
0.0109538
0.0138653
-0.000802747
0.00221801
0.00151782
-0.00642685
0.00203422
0.000312376
-0.00080312
0.00138417
0.000611655
0.000683621
-0.00281683
0.00804187
0.000232498
0.00124661
-0.00337551
-0.01215
-0.00198615
-0.0022186
-0.00607396
0.000748245
-0.00058106
0.00865358
-0.0023006
0.00276754
0.0101332
-0.00276783
-0.00698596
-0.000922115
0.00210716
0.000547515
0.00520996
0.00206867
0.00246943
0.000683371
0.0410752
0.00517442
-0.00291186
-0.0029122
-0.00315075
-0.00382321
-0.00427043
-0.00086847
-0.000875402
0.00226101
-0.00396677
0.00569789
-0.00239461
-0.00129837
-0.000545066
-0.00138462
0.000802846
-0.00291106
0.00713673
-0.000900365
0.00221838
-0.0016267
-0.00393768
0.00607806
-0.00259863
-0.000485017
-0.00462337
0.0220261
0.0093549
0.00230245
-0.0039444
-0.000377481
-0.00192343
-0.00136174
0.0007199
0.0030217
-0.000884704
0.000442478
0.00335583
0.00151732
-0.000989373
0.00155141
-0.00314971
0.00291068
0.00679442
0.00551255
0.0101439
0.0195989
0.00462081
0.0011637
-0.00105417
0.00936701
0.000868715
0.00116255
-0.001436
-0.00138456
0.00136634
0.00462483
0.00162664
0.00124616
-0.00291004
-0.00105449
0.000752829
-0.00276924
0.00611907
0.00501875
-0.00201227
0.00713523
-0.00501926
0.0167795
-0.00427115
0.000683203
0.00281574
0.00302197
0.000988154
-0.00098943
0.000616399
0.00825693
0.00340616
0.00145543
0.017408
0.0228594
0.0268279
0.00834553
0.0113651
0.00965719
-0.0025973
0.00376303
0.00382222
-0.00138381
0.00192232
-0.00229985
-0.00396634
0.00138432
-0.00326555
0.00143775
-0.00266991
-0.00210865
0.00167156
0.00162695
-0.00509969
0.00610697
0.00291147
-0.00681157
-0.00310449
0.00352732
0.0126232
0.00162774
0.00123946
0.00260948
0.00612614
-0.00723547
0.0167827
0.00281584
0.000802371
-0.00230877
0.000803325
0.000989523
0.00123844
0.00462555
0.00195798
0.00329476
0.00804074
0.0109558
-0.00105444
-0.00674882
0.00382635
-0.00382409
-0.00754035
0.0220389
-0.00291023
0.00502
0.00352302
0.00607438
0.00587793
0.00105412
0.0012987
-0.00230031
-0.00382165
-0.00179304
0.0113629
0.00302314
-0.00185777
-0.000802628
0.0104214
-0.00248916
0.00175886
0.000943116
0.00382392
-0.00187264
-0.00246807
0.0149242
0.00393846
0.00182827
0.00166724
-0.00607406
0.00396606
-0.00674794
-0.00210789
-0.0027134
-0.00230021
0.00127843
0.0109558
0.00544575
0.0020677
-0.00348152
-0.000841456
-0.000897248
0.00396966
0.00166555
-0.000661427
0.000497446
-0.00321146
-0.00105441
-0.000520427
0.00116219
-0.00356309
-0.00276856
0.000896545
-0.00276595
0.000661314
-0.00100609
0.00102071
0.00205953
0.000442682
0.00255333
-0.000185757
-0.00396666
0.000815607
0.00142269
0.00803053
0.00396601
-0.00162616
-0.000305815
0.0204287
-0.00129919
0.0109536
-0.00221774
0.00138427
0.00105366
-0.00352022
-0.00105457
-0.00175916
0.00393449
0.00462658
0.036703
0.00276775
-0.00116285
0.000943762
0.000752922
0.00138406
-0.0014193
-0.000878998
0.00146416
0.00413372
-0.00764383
0.00712933
-0.00356348
0.00792824
-0.00248838
0.00325464
0.00612247
0.00518928
0.000880475
0.00340444
0.00542779
-0.00157202
0.00462469
0.00471221
0.00105363
-0.000989218
-0.0121517
0.0188902
0.0109543
0.00369745
-0.00173611
0.000748035
-0.0035848
0.000611493
0.00192236
0.000803125
0.00310514
0.00200377
0.00089668
0.0017522
-0.00396642
-0.00372119
0.00116279
0.00246787
0.00466408
-0.00230016
-0.00129726
0.0071399
0.0035229
0.00302129
-0.00328328
0.00068318
-0.00075365
0.00637608
-0.00604153
-0.00221757
0.00256998
0.00251052
0.0109532
0.00303167
0.00637967
-0.00231043
0.000503904
0.000465681
-0.0013834
-0.00127326
0.00637704
0.00260564
0.00420936
-0.000682906
-0.00123948
-0.00291074
0.0027041
-0.00356335
-0.00185712
0.0109539
0.0121667
0.00335559
0.00394247
-0.00160509
0.000748858
-0.000683162
0.000520257
-0.00267154
0.00259749
0.000611485
-0.00195218
-0.00206741
-0.000989008
0.00520881
-0.000899926
0.00352385
-0.000897267
0.00016652
0.00673629
0.0127768
0.00115198
0.0029113
-0.00134056
0.0021496
-0.0016717
0.00260577
0.000749458
-0.00826194
-0.00281577
0.00396713
-0.000989072
0.00052014
0.00335426
0.00714314
0.0268253
0.0238311
0.00176008
-0.000401088
0.00488827
-0.00105411
-0.000519994
0.00167147
0.0029112
-0.00152645
-0.000869612
-0.000140944
-0.00080305
-0.00144951
-0.00195668
-0.00230068
0.00462577
-0.00129776
0.00339703
-0.000690441
0.00129824
-0.00239833
-0.00303097
-0.00276649
-0.00175929
-0.0012386
-0.00134037
0.00937222
0.00114045
0.00607115
0.000988701
0.0109577
-0.00160643
0.00114019
0.000718316
0.0143876
-0.00146491
-0.000683371
-0.00273139
0.0011503
0.000520476
0.00735084
0.000611269
-0.00146519
-0.000683404
0.00094358
0.000748573
0.000465289
-0.00130267
0.00271277
-0.00138466
0.000321447
-0.00230934
-0.00144841
0.00221687
0.00587289
0.00120683
0.0032404
-0.00326444
0.000376952
0.00414254
0.00285533
-0.000880091
-0.00396471
0.00494079
0.00162664
0.00612332
-0.00607782
0.0101398
0.00544094
0.0105603
-0.00247718
0.00129821
0.000896207
0.00843373
-0.000896985
0.0048865
0.00300266
0.0109558
0.00355229
0.00342687
0.00145857
-0.000868525
-0.00302004
0.00302127
0.00385358
0.0109508
-0.00520696
-0.000841716
-0.000520416
-0.00105484
-0.00247669
-0.00450263
-0.00123923
0.000943275
0.00112579
0.00697169
-0.00105443
-0.00210825
0.00118156
0.00143743
0.0046595
-0.00257032
-0.00228737
0.00291261
0.00118149
0.0016275
0.00396737
-0.0015509
-0.000868621
0.00175102
0.00444777
0.0113651
0.0165663
0.012198
0.0050238
0.0121472
-0.00393583
-0.000401558
-0.00108399
0.00050364
0.00337457
0.000803193
-0.000378723
-0.00162634
0.00221842
-0.00166626
-0.00032119
-0.000519879
0.00247848
0.0182098
-0.00111536
0.00105388
-0.00231043
0.00517498
0.00277036
0.00210961
-0.000611116
0.00315299
0.00314944
-0.000885375
-0.00396453
0.000364894
-0.000353541
-0.0010545
-0.000611288
-0.00259851
0.00230081
0.00324046
0.00115382
-0.00255499
0.00965859
-0.000520405
-0.00793119
0.00396773
-0.00404496
-0.00382235
0.0143796
0.0140166
0.00381198
0.00606632
0.00583947
0.000802843
0.00196728
0.00291346
-0.00230042
-0.00352196
-0.000988876
0.000555494
-0.00221766
0.00354953
-0.00240085
0.000141809
0.00928964
-0.0065076
-0.000748355
0.00105412
-0.000682771
0.0030219
-0.0027134
-0.00382295
-0.00396639
-0.000897075
0.00200554
-0.000611609
-0.00105366
0.00146437
0.00149123
-0.000611739
-0.00192338
0.00068679
-0.00314711
0.0138642
0.0109541
-0.00189496
0.00461901
0.001239
0.000869007
0.00520624
0.000982331
-0.0022188
0.00189669
-0.000683342
-0.00248121
0.00439075
0.00291088
0.00550895
0.000376674
0.00396665
0.0143847
0.00196462
0.000558417
0.00276848
-0.000471792
-0.00087875
-0.00052
-0.000802441
0.0052052
-0.000359121
-0.00143734
-0.000869229
0.0012989
0.00110961
-0.00352384
0.00116245
-0.00542559
0.00713255
0.0010542
0.00105399
-0.00230939
0.00396916
0.00138338
0.0143894
0.00520569
0.00356441
0.000989218
0.00723761
-0.00413353
0.00825848
0.0016668
0.000768651
-0.00299661
-0.00291298
0.00281751
0.00086824
0.0041977
0.00248968
0.000592767
0.000922366
-0.00167265
0.000873885
0.00138388
0.000396524
0.0046268
-0.00230053
0.0258525
-0.000802317
-0.00087533
0.000718568
0.00466166
-0.00291132
0.00291102
-0.00172312
0.00325196
-0.00338657
-0.00301948
-0.00123872
0.00637572
-0.000802805
-0.00259759
-0.00382337
-0.00116301
0.000661469
0.000485035
-0.000802476
-0.000896765
-0.000778313
0.00878432
-0.00488434
0.0127766
0.0132506
0.0202942
0.00428796
0.00838266
-0.0049377
0.000682971
0.00118171
-0.00440408
0.00173266
0.00355108
-0.0030207
0.000547385
0.010952
0.00543253
-0.00495434
0.000563748
-0.00247546
-0.00221747
-0.000520077
-0.000379082
-0.00102136
-0.0027676
0.0016275
-0.00674813
0.000661203
0.00186182
-0.00094435
0.000688728
-0.00121851
0.000718349
0.00291266
-0.00291147
0.000442505
0.000802587
0.00611657
0.00250774
0.0143793
0.0015109
0.000442423
0.00217816
0.00661762
-0.00133908
-0.00192324
0.00179292
0.00221838
0.000661346
0.00138335
-0.00162576
0.00869262
0.00865369
-0.00225938
0.00105354
0.000558623
0.000449481
-0.00326323
0.00396708
0.000900042
-0.00210983
-0.000814573
0.00100638
0.00105414
0.000619843
0.000305585
0.00105404
0.00396512
0.000442582
0.000496249
0.000802618
-0.0039332
0.0052069
-0.00166601
-0.00172053
-0.00129854
-0.00105399
0.00837248
0.00129865
0.00291249
-0.00358612
0.0046606
0.0173998
0.0071262
0.00213543
-0.000982984
-0.00139187
-0.00098913
0.000558358
-0.00129916
-0.00108375
-0.00129845
-0.00153138
-0.00123877
0.000988458
-0.00105373
-0.00603923
0.0109517
0.000107412
-0.000520109
-0.00502028
0.00713895
0.00302014
-0.000868214
-0.0027135
-0.00440547
0.00838251
-0.000989658
0.0114196
0.00606645
-0.000900343
-0.000802268
0.00449329
0.000922408
0.00092159
0.0195849
0.00189698
0.0182055
0.0143837
0.00228398
-0.00098321
-0.0009741
0.00427398
-0.00111565
0.000636478
0.00352638
-0.00583976
0.000896545
0.00713314
0.000396112
0.0147217
-0.00328443
-0.00230004
0.00291102
-0.0029117
0.0193282
-0.000616362
-0.00629247
0.0258614
0.0228513
-0.00179484
0.00162739
-0.00188655
0.0017211
0.00371911
-0.00105382
-0.00449624
0.00431421
-0.00138378
-0.00396536
0.00509854
0.00328582
0.00273168
0.0025089
-0.00188687
-0.000988812
0.00160667
0.00105491
0.00105471
0.000569768
0.000562613
-0.00192323
-0.000922174
-0.000988962
-0.0012984
-0.000611554
0.000982011
0.00713523
0.00302118
0.00273244
0.00590062
-0.00877555
-0.00291208
-0.000942807
-0.00146358
-0.000520299
0.0142342
0.012202
-0.000803328
-0.00051997
0.00396606
0.000401018
0.000719014
0.00396806
0.00520981
0.00277201
-0.00175963
0.00611813
-0.000988338
0.00291204
-0.00291079
-0.000619893
-0.00501902
0.00440538
0.00590353
0.000944079
-0.00230021
0.0069876
0.00230877
0.00393661
0.00428649
-0.000251716
0.00419778
0.000305672
-0.000942994
0.00210711
-0.00607246
0.0018296
-0.00118229
0.0132586
0.00834553
0.00865358
-0.0016877
-0.000661162
-0.0027304
0.00094327
-0.00142322
0.0149265
0.00302338
-0.00105373
-0.00843682
0.0173971
-0.00052052
0.00356423
0.00151782
0.00396425
0.00276824
0.0182035
-0.000640392
0.0121423
0.0173993
0.00098924
-0.00462605
0.00607692
0.0132603
0.00638137
-0.00200251
0.0013837
-0.00461945
0.00520813
0.00291136
-0.00681141
0.000802819
0.000288647
-0.00111567
0.0109573
0.0113683
-0.00450282
-0.000260213
0.000897657
-0.000982712
-0.00200376
0.005697
-0.00396547
-0.00116284
0.000570117
0.0071399
0.00136581
0.00257378
-0.00129898
0.0127828
0.0228542
0.00713253
0.0167859
0.000982944
-0.00162607
-0.00138381
-0.00502073
-0.000896765
0.00356167
-0.00520592
-0.00118201
-0.00145582
-0.00488361
-0.000868607
-0.00173843
0.0113632
0.00869094
-0.00302111
-0.000504228
0.00185705
-0.00680837
-0.00210813
0.0149153
0.00963559
-0.00180384
-0.00291154
-0.000802614
0.0138642
-0.0052054
-0.000748062
0.00127434
0.00337377
0.00964945
-0.00281506
0.00607476
-0.0042698
-0.00196382
-0.00138466
-0.000982828
0.000802143
0.00105473
0.000876638
0.000569877
0.000611448
-0.00081518
0.0034212
-0.00210899
-0.000748392
-0.00266981
0.0159734
-0.0039431
0.00606654
-0.000777918
0.00098859
-0.00255438
0.0018884
0.00774765
0.00804226
0.0159711
0.00231209
0.00162723
0.00138334
-0.00192344
0.00123956
-0.000698156
0.00123775
0.0030198
-0.0018959
0.00195783
0.00244484
-0.00138462
0.000683645
0.00382472
0.00105418
-0.00105991
-0.00358577
-0.00179415
0.000802948
-0.000885333
0.0039669
0.00714483
0.0132575
-0.00105393
-0.000752858
-0.000661306
-0.000251719
0.00394043
-0.00396658
0.0195964
-0.0006832
-0.00384771
-0.00257007
-0.00607081
-0.00495434
0.0003965
-0.000580997
0.00301961
0.00396652
-0.00180428
0.00826417
0.00440665
-0.000485091
-0.00192206
-0.00283245
0.00544103
0.00213536
0.00105374
0.0010541
0.0030201
0.0015812
-0.00138432
0.000662061
0.000752813
-0.00138465
-0.00229927
0.0352353
-0.00160502
0.00185834
-0.00118212
-0.00440356
-0.00138362
-0.00136583
0.00396447
-0.00396475
0.00210787
0.00080296
-0.00450292
0.000173861
0.000944228
0.0043144
-0.00301949
0.0193344
-0.00440536
0.000495387
0.00155295
-0.00396487
0.00503909
0.00105444
0.00105463
0.00520677
0.00291047
-0.00116184
-0.000841706
0.000802476
0.00138405
0.0167859
-0.00793138
0.00221851
-0.00421711
-0.00308012
0.00291255
0.00205852
0.00281477
0.00110846
-0.000841029
0.00713941
0.00138339
0.00276406
-0.000989455
-0.00382264
0.000611175
-0.000989557
0.00210992
0.000661597
-0.00291115
0.000803264
-0.000943539
0.00355016
0.0143798
-0.00358512
0.00138428
-0.000370219
-0.00105445
0.0165741
0.016778
0.0196965
0.0110023
-0.003522
0.00936018
0.00661762
0.000879214
-0.00162652
-0.00301901
-0.00355031
0.0174027
0.0138653
-0.00291081
0.0126199
0.0220285
-0.00382309
-0.00271417
-0.00471024
0.00869461
-0.00493596
0.00253832
0.0143851
-0.000337964
-0.00104199
0.000611348
-0.00462701
0.00210979
-0.00324273
-0.000428626
0.00145618
0.00734798
0.0109573
0.000778129
0.00880801
0.00281668
0.0100937
-0.00604059
0.0029112
0.001384
-0.00138469
-0.00291098
-0.00396584
-0.00248798
-0.000258042
-0.000803044
0.00414605
0.0105622
0.010562
0.0149214
0.00356388
-0.00260724
0.00712844
-0.00192338
0.000802764
-0.00123998
0.000869188
-0.00230866
-0.00335293
-0.00123918
0.00371892
0.000867957
0.00271381
0.00936899
-0.00072866
0.00221695
0.000748507
0.000466523
0.00440589
0.00396916
0.00551291
0.00214551
0.00230043
0.00697135
0.00276335
-0.000989352
0.00173689
