0.00606572
0.00543206
0.00393883
-0.00462876
0.00203431
-0.00105363
-0.00105366
0.00606629
0.00428507
0.0159775
0.00382314
0.00493659
0.00175839
-0.00384305
0.000465528
-0.00192253
-0.00123939
-0.000570322
-0.00121762
0.00589953
-0.00607259
0.00834258
-0.00214454
0.00105419
0.00352382
-0.00246211
0.00146655
0.00302095
-0.00230877
0.000989287
-0.000728805
-0.00259688
-0.00382394
-0.00155225
-0.00302102
0.00462627
-0.0018576
-0.000778481
-0.000494977
0.00589787
0.00804169
0.00884563
0.0188863
-0.000442644
-0.000683139
-0.00642628
-0.00248822
-0.00793131
0.000748245
-0.00133953
0.000544538
-0.00166498
-0.00138338
0.000988478
0.000520269
-0.00603923
-0.000376949
0.00155181
0.00604419
0.00182408
0.000944339
0.0266574
0.0266574
-0.00302012
0.00396555
-0.00129878
0.00290968
-0.00189646
-0.00105392
-0.000495686
0.00146447
-0.0035225
0.00421783
-0.00315202
0.00502231
-0.00372153
0.0228594
0.00462599
-0.000674627
0.00123865
-0.00562711
0.000718659
-0.00244614
0.00221966
-0.00163881
0.00382155
0.00339023
-0.00268379
-0.000251846
0.00184968
-0.0012978
-0.00105377
0.00382443
0.000503703
0.000802825
0.00462904
-0.000885764
-0.000869243
0.000988114
0.000982043
0.0013661
0.0022604
0.000396503
0.00247896
0.0138712
-0.00105725
-0.000753257
-0.000682789
-0.0060652
-0.00428596
0.000611427
0.00380812
-0.000687408
0.000719014
0.000765838
0.00260724
0.00162616
0.00247704
-0.000989577
-0.000669353
0.00325437
0.00326752
-0.00520707
-0.0011618
0.00138416
-0.0023081
-0.0100367
-0.00162611
-0.00138336
-0.00105393
0.00182284
0.00826384
0.0108398
0.00393846
-0.000581465
0.00301941
-0.00291162
0.00098872
0.000897051
0.00129838
-0.00303837
0.00518091
0.00268035
-0.00550894
-0.00137342
-0.00196485
0.00136636
0.00587357
-0.00664552
-0.00520777
0.000233177
-0.0039373
-0.000803243
-0.00488388
-0.000611065
-0.00167239
0.00138391
0.00230839
-0.00302029
-0.00260644
-0.00301832
0.000989008
0.00239853
-0.0015159
0.000803372
-0.000868157
-0.00105362
-0.00129765
0.00449585
0.0023013
0.0142342
0.00192297
-0.00337377
0.0143829
-0.00153026
-0.00146471
-0.00129861
0.000661737
0.0010879
0.00137124
0.00302196
0.0052381
-0.000547193
0.0132575
0.0133105
0.0093605
-0.000802863
0.00682243
-0.00607558
-0.00358606
-0.000885494
0.00215537
0.0020035
0.00230821
0.000868248
0.00134045
0.00273374
-0.00256989
0.00098309
0.00271469
-0.00247751
-0.00607187
0.00335476
-0.00569717
-0.00543057
-0.00134062
-0.00582328
0.00221821
0.00105414
-0.000611295
-0.00587052
0.00878266
-0.00255486
0.0121626
-0.00127782
0.0012389
0.00291116
-0.00173833
-0.00302029
0.00611996
0.00291196
0.0039669
0.00354782
0.00865623
0.00230105
0.0114032
0.00396564
-0.00138292
0.00462624
0.00302097
0.0109555
-0.00276151
-0.00301887
-0.00440408
0.0149243
0.0143889
-0.000869128
-0.000310799
0.000896767
-0.0033524
-0.00187965
-0.00290299
-0.00110113
-0.00123843
0.00629007
-0.00256905
-0.00586929
0.0149176
-0.0012396
0.00325222
0.00231142
0.00325282
0.00607409
0.0114149
0.0266699
0.00449734
0.00123943
-0.000464513
-0.00396578
0.0023002
0.000611098
0.00094336
-0.00607233
0.0104967
-0.00393749
-0.0023006
0.000777289
0.00143773
0.000900358
0.000842061
-0.00129884
0.00175903
0.00774839
0.00303271
0.00086827
-0.000943177
0.000802404
-0.000669865
0.00173615
0.0012174
0.00138419
0.00273245
0.00735191
0.0048624
-0.00138466
-0.00175827
0.0016271
-0.000777382
0.0027316
-0.00372155
-0.00115494
0.00926369
0.00162687
0.0029111
0.00803591
-0.0104155
0.00772177
0.0138685
-0.00352455
-0.00138335
0.000442732
0.00167206
0.00105567
0.00462892
0.00506326
0.0196908
0.00589787
0.0113627
0.0228551
-0.00184987
-0.00611366
0.00302187
0.00612069
-0.00333131
0.0109934
0.0188834
0.0228516
0.00352179
0.000466144
-0.000868889
-0.000949348
0.00471188
0.00105442
0.000611707
0.0030195
0.0113657
0.00175886
0.00440407
0.000683571
0.00145069
0.00606248
-0.00792949
0.0339428
0.00462403
0.000948579
-0.00462655
0.00121774
0.00381176
0.00172148
-0.000495381
-0.000802019
0.0167748
0.00050356
-0.00129792
-0.0012058
-0.00080224
-0.0021359
0.00210997
0.00155827
-0.00219467
-0.000803438
0.00206707
-0.00105452
0.00210743
-0.00382211
0.000988837
0.00273343
0.00162724
0.00196523
0.0016278
0.000401521
0.000748264
-0.000682981
-0.000803157
-0.00569854
0.0100415
0.00803716
0.0030218
0.0220362
0.000504294
0.00145519
0.000814679
0.00905558
0.0182035
0.00502124
0.00771523
0.015462
0.00396792
0.0220338
0.0188924
0.00382344
0.00396783
-0.00520684
-0.00324384
-0.00066141
0.000611425
-0.000545509
0.000661021
0.000370505
0.00629309
0.0011826
-0.000611227
0.00304033
-0.000520001
-0.0035221
-0.00129765
0.00145625
0.00440099
-0.00105471
-0.000661787
-0.000885281
0.00123848
-0.00553917
0.00895554
-0.00381019
-0.000697769
-0.00384612
0.00138378
0.00520872
-0.00230021
0.00291276
-0.000802366
-0.00121748
0.000337144
0.00285547
-0.00105409
0.00108776
0.00337523
0.00155298
-0.00520864
-0.00105449
0.00404725
0.00221792
-0.000939602
0.00834215
0.0109508
-0.00371866
-0.000803137
0.00105494
-0.00462707
0.00160692
-0.000752986
0.00396761
0.00335426
0.00145767
0.00163925
0.00505576
-0.000803236
-0.00146478
0.00281637
-0.003965
0.00961259
0.00248765
0.000802749
-0.000616954
-0.00221778
-0.00302013
0.00176308
0.00765014
0.00544043
0.00834648
0.00382334
-0.00501841
-0.0027676
-0.00111565
0.00136552
-0.000943736
-0.000581323
0.00221961
0.0012994
-0.00520613
0.000803455
0.0008033
-0.00607339
0.00136585
0.00188731
0.00136445
-0.000661112
-0.00246859
0.000803203
-0.00371899
-0.00404298
0.0083795
0.0016266
0.00105412
-0.00296785
0.0159754
0.00216699
0.000611084
0.00213671
-0.00066205
0.0121529
0.00291332
0.000988574
0.0029113
0.0108364
0.0109512
-0.00102004
0.00211009
0.00302275
-0.00162663
-0.000581812
-0.0030197
-0.00431234
0.00462711
0.00324172
-0.000396053
-0.00122302
0.000401602
0.0228513
-0.000897032
-0.00276446
0.000868438
-0.00123893
-0.00607543
-0.00440536
-0.00179378
-0.000777135
-0.00124006
0.00121734
0.00068319
0.0016275
-0.00129829
-0.00352232
0.00562766
0.0138679
-0.00219555
0.000617063
0.00607707
0.0038117
-0.00501864
-0.00116277
0.00382413
0.00189508
0.00501936
0.00291081
0.00662106
-0.000389167
-0.0029105
0.00136483
0.00246229
0.000802666
0.000814789
0.00327021
0.00105988
0.0220285
-0.00157564
-0.00723302
-0.000143475
0.00371904
0.0266449
-0.00138471
0.0012403
-0.000988893
-0.00105389
0.000260049
0.000802825
0.00039598
0.006127
0.00338901
0.00050367
-0.00138378
0.0127804
0.00517498
-0.00195557
0.000682708
-0.000661913
0.00094388
0.00427521
0.00352353
0.0132586
-0.00301975
0.0133042
-0.000428681
-0.00607587
0.000306093
0.000802813
0.00184462
-0.000503888
0.00219692
0.0182077
0.0126202
0.00697255
0.000718466
0.00257139
-0.00129852
0.00127354
-0.00146494
-0.0104128
0.00382137
-0.00462511
0.000494924
-0.00115538
0.00116129
-0.00192351
-0.000988962
-0.000581837
0.00243992
0.000378277
0.00160482
0.00326304
0.0297776
0.0144363
-0.0187153
-0.00326594
-0.000803092
-0.00267233
0.00146472
0.00160717
0.00143775
-0.000683226
0.0156166
0.0352129
-0.00880815
0.0016262
0.00211019
-0.00604161
0.000896765
-0.0039903
0.00315207
0.00394253
0.00162633
0.00697769
-0.00461946
0.00149123
0.00198509
-0.00115111
0.00255523
0.0101343
0.00267059
0.00105415
-0.00291088
0.00244487
0.0172764
-0.00138287
-0.0023101
0.00081517
-0.00444609
0.000814877
0.000661249
-0.00299522
0.00066153
0.00396737
0.0127806
0.00342087
-0.00382277
0.000520292
0.000885202
-0.00256919
0.00134004
0.00105422
0.000982216
-0.00221625
-0.000803786
0.00215692
0.000719499
0.000803497
0.00299824
-0.00427048
0.000661865
-0.00175841
0.00488335
0.00520691
0.0035216
-0.00118152
-0.00230858
-0.00160523
-0.00155189
-0.0030192
0.0119032
0.00834469
0.011366
0.0138685
0.00167258
0.00272005
0.00162669
-0.00123956
0.000868612
0.0035848
-0.000570022
0.0132562
0.00276811
0.000785693
-0.000442897
-0.000165656
0.00276241
0.00105427
0.00115475
-0.00396512
0.00303219
0.00470743
0.00413448
-0.000683127
-0.0021972
-0.00201087
-0.00218343
0.00111532
0.0027631
0.0204215
0.00229948
-0.00129873
-0.00098824
-0.00303346
0.000802334
0.00210701
0.00216704
-0.0013897
0.00172082
-0.00303019
-0.0010545
0.0021456
0.000570222
-0.00219413
0.00502169
0.00335535
-0.0069702
0.0339391
0.0228551
0.00869021
-0.0025984
0.00118262
-0.000545161
-0.00179312
0.00606901
0.000884928
0.000718658
-0.000396166
0.00123994
0.00071849
-0.00074821
-0.00145583
0.000232956
-0.00210884
-0.000748209
0.00382472
0.0138668
0.00358869
0.00414198
-0.00179387
0.00394119
0.00121847
0.00138384
-0.000983146
0.00358898
0.00543813
-0.00325231
-0.00116137
-0.00384525
0.000802687
0.00138391
-0.00136591
-0.00161518
-0.00171986
-0.00149621
0.00712924
0.00606603
0.035204
0.00834146
0.00094336
0.00192217
-0.00188731
0.00123876
-0.00520858
0.00129823
-0.00302113
0.012148
0.000943158
-0.00520532
0.00145497
0.00804016
-0.000989099
-0.000496168
-0.001054
-0.000841093
-0.000868893
0.00302196
0.00285533
0.00302196
0.000640432
-0.00431276
-0.00925409
0.00213724
-0.00231085
-0.000803563
-0.00129887
-0.000185825
-0.000465765
-0.00129894
-0.00138433
0.000885629
0.00074834
0.00221839
0.00123979
0.000520008
0.00283505
0.00607065
-0.00304083
-0.00136541
0.00115522
0.00205816
0.0019365
0.00381525
0.00544143
-0.00155251
0.000465618
-0.00134047
-0.000867964
-0.00248816
-0.00440483
-0.00217148
-0.0071242
0.00123912
-0.000682962
0.00121857
0.00105536
0.00167172
0.0033551
0.0174099
0.0018284
-0.00352416
-0.00129771
-0.00713087
0.00466577
0.00230105
-0.0023004
-0.00273305
-0.00219503
-0.00247768
-0.00582094
0.00421835
0.00502207
-0.00723539
-0.00192375
-0.00138456
0.00160489
-0.0013841
0.000943039
-0.00139154
0.000682889
-0.00138459
0.00382488
0.00358948
-0.000748455
0.000520299
0.00250897
0.0109596
0.00110107
-0.00105388
0.000973448
-0.000752706
0.00462375
-0.00104283
-0.00393162
-0.00520495
0.000921231
0.00935509
0.015623
0.00439225
-0.00396615
0.00190523
-0.000880226
0.00160544
-0.00105452
0.00466266
-0.00276314
0.00092199
-0.00074817
-0.000973479
-0.000520761
0.000803351
-0.000753105
-0.00175869
0.00137698
0.00396507
-0.000802713
-0.00129907
-0.000376917
-0.00200233
0.0143876
-0.00080259
0.00281667
-0.00396512
0.00803326
0.00270489
0.000802277
0.00146392
0.00611704
-0.00462305
-0.000465818
-0.00723559
0.00138922
0.00462418
-0.00105394
-0.000683012
0.00167206
0.0054352
0.00335526
0.00302172
0.00134081
0.00520661
0.000869434
-0.00155128
-0.000719153
-0.00105411
-0.00521002
-0.00299854
0.000982614
0.00105481
0.00397059
-0.00352346
0.00210837
-0.00124788
-0.0032547
0.000753311
-0.00369608
-0.00284736
0.00089803
0.000683211
-0.00167146
-0.00110902
0.0188813
0.0266449
-0.00462539
-0.000305886
0.00182771
0.00301962
-0.00414025
0.0238198
-0.00582438
-0.00281511
-0.00149068
0.00485845
-0.00284419
-0.00162512
0.000285303
-0.00440472
0.00382295
-0.00219679
0.000802696
0.00587956
0.00838055
0.00276684
-0.00524072
-0.00167271
-0.000618651
0.00168991
-0.000396327
0.00396528
0.000944202
0.00382177
0.00136602
-0.000697872
0.00281652
-0.00337492
0.0108549
0.0104154
0.00303404
-0.00102161
-0.00501998
-0.00213594
0.00936899
-0.00607317
0.015623
-0.000982556
0.00123882
0.00327057
-0.000748539
-0.000974237
-0.000442876
0.000943757
0.00396755
-0.00299877
0.00188035
0.00134228
0.00221867
0.0029993
0.00162758
-0.00230891
0.00611871
0.022847
-0.00123898
0.00302174
0.0155575
-0.00518595
0.00230043
-0.00276922
0.00462599
0.00607794
-0.00431524
0.0105619
0.0041414
0.0113673
0.000611129
0.000989059
-0.00302006
-0.00396501
-0.000753221
0.00299824
0.000445359
0.000683636
0.000868369
0.00335539
-0.00502
-0.00382342
0.000777017
-0.00381019
0.000562613
-0.000251887
0.00303199
0.00105379
0.00312759
0.00449424
-0.00104279
0.0195944
0.000868674
-0.000107881
0.000896498
-0.00431073
-0.00087955
0.00486318
0.012158
-0.00190395
0.00382342
0.0220261
-0.00255522
0.000661571
-0.00221759
0.00123889
0.000802902
0.00302008
0.00936345
-0.000896943
0.00162695
0.000428512
0.00210763
-0.00080274
0.000442342
0.00105363
-0.000503878
0.00589957
0.0149232
0.00520929
-0.000683449
0.000827265
-0.00722996
0.00186398
-0.00531038
0.00142278
0.00302022
0.00735101
0.0228551
0.00612183
0.00449567
0.000802791
-0.000748145
0.0133149
0.00329405
0.00440368
0.000131856
0.00123873
0.00681104
0.00327087
-0.00611801
0.00369811
0.000683171
-0.00352387
-0.000840908
-0.00173925
0.00102126
-0.0014653
0.00734691
0.000442852
-0.0100393
-0.00247775
0.0167834
0.0127806
0.00502231
-0.00291197
0.00276952
0.0113648
-0.00267263
0.00607561
0.00315077
-0.00314914
0.0220234
0.00315133
-0.00104076
0.00121862
0.01041
0.00138503
-0.00213488
0.00152673
-0.00449639
-0.00111555
-0.00138456
-0.00276935
0.0093599
0.00587366
-0.00396517
-0.00142069
-0.00281503
0.00276406
0.0149991
0.012198
-0.00210915
0.00162559
-0.00259703
0.00157563
0.000683571
0.00352364
0.00129779
0.000777339
0.00196504
-0.0038117
0.00213713
-0.00232472
0.0193373
0.00354872
0.00301909
0.00123806
-0.00607081
0.0127744
0.00291097
0.00329772
-0.000683339
-0.00303757
-0.00382402
-0.00326771
0.00569826
0.0143827
0.0017512
0.00047155
-0.00502022
0.000683972
-0.00129916
-0.00138438
-0.00221807
0.00479295
-0.00712854
-0.00139265
-0.00326686
0.00105388
-0.00570761
-0.000921841
0.00120633
0.00462374
-0.00302029
0.00380974
0.0105603
-0.00501938
0.00396652
-0.00543667
0.00149135
0.0016712
-0.00248858
0.0105632
0.00372234
0.00837435
0.00369654
0.015623
0.00681114
-0.00136794
0.00105382
0.00302194
0.00793202
0.0104137
0.00182649
-0.00291201
-0.00172228
0.00210994
-0.00138407
-0.000520337
-0.00247908
0.000401881
-0.00105357
-0.00168908
-0.000520451
0.000485443
0.00276662
0.0297776
0.0187207
-0.00116352
-0.00291118
-0.00302109
-0.00396392
0.011362
-0.00216529
-0.00111475
0.00396717
-0.00210818
-0.000803007
0.00120584
0.0109562
-0.000305377
0.00248905
0.000802569
-0.00179327
0.00637835
-0.00195609
-0.000921949
-0.000661036
0.0048874
0.00697778
-0.00607178
-0.00102031
0.00462605
0.00198539
-0.00123835
-0.00340849
0.00413163
0.0149233
0.00611953
0.00462926
0.00105402
0.0016719
0.000611536
-0.000442397
0.0025089
0.000310749
0.00301826
-0.00105411
0.0052065
0.00278358
0.000869876
0.00125245
0.00176267
0.00843387
0.0149132
-0.00697097
0.00121772
-0.00963717
0.00396555
0.0195995
0.00110146
-0.00221716
0.00713559
0.00431567
0.00523811
-0.000802705
0.000973558
-0.0025698
0.00123913
0.00543643
-0.000683404
0.00355019
-0.000401205
0.00105547
-0.00192367
0.0101385
-0.000812932
0.00793372
0.00396536
-0.00248819
0.000873921
-0.00462707
0.000808514
0.00551207
0.00255402
-0.00129831
0.00396414
0.00413385
-0.00210912
-0.00462539
0.00168974
0.00214402
-0.00396445
0.000305484
0.00128726
0.0132596
0.00175279
-0.0071242
0.000287941
0.00301918
0.00149683
-0.00276813
-0.000803137
-0.00219615
0.00878531
0.000491233
0.000562916
0.00155151
0.00105432
0.00215582
-0.00221674
0.00462842
-0.00105428
0.00106037
0.0410972
-0.00231075
-0.000942415
0.000802282
-0.00281601
0.000748463
0.00105407
0.0188904
0.00803416
0.00129784
0.000141013
-0.000377487
-0.0046611
0.00868928
-0.00216613
0.00129886
-0.00248903
-0.000802867
0.00162524
0.00146445
0.00247779
0.00356167
0.0109543
0.00129897
-0.0030207
0.00583647
-0.000815498
-0.00230862
-0.000580825
0.00155769
0.00396744
0.0015796
-0.00215414
-0.00176025
-0.00105388
0.000611296
0.00123802
0.0167748
-0.00587009
0.00187004
-0.0010538
-0.000814696
-0.00284537
-0.00543914
0.0039668
-0.00301957
0.00551214
-0.00121796
-0.000616365
0.000802863
0.000777677
0.00166483
0.00520845
-0.00582438
-0.00031145
0.000611572
0.000982607
0.00399246
-0.00248995
0.00182697
-0.00210899
-0.000611606
-0.00247867
0.00936351
-0.00518528
0.00384435
0.00803624
0.00337325
0.00260544
-0.00371927
0.00131167
-0.00248015
-0.00180452
0.00229996
0.00123957
-0.0043126
-0.00210857
0.00145513
0.00210932
-0.00520509
0.0228441
-0.00764713
0.00059212
-0.00291243
-0.000570104
0.00462701
0.00964038
0.0196995
-0.00086858
0.00210704
0.000661327
0.00105419
0.00240053
-0.0050183
0.00550865
-0.00167215
-0.00550922
0.00310385
0.000748913
0.00138453
0.0127771
-0.00284284
0.0010549
-0.000719637
-0.000802711
0.00028714
0.00123849
-0.00524071
0.000442683
-0.00259849
-0.00100597
-0.00149703
-0.00163968
-0.000683362
-0.00352384
-0.0060741
0.00129851
0.000948761
0.00543544
-0.000868649
-0.00254722
-0.00213542
-0.000869052
-0.00963644
0.000321356
-0.00146522
0.0174097
0.0220362
0.00427362
0.000778183
0.0025698
-0.000748913
0.000983894
0.000921572
-0.00216576
0.000943213
-0.00440432
-0.00205951
0.000465272
-0.00276922
-0.000777065
-0.00440397
0.00192272
0.00713219
0.00520903
-0.0058243
0.00302252
0.0132561
0.00356579
0.00151651
0.00333104
0.0149229
-0.0018259
-0.00175882
0.00179362
0.0195819
-0.000900038
-0.00291067
-0.00133953
-0.000748392
-0.000922381
0.00145578
0.0009435
-0.00518583
-0.00335387
0.0013854
0.00604372
0.000719624
-0.000616893
0.000545163
0.00258886
-0.000592028
0.000815048
0.00121785
0.00431276
0.00396761
0.00221807
-0.00213521
-0.000401486
0.00111527
-0.00105407
-0.00155237
0.0020671
0.00381246
-0.00302036
0.003823
0.000989133
-0.00104065
0.00196541
0.0195984
0.0127813
0.0130117
0.00327038
-0.00189576
0.0109536
0.00302042
-0.00291298
0.00144841
-0.00180258
0.000544971
0.000617176
-0.000504315
0.012779
0.00105485
-0.00382337
-0.00133964
0.000496258
0.000682948
-0.00382189
0.00302028
0.00213651
0.00218692
0.0132596
-0.000943372
-0.00440377
0.0035175
-0.00105453
-0.00359003
-0.000244821
0.00097387
0.00462898
-0.00138553
0.000465684
-0.000944307
0.00231045
-0.00163482
-0.00122314
0.00462848
0.000637379
-0.00151624
0.00206842
0.00462562
0.00608469
-0.00210912
-0.00133924
0.00335555
0.00122259
0.000592864
-0.000802902
0.00354937
0.0132581
0.00869235
0.00382666
-0.00155948
0.00440279
0.0174109
-0.00168841
-0.0121413
-0.00431073
0.00105362
0.000868729
0.0268068
-0.00520365
0.00121717
-0.00501921
0.000802869
0.00520451
-0.00396528
0.00372039
0.00792884
0.0155565
0.00229998
0.0030221
-0.00105317
0.0056982
-0.00146398
-0.00055726
-0.000232998
0.00123864
-0.00108261
-0.000569845
-0.00123893
-0.000748639
0.00342217
0.00195819
0.0127768
-0.00225786
-0.00786145
-0.00712672
-0.000618763
-0.00273163
0.0174109
-0.00115075
0.00230067
0.00203562
-0.00105388
0.000886207
0.000251815
-0.000401541
-0.000803361
-0.00396604
0.00661968
0.000943546
0.00168866
0.000988514
-0.00230939
-0.00642685
0.00352382
0.00792947
-0.00256905
-0.00607272
0.0127802
0.00895894
0.00358723
-0.000802628
-0.00253663
-0.00136674
0.000442711
0.00466024
-0.00764506
-0.00061201
-0.00413251
0.000520881
0.00793277
-0.00168803
0.00338748
0.00102126
-0.000611751
0.00838217
-0.00301995
0.00291296
0.00356305
0.00382472
-0.00396555
-0.00210839
0.00172212
0.0266699
0.0109577
0.00191264
-0.00611758
0.00679692
0.0126202
0.013867
0.00394421
-0.000611263
0.00283505
0.00369938
0.0174105
-0.00105387
-0.00105359
0.00838148
-0.0032418
-0.00172122
-0.000943668
0.00231063
-0.00291179
0.00393661
0.0047133
0.00396444
-0.00356348
-0.00193286
0.000581465
-0.00213521
0.00304892
0.00723906
0.00372169
-0.00153082
-0.00086883
-0.000442679
-0.000611161
0.00431263
0.00175936
0.00404716
0.00396522
-0.00281462
-0.00144877
0.00488365
0.00335296
0.0132513
0.00803837
-0.00382316
0.00120561
0.000520299
0.0187207
0.0109565
0.0167815
-0.00302046
-0.00396601
-0.00291227
0.000943546
0.000519988
0.00192511
-0.00301713
0.000472043
0.0011161
-0.00146496
0.0043165
0.000359569
0.00155082
0.00105422
0.00396783
-0.00221775
0.00158028
-0.00205905
-0.000718935
0.0143849
0.00961399
0.00219522
0.006353
0.00109093
0.0258476
-0.00514029
-0.00129763
-0.0029674
-0.000683324
0.000867707
0.000868979
-0.000897252
-0.00607301
0.0109507
-0.00105457
0.000989602
0.000683805
0.00123871
-0.00136654
0.0410559
0.00167107
-0.00259672
0.000748447
0.00936018
-0.00160523
0.00134178
-0.00396671
0.00355029
0.00396678
0.00162783
0.000869007
-0.000637247
0.00396793
-0.00335383
0.0071298
0.00502182
-0.000753058
0.00058144
0.00257101
-0.000351725
0.0038254
-0.000802369
-0.00188629
-0.00145456
0.00123906
-0.00167199
0.00936603
-0.00878432
-0.000107385
-0.00127391
-0.000611556
0.00118124
-0.00162707
0.000569845
0.00281723
-0.00247789
-0.00219554
0.00589973
-0.00302076
-0.00166494
-0.00108366
0.00149584
0.000503632
0.010563
-0.00248677
0.0195825
0.000377457
-0.00248785
0.00123889
0.00105417
0.000305677
-0.000802267
0.000802874
0.00200543
-0.00102125
-0.00155193
0.00145877
-0.00247718
0.00589953
-0.00114892
-0.00105342
0.00834146
0.00382379
0.00303317
0.00108352
-0.00138472
0.00221808
-0.00462517
-0.00105454
-0.00162622
0.00118187
-0.000520313
0.00376513
-0.000988369
0.00327045
-0.00217398
-0.00098904
0.000841952
0.00105447
0.00175811
-0.00302009
-0.00520727
0.0100414
0.0126214
-0.0010545
-0.000988724
-0.000611448
0.000389617
0.00629407
0.00271846
0.00136642
0.0268253
0.0165741
0.0109562
0.0066187
0.00192447
0.00138428
0.00440389
0.0104138
-0.00276406
0.00936899
-0.00144799
0.00358407
-0.000802014
-0.000569664
0.00136607
0.00182758
0.00439138
-0.000982849
0.0039404
-0.00105343
0.0019646
0.00466465
0.0165722
0.00826111
0.00465707
-0.00396608
0.0126202
0.0109555
-0.00501854
0.00837814
0.0167748
0.00188615
0.00638173
-0.00340739
0.0339572
0.0204288
0.0132586
0.0297978
0.00465979
0.000896545
0.00145665
0.000868689
0.00302107
-0.00382319
-0.000718394
0.00271627
0.00925586
-0.00138419
-0.00302001
0.00166597
0.00105343
-0.00380979
0.00247812
-0.00193424
0.00638038
-0.00152499
-0.00291179
-0.00396449
0.00291287
0.000808
-0.00138366
0.00603882
-0.00260825
0.00249157
0.00396714
0.00372171
-0.000802556
0.000802089
0.00123919
0.000868507
-0.000988293
-0.00105407
-0.00203428
-0.00793012
0.0149233
0.00462698
0.0118887
0.00213656
-0.000777429
-0.000840871
-0.0008026
0.0024779
0.00333071
-0.00488088
0.00231047
-0.0027319
0.00283411
0.00793148
0.00166547
0.00443257
0.00520996
-0.00372088
0.00589935
0.010565
0.0228551
-0.00462655
-0.00219627
-0.000208392
0.00162675
-0.00138364
-0.000803044
0.00213582
-0.00162682
0.0021746
0.0149242
0.00110977
0.00662292
-0.000186027
0.000259833
-0.00230047
0.00352314
0.0046268
-0.00396564
-0.00179458
0.00369539
-0.000718751
0.018884
0.0071399
0.00247802
0.00291047
0.00520814
0.00834396
0.00869153
-0.00301993
0.00569918
0.00713187
-0.0121433
0.00276612
0.00543544
0.00462689
-0.00352219
-0.00396525
-0.0017619
0.0132523
0.00115076
-0.00531134
0.0109553
0.0109529
0.00105439
0.00138487
-0.00189432
-0.000748402
-0.00189479
-0.00607435
0.00190312
0.00260631
0.00110904
0.00114956
-0.00120643
-0.00335387
0.000802997
0.00105387
-0.00173836
-0.000697668
0.00129909
0.00612537
0.00396828
0.000503352
-0.000982686
-0.00256919
0.00358869
0.00369533
0.00878026
0.00192405
0.00143745
0.00175134
0.0044918
0.00834161
0.00868688
-0.00380969
0.00543262
-0.00172061
0.000802618
0.00449002
-0.0028335
0.000582031
-0.00587095
-0.00369619
-0.000520182
-0.00440297
0.00138447
0.00420915
-0.00105388
0.00352679
-0.00488426
0.00190387
-0.00122269
-0.00462729
0.00571189
0.00291268
0.00151296
0.00299824
-0.000943315
0.00221726
0.00110967
-0.00189599
0.00291193
0.00679527
-0.00175981
0.00869015
0.00733928
-0.0019222
0.0046624
0.00838148
0.001828
0.0026067
-0.0084367
0.0039645
0.0159731
0.00774321
-0.00509383
-0.000841476
-0.000869156
-0.000503893
0.0018873
0.00397031
0.00189688
-0.00216651
-0.00145516
-0.00299736
0.000519466
0.00118262
-0.00843832
0.00291294
0.00302014
0.012622
0.00488508
-0.00061232
-0.000803147
0.00273193
-0.00152724
-0.00155133
0.0018865
0.00302107
-0.00162631
-0.00230087
0.00188911
0.00139236
0.000662059
0.00129848
-0.00276837
-0.00502024
0.0174071
0.000943693
-0.000617054
0.00087487
-0.00257072
-0.00105443
0.0033553
-0.00221698
0.00168878
0.00804492
0.00396793
0.00384586
-0.00105372
0.00396667
-0.00175999
0.00290266
0.00138318
0.000636814
0.00123968
0.000983355
-0.00105388
-0.00162593
0.00244471
0.00190347
-0.00116196
0.00382173
0.00100581
0.000802805
0.00052101
0.00520995
-0.000803028
0.013305
-0.000569792
0.0012387
-0.00607616
0.000778167
0.00102071
-0.00466047
0.00113978
-0.00550894
-0.00138427
0.000802639
-0.000520268
-0.00520831
-0.00215647
0.000442618
0.00088597
0.0167827
-0.000305714
-0.00396437
0.00123833
-0.00094397
-0.00123877
0.00080257
-0.0051432
0.000305755
0.00162669
0.00123824
-0.00291221
-0.00210866
0.00138426
-0.00217252
0.00355958
0.00116295
-0.00302036
-0.00323917
0.00110111
0.0113611
-0.000520432
-0.00116174
-0.00281563
0.00302223
0.00302022
-0.00427272
0.00465976
0.00270468
0.00607833
0.00195795
-0.00793128
0.00291406
-0.00302039
-0.000982186
0.00221789
0.00291251
-0.00116361
0.000636641
-0.000989367
0.00662019
-0.00551068
0.00200302
-0.0016888
0.0165687
-0.00146423
-0.00105425
-0.00105473
0.00114045
-0.000591575
0.000982242
-0.00120628
0.00221804
-0.00502086
0.00153126
-0.000661846
0.000718811
0.00590062
0.0043912
-0.00136634
-0.00216597
0.00465861
0.000748976
0.00396678
0.000546011
-0.000519852
0.00713592
0.0220258
0.0165637
0.00635492
0.00868933
0.000563189
-0.000803679
0.00182477
0.000611412
0.00296701
0.00120724
-0.00221665
-0.000943087
-0.00123916
-0.00698751
0.000531332
-0.00192208
0.00131053
0.00213596
0.00123902
0.0025556
0.00551099
-0.000611083
0.00058114
0.00206939
-0.00239816
-0.00231015
-0.00276912
0.00188659
-0.00066123
0.00134039
-0.00213542
-0.00146506
0.0011253
-0.00396466
0.0045002
0.026815
0.00928832
0.0050245
0.00268554
-0.00221742
0.000748594
0.00123955
0.00142278
0.00124026
-0.000305075
0.00255503
-0.00793131
-0.00935764
0.000252272
0.000611901
-0.00105418
0.00611977
0.0351995
0.000683139
-0.00880617
0.0147217
0.007646
-0.000661298
0.00105339
0.0012071
-0.0014646
0.00124527
0.0024884
0.0038254
-0.00382529
-0.000752892
0.000879766
0.0143811
0.011362
0.00326659
0.0228516
0.00352471
0.00273297
0.00509377
0.0044896
0.01262
0.0149218
-0.00221746
-0.00290941
-0.00396393
0.00291214
0.00111497
-0.000845132
0.000465715
0.00105413
0.000803334
0.000442476
0.0109542
0.0010541
-0.00162631
0.00123973
-0.00138447
-0.00219473
-0.00825797
-0.00284366
-0.00461808
-0.00163948
-0.000748831
-0.0009434
-0.000983277
0.000636882
-0.000802781
0.0109551
0.00326941
0.00217301
0.00231102
-0.000803438
0.00105377
0.00488841
0.00607819
-0.000464272
-0.000504157
0.000611656
0.0143889
0.00413448
0.00255344
0.014383
0.0127806
0.00485731
0.00917829
0.00661597
0.00291346
-0.00200379
0.00382396
-0.000243833
0.000376291
-0.00296805
-0.012147
0.00129895
0.0024922
0.00257164
0.000465738
0.00081506
0.00210806
-0.00256961
0.00299847
0.00271441
0.00440665
-0.00221752
0.00354855
0.00326578
-0.0018576
0.00198609
0.000989967
0.00086838
0.00189627
0.00160452
0.00123908
0.00105387
-0.000661932
-0.00381176
0.000611456
0.00382491
-0.00291189
0.00493949
0.00488739
0.000520246
0.00172174
0.00213609
-0.00146389
-0.00281479
0.00396788
0.00105487
0.00562766
-0.000841898
-0.000868434
-0.00256938
0.000661738
-0.000874083
0.0188842
0.0167748
0.00462449
0.00382255
-0.00335412
0.000777729
-0.012146
0.0188933
0.00637572
0.0105598
0.0195855
-0.00200471
0.00206124
0.00270678
-0.000674665
-0.00118225
0.000377046
0.00291175
-0.00116168
-0.00149036
-0.000611665
0.00680611
-0.00606405
0.0030206
0.0167742
0.0143798
-0.00110826
-0.00246805
-0.00210872
-0.000748835
-0.000943778
-0.000802917
-0.00134091
0.00466333
-0.00437341
0.00803988
0.00219558
0.00248751
0.0020685
0.000661073
-0.00068333
0.00216658
0.00520771
0.00869288
0.0174082
0.000802792
-0.0037192
-0.00088039
0.00449386
0.00260669
-0.00396463
0.00369687
0.00868688
-0.000718528
-0.00063661
-0.00396642
-0.000988923
0.00105483
-0.000753404
-0.000766049
-0.000661654
0.000503738
-0.00116251
0.0071399
0.0143854
0.00543083
-0.000495961
0.00155295
-0.00129755
0.00142283
-0.000815269
0.0058968
-0.00215711
0.00384919
-0.000442753
-0.000661376
0.000868634
-0.00276928
0.0024792
0.000748273
0.00612029
0.00488871
0.00611907
0.00834595
-0.00298226
0.00105432
0.00301985
-0.00285311
-0.00123893
0.00355164
0.0228623
0.0195989
-0.000661182
0.0013856
-0.000683025
0.000943767
0.00111016
0.00488503
0.0058968
-0.00168308
-0.00138424
0.000520379
0.00230105
0.00175878
0.00333188
0.00301973
0.0204215
0.00661489
-0.000868103
-0.0014246
-0.00396702
0.00108425
-0.000293528
0.000611099
0.00501868
-0.0079293
0.00290956
-0.00531139
-0.00723191
-0.00276272
-0.00248829
0.00145499
-0.000943282
0.00271494
0.00488605
-0.00369833
0.00102225
0.00382532
0.00138413
0.000943695
-0.00110971
-0.00488435
0.00052033
0.000988423
0.00221704
0.000661192
-0.00431276
-0.00304177
0.0167796
0.00129813
0.000611203
0.00466175
-0.00127298
0.00094275
-0.00240032
-0.000617284
-0.000544507
0.00271572
-0.00611896
-0.00210812
0.0071399
0.00276711
-0.00248777
0.00229967
0.00488654
0.00774577
-0.00352294
0.00370097
-0.000943026
-0.00122293
0.00121714
-0.00039632
-0.00826258
-0.00210882
0.00219532
-0.00461879
-0.000696624
0.0030194
0.00182867
0.0023013
0.00774417
0.00462345
-0.00102049
0.00281757
-0.00105452
-0.0071301
-0.00105425
-0.000778313
-0.000520483
0.00105474
0.00612414
0.0268068
0.0173989
0.011005
0.00301997
0.00192271
0.00396774
-0.000661938
0.00355167
0.0039343
-0.00105357
-0.00066159
0.00149646
0.000748594
0.000662221
0.00681114
0.0109539
0.00104085
0.00105385
-0.00139329
0.00105526
-0.00393564
-0.00583995
-0.00607367
0.00247884
-0.00206741
-0.00138385
0.00257139
-0.00420403
0.00291183
0.00462698
0.00462689
0.00485802
0.00302086
0.00291061
-0.001238
-0.00610774
-0.00146466
0.00396481
0.00291285
-0.00462676
0.010135
-0.00382219
-0.00382396
0.010559
-0.00723447
0.000988673
-0.000803587
-0.00302023
-0.00206713
-0.00175776
0.0037007
0.000611116
0.00611811
0.00246119
-0.00291332
-0.00302085
-0.000802497
0.00257828
-0.00520844
-0.000814924
0.00230925
-0.000662
0.00155179
-0.00129823
0.0159777
0.00189794
-0.00123866
-0.00396668
-0.00302085
0.00198434
0.000520507
0.000495618
-0.00335407
-0.00088444
0.000682995
0.000184923
0.00520901
0.00249005
0.00370099
0.00635399
0.00358853
-0.000520753
0.00105394
-0.000815675
-0.000651639
0.0013849
-0.00086846
-0.00302028
0.00440437
-0.00413123
0.00520587
-0.00229998
0.00127336
0.0193344
0.0205188
0.012625
-0.00149752
-0.00462756
-0.0058244
0.000617082
-0.00520797
-0.00100587
0.0167796
0.00206142
-0.00276911
0.00145023
-0.00123928
0.000581125
0.00276741
-0.00501983
0.00462429
0.00712881
-0.00825586
-0.000610917
0.00712924
0.00105365
0.000939971
0.000401627
-0.00230931
-0.0121413
-0.00219482
-0.000988548
0.000661036
0.0312871
0.00413974
-0.00273044
0.00105477
0.000611764
-0.00302036
-0.000885261
0.00155883
0.00161469
0.000803406
-0.00520821
-0.00210905
-0.000341983
-0.00284366
0.0012228
0.00115212
-0.000591672
-0.000661538
0.00292953
0.00138353
-0.0033752
-0.00123901
0.000748299
0.000802805
-0.00384802
-0.00326399
0.00467932
-0.00129762
0.00105402
0.000869306
-0.0019039
-0.000748565
-0.00123994
-0.0027629
0.0050212
0.00162627
0.00259599
-0.00553505
-0.000616521
-0.000868962
0.000899947
-0.000569901
0.000921381
0.000581679
-0.0006614
0.00109009
-0.000683371
0.00129829
0.00129773
-0.0016266
-0.00562753
-0.000802806
0.013305
0.00461773
0.000503798
0.00138409
-0.000867865
0.0167748
0.00138375
0.000683218
0.00326921
-0.00195726
0.000390747
-0.00606692
-0.00396682
0.00520999
-0.00229954
-0.00123883
0.00179365
-0.00123848
-0.00146487
0.000802991
0.000251558
-0.00162666
0.0017525
0.000802834
-0.000257173
0.00255371
-0.00255051
0.0165741
0.00399073
0.00134228
-0.005205
0.000504015
-0.00184951
-0.000944
0.00145545
-0.0040437
-0.00195667
-0.00382337
0.00396638
-0.000116445
0.00188703
0.00281641
0.00834243
-0.00110974
-0.000503819
-0.00188723
0.0100929
-0.00396523
-0.000868606
0.00465781
0.00149752
-0.00189719
0.012622
-0.00247765
-0.00206027
-0.000803222
-0.00542912
0.0044954
0.00965321
-0.00243932
0.00335737
0.00138419
0.00247945
0.00326533
0.00124002
0.00105411
0.00869165
-0.00105452
0.00192275
-0.00105409
0.00449375
-0.000718736
-0.0016263
0.000520427
-0.00304101
-0.00878443
0.00259679
-0.00105439
-0.00219354
0.00247692
0.00502114
0.000988373
-0.000944491
-0.00068333
0.000869064
0.00543314
0.0228406
-0.00877741
0.0101332
-0.0055329
0.00466
-0.0030208
0.014383
-0.00427183
-0.000500659
-0.000897051
-0.000802628
0.00086867
0.00200495
0.00105427
0.00162795
0.0143825
0.000592144
-0.000943599
0.00366083
0.000876652
0.00837832
0.0220258
0.0220258
0.0410752
0.000503485
-0.00116187
-0.00502014
-0.000306269
-0.00382314
-0.00230041
0.00396787
-0.00167269
-0.000778149
0.00723284
-0.00139329
0.00105375
0.00221771
-0.00105366
-0.000802715
0.0228435
0.000807981
0.00834553
0.0143812
-0.00210748
0.000748684
0.00138334
0.0173989
0.000988957
0.00935964
0.00219683
-0.00105432
0.00137726
-0.00394313
0.00520873
-0.00325282
-0.00470959
0.00136745
-0.00312819
0.0219226
0.000306444
-0.0052051
0.000428761
0.00213533
0.000683539
0.000868474
0.000988336
-0.00284483
-0.00124633
-0.000306163
0.00607561
-0.00302071
0.0063759
-0.00138457
0.00248996
0.00380978
-0.0011547
-0.000592236
-0.00136774
0.00396812
-0.00461913
0.00191087
-0.00382339
-0.00440484
0.00138409
0.000562916
-0.00105393
0.00105416
-0.00138415
-0.000803099
-0.000753256
0.000842158
0.00488712
-0.00138378
-0.0029282
0.000616499
-0.000884555
0.000611185
-0.00210881
0.00834265
-0.00175169
-0.00542912
-0.00431073
0.00466057
0.00320614
0.00553514
-0.00697106
0.0104946
0.000378148
0.00442981
0.00354963
0.00335563
-0.0035854
0.00325246
0.00239808
0.0021746
0.000802202
-0.00105447
-0.00206802
-0.000989017
0.00196637
0.00163721
-0.00080211
0.00192437
-0.000989428
0.00257161
0.0012985
-0.00146482
0.00284562
0.0010542
0.00396558
-0.00230109
0.0127828
0.00440343
-0.00396506
0.010952
-0.00398832
0.00195789
0.00341967
0.0109529
-0.00248686
0.00328387
-0.01215
-0.0104111
0.00520789
0.00381225
-0.00610774
-0.00071811
-0.00105389
0.000504036
0.00127325
0.00462834
-0.00215659
0.0027696
-0.00105452
0.00162664
0.00105477
-0.00163925
0.0039688
0.00444716
0.00393679
0.00216791
0.00050357
-0.0032836
-0.00111475
-0.00431263
0.00662081
0.00302177
-0.000465644
0.0105632
-0.00291156
0.00352468
-0.00462822
-0.00114968
-0.00273488
0.00396729
0.00064066
0.00182786
0.000662221
0.00612631
0.0149275
0.00230125
-0.00217333
0.00550966
0.000376941
0.00172066
0.00589889
0.0101323
0.000814593
-0.00129855
-0.00116313
-0.00105451
-0.00607393
-0.00137734
0.00188782
-0.00166539
-0.00191277
-0.000396221
0.00396715
-0.00301928
-0.00764383
0.00120616
0.00145628
0.00105393
0.00014409
0.00247887
0.014917
0.00145611
-0.00398996
0.00166612
-0.00382249
0.000683618
-0.000868105
0.00167241
-0.0035864
0.00182623
0.00707372
0.00151737
-0.000802677
-0.000617016
-0.00105444
0.0258476
0.0109512
0.00136571
-0.000826355
0.00440695
0.0046601
-0.00302076
0.00086853
0.00480821
0.00462403
0.0027155
0.000989855
-0.00175929
-0.0023006
0.00449216
0.00273189
0.00123887
0.00396512
-0.00105431
0.0012994
0.00302158
-0.00200348
0.00326542
-0.000803109
0.000661833
-0.00105393
0.00544069
-0.00438997
0.000814322
0.00105488
-0.00276741
0.00160464
0.00312759
0.00105392
-0.000611594
-0.00256905
0.00502186
0.00369903
-0.00396584
-0.00146446
0.0010538
0.000472724
-0.00582215
-0.00105457
0.000880442
0.000661931
0.000802687
0.00123937
-0.00335436
0.00404681
-0.00118204
-0.00105365
0.00637583
-0.00606274
-0.00396591
0.0228441
-0.000401239
-0.00228295
-0.00462387
-0.000428925
-0.000944455
-0.00037714
0.00230975
0.0030204
-0.000802465
0.00369546
0.00582685
-0.000520337
-0.000661154
0.000884833
0.00173661
-0.00553432
0.0142275
-0.00124563
-0.000982424
0.00314811
-0.00291162
-0.00307995
0.00218669
-0.00208016
-0.00172106
-0.00127386
0.000922236
0.0167827
-0.00284502
0.000802902
-0.000581493
0.0010843
0.00028497
-0.000284831
-0.00210779
0.00352313
0.0149232
0.00551207
0.00213725
0.00339972
0.00302213
-0.00520592
-0.00301989
-0.00642585
0.00291061
-0.00382326
0.00834388
-0.000841453
-0.00606219
0.0410559
0.00105343
0.00844071
-0.00086803
0.000617457
0.00084152
0.00110205
0.000651429
0.000337125
-0.0035217
0.0143867
0.0140166
0.000661884
-0.00277064
0.00414174
0.00276775
0.00356632
0.00149645
-0.00192312
0.00050376
-0.00520688
0.00173622
0.00449223
-0.0029107
0.00335623
-0.000982206
-0.00206816
0.00659131
0.00804393
0.014726
0.00102193
0.00612162
0.00394269
-0.00501945
-0.00213594
-0.000969711
-0.00127298
-0.000748482
0.00120668
0.0022185
0.00219547
-0.000983141
0.00105416
0.00105424
-0.00205975
0.00221851
-0.00606559
0.00210868
0.0187308
-0.0014908
0.00221827
-0.00230042
0.00291273
-0.00246825
0.00138409
0.0114047
0.00488509
-0.00192353
-0.00935764
-0.00302008
0.0032404
-0.00276862
-0.00493786
0.000141045
-0.00520568
-0.00396512
0.00837803
0.0012402
-0.00607558
0.0410972
0.0266699
-0.0060718
-0.00221682
-0.00723282
-0.00569511
0.00834216
-0.00180464
-0.000792862
-0.00106013
0.0410559
-0.00712654
0.00210704
-0.00337445
-0.000520268
-0.00111499
-0.00396666
-0.00569651
0.00869108
-0.00108329
0.000662437
0.000520274
0.00133841
-0.0041322
0.014917
0.0173989
0.000305911
0.000682756
-0.00175816
0.0020669
-0.000545394
0.00056989
0.00168866
-0.00302071
-0.00302071
0.00105395
-0.000868741
0.00834215
0.0113628
0.00366279
-0.000867789
0.00329598
0.00291326
-0.0039636
-0.00604114
0.000815179
0.014386
0.00466278
-0.00520426
0.00315139
0.00382407
-0.00276918
-0.00325214
0.000949443
-0.00520937
0.0228487
0.00270584
-0.00380875
0.026811
0.0220234
-0.00131005
-0.00167279
-0.000947965
-0.00129727
0.000896417
-0.000683371
-0.000503978
-0.00291012
0.0101412
-0.00440613
0.00302109
-0.000545178
0.00162559
0.003021
0.00465955
-0.00382303
0.0109559
0.033953
-0.000777509
-0.00372058
0.0149242
0.00570311
-0.000802656
0.0033549
0.000485112
0.00462876
0.0018272
0.0039677
-0.000802863
0.000868139
0.000660897
0.00382491
-0.00172341
-0.00115453
-0.000519945
0.0143871
0.0193373
-0.00466116
-0.00276354
-0.00382253
0.00937221
0.00196633
0.00138483
-0.000429268
0.00108359
0.00221726
-0.00583988
-0.00462729
-0.00052061
-0.000611627
-0.000570212
-0.00462688
-0.00173747
0.014922
-0.00230086
-0.00439324
0.0044033
0.00146466
0.00382501
0.00200294
-0.00396456
-0.00276435
-0.000503762
0.0109546
0.00188761
-0.000364652
0.00543787
0.000611389
0.00105397
-0.00109005
-0.00173554
0.0023087
-0.00219482
-0.00037904
-0.00098881
-0.000306194
-0.000683371
-0.000611422
-0.000251852
-0.000617026
0.000802659
-0.00440472
0.00196446
-0.00210901
0.00772177
0.000753333
0.00291156
0.000643717
-0.000802317
-0.00138462
-0.00335397
0.00302379
-0.00105382
0.00335362
-0.000885678
-0.0062908
-0.000428561
-0.000753582
0.00044257
-0.00215435
0.00192402
0.000141097
-0.00221726
0.0410752
-0.00116272
-0.000868335
0.000571436
0.00583436
0.00396862
0.00129864
0.000207972
-0.00105445
0.00404723
-0.00502062
0.00471008
0.00162628
0.00341996
-0.000884863
0.000555138
0.00352314
-0.000803368
0.00138376
0.000232413
0.0220365
-0.00136831
0.00105392
0.00607152
0.00136529
0.00146387
0.00155867
0.00173651
0.00219628
0.00210943
0.00723862
0.0167781
-0.00302026
0.0012388
-0.00210816
-0.000885159
0.000611705
0.000753358
0.00138381
0.00382177
0.00129811
0.000570535
0.000944207
0.00150986
-0.00259737
0.00115522
0.018881
0.00462658
-0.00462483
-0.00606721
0.000581426
-0.00213626
-0.00080301
0.000988837
-0.00128641
-0.00291201
0.000802922
-0.00352278
-0.00102036
-0.00247547
0.00413198
-0.00276218
0.00123986
0.00098982
-0.00195555
0.00302118
-0.000876552
0.0109553
0.0016146
-0.00179442
0.0143833
0.00358691
-0.000868596
-0.00175907
0.00158128
0.00735084
-0.00520672
0.00247768
0.00145659
0.00105491
-0.000496286
-0.0010547
0.00607765
0.000842124
0.0109555
-0.00188686
-0.00723454
0.00413389
0.00221856
-0.000660975
0.0126202
-0.000879247
0.00105396
-0.000683371
0.00587679
-0.00607406
0.000592047
0.000378935
0.00066182
0.00291325
0.00551066
-0.000581376
0.0268318
0.0109576
0.014919
0.00449002
0.0109555
0.00257099
0.00611752
0.000802553
0.0188842
-0.00462483
-0.00462587
0.00431073
0.00803416
-0.00723302
0.00277062
0.0011022
-0.00230002
0.00394274
-0.0022174
0.00712506
0.000988914
0.0149157
-0.00116053
-0.000377637
0.002111
0.000778398
-0.00105356
0.0174017
-0.00230807
0.00502217
-0.0100371
-0.00080284
0.000519963
-0.00205947
0.00467763
0.00837089
0.00604419
0.0143851
0.000869002
-0.00723309
-0.00413324
0.000504399
-0.000753655
-0.0013847
0.00185804
0.000748639
0.00607778
0.00659131
-0.0036975
0.00466617
0.00191464
0.00138553
0.00110829
0.00247861
-0.00218697
0.00326882
0.00138414
-0.000988109
-0.000661633
-0.000661962
0.00145075
-0.0012387
0.000661962
-0.000465484
-0.000803175
-0.00398941
-0.00221746
0.000221699
-0.000803109
0.000545708
-0.000803012
0.000442431
0.00049617
0.000940651
0.00230985
-0.00381453
-0.00162736
0.00713314
-0.00196665
0.00175198
-0.00189437
0.000260537
-0.000662071
0.00123898
0.00076809
-0.000661623
-0.000636814
-0.00175882
0.00925484
0.0167834
0.000284755
0.00155841
0.000944656
-0.000611361
0.000885334
0.00162687
-0.00138456
0.000442463
0.000611427
-0.00138472
-0.000942722
0.00382217
0.00271593
-0.00462723
0.000803478
-0.000611562
0.00105491
-0.00553881
0.00431031
0.0105612
0.0109525
0.00118193
-0.000520755
-0.000306017
0.000683212
0.000428642
-0.00396628
-0.00396522
-0.000982473
-0.0044034
0.00681937
-0.00396579
0.00146431
0.000826403
0.00219691
-0.00186279
0.00713424
0.000900071
0.00219622
-0.00196512
0.00396651
0.00301995
0.000868734
-0.00248777
0.00270249
-0.000778055
0.00191233
-0.0010545
-0.00273019
0.00105358
-0.00105447
0.00327038
-0.00291147
-0.00312625
0.0009002
0.00049802
0.00106148
-0.00543911
0.00111038
-0.00393564
0.00162691
-0.00200369
0.00427228
-0.00105363
-0.00843878
-0.00466033
0.0022175
-0.00606599
0.003021
-0.00276931
0.00182881
0.00838148
-0.00382384
-0.00607125
0.00793526
-0.000636936
-0.00302015
0.0155542
-0.00229958
0.000841024
0.0142275
0.00804492
0.00834352
0.00834266
0.000305781
0.00105414
0.00259712
-0.000574042
-0.00239833
-0.0035225
-0.00963264
0.0297776
-0.00488474
0.000687449
0.0149222
-0.00413388
0.00837014
0.00094892
-0.00160626
-0.00363374
-0.00291201
0.002571
0.00192377
-0.0093597
-0.00105442
0.000982932
0.0149134
0.0021079
-0.000752753
-0.00189604
-0.00239472
0.0016264
0.000983544
-0.00168912
0.012776
0.00182427
0.000293642
0.0138653
0.0127768
0.00276695
0.000442494
-0.000503643
0.00228009
-0.00462415
-0.00878061
0.00404327
-0.00230833
0.00465703
-0.000802698
0.00355213
0.00396595
0.00396552
0.00356435
0.00138359
0.00868896
0.00834423
-0.00188741
0.00187434
0.0165746
0.0266574
0.00431073
0.00449151
0.0258525
-0.000803033
-0.00136654
0.0173971
-0.00162721
-0.000869145
0.00281566
-0.00129764
-0.00488139
-0.00118179
-0.00192363
-0.000337129
-0.00162609
-0.00105405
-0.00462805
-0.00120605
0.00733672
0.00382459
-0.00167216
0.00461845
-0.00136532
0.00440601
0.00837935
-0.00221742
-0.00138419
-0.00249038
-0.00137783
0.000767072
0.00075282
-0.00089707
-0.00098276
-0.00139323
-0.00110174
0.0138695
-0.00273145
-0.000669361
-0.00299736
-0.00229978
0.00372059
0.000944014
-0.000802414
-0.00124577
-0.00276953
0.00200239
0.000687006
-0.00145602
0.00105395
0.00257059
0.0014222
0.00221677
-0.00444411
-0.000942605
-0.000802863
-0.000683404
-0.00291221
0.0063759
-0.00444616
0.00521227
0.000377381
0.00283498
0.00404688
-0.00271391
0.00551178
0.00382227
0.00105346
-0.00030621
-0.00210818
-0.00166626
-0.000485201
-0.00569792
-0.000376996
0.00520844
0.00260796
-0.00102053
0.00257365
0.00352508
0.000562583
-0.00089707
-0.00123864
-0.000803147
-0.0036963
0.0109535
0.0113627
0.0204221
0.0174048
0.0127802
-0.00138468
-0.000944434
0.000364747
0.00500281
-0.000806865
0.019585
0.000718779
-0.000682849
0.00082621
0.000802475
-0.000989195
0.0016259
0.00110821
0.00291273
0.00466085
-0.00248838
0.000921917
0.00221736
-0.000498164
0.00105478
-0.00793309
0.00834488
0.00105473
-0.00326414
0.00080257
0.00123917
0.00276842
0.0030201
0.000503366
-0.000896896
0.00328419
-0.00270383
0.000683604
0.00098271
0.00396651
0.00462577
-0.00302103
0.012779
0.016778
-0.00162602
0.00385358
-0.00138424
0.0149206
0.00143755
0.0113634
-0.00396749
0.00776197
0.00247675
-0.00290368
0.00173638
0.00219522
0.00440674
0.0109553
0.00543288
0.0167748
0.00382285
0.00517844
-0.000503862
-0.00196606
-0.00105453
0.00256881
0.00354651
0.00838148
0.00098917
0.000485159
-0.000581284
0.00080759
0.00396843
-0.000943937
0.000641205
0.000748117
0.00396504
-0.00230978
0.000377668
0.00144979
0.00273349
0.015559
-0.00172055
0.000208025
-0.00256905
0.0047922
0.00143846
0.0149195
0.00612631
0.00396859
-0.00102039
0.000873227
-0.00145552
-0.00157681
0.000989511
0.00122355
0.00173674
0.00155132
0.0149227
0.0149267
0.0149187
0.00396761
-0.0010547
-0.0021966
-0.00304854
0.0039635
0.000396489
-0.00064066
0.000581746
-0.00195699
0.000466091
-0.00123887
-0.00136611
-0.00428639
0.00335543
0.0138668
-0.00283395
0.00637784
-0.00520509
0.000896684
-0.000943372
-0.00138388
-0.001384
-0.0019571
0.00488636
-0.000765511
0.0029129
-0.00291189
0.00462345
0.0142278
-0.000336985
-0.00303118
0.00257136
0.00550677
0.00105485
-0.00066164
-0.00138443
0.00276752
0.00250938
-0.00230049
0.000814289
0.0041434
-0.00542518
-0.00102072
0.00162816
0.00229985
0.00803315
0.00681082
0.00895554
-0.00105389
-0.00129828
0.00382451
0.00165801
-0.00301936
0.0109538
-0.00175827
0.00162662
-0.00089699
-0.00369667
-0.00664675
0.00587348
-0.00302002
-0.00386918
-0.000778011
-0.000948887
-0.00396431
0.00290123
-0.000857302
-0.000802836
0.00638116
0.0182057
0.00396773
0.0109567
0.00257125
0.0143876
0.0138668
0.00105407
-0.00542926
0.00291069
-0.00276938
-0.00105447
-0.000869259
0.00173677
0.00205868
0.00281723
-0.000401632
-0.000753517
0.0140206
0.00310509
-0.00462771
0.0165746
-0.00121682
0.00123867
-0.000661588
-0.00246221
0.00837935
-0.00123829
0.00129913
-0.00102144
0.00355304
0.00396569
0.000943867
0.00116253
0.00105357
0.00471266
0.00302201
0.00162624
0.000748657
-0.00151629
-0.00149036
-0.00502189
0.0196937
0.00449607
0.00213453
-0.000259953
-0.000803099
-0.00138504
0.00162739
-0.00338619
0.00661454
-0.00462605
0.0020587
0.000562819
0.000803334
0.00210825
0.00543839
0.00937447
-0.00206085
-0.000897551
-0.00127318
-0.00104106
-0.00302033
0.00291169
0.00502231
-0.00299649
0.0031533
-0.000259997
0.00155199
0.00168958
-0.00963657
0.00520846
-0.00124521
0.000544757
-0.00396599
0.0132513
0.000472271
-0.00108352
-0.000802377
-0.00137793
0.00210828
0.000982524
-0.00276797
-0.00110112
-0.00129823
-0.000611369
-0.00130658
-0.00246856
-0.00162711
0.000748395
0.00173945
-0.00276894
-0.000611664
-0.00371893
-0.00569864
0.000310816
-0.000401144
0.000802677
-0.000982232
0.00382165
0.0228549
-0.000232645
0.000944881
-0.00382277
0.00973239
0.0127793
0.0104179
-0.000661798
0.00246934
-0.00843537
-0.00413479
0.00195738
0.000718491
0.00138431
-0.000802912
-0.000661152
-0.00110208
-0.00138385
0.00123882
-0.00210702
0.00149712
-0.00281459
0.00661748
0.000401829
-0.00138422
0.000186195
-0.00396776
-0.00152682
0.00277223
0.00192445
0.000581376
-0.000884642
0.0101392
-0.0013769
0.00635311
-0.00138458
-0.00936264
-0.00221743
0.00141532
-0.00101978
0.00501867
-0.00142243
-0.00305271
-0.00302036
0.0025975
-0.000989499
0.00826311
0.0196995
0.0038255
-0.00210847
-0.00352311
-0.00337492
0.00466661
0.0352173
0.0632951
0.0110073
-0.0038216
0.012776
-0.00301884
-0.000611535
-0.000616477
0.00030587
-0.00229891
-0.000562848
0.00124552
0.00462701
-0.00180385
0.00273157
-0.00120637
0.0266574
-0.0060718
-0.00221743
-0.00167207
0.000428431
-0.00325418
0.00198535
0.00221775
0.002913
0.000260373
0.00471205
0.00470735
0.0027157
-0.00105408
0.00146553
0.00229915
-0.00175212
0.0113638
0.00230015
-0.0048819
-0.000879604
-0.00488355
-0.00291175
0.00213729
-0.00017762
0.00230254
0.00123971
0.00105396
-0.00065159
0.000682469
0.00382264
0.00182872
0.00291319
-0.00440453
-0.00219548
0.000943672
0.00285561
-0.00257008
0.0109527
0.00105392
0.000581152
-0.0016274
0.00338967
0.00326658
-0.00366425
-0.000683477
0.000563317
-0.000698041
-0.0013655
0.00326957
0.00231206
-0.00276289
0.00502321
0.00681402
0.00112625
0.00188725
-0.000982352
-0.000802431
-0.000661777
0.0032129
-0.00723658
-0.00162707
0.00705699
0.00146547
-0.00050354
-0.00267283
0.00352759
0.00257139
-0.00052033
0.00679527
0.00865302
0.00707262
-0.000503493
-0.000260258
0.000683621
0.00302187
0.00162747
0.00302119
-0.00206084
-0.0043492
-0.000611573
0.00396775
0.00381426
-0.000395917
-0.000683268
0.014918
0.00215249
0.00551293
-0.00276855
0.000545548
0.00105385
0.000611131
0.00257058
-0.00335461
0.000661509
0.00462674
-0.00514076
-0.00189511
0.000359036
0.000982566
0.00250921
0.00172267
-0.00130982
-0.00607339
-0.00138456
-0.000562748
-0.00061197
0.00372275
-0.000989063
0.0220285
-0.00291221
0.00315279
0.00124576
0.00714483
0.000562925
0.00105418
0.0017373
0.00141439
0.000874083
-0.00138428
0.00462658
0.0100469
0.0101412
0.0228487
-0.0010534
-0.00124558
0.00239471
-0.00120631
0.00629231
-0.00276507
-0.00142501
0.00121839
0.00281586
0.000802836
-0.0013845
-0.00369547
0.00413353
0.00105392
0.0174047
0.00396622
0.012158
0.00255246
-0.00764824
-0.0027309
0.000922286
0.0019017
-0.00129854
0.00291264
0.00105441
-0.000868906
0.0013413
-0.00302066
-0.000661578
0.000310787
-0.0016267
0.00213677
0.00372293
0.0174045
0.0165767
0.00335575
0.00517745
0.00061121
-0.0047079
0.000511558
0.00356441
-0.000803002
-0.00104076
0.00138519
0.0024692
0.0410559
0.0188813
-0.00520543
0.0351995
0.000661509
0.00714011
0.00146408
0.00607393
-0.0019232
0.000682971
0.00123943
0.0228435
0.000948939
-0.00175824
0.000943449
0.0167859
0.0109562
-0.0072302
0.00449265
0.010561
-0.00393749
-0.00936264
-0.00358882
0.0014645
0.012622
0.00865369
0.0174027
0.00371887
0.00195668
0.00215523
-0.00488445
-0.00136649
-0.00462543
-0.00291132
0.0039672
0.00105419
-0.000376985
0.00803418
-0.00146499
-0.00291128
-0.0053105
-0.000989208
0.000748281
-0.0021364
-0.000520292
0.00042855
-0.000610968
0.00189482
-0.00151631
-0.00155866
0.000943827
-0.00314953
0.0027059
-0.0050198
0.00301844
0.000661287
-0.00396639
0.0109528
0.00173266
-0.00520937
-0.00105441
0.00108479
-0.00276683
-0.00697456
-0.00550933
-0.00167146
0.00157383
0.00180326
0.000636153
0.000868818
0.00225847
-0.00179362
0.000442385
0.0039656
0.000778119
0.0143798
0.0203005
0.000748337
0.00173674
0.000592352
0.00213459
-0.00277035
0.000251673
0.00629358
0.0138668
0.00612447
0.00229974
0.000637465
-0.00129909
0.00105396
-0.000982632
-0.000611537
0.00302
-0.0017387
-0.000803088
0.00108357
-0.00049573
0.00138516
0.00352313
0.00520889
-0.00326613
0.000611493
0.0012388
-0.0008024
0.0023013
-0.00221756
0.00569964
0.000982519
0.00332931
-0.00219493
0.00501875
0.0228487
0.018881
0.0126164
-0.00210761
-0.00116286
0.000922783
0.00105385
0.00116264
-0.00369704
0.00462904
0.0015248
-0.00461576
-0.00138456
-0.000973149
0.00381374
0.000868752
0.0011815
-0.00291174
0.00358488
-0.000611476
-0.000896869
0.0036963
0.00936899
0.00440343
0.00396774
0.010952
-0.00396493
0.0101392
-0.0019658
0.00219418
-0.00146337
-0.00276716
0.000661463
0.00182758
-0.000682774
-0.000661218
-0.00182643
0.000520166
-0.00372014
-0.00123809
-0.00221606
0.0047093
0.00315276
0.00551123
0.00138512
-0.000807438
0.00173637
0.00413389
0.00213566
0.00607534
0.000337588
0.00327058
0.00520507
0.00134175
-0.000803116
-0.00121765
0.00105414
0.000982555
-0.00321171
0.00354917
0.00774924
0.0188901
0.0195889
-0.00146413
0.0143876
-0.00302122
-0.00230125
0.000107238
0.00611657
0.00146445
0.0019641
-0.00230046
0.001239
-0.00444695
-0.00247789
0.000801775
-0.00291187
-0.000570159
-0.00462605
-0.00382323
-0.00382316
0.00501806
-0.00172119
-0.00042872
0.00247791
0.000989795
-0.00607301
0.00462359
-0.00123884
0.00191071
0.00302103
-0.000922168
0.000896985
0.00129791
-0.000969885
-0.00080259
0.00162619
-0.000868583
-0.000802796
0.0016271
0.00335563
0.00337325
0.00230902
0.00679362
0.00372161
0.00102144
-0.00520858
-0.00396703
0.000802608
0.0167748
-0.00139128
0.00302183
0.00175167
-0.000803431
-0.00396475
0.000616926
0.00218525
0.00302144
-0.00138584
0.000562736
-0.00192234
-0.00105443
0.000844251
-0.00086869
0.00160549
0.000352205
0.000682962
-0.00583681
0.0165663
-0.00105986
0.00337607
0.000981115
0.00607521
-0.00151629
0.00753918
0.00104182
-0.00138375
0.00230989
-0.00291153
-0.000401804
0.000661979
-0.000683371
0.00105427
0.000748281
0.00105364
0.00356353
-0.00355167
0.00299847
0.00426899
0.000944258
0.00542926
-0.00358725
0.00437126
-0.00320724
-0.000637217
-0.000520389
-0.00146498
0.0012069
-0.000748236
0.00261069
-0.00188035
0.0149178
-0.00326644
0.00231102
-0.000611551
0.00310335
0.0143842
0.00382235
0.00396385
0.001386
-0.00501956
0.00192146
-0.00102047
0.010129
-0.0019571
0.00637835
0.00231035
0.00662021
0.00488558
0.0109563
0.00129798
0.00130608
-0.00461965
-0.00712638
-0.00664132
-0.00502028
0.00188659
0.0174097
0.0140125
0.00342174
-0.00248785
0.00865291
-0.000748608
-0.00396589
0.00520451
-0.000803094
-0.00488317
0.00868318
-0.00150963
0.00271462
-0.00081454
0.00052014
0.000982519
0.000683204
0.000802358
-0.00185703
0.00936018
0.00110938
-0.000401323
0.00188752
0.00337659
0.0143871
0.00611922
0.0143867
-0.00520833
0.00358625
0.00520691
-0.00382133
0.00315168
0.0147171
0.00396739
0.00110746
0.00138491
-0.000896765
-0.00291149
0.00230144
0.0109572
0.00905558
0.00376394
-0.00149071
-0.0012403
-0.00488506
-0.00231096
-0.00137746
-0.00138333
-0.0027633
0.0113657
0.00218768
-0.00116235
0.00231164
0.000989804
0.00218305
0.000842197
0.000753387
-0.00338632
-0.000232578
-0.000520036
-0.00100538
0.00230872
-0.00189508
-0.0025698
0.00462409
0.000661614
0.00611811
0.00926577
0.00285408
0.00162577
0.000943616
-0.00139332
0.00221854
-0.000869243
0.0044064
-0.00302064
-0.00291189
0.00302191
-0.00061165
-0.0019225
-0.00176022
-0.0071242
0.0159731
0.00926577
-0.00936289
0.0228549
-0.00150849
-0.000544859
0.000868479
0.00123952
0.000683142
-0.000948559
0.000943161
-0.00061201
0.00141927
0.0010549
0.00165569
0.000869356
-0.00160481
0.00300202
0.003697
0.00230158
0.00335608
-0.00129919
0.000802462
0.000802859
0.00271477
0.0105622
0.0105585
0.00325452
-0.000988556
0.00342216
-0.00543923
-0.00129753
-0.00276351
-0.00180483
0.000353372
0.00145715
0.00607806
-0.000661508
-0.000284741
-0.00116302
0.000803016
0.00302209
0.00396652
-0.000988413
0.000471278
-0.00221781
-0.000617018
0.0046605
-0.000662008
-0.00230938
-0.00146455
-0.000661726
-0.000841475
0.00124611
-0.000802972
0.00878916
0.00303396
-0.0020796
-0.00936264
0.00105384
0.00358651
-0.00382536
0.000286665
0.0167795
0.00326634
0.00509912
0.00049765
0.00116232
0.00080342
-0.0016264
0.000401198
-0.000611277
-0.0010542
0.00396574
0.0268321
-0.000943725
0.0109555
0.0017936
0.006127
0.00478984
0.00102098
0.000803403
-0.00146472
0.00462652
-0.00606248
0.00109138
-0.00607301
0.00160538
0.000943515
-0.000988915
-0.00276842
-0.00385331
-0.0041313
0.00679576
0.000814565
-0.00569651
0.0010479
0.000815344
-0.000611609
0.00431405
-0.00157644
0.00206815
0.000442573
0.0143867
0.0143866
0.00462585
-0.00206664
-0.000520268
0.00520587
0.000869175
0.000660934
0.00248766
0.0174042
-0.0072314
-0.00217397
0.00488321
-0.00218706
-0.00277017
-0.00133966
0.0167815
0.0022172
-0.00136834
-0.0039343
0.00273087
0.00086803
0.000429052
0.000885911
0.000376729
0.000293772
-0.00080226
0.000802863
0.000777751
0.000777735
0.000944122
-0.00123856
0.00121811
0.0012392
0.0025714
0.00186636
0.00531457
0.00869509
0.000988738
0.00254981
0.00169064
0.0109548
0.0143873
-0.000802307
-0.00301999
-0.00121715
0.00371937
0.0052044
0.000376956
-0.00162611
-0.00192339
-0.00371941
0.00105426
-0.000983182
0.000803334
-0.000284711
-0.00192345
0.00121909
-0.00283412
0.0063785
0.00369907
-0.00337284
-0.00462593
0.0228659
0.0193344
0.00612428
0.00363428
0.000485348
0.000982252
0.00151777
0.00369714
0.00302178
-0.00226006
-0.000442497
0.000697471
0.00232518
0.00270194
0.002911
-0.00650832
-0.00121804
0.00129776
0.00804322
0.00589756
0.00449403
-0.000569866
-0.00175185
0.00352678
0.00583971
-0.00583629
0.0204215
0.0258525
-0.00239965
0.00449338
0.00399237
0.0195989
0.00397048
0.0050193
0.0113621
0.00843387
0.00470722
0.00337408
0.00382267
0.000900626
-0.000503699
0.000428407
0.00257056
-0.00210773
0.000520365
0.00192277
-0.00155823
-0.000496147
-0.000611127
0.000802553
0.0054267
-0.00520509
0.0140166
-0.00230973
-0.00143703
0.00291265
-0.00175942
0.00327079
0.00210773
0.0054267
0.00396644
0.00396658
0.00180443
0.00488793
-0.000943026
-0.000661548
0.000377086
0.00628839
-0.000520041
-0.00105387
0.00444639
0.000753312
-0.000611156
0.000944385
-0.00105388
-0.00213468
0.000885275
0.000401094
0.003965
0.00486216
-0.00369714
0.00466434
0.00160567
0.00314961
-0.000900241
-0.00276623
0.000802687
0.00167197
0.00191009
0.00118148
0.00118173
0.00382253
0.00105382
0.000748316
0.000988828
0.00102217
-0.00296709
0.00283371
0.0167796
0.000846046
-0.00175198
0.00098855
0.00138374
-0.000896967
0.00449248
-0.00105443
-0.00126824
-0.000803265
0.00520506
-0.00180495
0.00152596
0.00162505
0.0006836
0.000802766
0.00462701
0.00500396
0.00506253
0.0138668
0.0105619
0.0113666
0.00372157
0.00394196
-0.000208228
0.0127806
0.00302042
0.00105365
0.00713842
0.0121969
0.00925193
0.00303111
0.00139232
-0.00352416
-0.00291223
0.00765159
0.00302192
0.00219491
0.00105414
0.00106042
0.00201199
0.00039606
-0.00150743
-0.000686991
0.00569853
0.00444798
0.0352228
-0.0148425
0.000982346
-0.00129848
0.00105395
-0.00221801
-0.000803044
0.00276954
0.00185749
0.000683171
0.00462359
-0.00160542
0.00301886
-0.0025366
0.000943204
0.000495242
-0.00192304
0.00138458
0.000503551
-0.00118217
0.00582652
0.0266699
-0.00431482
0.003422
-0.00098209
0.000351806
0.000802902
-0.00146371
0.00229953
-0.000989149
-0.000753596
-0.00133915
-0.00138468
0.00358475
-0.00550911
0.000802922
-0.00302017
0.0046268
0.00110161
-0.00192171
0.00291212
-0.00162609
0.000803054
-0.000116151
-0.000520272
-0.00162733
0.000988965
-0.000983636
0.00221809
0.0051754
0.00865213
0.0144345
0.00105553
-0.00382285
0.000802743
0.00105359
0.00105476
0.000868693
-0.00246969
0.00431551
-0.0104161
0.0046287
0.00276848
0.00221817
-0.00301919
0.000944145
-0.000719551
0.00342372
-0.00396601
0.00291265
0.0020043
0.00369881
-0.00520735
0.00396685
0.00973458
0.0022187
-0.00698688
-0.00382064
-0.000814653
0.0017597
0.0064836
0.00582089
0.00803714
0.000185858
0.00272982
-0.00520507
0.0174105
0.0193316
0.0104144
0.000401042
-0.000942781
0.00302057
0.0195889
-0.00404385
-0.00166529
0.00281693
-0.00273138
-0.00301993
0.000670131
-0.00138337
-0.000294261
0.00259534
0.00219562
0.0052101
0.00172063
0.00553514
0.000465681
0.000803302
-0.00302015
-0.00326555
0.000718113
-0.00105444
0.0149248
0.00488115
-0.000592575
-0.00189479
0.000310723
0.000591749
0.00185825
0.00302127
0.00158113
0.00324229
0.00301998
-0.00138376
0.00925511
-0.00042872
-0.00935382
0.013867
0.00834282
-0.000611306
0.00382431
-0.00168867
-0.00291076
0.000802843
0.00138519
0.000682812
0.00342008
0.00114933
0.00793603
-0.00550914
0.0006168
0.000310886
-0.00314909
0.00276828
0.00637992
-0.000897032
0.00396596
0.000273247
0.00121737
-0.00382313
0.013867
-0.0104156
0.00162614
0.000841906
-0.00382356
-0.0029113
0.00612037
0.00268214
0.00868318
-0.00698649
-0.00179449
0.00219676
-0.0058696
0.00698868
0.0127766
0.0143867
0.00844123
-0.00381142
-0.00152517
0.00382188
0.00774565
0.00337539
0.000988834
0.00106016
-0.00301865
0.00312613
0.010561
0.0228516
0.00302158
0.00138372
0.00381144
-0.00180412
0.00302139
0.00291239
0.00488595
0.0266574
0.000697717
-0.000557949
0.000662211
0.002912
-0.000802805
0.0352165
0.00276717
-0.000841366
0.00335559
-0.00470795
0.00302028
-0.00352281
0.0228487
-0.00843652
0.00152615
0.011004
-0.00276713
-0.00089729
-0.00200393
0.00162771
0.00192198
0.00924836
-0.00162636
-0.00315057
0.0126214
-0.00396536
0.0173993
-0.00793
-0.00130683
0.000617362
0.0228578
-0.000896765
0.0266574
0.0174053
0.0046274
0.000868332
0.00302245
0.00629415
0.000729987
0.0220389
-0.00105442
-0.000879419
-0.00712706
-0.000519994
0.00396533
0.00358609
0.000802858
-0.000803171
-0.00192442
-0.000880766
-0.00232596
-0.00553756
-0.000896727
-0.00607107
0.00342
-0.00290246
0.00116329
-0.000428673
-0.000504168
0.00226107
0.000683566
0.0167813
0.0143867
-0.00328576
0.00607466
-0.000495606
-0.00129921
-0.00193503
-0.000989463
0.00115472
0.00180345
0.00291326
0.00173649
0.00192153
0.00219538
0.00230994
-0.00061124
0.00213572
0.0167834
0.00661667
0.00503814
0.0238198
-0.00276981
-0.00243922
-0.00164115
0.0121553
-0.00118165
0.00582374
0.00382413
0.00569779
0.000520965
0.00105421
0.0149174
0.00679626
0.0140145
0.00834071
0.0109525
0.0132523
0.00352416
0.000943272
0.0109553
0.0104177
0.00326972
-0.00105423
0.00136168
-0.00225974
-0.000752786
-0.00301971
-0.00449617
0.00105425
-0.000752836
-0.00513976
-0.00138407
0.00834584
0.00268455
0.00118269
-0.00391534
0.00462148
0.00431234
-0.0013657
-0.003354
-0.00599666
-0.0036969
0.000802393
-0.00138375
-0.00080305
0.00102064
0.00151299
0.00271307
0.00462599
-0.00210792
-0.00142325
0.000131479
0.000803131
0.00501936
-0.000811229
0.00607123
-0.00291115
0.00123822
-0.000899718
-0.000611889
-0.00520752
-0.00105397
0.00215566
0.000306145
-0.00210822
0.0127802
0.00372251
0.00382269
-0.00097363
0.00381374
0.0046268
-0.00230032
0.000683147
0.00167308
-0.00243921
-0.00607115
0.0167748
-0.00285463
0.00517844
0.00155197
0.00302118
-0.00276326
0.000520299
-0.00111492
-0.00310256
0.00259583
0.00276947
0.00462577
0.00521003
-0.00569779
0.00248661
0.00162507
0.014386
0.00138935
0.00384642
0.000868775
0.00352353
-0.00396475
-0.0039656
0.00230989
0.000814497
0.00734888
-0.00230939
0.0015262
-0.00247933
0.00382178
0.0220261
-0.00127392
-0.000563064
0.0016263
-0.000869243
0.00396792
-0.00462539
0.00105414
0.000802559
0.000520261
-0.00396541
-0.00210813
-0.000442858
-0.00206918
0.00167196
-0.00371903
0.00195648
0.00151639
-0.000802272
-0.000377046
0.00127337
0.00246148
-0.00230006
-0.00396458
0.000611106
-0.00175826
-0.000802656
0.0008969
0.000442458
-0.000802922
0.00302176
-0.00440267
-0.00355217
0.00206147
-0.00431276
0.000802884
-0.00248979
0.0149203
-0.00105442
-0.00302122
-0.00080277
-0.00105392
-0.00352273
0.000699929
-0.00611723
0.00697563
-0.00189496
-0.00138378
0.000683333
-0.000683339
0.00661553
0.00612021
-0.00303042
0.000872875
0.0036879
-0.00381142
0.00488285
0.00138419
0.00356532
0.0149233
-0.0011494
-0.00302095
0.00276837
0.0086551
-0.00086867
0.00342174
-0.00230009
0.00449842
0.00936538
-0.00211014
0.00352506
-0.0052082
0.00276665
-0.00100594
-0.00248983
0.00774577
0.00086924
-0.00604153
-0.00134041
-0.000396292
0.00105434
0.000868551
-0.001054
-0.000683556
0.0127828
-0.00303332
-0.00123938
-0.000802796
-0.00963426
0.00326491
0.00935682
0.00611704
0.00111531
-0.000807621
-0.000611143
0.000616036
0.00607765
-0.0038117
0.00342599
0.00335362
0.0020111
0.00105396
0.00054743
-0.00129817
-0.00109083
-0.00273148
-0.000377514
-0.000287579
0.000988658
0.000401216
-0.00074885
0.00123971
-0.00355083
-0.00550876
-0.00764678
-0.00302076
-0.00105421
-0.00116228
0.00105465
-0.00084114
0.00115394
-0.00382342
0.00213604
-0.00152607
0.00206799
0.00302187
0.000844211
0.000611452
0.000802724
0.00196523
0.000661327
-0.00114833
0.00382222
0.00837248
-0.00123905
0.00276649
-0.00190243
0.00352322
0.000802978
0.00465828
0.00354953
0.00168842
-0.0048922
0.00681104
-0.00291043
0.00247794
-0.00587488
-0.000611598
-0.00246859
-0.000868938
0.00396792
0.012622
-0.0029118
0.00270504
0.00396897
0.00629198
0.00260507
-0.000803099
-0.00118225
0.00291175
-0.00664197
0.0204184
-0.00470945
-0.00108036
0.00105419
0.00935679
0.0193282
-0.00120767
-0.00326668
-0.000867954
0.00221813
0.00121774
-0.00116203
-0.00210741
0.00352382
-0.00936264
-0.000661975
0.00869153
0.00396828
0.000988791
-0.00281586
-0.000748582
-0.0038117
0.00182736
0.00167205
-0.000717794
-0.000520257
-0.00219467
-0.00146497
0.00251135
-0.00118226
-0.000803069
-0.0010534
-0.00138466
-0.000802599
0.000662253
0.00844123
-0.00462097
0.0167859
0.00174049
0.00188606
0.0030029
0.00302151
-0.00396549
0.014382
0.014918
-0.00302036
-0.00391415
0.00393679
0.0228624
0.00396616
-0.00215422
0.00283235
0.00213586
0.00382415
-0.00219601
0.000803819
0.00396657
0.000637186
0.000982691
0.00129764
0.0101296
-0.00247766
0.000814077
0.00167316
-0.00314951
0.00352393
0.00230134
0.00487984
0.00105422
-0.000753707
0.00868885
0.0143821
0.000285042
-0.00462539
0.0013651
-0.002552
0.005513
-0.00255429
-0.000547539
0.00291464
-0.000661346
0.000802805
0.000519977
0.000868316
-0.00520818
-0.00396438
0.00109057
0.000869057
-0.00039607
0.00175944
-0.00488408
-0.00192221
-0.00438946
0.00210813
-0.00190235
0.012778
-0.00291085
0.000868434
-0.000718888
-0.00182667
0.000485004
0.00149745
0.00296541
0.00138587
0.000611464
0.000988883
0.0030214
0.00270475
0.0352183
0.00544563
-0.00396596
-0.00396649
0.00270727
-0.00296631
0.0009829
0.00440857
0.0025556
0.00104043
0.00213473
-0.00338654
-0.0028333
-0.00431263
0.00136661
-0.00787458
0.00312892
0.00162624
0.00606359
0.00291135
0.0034219
-0.00462771
-0.000520171
0.000944482
-0.00217252
0.00160526
0.00396763
-0.00302117
0.00937103
0.00230079
-0.00314948
-0.0035225
-0.00607275
-0.00531003
-0.00104151
0.0167827
0.0061269
-0.000902526
0.00607508
-0.000802933
-0.00230983
0.00056327
0.00661666
-0.00218204
-0.00155228
0.00192163
0.00462658
0.00230105
-0.000718225
0.00611769
-0.00106078
0.0060779
-0.000974761
0.00366181
-0.00501958
0.0031496
0.00230003
-0.000989208
-0.000661161
-0.00105453
0.00247054
-0.00333259
0.0149204
0.0113637
0.0113629
0.00413741
-0.000484785
0.001386
0.0015514
-0.00203437
0.00370035
-0.00218502
-0.00607587
0.0149242
-0.000611361
0.00231002
0.00413358
0.00080304
0.00173629
0.00462387
0.0149203
-0.00206684
-0.0052071
0.00428663
-0.000251496
0.000396453
0.00192301
0.00635442
-0.00120682
0.000943913
0.00068322
0.00134009
0.00210797
-0.000802623
0.00714215
-0.00520716
-0.00337393
0.00642539
-0.00291007
-0.000640963
0.00520692
-0.00291221
0.0167763
0.00354863
-0.000683157
0.00834513
0.0021558
0.000778142
0.000305105
-0.00105487
-0.000449642
0.00440729
0.018888
0.0159734
-0.00462511
-0.00120764
-0.000803137
-0.00175811
0.00396495
-0.00046648
-0.000611551
0.00444887
0.00025222
-0.00296656
0.000970749
0.0104177
-0.00382356
0.00414005
-0.00371979
0.00926504
0.00143743
0.00635442
0.00221812
0.00162577
-0.00155196
0.0202942
0.0202942
-0.0072321
0.00803626
0.00129816
0.00192413
0.00105487
-0.00138456
0.00166553
0.00342399
0.0339386
0.0204215
0.0114224
0.0159752
-0.00124631
-0.00192461
-0.0018865
0.00105412
-0.00337431
0.00462686
-0.00129829
-0.000581914
0.000442767
0.00137306
0.00382254
-0.00697043
0.00281649
0.000401551
-0.00123936
-0.00179552
0.00129965
0.00393698
0.000442661
-0.000465591
0.00268214
0.000305345
0.00396596
-0.00231096
0.00301981
0.00120582
0.00712881
0.00462599
0.00138328
0.00520817
0.0220285
-0.0029105
0.00404716
0.000815368
0.000465813
0.00273121
0.000287063
0.00054574
0.000943455
0.00258756
0.00838055
0.003823
0.00301905
0.000503932
0.00162743
0.00462898
-0.00276902
0.00544094
-0.00133976
-0.00106089
0.000660898
0.0167748
0.0195889
0.00837089
0.00296519
-0.00231041
0.000464689
-0.000899885
0.000943664
0.000580982
0.0143816
-0.00880687
0.00185814
0.0027878
-0.00372056
0.00419658
0.0174124
0.000519988
-0.00173674
0.00587231
-0.0021093
0.0122024
0.000988589
0.000896985
0.00151646
0.00935973
0.000545321
-0.000520129
0.00185714
-0.00230041
-0.00179803
0.00314983
0.00105396
0.00146443
-0.00105445
0.00590278
0.0126193
0.00200214
-0.00187991
-0.00230179
0.00246946
0.00131162
0.00462842
0.00278557
0.00494056
0.000765518
-0.00162634
0.00449692
0.00544094
0.0143825
0.0109583
-0.00145575
-0.00118212
0.0138653
-0.00302084
0.00210915
-0.00118131
0.000753732
0.0109551
0.000616773
0.000683589
-0.000682743
0.00129875
-0.000351326
0.0018964
-0.00925106
0.0039657
0.0039677
0.00928952
0.000989216
0.000520153
0.00127352
0.00865634
-0.000748566
0.000718618
0.000670472
-0.000401074
-0.00221642
0.0109583
-0.00146484
0.00372292
-0.00271469
0.00146517
-0.00138377
0.001274
0.00449429
-0.00153035
0.00296512
0.022847
0.00192285
0.0142275
-0.00162546
-0.00562776
-0.00248777
0.008814
-0.00963426
0.00521147
0.00143682
0.000868384
-0.00358696
-0.00192324
0.00129745
-0.000660898
-0.00160622
-0.00569826
0.00337618
0.00335786
0.00501929
0.00937222
-0.00230082
0.00372059
0.00342087
0.0228624
-0.00328588
0.00124001
0.00257139
-0.00493668
-0.00963657
0.00195796
-0.00105326
0.000683204
0.00329701
-0.0039669
0.0048858
-0.00607367
0.00176077
0.00123929
0.000982555
0.0143812
0.00604116
0.0266699
0.0061212
-0.00217365
-0.0035225
0.0195855
0.00382171
0.00542753
0.00419611
0.000943501
0.00257082
0.0143867
0.00793066
0.0114152
0.00419508
0.00354987
0.000141554
0.00493715
0.000683195
0.000428615
0.000465923
0.00258989
0.000351313
-0.00195731
-0.00192238
0.00155289
0.00973338
0.0127831
-0.00569779
0.0132586
0.0149195
-0.00230068
0.00815365
0.00462892
0.0228548
0.0193316
0.00611666
0.00301971
0.000802863
0.00462409
0.00462381
0.0143793
0.00215563
-0.00302051
0.00123844
0.000802679
-0.00302178
-0.00290298
0.0025701
0.00478984
0.000682631
0.0079358
0.00612179
-0.00291043
0.00439063
0.00248781
0.0017525
0.00612106
-0.00221726
0.00273119
-0.000922217
0.000562921
0.0143895
-0.00582448
0.00587803
-0.00520697
0.0238198
-0.000545139
0.000616665
-0.00123858
0.0035239
0.0147192
0.00342264
0.00396788
0.00470795
0.00160478
0.000520324
0.0238311
-0.00291187
-0.00301993
0.0039669
0.000988755
0.00583921
0.00267026
0.00865577
-0.000753137
0.000897511
0.00471324
0.0149265
0.00312896
0.00138351
0.000989725
-0.00116306
0.00606252
0.0020667
0.0016715
0.00179371
-0.00098887
0.000803096
0.0118983
0.00271435
0.000252077
-0.000544702
-0.0018569
0.00465985
0.0034199
-0.00162656
-0.00299877
-0.00462593
-0.00105346
-0.00230981
-0.00372066
0.00168258
-0.00520623
0.0138685
0.00337436
0.0063553
0.00543888
-0.00481213
0.00291134
0.00865623
0.0030217
0.00115101
-0.00396703
0.00249011
0.00105427
0.00314819
0.00834194
0.000948579
-0.00210786
-0.00127271
0.00291326
0.00604466
0.00216621
-0.00123895
0.0010534
-0.00200254
-0.00495622
0.0061197
0.00520996
0.0132586
-0.00123907
0.00369761
0.00723395
0.000869878
0.00382384
-0.00128122
0.0035643
-0.00382404
-0.000921704
-0.00163612
-0.0024386
0.00143691
0.000683645
-0.000896722
0.00105434
0.0101385
0.00356438
-0.000748876
0.000868693
0.00230119
-0.000802767
-0.00187133
-0.001341
0.00192271
-0.00221678
0.00137729
0.00138484
0.00286862
-0.00105365
0.00231026
0.0173971
-0.000921195
0.000683041
0.00302103
-0.00337384
0.0013847
-0.00607125
0.0018959
-0.00273076
0.00396477
0.000989161
0.00259751
0.0079313
0.00396579
0.00129978
-0.00569761
-0.00606779
0.00168942
-0.00793128
0.0121644
0.0105585
0.0228441
-0.0023009
0.0126252
0.0113683
0.00834588
0.00563039
-0.00188069
-0.000520413
-0.000748375
0.00543788
0.0113673
-0.00105452
-0.000897314
0.00371979
0.00105354
-0.0032086
-0.00462353
-0.00466116
-0.00337342
-0.00352187
-0.000944358
-0.00462734
-0.000520008
-0.000503611
-0.00155233
-0.00124574
0.0022174
-0.00129867
0.000843892
0.00116272
0.00291273
-0.000520973
-0.00105361
-0.00138413
-0.00396793
-0.00382414
-0.00291239
0.00612069
0.00612317
0.00302095
-0.000661569
0.00192287
-0.000697769
-0.000900416
0.00105468
-0.00105326
0.000974245
-0.000683153
-0.00355127
-0.00123823
-0.00248777
-0.000232638
-0.00413109
0.00118262
-0.00607782
0.00837682
0.00123991
-0.000814856
0.0109553
0.00937567
0.0114072
0.00068358
-0.000988799
0.00413063
0.000982962
-0.00314984
0.00260629
-0.000921457
0.00369725
0.00607765
-0.00584068
0.0032708
0.00312666
-0.000943668
-0.00608722
0.00337627
0.00146575
-0.00255315
0.000396328
-0.00028848
0.0016285
0.00358577
0.00355106
0.0143796
0.0143889
0.00406851
0.0010548
-0.00396458
0.00302127
-0.00166565
0.00869131
0.000287028
-0.00200477
-0.00179441
-0.00120647
0.00531356
0.00118261
0.000748017
0.00138424
-0.0019571
0.00635352
0.00354823
0.000814225
0.0173993
-0.0027631
-0.000777735
-0.000869306
-0.000520257
-0.000814126
-0.00396565
-0.00520601
0.00086833
0.00471045
0.0167827
0.00382269
0.000611361
-0.000377546
-0.00697206
-0.00255027
0.0196937
0.026825
-0.0104908
0.019686
0.0297819
-0.00213662
-0.00138341
0.000683604
-0.00175979
0.0109529
0.010561
0.000443012
-0.000943218
0.00188045
0.00354931
0.000503851
-0.00105363
0.00488285
0.00462686
-0.00158066
0.00502179
0.00471083
-0.00291163
0.00440301
0.0100937
-0.00733848
0.00102158
0.000442732
0.00240106
0.000306004
-0.000982367
-0.00553917
0.00138388
0.000943315
-0.00138334
0.00335314
-0.00105452
-0.00607107
0.0127742
0.000843906
-0.00155248
0.00155171
0.00146437
0.000402392
0.00116442
-0.00461962
-0.00276918
-0.00843682
0.00485737
0.000943347
0.000504528
-0.00105388
-0.000868394
-0.00152521
0.00612573
0.0167748
0.0195855
0.00354612
0.0173973
0.00406851
-0.00182547
-0.00371951
-0.00291094
0.00382183
-0.00173631
-0.00188662
0.00145617
-0.00123915
-0.00221752
0.00290548
0.000611161
-0.00629099
-0.00382316
0.000988423
0.00215256
-0.00133985
0.00356596
-0.000868657
-0.00100583
0.00175889
0.00570038
-0.000777909
-0.00155135
-0.00105321
0.00200431
-0.000988851
-0.000185145
0.00191243
-0.00180273
0.00230967
0.00195741
0.0126193
0.00774661
0.00338859
-0.000563308
0.00396766
0.00173691
0.00123896
-0.0046182
0.00249019
0.00327075
0.00337627
-0.00562945
0.0143898
0.00195804
0.00230124
0.00272987
0.00371905
-0.00325136
0.00834258
0.012779
0.00550677
0.0041297
0.0046284
0.0174071
0.00105377
0.00270191
0.00302156
-0.00292984
-0.00335397
0.00444716
-0.00382412
-0.000989545
0.000464498
0.00843742
0.00302068
0.00182789
-0.0016272
0.00502241
0.00302147
-0.00302023
0.000868371
0.00502175
0.00221661
0.00098859
-0.000377319
0.0032642
0.0143858
0.022863
-0.00542912
0.00396528
-0.0017377
0.00869262
0.0149224
0.00354735
0.00273198
-0.00138378
0.00221832
0.00182708
0.00396364
0.0039652
-0.00105443
-0.00180392
-0.000401239
0.00168936
-0.00382267
-0.00607587
0.00303317
0.000802581
-0.00301975
0.00123913
-0.00138453
0.000683543
-0.00462459
0.00111532
0.00358509
-0.000803396
0.00138413
-0.00138343
0.00917828
0.00868801
0.0159754
-0.00440267
-0.00502024
-0.00273323
-0.00299282
0.0018267
-0.002168
0.000697973
0.00105419
0.000885187
0.00520892
-0.00120631
0.00123792
0.000696595
0.00105426
-0.000485094
-0.00162705
-0.000465623
-0.00221729
0.00230917
-0.00301798
0.000311218
0.00087028
-0.00138424
-0.00247743
-0.000753527
-0.000562924
0.00321034
-0.00143713
0.00080304
-0.00393545
0.00189476
-0.00221596
-0.00296612
-0.00213667
-0.000869183
0.0149288
-0.000683404
-0.00338663
0.00843728
0.00260809
-0.00276924
0.000682957
0.00105487
0.00291231
-0.00225963
-0.00384536
0.00193433
0.000376949
0.0109507
0.0167742
-0.000869295
0.00543742
0.00175783
0.0174042
0.0228522
0.00543606
-0.00230805
-0.00351726
-0.00105511
-0.00230847
0.00167184
-0.00874962
0.0011817
-0.00105428
-0.000973205
0.00163842
0.0228487
0.000803296
-0.00396615
-0.000802863
-0.000885852
0.0143827
0.00520505
-0.00105358
-0.00877997
0.00354903
-0.00396448
0.0228522
0.00136843
-0.00462409
0.00607492
-0.00520662
0.00393883
-0.000251702
0.00462658
-0.000897028
0.00520881
-0.00607317
-0.00462539
0.00210821
-0.00213458
-0.00520817
0.0121482
-0.00276672
-0.00215385
0.000669376
0.00551056
0.000869147
-0.00123991
0.000752728
-0.00281533
0.00355028
0.00230985
0.000465537
0.00061159
0.000803334
0.00285561
0.014386
0.00105547
0.000352009
0.000842209
0.00080254
0.00826145
-0.0032689
-0.000611606
-0.00108977
0.00188614
-0.0121517
-0.0093603
0.00488678
0.00337617
0.00231084
0.00302192
-0.00382248
0.0018493
-0.000401591
0.00302196
0.00637889
0.00175961
0.00129809
0.00358883
-0.0065076
0.00396406
-0.0051414
-0.00139323
0.00393207
0.00369706
0.0127806
-0.000802652
0.00834584
-0.00550994
-0.00105383
0.00465664
0.00771729
-0.00495579
0.00396473
-0.000982809
0.000808394
0.000989165
0.00440343
-0.00466487
-0.00256987
0.000682756
0.00124714
0.000944169
-0.00358661
0.00296536
-0.000396304
0.00210701
0.00637899
-0.000545423
0.00462848
-0.00963264
-0.00189508
0.00291294
0.010563
-0.0006617
0.00775031
-0.0046243
0.000683321
0.00246931
0.00396689
0.00488547
-0.00128226
0.00105424
0.0017595
-0.00221762
-0.00461715
-0.00542767
-0.000803022
0.000217746
-0.000944909
-0.00155252
0.00315237
-0.00139192
-0.00501864
0.00312624
0.00517367
0.00284831
-0.00105378
0.00145111
-0.000520427
-0.00502022
-0.000465189
0.000670685
0.000570189
-0.00116261
-0.00243866
-0.00314903
0.010953
0.00206863
0.00697746
-0.00219627
-0.00188581
-0.00358597
0.0143858
0.0174132
0.00662283
0.0193373
-0.000802662
0.0100375
0.00397031
0.00501881
0.000259881
0.00301977
0.0410972
0.011008
0.00146447
-0.00192194
0.00219533
-0.00179356
-0.00160514
-0.00342494
-0.00173851
-0.00520844
0.000557793
0.00105337
-0.00136621
0.00607536
0.0127742
0.00369998
0.00145587
0.00314965
-0.00607301
-0.00105422
0.00175993
-0.000869243
0.00080216
-0.000802287
-0.000897089
-0.00138434
-0.000802393
0.00301931
0.00356336
0.00283319
0.00358556
0.00396382
-0.00603923
0.014917
0.014922
0.014919
-0.00173827
0.00607736
0.00056283
-0.00550812
-0.00764568
0.00369546
-0.00396547
-0.0053102
-0.00210859
0.000803203
0.000873227
-0.000401
-0.00291077
0.00905558
0.0133149
0.0167748
0.0121685
0.0109584
0.00175999
-0.000661599
0.0084377
0.000494722
0.00698868
0.00175848
0.000401323
0.00257986
-0.00302053
0.00960969
0.0121496
-0.00188717
0.00089731
0.00139271
-0.00396568
-0.00129885
0.000989151
0.000802863
0.00260345
-0.00123907
0.00219534
-0.00793191
0.0202942
0.0174001
0.0010548
0.0114102
-0.00352388
-0.00105386
-0.00138467
-0.000232674
0.00138356
-0.00139326
-0.000802521
0.00662046
-0.00285422
0.00168828
-0.00167371
0.0109975
-0.00325231
-0.018708
-0.00304134
-0.00428529
0.00551243
-0.00352237
0.00302113
-0.00520592
-0.00382321
0.00804321
-0.000674113
-0.00215492
-0.00111409
0.0109526
-0.00138429
-0.000988983
0.00587956
0.00936583
-0.0084386
0.00413442
0.00301887
-0.00302061
-0.000337311
-0.00583681
0.00127226
-0.00393564
0.00462418
-0.000520506
-0.00302047
-0.000683306
0.00358616
-0.00413123
0.00162665
-0.00396555
-0.00196303
0.000841544
0.017408
-0.00239982
0.0258614
0.0110067
-0.0104964
-0.00221759
0.00068264
0.00929048
-0.00255364
0.000581821
-0.000992686
0.00110894
0.00123851
-0.00175921
0.00531304
0.00462378
0.00366326
-0.00273105
0.000718722
0.00396573
-0.00462756
0.000897625
0.00167208
-0.000803185
0.00120604
-0.00326389
-0.00139169
-0.00162776
-0.00273097
0.00172178
0.00105496
-0.00180383
0.000377014
0.00258919
0.00303463
0.00123831
0.00129826
0.0228441
0.000748813
0.0195889
-0.000545187
0.000547225
-0.000944111
0.00291047
0.0109892
0.00936038
0.011004
-0.00520842
0.00355063
-0.00440472
0.00217955
0.0159795
0.0312969
0.00138425
-0.00256909
0.00488265
-0.00440408
0.00255543
0.000378033
-0.00120587
-0.000982704
-0.000699255
0.00192272
-0.00372026
-0.000562743
0.00315276
-0.00068329
0.00248727
0.00111517
0.000841464
0.0046268
-0.0010539
-0.0060652
0.000896479
-0.00276668
0.00303146
0.00628807
-0.0046272
0.0228522
0.00218663
-0.0030208
-0.00335367
0.00449841
0.0024631
0.00714551
-0.00462571
0.00935578
-0.00276875
0.000611377
0.000611813
-0.00180503
0.00146429
0.00146449
0.0024782
0.0143816
0.00612124
-0.00462511
0.000896547
-0.0012982
0.00179328
0.00130746
-0.000287421
-0.0025705
0.00327058
-0.00114012
0.00382338
0.00637632
0.00278432
0.00231035
0.00162688
-0.000232992
0.00352385
-0.00179362
-0.00121818
-0.00277019
-0.00246859
-0.00470929
-0.00139316
0.00587935
-0.00462611
-0.000792891
0.00260806
0.00517787
0.00105416
-0.0121462
0.00714009
0.00500329
0.00105521
0.000814323
-0.000988236
0.0202942
-0.00431111
0.022847
0.000635352
0.00276247
0.000661829
-0.00273071
0.00143648
0.000682739
-0.00935788
-0.00431057
0.0121667
0.00485896
0.000989128
-0.00675123
0.0268293
0.00231097
-0.00179407
0.00427209
0.00320913
0.00111549
0.000778132
-0.00599666
0.00382473
0.00291253
0.0109555
0.00278383
0.0083433
-0.00182694
-0.00230078
-0.0130003
0.0156166
0.00680633
-0.00314948
-0.00276386
-0.0104134
0.00466262
0.000401449
-0.00520613
0.00834513
0.000802787
-0.00142495
-0.00530926
-0.000611463
-0.00138437
-0.00192169
-0.0012985
0.00709791
-0.00111492
0.00221789
0.00371998
0.00396597
-0.0013842
0.00200214
0.00175243
0.018884
0.0352183
0.00105391
-0.00136792
-0.00296636
-0.00196596
0.00301971
0.0046608
0.00502512
-0.000897089
0.0266449
-0.00216656
-0.00340597
-0.0039669
0.000869233
0.00089721
-0.00122414
-0.00129885
0.0165765
0.00335539
0.00583912
0.0012475
-0.000611658
-0.000802921
-0.0047913
0.000562949
-0.000503851
0.000802969
-0.00080379
-0.00382308
-0.00121862
0.00157399
-0.00419522
0.00116293
-0.000885123
0.00381262
-0.001298
-0.00196518
-0.000683186
-0.00259503
0.00123775
0.00192411
-0.00221674
-0.00396538
-0.00372034
-0.00166556
-0.00396776
-0.000803185
0.000569992
0.00664512
0.0109577
0.00290612
-0.00382361
0.00543108
0.000943339
-0.000717519
0.000869093
0.00342316
0.000465681
0.00100556
-0.000943476
0.000802938
0.00285505
-0.0020665
0.00765075
-0.000988741
0.00066142
0.00213494
0.00570311
-0.00382331
0.010561
-0.00290167
0.0047922
-0.00542729
-0.00382295
-0.00116193
0.000718584
0.0018043
0.00276677
0.000661701
-0.00303258
0.00304134
-0.00192382
0.00612332
-0.00138456
-0.00138332
0.00926577
-0.000748276
-0.000989173
-0.00213535
0.00973475
0.00157687
-0.000844718
-0.000942928
-0.00172129
0.000465479
-0.000610902
0.00257121
0.0028465
0.000718771
-0.00326723
0.00290305
-0.0018235
0.00338976
-0.00190367
0.00494007
0.00440896
-0.00179458
-0.00260719
-0.00221747
0.00834265
0.00520745
0.00501857
0.000484927
0.00105417
-0.00129783
-0.00162733
0.00058135
0.000554848
-0.00102085
0.00230073
0.00291269
0.00302022
0.00326619
-0.00168869
-0.00213532
0.000545218
0.00396415
0.000520299
-0.00213478
0.0220365
-0.000803033
0.00116285
0.00681796
-0.00607301
-0.00462375
-0.0017231
0.000401904
0.00271599
0.00291037
0.00192283
0.00310188
-0.00129853
0.0205024
0.000682809
-0.00246989
0.000484875
0.000683068
-0.00149646
0.00136627
-0.00426919
-0.00116261
0.000141417
0.00358682
-0.00369761
-0.00382331
-0.0012386
0.00628892
0.00326939
0.013867
0.000661598
0.00396688
0.000520308
0.000661378
-0.00129783
0.00462864
-0.00138431
0.0044033
0.00337309
-0.00273144
0.0105612
-0.00258838
-0.00247775
-0.00162644
0.00462686
0.0143798
0.00543643
0.00291259
0.00520862
-0.00470731
0.00118107
-0.000803088
0.00251021
-0.00129849
-0.00404467
0.00414254
-0.00138431
0.00637778
0.000943341
0.000520299
-0.000802971
-0.000661306
-0.000988612
0.00396425
0.00221702
-0.000141021
0.000683801
0.00869235
0.0297935
0.0107069
0.0165765
0.00796025
-0.00151613
-0.000897113
0.00116236
0.000896827
0.0012991
0.00273137
0.000900272
0.00524284
0.00116275
-0.0013842
-0.00116126
-0.00404501
0.000803355
0.00136714
-0.00105417
0.00382212
-0.000776876
0.0012981
-0.00105407
-0.000377702
-0.00129884
-0.000869243
0.000545286
-0.00501992
-0.000803442
0.000569865
-0.00229973
0.0034219
0.00221838
0.0113668
0.00136831
-0.000305496
0.00192279
-0.000683626
0.00215724
0.00210838
-0.000442699
0.00231059
-0.000661583
0.000611485
0.00232351
-0.000562743
-0.0016725
0.000989477
-0.0016264
0.00431153
0.00210731
-0.00462495
-0.00116355
0.0105622
0.00398867
-0.00149091
-0.00210756
-0.00146452
0.000869183
0.000396039
0.000683968
0.00240151
0.00136651
0.000803372
-0.00105383
0.00382217
0.00291294
-0.00195747
0.00302174
0.00301966
-0.00108359
0.0167717
0.00188614
-0.00184329
-0.000803074
0.000497119
0.0228406
0.02042
0.0174017
0.00569396
0.00449329
0.0022184
0.014382
0.00138408
0.00167194
-0.000395831
-0.00216691
-0.00697315
0.00329588
-0.00110135
0.000611572
0.000683306
-0.00138469
0.00056989
0.00925876
0.00115548
-0.00106104
0.000520299
0.00449498
0.000450142
0.000943301
0.00381234
-0.00229976
-0.00173861
0.00281531
-0.00843644
-0.000442832
0.000802902
-0.00221771
-0.000718956
-0.00276852
-0.0012389
-0.00105447
-0.00167194
-0.0013841
-0.00358552
-0.00382342
0.00431405
0.000683074
0.00393864
0.00381531
-0.000803197
-0.000661142
0.00462409
-0.0038115
-0.00182682
-0.000802677
-0.000982843
0.000814819
0.0017628
0.00138406
-0.00352273
0.00774395
0.00167207
-0.000802571
0.00188778
0.0038135
0.0101365
0.00606784
-0.00335461
-0.00124664
-0.00404519
0.0195989
0.00138375
0.00173674
0.011362
-0.000257102
0.000651662
0.000670521
-0.0010545
-0.000868007
-0.00196397
-0.000442623
0.000982655
-0.000969872
-0.00520673
0.00869108
-0.000611269
-0.00440241
0.0027713
-0.00208066
-0.000982424
0.000485396
-0.00105444
0.00121787
0.00129823
-0.00462734
0.0132596
0.0113674
0.0061175
-0.00302131
0.00111559
-0.00382325
0.00433806
-0.00146496
0.000520147
-0.00105417
0.00129856
0.013305
-0.00138337
-0.00941351
0.000989451
0.00191193
-0.00127413
-0.000520157
0.000885428
0.00105414
0.0204184
-0.00723289
-0.00421517
0.00044297
0.00337316
0.00180314
0.00803154
0.0188842
0.0113621
0.00608012
0.00139472
0.00393449
-0.00210773
0.00105414
0.000869597
-0.00182697
-0.00316131
0.00229929
0.00098842
0.000442882
-0.00358674
-0.00247718
0.00152553
0.0109562
0.00612069
-0.00248986
-0.00299672
0.0024692
-0.00569511
0.0086887
0.000617095
-0.00723276
-0.00488459
-0.000661658
0.00396703
-0.00462729
0.00712463
-0.00143701
0.00342353
-0.00314775
-0.000662071
-0.00138422
0.000990073
-0.00396479
-0.00247661
-0.00086842
-0.00221794
-0.00155174
0.00342061
0.00449585
0.0046605
-0.00127636
0.00205878
-0.00444672
-0.00138469
0.000243871
0.0174001
0.00134319
0.0035484
0.0143821
0.00175923
-0.00105432
0.000683604
-0.00462571
0.00080341
0.00160025
0.00488747
0.000443799
-0.00314909
0.000803321
-0.00105457
0.00291266
-0.000471734
0.0132596
-0.0104145
0.00772496
0.00098257
0.00177082
-0.00844105
-0.00462593
0.00570302
0.00098885
-0.00129936
0.00607561
0.00105392
-0.00352388
0.00138515
0.00834326
0.00611844
0.00371998
-0.00141468
-0.00106108
0.000683099
-0.00358548
-0.00520672
0.0143814
0.0266449
0.00105453
-0.000803119
0.0032077
0.0149174
0.00396646
0.00338678
0.0046263
0.00255241
0.0410779
0.00553755
-0.00396701
-0.00152669
-0.00259556
0.00502337
0.00100546
0.000816212
0.00129874
0.0143842
0.00865488
0.00462563
0.0014965
0.000948637
0.000306037
0.0021963
-0.000777487
0.000591948
0.00337523
0.000389671
0.00372077
0.0268211
0.0149265
0.00804546
0.0138679
0.00160587
-0.000683089
-0.00217641
-0.000802995
0.00145665
0.000803382
0.0008969
0.000896985
-0.000465801
-0.00185766
-0.000520112
0.00589552
0.0047127
0.00342259
0.00961184
0.0077485
0.0041969
-0.0058243
0.00834444
0.00300266
-0.000753105
-0.00291155
0.00868798
-0.00127815
-0.00195737
0.00582621
-0.00105453
-0.0012685
0.00612638
0.0113637
0.0195949
-0.000619132
0.00796266
0.00221722
-0.000661151
0.00136611
-0.00110829
0.00926696
0.00488383
0.00465944
0.00260612
0.000683586
-0.00192264
0.00105358
0.0149193
0.00221712
0.000616417
-0.00502182
-0.000868669
0.00230832
0.00881329
0.000869575
0.00449209
0.0113631
0.00661947
0.000245451
0.0050221
0.00160484
0.00607778
-0.00462511
0.0021746
0.0047088
-0.00164041
-0.000377241
0.00250853
0.00191108
0.00404702
0.000611479
-0.00156197
-0.00161446
0.000988566
0.000802661
0.00796364
-0.00550976
-0.00466327
-0.00291153
-0.00267036
-0.00396485
-0.00129719
0.00229988
-0.00302149
-0.000944699
0.00325496
-0.012146
-0.0121462
0.0101392
0.0144429
0.0027134
-0.000563209
-0.00382337
0.0196978
0.00865442
-0.00337435
-0.00052042
-0.000520178
0.000802719
-0.00299648
0.00162666
-0.00372037
0.00793488
-0.00369881
0.00110813
-0.00168437
0.00396568
-0.0010545
0.000748831
0.0268068
-0.000896725
0.0039701
0.000802781
0.00098301
-0.00520531
0.00342353
0.00396652
0.00382478
0.00315155
-0.00642628
0.00462834
0.000520604
0.000897572
0.000285006
0.000802322
0.00396418
0.00843754
0.010495
-0.00935485
-0.00352232
0.013305
0.00714147
0.00281668
0.0182077
0.00394463
0.00396438
0.00589889
0.00342143
0.00356326
0.0113674
0.010563
0.0071399
0.00382412
0.0219226
-0.00216716
-0.00074851
0.00520757
-0.000748649
0.00216699
0.00638163
-0.00531151
0.00325488
-0.00230012
0.000802912
0.00462679
0.00230079
-0.000396257
0.00230967
0.00291047
-0.000869333
-0.0187153
0.00145719
0.0024897
0.00465966
-0.000305401
0.000611785
-0.000992087
0.0063802
0.0101413
0.00155097
-0.000401686
0.00105384
0.00504836
-0.00607272
-0.000729404
0.00301941
0.00094386
0.000988901
-0.000988954
-0.000802666
0.00247896
-0.000617344
0.0121482
-0.0093597
-0.000969885
0.00231002
-0.00162616
0.000803323
0.00162654
0.00179344
0.00151589
-0.000803206
-0.0022998
-0.00196514
-0.00145039
0.00080283
-0.00188741
0.00139324
-0.00167117
-0.00796128
0.0109933
0.000896588
0.000922208
-0.00352219
-0.00151614
-0.000305466
0.00471025
0.00530837
0.00462702
0.000611185
-0.000748281
-0.00123801
0.000662592
0.00138338
-0.00105419
-0.00277104
-0.00221714
0.0113628
-0.00462571
-0.00963631
0.00176419
0.0093599
0.00105457
0.000504051
0.00200506
0.00366527
-0.000485141
0.000547249
0.000897023
0.00271441
-0.000868697
0.00182438
-0.00255278
-0.00138456
-0.00160622
0.010563
-0.00302091
-0.00793077
0.0010537
0.00466021
0.00324375
-0.00123938
0.000670405
0.0196019
-0.00326969
0.00462605
0.00268299
0.0109588
-0.00105447
0.00290992
-0.00396527
-0.00182646
-0.00138419
0.00291047
0.000719166
0.00243992
-0.00192303
0.000988937
-0.00302071
0.0149193
0.0109583
0.0109559
-0.00270523
0.002913
0.00697408
-0.00098274
-0.00175921
0.00071802
-0.00520693
-0.00444582
-0.00162577
0.00167192
-0.00648413
-0.00520661
0.00192203
0.00276837
0.00520627
-0.000989076
0.000748117
0.000807683
0.000803296
0.00219372
-0.00139204
-0.00259584
-0.00196678
0.026815
0.00105565
0.0010843
0.00355128
-0.000988619
0.000569719
0.0410972
0.00793372
0.00257055
0.0015519
0.00144931
-0.001465
-0.00098894
-0.00110749
0.00569987
-0.00146496
-0.000682762
0.0046255
-0.00396594
-0.00501956
0.00589787
-0.00301944
-0.00542628
-0.000611515
0.00129775
0.0109576
0.00105422
-0.000358883
-0.0037196
0.00661665
0.00661938
-0.0104128
0.00162723
0.00105396
0.000802554
0.00865701
0.0109539
-0.000305435
-0.00450392
-0.00607288
0.0029685
0.00291404
0.000868571
0.00105416
-0.00118229
-0.000611509
-0.00182494
-0.00384725
0.000814802
0.00219506
0.000845254
0.00221839
0.00276999
0.00175991
0.00196634
0.00226094
-0.000640917
0.00105399
0.000545145
0.0410752
0.00120353
-0.00291033
-0.003127
0.00123823
0.00723373
-0.00382337
0.000748393
-0.00196488
0.0159752
-0.00138388
-0.00152452
-0.000982681
-0.00520592
0.00502165
-0.00470781
-0.00105337
0.00118268
-0.00105413
0.00120689
-0.000815518
0.00471124
0.00905801
0.000428639
0.00803429
0.00068358
-0.003021
0.00355031
0.000943571
-0.00550876
0.00255448
-0.00462517
0.00723397
-0.00320946
-0.0009911
0.000611137
0.00461901
-0.000753148
-0.00210833
-0.00153059
-0.0014367
0.00372251
0.00191215
0.0132575
0.00713745
0.00467889
-0.00276811
0.000944949
0.00520492
-0.00130674
0.00543108
0.00167195
0.00466146
0.0159752
0.00834106
0.00612277
0.0028353
0.00267878
0.000581295
0.00440407
0.00273048
0.000617384
-0.00123861
0.000442894
0.00396924
-0.00133994
-0.000377244
-0.00825669
-0.00155124
-0.00570761
-0.000636508
-0.0015524
0.00937567
0.0174104
-0.00257021
-0.00064126
0.000868975
0.0127733
0.00276446
-0.00396632
-0.00302035
-0.000581756
0.000748124
-0.000719514
0.000520122
-0.00105511
0.00481133
-0.00462701
-0.000748455
0.00358577
-0.00105379
-0.00210718
-0.00118167
0.000802902
-0.000520457
-0.00302117
-0.000868988
0.00276717
-0.00372118
-0.00281506
-0.000401711
-0.00069765
-0.00440276
-0.00925396
-0.00440373
-0.00723567
0.0149232
0.00356549
0.0147238
-0.00230961
0.0126193
0.00569974
0.0109539
0.00865499
0.00865426
-0.00550923
0.000802732
0.00291253
0.00342304
0.00834423
-0.00754196
0.00612247
-0.000442711
-0.00115549
0.000944486
0.00116202
-0.00396496
0.0126202
0.0058997
-0.000802922
-0.00607616
0.00145626
0.00123937
0.000396291
0.000141097
0.00501819
-0.00935764
-0.0060711
-0.00105728
-0.00105307
0.000641364
0.00195763
0.0113592
0.00834201
0.00215046
-0.000983255
0.000428272
0.00138419
-0.00356331
0.00111628
-0.000803216
-0.00094277
0.00381368
0.00774661
0.0113628
0.00354911
0.00431592
0.00462687
0.00231044
0.000376518
0.0258664
-0.00607422
0.000719226
-0.00116266
-0.00175896
-0.00175882
-0.000868951
0.00259718
-0.00210786
0.00520976
0.000636843
-0.0006832
0.000520944
-0.000558077
0.0017595
-0.0014637
-0.00628815
0.00502103
0.00382478
-0.000945023
0.00105425
0.0167827
-0.00168904
0.00230872
-0.00520857
-0.00105418
-0.00105442
0.00697232
0.00356628
0.00606397
-0.00382277
-0.00054506
-0.000803171
0.000869456
-0.000803171
0.00273099
-0.00192363
0.000989148
-0.000428714
-0.000803119
-0.00248688
0.00246227
-0.00155124
0.00396911
-0.0014372
0.00396473
0.0100446
-0.00925409
-0.00259106
-0.00192365
0.0010208
0.0174042
-0.00342227
0.0167815
0.00697169
0.000251945
0.00467945
-0.000989284
0.00936038
-0.000747979
-0.00116352
0.00118189
-0.000802656
-0.00129852
-0.00195728
-0.00175822
-0.00606389
0.00444677
0.0174082
0.00257046
-0.000988518
-0.00146403
-0.00281567
0.00139367
0.0268211
0.0031282
0.00965719
-0.00843537
0.000803935
0.000900205
0.00074897
0.00118088
0.000921518
0.00206826
0.0021948
0.000661168
-0.000428648
0.00116245
-0.00291098
0.00142203
-0.00542746
0.000900013
0.000401886
-0.00326989
-0.00941619
0.00230967
0.000661346
-0.000943026
-0.00176023
0.000814348
0.000719939
-0.000683371
-0.000749365
-0.0100391
-0.00466258
-0.0044936
0.00396547
-0.000948857
0.0127766
0.00396657
-0.000808213
0.0113651
0.00229957
0.00271469
-0.0029006
0.00120602
-0.00127316
0.000683354
-0.000520268
-0.00221678
0.00249093
0.0109559
0.000574249
-0.00924059
0.00382323
-0.00239523
0.00145491
-0.000868166
-0.00094325
-0.00276287
0.0100929
-0.0021364
0.00355256
-0.00116237
-0.000802747
0.00301967
-0.00550853
0.00358487
-0.00276669
-0.00104046
0.0025707
0.00325381
0.00290486
0.00301919
0.00396555
0.0143867
-0.00396712
0.00369714
0.0109546
0.00111545
0.00502252
0.00520847
0.00121791
0.00217492
0.00303332
-0.00129835
0.000636665
-0.00144978
0.000581178
-0.00570122
-0.00599842
-0.00303925
0.00372191
0.00123937
-0.0058231
-0.00127281
0.00206873
-0.0013845
0.00520587
0.0138644
0.0238198
0.0193253
0.0011541
-0.00396526
0.000753558
-0.00444611
0.00248921
-0.00173901
0.000396397
0.0039667
-0.00281582
0.00440832
0.000945136
0.010423
0.00661843
0.00291294
-0.00206705
0.00105343
0.00382144
-0.00281575
0.0012401
-0.000683404
0.0019361
0.00138491
-0.000570074
0.000498284
0.0016266
-0.00312671
0.00467556
0.00382524
0.00462595
0.0033755
0.00396733
0.000683321
0.000563554
0.000661213
0.00136615
-0.00136555
-0.00358472
-0.00120589
-0.000982252
-0.0039669
-0.0054275
0.00520524
0.00182318
0.000503825
0.000786968
0.00094323
-0.00303472
-0.00301974
-0.00470723
-0.0043377
0.0113608
0.00865712
0.000520703
0.0093733
0.00182885
0.0109961
0.0228542
0.00381493
0.000499057
0.000897113
0.000983182
0.00175875
0.0035234
0.00607479
-0.00352237
-0.00229994
0.002478
-0.00105442
0.00792937
-0.0048826
-0.0015579
0.00151777
0.0019126
0.0312871
0.00465972
0.00381396
-0.00221791
0.00462577
0.00382155
-0.0032663
0.00935509
0.00928964
-0.00396499
0.000802836
0.00283287
0.000814435
-0.00129857
0.00448841
0.000683003
-0.00398917
0.00291275
0.000748607
0.002914
0.00303199
0.000611452
0.00611591
-0.00462539
0.00342258
0.00440631
0.0034194
-0.00271519
0.00320757
0.0008032
0.00881201
-0.0059956
0.0036949
0.00291408
-0.000748062
0.000611165
-0.00138504
0.00325608
0.00713271
-0.00136568
0.00248918
0.00629223
-0.00369806
0.000868657
-0.00366342
-0.00168866
0.00502028
-0.00444695
0.0113625
0.00239982
-0.00296708
0.00637992
0.0055103
-0.00520737
-0.00138419
0.00869286
0.00973239
0.00160692
-0.00462387
0.00834588
0.00638227
0.00543776
0.0228624
0.000661585
0.00089668
-0.00520543
-0.000396704
0.00155091
-0.000611197
0.00337436
0.000879078
0.00607479
0.000869229
0.00102159
-0.00301918
0.00276571
0.000661246
0.0109584
0.00105419
0.00210871
0.00354594
-0.0024877
0.00110252
-0.00520924
0.00105414
-0.00271158
0.00462674
0.00283348
-0.00146397
0.00127344
-0.000897229
-0.00462489
-0.00543013
0.0352254
-0.00123834
-0.000718637
-0.00150861
0.000944134
-0.00324266
-0.00162579
0.00138413
-0.00105501
0.00167211
0.00105412
-0.00116206
0.0228441
-0.00203323
-0.00226013
0.000802771
0.00162561
0.00449237
0.00188725
-0.0030195
0.000802355
0.00213506
-0.000611077
-0.000641097
-0.00396727
-0.00089707
0.00175925
0.0174015
0.000661671
0.00431524
0.0143889
-0.00505144
0.00501861
0.00396713
-0.00520344
-0.00551051
0.00240007
0.00105426
-0.00396689
0.00488491
-0.00086787
-0.00105468
0.00105414
-0.000378551
0.00268395
0.00146387
0.00231212
0.00230021
0.00471137
0.00382472
-0.00502028
-0.000875201
0.00189496
-0.000233294
-0.000803587
-0.000841921
0.00149557
0.00428712
0.000802375
-0.0028171
0.0352129
0.00611726
-0.00219607
0.000983277
-0.00216627
-0.00106013
0.000989269
-0.000988548
-0.000942936
0.00105389
0.016778
-0.00326637
0.00570254
-0.0016728
-0.00123909
0.00358747
0.00462621
0.00176006
0.000396636
0.00837814
-0.00520726
-0.000988314
-0.0104136
0.0149227
-0.00276783
0.000802645
0.00098299
0.00427302
-0.00152566
0.000637312
-0.000244475
0.000987908
-0.00513819
0.00524339
-0.00963717
0.00175212
-0.00382178
-0.000545555
-0.00098888
-0.00230017
-0.00396547
-0.000569886
0.0048132
0.00131191
-0.00217224
-0.00129941
-0.00255522
-0.00878424
0.0268293
0.00929247
0.00162685
-0.000683186
0.00485745
-0.000801777
0.0113655
0.00637899
-0.00302036
-0.00138456
-0.000611766
-0.000682803
-0.00146341
-0.00230043
0.00544574
0.0054378
-0.000897248
-0.00122298
0.0016269
0.0101412
0.000989852
0.00450118
0.010557
0.0220285
0.00844052
0.00606277
-0.00296703
0.00138422
0.0029112
0.00166673
-0.000944075
0.00382526
0.00221883
0.00589845
-0.000640955
-0.00155169
0.00111503
0.0144363
0.0144363
0.00611674
0.00213728
-0.000661437
-0.000988669
-0.00396561
-0.000401736
-0.00352239
-0.0032086
-0.00129844
-0.0029298
0.00427052
0.00176007
-0.000660951
0.000752951
-0.00456657
0.00315431
-0.00166609
0.00276905
0.000973551
-0.00396401
-0.00315016
0.00138409
0.0105594
-0.00105437
-0.000803088
0.003148
-0.00607301
0.000868557
-0.00698596
0.0030223
0.000989241
0.00352398
0.00088544
-0.000804402
0.000682753
0.000131458
0.000877109
-0.00396528
-0.00396681
0.00302011
0.00206643
-0.000803154
0.000581323
0.000719201
-0.000921552
-0.0050926
0.0188819
0.0109508
-0.00059145
0.0030333
-0.001464
-0.00105457
0.000802891
-0.00348258
0.0012685
0.00337618
0.000252299
0.000802541
-0.00231091
0.0105612
0.0109546
0.0113621
0.0027051
0.00352147
-0.001626
0.00303167
0.00188786
0.00296536
0.0195919
0.011417
0.0174071
0.0204309
-0.000616642
-0.00192235
-0.000570326
0.00869139
0.00501796
0.00285547
-0.004447
0.0109572
-0.00129926
-0.00544163
0.00138419
-0.00106008
-0.00186337
0.00127658
0.00179318
-0.0038129
0.0147192
-0.00396393
0.00844099
-0.0104132
-0.00733838
0.00210682
0.00228341
0.00382488
0.00396775
0.000443999
-0.00372081
-0.00151613
0.00465926
-0.00155254
-0.00335456
-0.00256963
0.00195726
-0.00247695
0.0195844
0.00502479
0.0228516
0.00481154
0.000683586
-0.00569492
-0.00210738
-0.00105446
-0.00129725
-0.00138378
-0.00068333
0.00168334
-0.000376594
-0.000748921
-0.00371998
0.0149203
0.0143871
-0.000802727
0.000562969
0.00118194
-0.000581127
-0.000897302
-0.00127332
-0.000803061
-0.00190309
-0.00291118
-0.00462539
0.0041381
0.0132562
0.0167748
0.00502031
0.00121731
-0.000988304
0.00210777
0.00206832
0.00804492
-0.00488487
-0.000612043
0.00502124
-0.000442614
-0.00120388
-0.00277084
0.000401041
-0.00369601
0.00384445
0.00339939
-0.00162594
0.000504081
0.00130596
0.0228441
0.0220261
0.00462686
0.00138394
0.00302072
-0.00607246
-0.00186197
0.0268293
0.0266699
0.00296878
0.015559
0.00837355
-0.00246865
0.00118226
0.000683506
0.00439069
0.00266943
-0.00155842
-0.00167271
0.00138314
0.00173722
0.00466029
-0.00382319
-0.00187109
0.00138416
-0.00123959
0.00550817
0.0258476
0.00712506
-0.00205873
0.000868544
0.00342185
0.00396782
0.00521031
-0.00121788
-0.000294654
0.000442582
0.000867891
-0.0039648
0.000661856
0.00075319
-0.00213535
0.00291221
0.0149155
-0.00256958
-0.0061182
0.00449536
-0.000868761
-0.00471018
0.00485766
-0.00380991
0.000885293
0.00105505
0.00157331
0.00195783
0.00382155
0.00144981
0.00299965
0.00611584
0.00145819
0.00291155
-0.00105455
-0.000922349
-0.00213484
-0.000497728
0.00173621
0.00160576
-0.000485064
0.00231089
-0.000803105
0.00276335
-0.00114835
0.0352299
0.00713271
0.00396711
0.00326984
0.00105471
0.000636546
0.000982738
0.0132596
-0.00550943
0.00563012
-0.00440472
0.00338612
0.00248915
0.00607584
-0.00607574
-0.00501998
0.0121667
0.0048591
-0.00175929
0.0138695
0.0041414
0.0174027
0.00928832
0.00501746
-0.00138459
0.00213526
0.00929247
0.00723633
0.0022998
0.0039667
-0.00219481
-0.00105468
-0.00196603
0.00291326
0.0013792
0.00162755
-0.00440389
-0.000778507
0.00105384
-0.00188695
0.00080342
0.00444534
-0.00513865
0.00247675
0.00326776
0.00303456
0.00936583
0.00449734
-0.00221743
-0.000748545
0.00607123
0.00138415
0.00206659
0.000661716
-0.000988647
0.0076431
-0.00501833
0.000661173
0.000989161
0.00123896
0.00937771
-0.000973915
0.00273154
-0.00196681
0.0149963
0.00149614
0.000900258
0.000897446
0.000896765
0.00105414
0.00510589
0.00804011
0.00116421
0.0113602
0.00382105
0.000922001
0.0025707
0.00302172
0.000814988
-0.00129893
0.00804546
-0.000802843
-0.00396531
-0.00052033
0.0105619
-0.00281641
-0.00210857
0.00462701
0.0113611
0.00162675
-0.00105392
0.00144934
0.000802677
-0.00260703
0.0039643
0.00138927
0.000401506
0.00152579
0.0126202
0.00110771
0.00257044
0.00396512
-0.00502018
-0.00440557
-0.00826055
0.00628909
0.00176538
0.00543994
-0.00372186
-0.000841706
0.000683539
-0.00396517
