0.000802853
-0.000982182
0.00121722
0.0012402
-0.000802611
-0.00105331
-0.00338604
-0.00291221
0.00105483
-0.00501674
0.00276568
-0.00880745
-0.00338804
-0.00188685
0.0149222
0.00803727
0.00257013
-0.00301954
-0.00396708
0.000428463
-0.000943397
0.000943884
0.00146414
-0.00175873
0.000802541
-0.000682853
0.000562943
0.000982313
0.00291239
-0.000401451
0.000989718
0.0030407
-0.00138428
-0.00167162
0.00419435
0.00771971
0.00384934
0.0101398
0.014855
0.0121571
0.00421831
-0.00273076
0.00396811
0.00162775
-0.00396524
0.0143811
-0.00583756
0.0351995
-0.00188607
-0.00520315
0.00285505
0.00396671
0.00342334
-0.00396749
-0.000233018
0.000943315
0.00320802
-0.00129825
-0.00123837
-0.00101985
0.00413157
0.00530964
0.00382552
-0.000942936
-0.000921788
-0.000814942
-0.000683186
-0.00230889
0.0173998
-0.0016726
0.00270475
-0.0012062
0.000611836
0.00352345
0.000718971
0.00129816
0.00589932
0.0109565
0.00105373
-0.00146524
-0.00302004
0.00121699
-0.00129805
0.00144946
-0.000401283
0.0101365
-0.00356415
0.000868479
-0.001448
-0.0012175
-0.00396441
-0.00583705
0.00138326
0.00116201
0.0105613
0.0109572
0.000466091
0.00607409
-0.00255159
0.00129822
0.00335329
0.00382435
0.00337481
0.0193316
0.0109542
-0.00210786
-0.00337408
0.0193253
-0.00192247
-0.00607401
-0.00124008
0.00176017
0.0105634
0.00735191
0.00228434
0.00206787
-0.00123844
-0.00513892
0.00382227
-0.00172125
0.0154668
-0.00151631
0.00210773
-0.00138417
-0.0079319
-0.00239982
-0.0039666
-0.00384456
0.0167763
0.000983692
0.0063849
0.0132596
-0.000669532
-0.00413251
-0.00302075
0.00257139
0.00735388
0.00352488
-0.000305474
-0.000943417
0.00247946
-0.00105399
0.000867773
0.00679428
0.0188819
0.00352147
0.00162505
-0.000879934
0.00229965
0.0013829
0.00145727
-0.00221743
0.0173998
0.00080333
0.00878702
0.00138419
-0.000637108
0.00500505
0.00115527
-0.00291174
0.00221684
0.0105578
-0.00335233
0.00335299
-0.0010206
-0.000670096
-0.00162839
-0.00465442
0.00723611
0.000719236
-0.00502141
0.0023013
-0.00153026
0.0188842
0.0126231
0.00393883
-0.000611551
0.00105399
0.012169
0.00662021
-0.0031509
-0.000581378
-0.00281459
0.0149219
0.0113666
0.00302047
0.000982994
-0.00291221
0.00494007
-0.00121818
-0.000661114
0.00162557
-0.000232704
-0.00105356
0.00142036
-0.00229914
-0.00221596
0.00302188
-0.00167145
-0.00382338
-0.00219606
-0.000503659
0.000752871
-0.00105365
0.00206962
0.000697743
-0.00128222
-0.00105391
0.00210825
0.00146348
-0.000251708
-0.000803048
0.00260719
-0.000896502
0.00302141
-0.00105455
-0.00221669
0.00834146
0.00603976
0.00637726
-0.00339812
0.00249187
-0.000520226
0.000868153
-0.000337359
0.00168847
0.00382522
0.000494917
-0.00335342
0.00440389
0.00249047
-0.00108336
-0.00163948
0.000569923
0.00276981
0.0117545
0.0149176
0.00229965
-0.00129909
0.0029307
0.00369582
0.00162616
-0.000802608
0.00120631
0.000803871
-0.00302063
0.00964945
-0.00396475
-0.000673804
0.00462842
-0.00664576
0.00166631
-0.000520162
-0.000661571
-0.000683066
-0.0104132
-0.00607259
0.00449151
-0.0039653
0.00382387
0.0021359
0.00271337
0.00382183
0.00267902
-0.0010544
-0.00302076
-0.000412725
0.011362
-0.00543911
-0.00175929
-0.00230939
-0.00291308
0.0121685
0.0105634
-0.0039645
-0.00466328
0.00105417
-0.00382309
-0.00826079
-0.00141935
0.0268136
0.00868527
-0.00225842
-0.000503608
-0.0025698
0.00712811
-0.00607517
0.00191432
-0.000869194
0.000989111
0.0159752
0.00290719
0.00239889
-0.0016278
0.000641075
0.00662003
0.00162662
0.0083758
0.018717
-0.00880602
0.00466134
0.00229957
-0.00149647
-0.00105479
0.0182057
-0.00502011
-0.00440408
0.00321326
-0.00105368
-0.0016716
0.00219489
0.000682803
-0.002283
-0.00206783
-0.000495075
0.000233049
0.0017368
0.00213677
0.00301988
-0.00396503
-0.00123945
-0.00607435
-0.00146349
0.000465766
0.00211002
0.00413984
-0.00200272
0.0143852
-0.00358556
0.000395987
-0.000520133
-0.00369643
-0.00404362
0.00465596
0.010559
0.00834454
-0.00462593
0.00116226
-0.00248815
-0.0019238
-0.00276756
-0.00276756
0.00240074
-0.00180416
-0.00396649
0.00127336
-0.000697539
0.0173973
0.0121667
0.00638284
0.0109524
0.0174001
0.0113631
0.00249044
0.000321311
0.00774417
0.000884648
0.00352313
0.00129847
-0.00162731
-0.00488814
-0.00396379
-0.0035175
0.00340764
0.00231007
0.00162585
-0.00259673
-0.000841496
0.00381368
0.000358773
0.00118266
0.00110124
0.000563031
0.00434065
0.0188933
0.00543265
0.00500344
0.00205833
0.00485636
-0.00227868
-0.00514021
0.0228441
0.000802532
-0.000376952
0.00173852
0.00232529
0.0109553
0.00661562
0.0022995
0.000802645
0.0010538
0.00210822
0.00302109
-0.0062895
-0.00105455
-0.000989403
0.00105402
-0.000803192
0.00210656
0.000989177
-0.000637054
0.00219684
0.00123954
-0.000802376
-0.00324017
0.000562646
-0.00396369
-0.00302035
0.0039632
0.00335603
-0.000683171
-0.00219451
-0.00105493
-0.000428893
0.00127339
0.012169
0.00192362
-0.000988565
-0.00462593
-0.00167247
0.00606543
0.000661602
-0.00153111
-0.000581323
-0.00444775
-0.000974535
0.00129825
-0.000868409
0.00607505
0.00337409
0.00611935
0.014382
-0.0020034
0.00176019
0.0167717
0.00431405
0.0167748
-0.00371849
-0.000611648
0.00118231
-0.00066204
0.00231075
-0.00302046
-0.0013846
0.00179914
0.0220389
0.00936583
0.000429534
-0.000611653
-0.00273037
0.016778
0.00299824
-0.00382267
0.00834454
0.00115068
0.000802465
0.000802393
0.0013845
-0.0039642
0.00315041
0.00230985
0.000802986
-0.00326464
-0.00188741
0.00342323
0.0228594
-0.00878312
0.0109975
-0.00520684
-0.00437398
0.000305564
-0.00105448
-0.000444232
0.00188761
0.0138668
0.0138653
0.00449374
0.000802797
-0.000697836
-0.00396732
0.000748455
-0.0096319
-0.000867983
0.000802756
0.000897066
-0.00352442
0.000682793
-0.000696979
0.00210775
0.00151323
-0.00520833
0.00697547
0.00462698
0.000943445
-0.00105441
-0.000662002
-0.000900743
0.00936899
-0.00239802
0.00589899
-0.00358542
0.00804407
0.00466719
0.0266699
0.000611426
-0.00129771
0.0113655
0.000814789
-0.00843708
0.00352508
0.001761
0.00352353
-0.00520592
-0.00167237
-0.000868587
0.00273229
0.00396701
0.00314858
0.0105612
0.00611975
0.00570122
0.00105484
0.0024613
0.00384822
-0.000868525
0.00396769
-0.00582299
0.00315206
0.00301965
-0.000465216
0.00133982
0.0167827
0.0138695
0.00205932
-0.0014495
0.00369891
0.00302145
-0.00145572
0.000428761
-0.00301987
0.00606629
0.00376523
0.0188839
0.0127806
0.00449473
-0.00200492
-0.00175901
0.0266574
-0.00098836
0.0127742
0.00834412
-0.000943432
0.00247706
0.0174124
0.00880545
-0.0021074
0.00105401
-0.00210727
0.00260418
0.00372014
-0.000943465
0.00335346
0.00302065
0.00239524
-0.000868912
0.0093734
0.000896521
0.00123868
-0.00213593
0.00699045
-0.000640308
0.00465335
0.0105607
-0.00123914
0.00221712
-0.00291081
-0.00301989
0.000610975
0.00354702
0.00182736
-0.00068338
-0.00440513
-0.00229996
0.00246798
0.0174042
0.00290155
0.00642327
0.000777259
0.000545797
0.000364788
-0.000802656
0.00124618
0.0167717
0.0029093
0.00214423
0.00502169
0.00302014
-0.00326995
-0.00192163
0.00124608
0.00396639
0.000251949
0.000611368
0.00291094
0.00160526
0.00123904
0.0121966
-0.00276898
-0.000287217
0.0007664
-0.000803251
-0.000982702
0.000802853
0.000286998
0.00232516
0.0021953
0.00413575
-0.000661221
-0.000364749
0.000988915
0.000520274
-0.00105383
0.00182812
-0.000752951
-0.0100404
-0.00123905
-0.000520001
-0.00080259
0.00221925
0.001498
-0.00165574
0.00106028
0.00372315
0.00116334
-0.000897009
0.00352379
-0.00221768
-0.000765903
0.00530946
0.00815109
0.000661542
0.00299648
0.00232471
0.00937567
-0.00129866
0.00179894
0.00325421
0.00257215
0.0132534
-0.000661344
0.00520587
-0.00393564
-0.00444615
-0.00129788
0.0048591
-0.000682971
-0.000683218
-0.00172339
-0.00116251
-0.00143749
-0.00396366
0.00186645
0.00152618
-0.000802991
-0.00188537
-0.00291155
-0.00052036
0.00123929
-0.00179854
0.00271277
-0.00290935
0.00449133
0.00302254
0.000341853
0.00520833
-0.00314985
0.00413003
0.0101337
-0.000748154
0.000803389
0.00335628
0.000545001
-0.000503538
0.00283364
-0.014846
-0.0060652
0.00837407
0.00638116
0.00123945
-0.00298115
0.00607492
0.00310201
0.000921651
-0.00160592
-0.00358548
0.00337634
-0.00382376
0.0167827
0.00127416
-0.00111475
-0.00470796
-0.00219502
0.00881329
0.00335579
0.00327013
0.00179445
-0.000520451
0.00358524
-0.000807784
0.0030204
0.00276724
0.000683533
0.00325448
0.00440536
0.00182453
-0.00382156
0.00111429
-0.00396454
-0.00173139
0.00056995
0.00302148
0.00111525
0.00427252
0.00138351
-0.00225786
0.00162692
0.00301854
0.010561
0.00520867
-0.0093597
0.000802825
0.00160569
0.000661664
0.0029113
-0.00302029
-0.00175867
0.00582438
-0.000504138
-0.00449563
0.00443404
-0.00167155
0.0061197
-0.00221775
0.00216541
0.00138368
-0.00136701
-0.000944434
0.000544773
0.00381256
-0.000896594
-0.000661874
-0.00936264
0.0029124
-0.00488451
-0.00733627
-0.00268293
0.000873542
0.013252
-0.00697402
-0.00461779
0.0052065
-0.00466105
-0.00439138
-0.000896985
0.000753696
-0.00793257
-0.00116276
0.00138368
-0.00105397
0.00259828
0.00123909
-0.00301977
0.00291162
0.00325397
0.00302162
0.00105432
-0.00075318
-0.00339966
-0.00604065
-0.00195723
0.000802607
-0.00291064
0.0195849
-0.00123927
0.00612195
-0.0027633
0.0021677
0.00260959
0.00607214
-0.00127388
0.00333357
0.00137735
0.00228228
-0.00105368
0.00251135
0.0228441
0.00080684
0.00396568
0.00191152
0.0104217
0.00382384
0.00182653
-0.00843878
-0.00239861
0.00428416
-0.00603872
-0.00258769
0.0018052
0.0109551
0.00219693
0.0127828
-0.00302084
-0.00396687
-0.00324062
-0.00302113
0.00283222
-0.00355276
0.00200411
0.00111459
-0.00061692
0.0195914
0.0110021
0.000802624
0.00449842
0.00520353
0.00607275
-0.00162503
0.00461797
0.00396506
-0.00303965
0.000310238
-0.000868239
-0.00606382
-0.0058231
0.00320614
0.000802465
-0.000988336
0.000942787
-0.00276236
-0.00440408
0.019588
-0.00443433
-0.00382133
-0.000777396
-0.00642565
0.00520873
0.00326978
0.000305818
-0.00105438
-0.000485069
0.00327106
-0.000562831
0.0039662
0.000364694
-0.000802874
0.00351853
0.00033691
-0.000611987
0.00485975
0.00804379
-0.000841361
0.000753146
0.00195796
-0.00179399
0.00569917
-0.000640869
-0.00175826
0.00321168
0.00291215
0.00206713
0.000611188
0.00462664
0.0019219
0.00102014
0.00291389
-0.00606248
0.00396434
-0.00105441
-0.00221756
0.00208161
0.00123902
-0.000730061
0.00488441
0.00259738
0.00105396
-0.000802677
-0.00138346
0.00138458
-0.0008027
-0.0024882
0.0143845
0.0149265
-0.00105396
0.000442732
0.000260257
0.000802531
0.019585
0.00255766
0.00229968
0.00206746
0.00354941
0.00543071
0.00260731
-0.000718035
-0.000989068
0.000562527
0.000520498
-0.000943925
-0.00793128
0.00325353
-0.0043397
0.00165613
0.00105374
-0.00185733
-0.00462713
-0.0030503
0.00145825
-0.00221759
0.00162682
-0.00105381
0.00358475
-0.00168891
0.000496189
0.000897047
0.00267257
-0.00713271
-0.000351627
0.00680858
0.00369811
0.0195855
0.00924822
-0.00352278
0.00589771
0.00356584
-0.00520613
0.00369656
0.00286667
-0.00063606
0.000484533
-0.000988919
-0.00102042
0.00123937
0.00393883
-0.00247835
0.000321125
-0.0007485
-0.00276818
0.000442564
0.000442838
-0.000661588
-0.00444695
-0.00248879
0.00123848
0.00116253
-0.00502028
0.00440343
-0.000662178
0.00230102
0.00440622
-0.00304147
-0.000922237
0.0035234
0.00221848
-0.00396681
-0.00200379
-0.00249136
-0.000981946
0.000803096
-0.00146491
0.00382431
0.0220261
-0.0072328
-0.00077684
0.00124108
-0.002833
-0.00382319
-0.00302113
-0.00302034
-0.00462735
-0.00462633
-0.00257062
-0.00302065
0.000699696
-0.000943417
-0.00105451
-0.000569653
0.0167796
0.00569826
-0.00393207
0.000563013
0.000899388
0.00302191
-0.0029111
-0.00162566
-0.00299461
-0.0014651
0.00162731
0.000442829
-0.000896789
0.00291125
0.00352252
0.00152587
0.00185823
-0.00419406
0.00301865
0.00642369
0.00352235
0.00709791
0.0188842
-0.0100365
0.00303324
-0.00462729
-0.002136
-0.00028524
0.000520122
-0.000803632
-0.000616773
-0.00607604
0.0266574
0.000611866
-0.0028146
-0.00792939
-0.00337325
0.00221859
0.00326493
0.00200184
0.00328431
0.00926303
-0.000661294
-0.00105438
0.00146382
0.00130723
0.000545474
0.00935964
0.00276756
0.00127313
-0.000611643
0.00973458
0.00291135
0.00771523
0.00325457
-0.00290125
0.000943123
0.0032848
-0.00935965
-0.00520701
0.000465409
-0.00247812
-0.00271519
0.0196835
0.00152601
-0.00190402
0.00129764
-0.00102037
0.00926504
-0.00461879
0.011362
-0.0104134
0.0188901
0.00466253
-0.0019426
-0.00878083
-0.000988541
-0.00276916
0.00488261
-0.00120679
-0.000896784
0.00339823
-0.00336323
-0.0016267
-0.00146457
0.00713523
-0.001794
-0.00291163
-0.00628948
0.00352385
0.00865426
0.00972968
0.00607466
-0.000520653
0.00221727
0.00433875
0.00110827
0.000803247
-0.00542718
-0.0014231
0.0080424
0.0173989
-0.000484767
0.00868397
-0.000687791
-0.00231083
0.0156207
-0.00302128
0.00118112
-0.00196627
-0.00606405
-0.00120776
0.0228623
-0.0019238
-0.000688473
0.00180282
0.000376864
0.00105377
0.00230975
-0.00180424
-0.0060675
0.0108593
0.0140186
0.010562
0.016776
-0.00291156
0.00834498
0.00382468
0.000306089
-0.00123872
-0.00520513
-0.00440474
0.00466702
0.00290976
0.00145626
-0.00325357
-0.00121743
0.00219699
-0.00138423
-0.00116308
0.00826382
0.00105426
0.000661152
0.00315052
0.00129807
-0.000983257
-0.00189452
-0.00607317
0.000988726
-0.00196446
-0.00105413
-0.00531033
-0.00080259
-0.0039373
0.000922642
-0.000683525
0.00102053
-0.00462483
-0.000988559
0.00843726
0.00302206
-0.00501809
0.0204319
0.00206
-0.000802705
0.000748308
0.0127742
0.000581048
0.000520476
0.00431498
0.00231109
0.00834518
0.00167212
-0.000698041
-0.000944994
-0.00138415
0.00926504
0.00937421
-0.000401669
0.001116
0.00246312
-0.0012383
0.00299965
-0.00382163
-0.00550707
-0.00443202
-0.012147
0.00562561
-0.00231034
0.000581221
-0.00326644
0.000802601
-0.00139169
0.0121672
0.0149963
0.0143867
-0.00138479
0.000868816
-0.00150966
-0.00217365
0.018881
-0.00382339
0.0061213
-0.00514016
-0.00129787
0.00110131
0.00221894
0.0127771
-0.00501934
0.012784
-0.00195743
-0.000803296
-0.00462573
0.00710972
-0.00205945
-0.000682739
-0.000683357
-0.00105385
0.000868988
0.000944238
-0.00256796
0.00302109
0.014922
0.00697232
-0.00650912
0.00834106
0.00175895
0.00162623
0.000544765
0.00443369
0.00589899
0.00396804
0.00393883
0.000748776
0.00865347
0.00105301
0.00123982
-0.00058106
0.00502186
0.00315137
0.00714483
-0.00462522
-0.00105441
0.0220261
0.00285422
0.00273133
0.000803368
-0.00173139
-0.00291229
0.00612382
-0.0010538
0.00146448
0.00129799
-0.00152534
-0.00299766
-0.00488463
-0.0104118
0.0021956
0.000869516
-0.00523748
0.0113666
-0.0017221
-0.00372169
-0.0037738
0.00664025
0.00276672
0.000802711
0.0021373
-0.00146404
0.00105485
0.00304785
0.000132078
0.000943258
-0.00628848
-0.00355112
0.00300134
-0.00431276
-0.00393653
-0.00210793
-0.000612027
0.001299
-0.000752815
0.00793126
0.00439114
-0.00382384
0.00342344
0.00129884
-0.0039669
-0.00335461
0.010561
0.0138653
-0.00384364
-0.000973869
-0.000777596
0.0048825
-0.00195679
0.000519961
-0.00302055
-0.00291136
0.000321378
-0.00276833
0.00504117
0.00431314
0.000687881
0.00213533
0.00612108
0.013305
0.0149208
-0.00438998
0.0066195
0.0268211
0.0113655
0.00164125
-0.0010545
0.000494866
-0.00396517
-0.00056998
0.00106049
0.000661144
-0.00371947
0.000351557
-0.00217333
0.000337182
-0.000943618
0.00145082
0.00291122
-0.00105424
-0.000803781
0.00203545
-0.000748684
0.00121706
-0.000868429
-0.000669505
0.00219626
0.00162784
0.0127744
0.00335362
0.00837804
0.0113666
-0.0039663
-0.00296782
0.00635488
-0.00207936
0.00542753
0.00302318
0.0017212
0.00382451
-0.00210862
0.0188925
-0.000803241
0.00941599
0.000661614
0.00337607
-0.00338863
-0.000803099
0.000815222
0.00168928
0.00105486
0.00335383
-0.00520487
0.00865369
0.000519875
0.00056296
-0.00105408
0.00230137
0.00342255
0.00302154
-0.00301931
-0.00431356
-0.01215
0.0174017
0.00179432
0.000519837
0.000662154
-0.00129794
-0.00200307
0.00162786
0.000943618
0.00723306
0.00230025
0.00396507
-0.000802666
0.00138425
0.000802912
-0.00057368
-0.00213594
0.00105481
-0.00129788
0.00105459
0.0144349
0.00877386
-0.00192236
-0.00219645
-0.000896479
0.000803284
-0.000619734
0.00136667
0.000982211
-0.00172044
0.00273144
0.0025698
0.0127831
0.00396533
0.00698863
0.00098831
0.000520252
-0.00219618
0.000682893
0.00462469
0.0632612
-0.00219603
0.00129837
0.000802342
0.0046186
0.00520905
-0.00157624
-0.000697999
0.00462359
-0.0035216
0.0127771
0.0165711
0.0109573
0.0173998
0.00186974
0.0046263
0.000465298
-0.00231045
0.014382
0.0258525
0.000616741
0.00340585
0.00520587
-0.00664221
0.0121423
0.011359
0.00837089
-0.00189769
0.00121852
-0.000943923
-0.00326688
-0.00123872
0.00138422
-0.000943158
0.00485845
-0.0104135
0.0143793
-0.00122291
0.00372037
0.00543755
0.00291203
-0.000802946
-0.00206037
0.00160649
-0.000401951
0.0009439
0.00291068
0.00167152
0.00607479
0.00102079
-0.00138287
-0.000259951
0.00129855
0.0143866
-0.00825787
0.0195944
0.00485774
0.000899783
0.00301981
-0.00248821
-0.00861057
0.00080258
0.000545321
-0.00352455
0.0046661
0.00259834
0.0038268
-0.00371994
0.0012985
-0.00089729
0.00355195
0.00504157
-0.00302067
0.00881072
0.000943705
0.000803691
-0.00106043
0.00115195
-0.000661529
-0.00431276
0.000683669
0.0044949
0.00381019
-0.000466609
0.0228542
0.00116212
0.000803393
0.000683604
-0.000949328
-0.00105417
-0.000752642
-0.00155889
0.00145071
0.0046589
-0.00301977
-0.00118136
0.000611177
0.000503825
-0.0003775
0.00488729
0.00396806
0.00145039
0.00296701
0.000520618
-0.000841735
0.00105414
-0.00440462
0.0011622
0.0143816
0.00544178
0.00421454
0.00218937
0.00382308
0.00384493
0.00302096
-0.00291241
-0.000591935
-0.00562866
-0.00160003
-0.00219624
0.00612202
0.0173998
-0.00352173
-0.00175833
0.00175948
0.001298
0.00382472
0.0143814
0.00461927
0.00217571
0.0220362
0.001238
-0.00303804
-0.00291187
0.00301994
-0.000562846
0.000661896
-0.000611685
-0.00382384
-0.00462679
-0.00061123
0.000661122
0.000286649
-0.0039664
0.00354958
0.000803465
0.0010548
0.000683171
-0.00607587
-0.00520615
0.00221796
0.00637729
0.00611729
0.000802388
0.00611584
-0.00116301
-0.00607435
-0.00396665
0.0167827
0.0038216
-0.0023004
0.00301967
0.000804144
0.0195925
-0.000922268
-0.00221746
-0.00247765
0.00393883
-0.00059217
-0.000610929
0.000897047
0.00964804
-0.00146504
0.00118195
0.00138416
0.00551056
-0.00276487
0.000442753
0.00114031
0.00520825
0.000718263
0.00145475
0.00358847
0.00105319
0.000611203
-0.00167255
-0.00118147
-0.00219591
-0.00138451
0.00217745
-0.00382295
-0.00160621
0.000661977
0.00428663
0.00315431
0.0202942
0.00110201
-0.00221789
0.00162674
0.0027159
-0.00231018
0.00606928
0.015623
-0.00787688
0.00087731
-0.00449569
-0.00108303
0.0044058
-0.00880602
0.00493984
0.00381559
-0.00569921
0.0182077
0.0143851
0.00434227
-0.00155248
-0.000868424
0.00192249
-0.00462539
-0.00396415
0.00180287
-0.000869261
0.000611427
0.00520845
-0.00138378
0.00138423
0.00352326
0.0352183
-0.006647
0.000803008
-0.00146487
0.000989812
-0.000753582
0.000661346
-0.00481213
-0.000752854
-0.00271443
-0.00160555
0.00106034
0.00517367
-0.00304134
0.00356717
0.00328685
-0.00105411
-9.16097e-05
-0.00162632
-0.00680809
0.00256993
0.00133987
-0.00488324
0.00230023
0.0127802
0.000519803
-0.000683324
0.00080291
-0.00205958
-0.000662062
0.00203346
0.00462664
0.00127307
0.000640525
0.000364756
-0.00162735
-0.00192341
0.00303774
-0.00462604
0.00440674
0.00155197
0.0027708
0.00462051
0.0077631
0.0012741
0.00229962
-0.00130575
0.00145591
-0.00092158
-0.00160561
0.0033876
0.0143849
0.00661851
0.00804393
-0.00129836
-0.00098835
-0.00221715
0.00465918
-0.000748555
0.0103191
0.00776197
0.00470662
0.000683571
0.00230141
-0.0022176
-0.00058153
-0.000520279
-0.00111558
-0.00123935
-0.00247702
-0.00723232
-0.00713053
0.0058986
0.00869238
-0.00136459
-0.000717901
0.000989533
0.0010543
0.0339609
0.00606807
-0.000989072
0.00104052
-0.00304263
-0.00259002
0.00291265
0.0143837
0.0010549
-0.00196395
-0.00326765
-0.00205994
0.00394236
0.0149232
-0.00310482
-0.00068318
0.000988511
0.00352379
0.00488854
0.00352313
0.0101412
0.0038117
-0.00276729
0.0101392
0.000661346
-0.00210872
0.00291121
0.00834161
0.00123835
-0.00105405
0.00589624
0.00803326
0.00213456
0.0093549
-0.00113998
-0.00520693
0.0149174
0.00302227
0.000896564
-0.00105409
-0.000611635
-0.000683212
0.000897032
0.00587633
-0.00111504
-0.00371887
-0.000868607
-0.000312269
0.00129863
-0.000562934
0.0193253
0.0174001
-0.00352278
-0.00520687
0.00520513
0.00462674
0.0013854
-0.0027643
0.00714147
-0.00462553
0.00399099
0.00355014
-0.00793179
0.000143303
0.0121667
0.0165765
0.00438893
0.000868534
-0.00139273
0.00937421
0.00221665
0.00105451
0.000364924
0.00661842
-0.00488217
-0.000802552
-0.00550819
0.00129849
0.000611419
-0.00214419
-0.000682971
0.000803524
0.00230821
-0.00146447
0.000748271
-0.000563152
-0.00382327
-0.000802301
0.000867864
-0.00221719
-0.00936264
-0.000611277
-0.000305695
0.00679692
-0.00175198
-0.00080258
0.00231015
0.0114131
0.00363693
-0.00291193
0.00396977
0.000611944
-0.00113898
0.00123952
-0.00129832
-0.00221709
-0.00061123
-0.00393712
-0.00291073
0.0058806
-0.00061124
0.00105425
-0.000682845
0.00121731
-0.00381274
-0.00146483
0.00105425
-0.00501865
0.00804141
0.00105388
0.00342379
-0.00793391
0.010561
0.00659182
0.00520846
-0.000504146
-0.00217617
-0.00255524
0.0022998
0.00230141
0.0109541
0.00440613
-0.000661531
0.00115535
0.0021953
0.000943941
0.00173684
-0.0012071
0.0410752
0.00138376
-0.000802594
-0.000640848
0.000484805
-0.00105386
0.00230014
-0.00066205
0.00182811
0.00110861
0.000562654
0.00138417
0.00105361
-0.00712674
0.013305
0.00106123
0.00587348
0.00369988
-0.00314909
-0.00372175
0.00315226
-0.00145974
0.002108
0.00371937
0.00635402
-0.00123862
-0.00193466
0.0297935
0.00612318
0.00488582
0.000982299
-0.00210922
-0.00116292
0.00662047
-0.00335514
-0.00386918
-0.003021
-0.00337467
0.00869398
0.0038129
-0.00352388
0.00772177
-0.00382404
0.014452
-0.0104169
-0.0014563
0.00221896
0.000879423
-0.00136832
0.00105359
0.00532276
-0.00302004
-0.000806674
0.00231116
0.00303442
0.000988896
0.00285477
0.00396793
0.000988574
0.000400916
0.00105456
0.00607736
-0.00136648
-0.00196507
0.000562613
-0.000503632
0.00230988
0.0143891
0.0149963
0.00291088
0.00352353
0.00352353
-0.00462483
0.00335298
0.00520505
-0.00291098
0.00134009
-0.000305571
-0.00182744
0.000981026
0.00175252
0.0165663
0.0052052
0.00462418
0.0138644
0.00301956
-0.00302018
0.0041969
0.00643035
0.00635488
0.0132534
0.0352165
-0.000545624
-0.00155245
0.00273557
-0.000402419
-0.00239907
0.000896479
-0.0012393
-0.0010544
-0.000802884
0.00937222
0.00868928
-0.000620605
0.00105469
-0.00255318
0.00502231
-0.00520913
-0.00175971
-0.00351776
-0.000370129
0.00105383
0.0188904
0.00352362
0.000944203
-0.00123872
-0.00276924
0.0015753
0.0054352
-0.00582482
0.0174017
-0.00217397
-0.00382258
0.00276326
0.00396753
0.014382
0.00382264
-0.00291126
-0.000464558
0.0142278
0.00325414
0.000988676
0.0195925
0.00582784
-0.00413053
-0.00210735
0.00488376
0.00071858
0.00129858
-0.00105422
0.000683412
0.0121513
-0.00382201
0.0195855
-0.00607257
0.0410559
-0.00291093
0.00325262
0.0138679
0.00240147
0.000683586
0.00162594
0.00439109
-0.00276756
-0.000884964
-0.00138378
0.000442577
-0.00267158
-0.00550796
-0.00182477
0.00520505
-0.000337869
-0.000616791
-0.000563084
-0.0021077
0.00834467
-0.00305088
0.00138432
-0.00105462
0.00302095
-0.000802666
-0.0010547
-0.00163925
-0.00120607
-0.00302047
0.00260641
0.0113611
0.00105414
0.0041414
0.00628933
-0.000562455
0.000442991
0.00173837
-0.00314983
-0.00291032
-0.00396362
-0.000377724
-0.00155191
0.000683003
0.00196534
-0.0042868
0.00335579
0.00291251
0.0138668
0.00301977
0.00230963
0.00659131
0.00419658
-0.000611072
-0.0013851
0.00080305
-0.00172113
0.00834498
0.00206877
0.0083419
0.00628831
0.0044918
-0.00712706
0.00243849
-0.00129924
-0.00124743
0.00834216
-0.000532427
0.00396806
0.000815172
0.000944278
-0.0058756
0.000989017
-0.00216825
0.00105415
-0.000442938
-0.00188029
0.00111587
0.000520109
0.00270194
0.010955
-0.00115036
-0.000802501
-0.00105389
0.00291171
0.00302223
-0.00302067
0.00326645
0.00461735
0.0113634
0.00868662
0.0173998
0.0173973
-0.00396564
0.00259491
0.00462565
0.00155852
0.00709791
-0.00192351
0.000988351
-0.0060626
0.00421458
0.000662164
0.00167301
0.00230113
0.000845274
-0.00302076
0.000845661
0.00256932
-0.000570053
0.000803819
0.00382082
0.00837459
0.00635442
-0.00129922
0.000662021
0.0012398
0.000896545
0.00105382
-0.00843313
-0.00210707
-0.00607178
0.00606248
-0.00301975
0.00926778
-0.000396212
-0.000336786
-0.00121846
-0.0041304
0.00413395
0.0140145
0.00182646
-0.00089649
0.00105363
0.00175832
0.00681796
-0.00543655
0.019585
-0.00138375
-0.000563005
0.000752972
0.00230928
-0.00339992
-0.0148412
0.00935477
-0.00303118
-0.000921718
0.00607794
0.00607561
0.00543284
0.0174021
-0.00179567
-0.000305488
-0.00433892
0.00520994
0.000520232
0.00895894
0.00973475
0.00191433
0.00221854
0.00080235
-0.000520362
-0.00428625
0.00259779
0.00230196
0.0195949
0.00299927
-0.000562587
-0.000611226
-0.00175871
-0.00382342
0.000876786
-0.00320752
0.00151688
0.00335688
-0.00326839
-0.00396442
0.00105489
0.000944461
0.00865437
0.0044943
0.001626
0.000803302
0.000428781
-0.00109101
-0.014846
-0.00239535
-0.00144761
0.00520517
0.00500226
-0.00302024
-0.00123807
0.00105389
0.000611247
0.00162707
0.00803694
0.00105428
0.00138502
0.00163939
0.00175243
0.00393846
-0.00569798
-0.00257076
0.000611885
-0.00105351
0.000897028
0.00137694
0.0012178
0.000868192
0.00366332
0.00118162
-0.000611526
0.000943416
-0.00210902
-0.00501982
0.000364959
0.00129884
-0.00273078
0.00162755
0.00146364
-0.000545429
-0.0016062
-0.00216736
-0.000880066
0.00176006
0.00213743
0.0010542
-0.00105358
-0.00143661
-0.000815055
-0.000982928
0.00105486
0.00804407
0.00635442
0.00276833
0.00928832
0.00291042
0.0220365
0.00611916
-0.000661953
-0.000729362
0.00218937
0.000749557
-0.000802614
0.000611065
-0.0011815
0.0016278
-0.000494971
-0.000611548
0.000802853
0.00303021
-0.000610869
-0.00276913
0.0020033
-0.00838082
0.0188834
0.0126195
-0.00520831
-0.00328588
0.00612617
0.00302139
0.000396542
-0.00160516
0.00462657
0.0268253
0.00198622
-0.00320949
-0.00291221
-0.00382337
-0.00793267
0.0352299
-0.00462701
0.00396788
-0.00018525
-0.00371943
-0.00230064
0.0113622
-0.0012465
-0.000982835
-0.00206053
0.00396806
0.00068353
0.00151733
0.000749032
-0.000943016
-0.00431298
-0.00249041
0.0174071
0.00461806
-0.000661655
0.00118185
-0.000802908
-0.00105387
-0.0021094
0.00396569
0.00973088
0.01056
0.00860851
-0.00221731
-0.00105445
0.000748837
0.00844123
-0.000752878
0.000922128
-0.00105415
-0.00302113
0.00444435
0.00843345
0.00146483
-0.00213546
0.00603929
0.00123894
0.000661121
-0.000717887
0.00106071
-0.00129914
0.00257026
0.0029129
-0.000661192
0.00470796
0.0101365
0.00462834
-0.00381142
0.00303434
-0.000868133
0.0018284
0.005826
-0.00276422
0.0031262
0.00837701
0.00518395
-0.00396655
0.00114941
0.0196044
0.0174124
0.00394313
-0.00340596
0.00168828
0.000803243
0.00066134
0.00105354
-0.00273229
0.00291216
-0.00138427
0.000341358
-0.00115421
0.00712599
-0.00381274
0.00382225
-0.00123919
-0.00371909
-0.0022181
0.00214505
-0.00502073
0.0220285
0.00520501
-0.00273109
0.000682971
-0.00123976
0.000661304
0.00080805
0.00315263
-0.00291199
0.0143895
0.00175968
-0.0058232
-0.00155106
0.00462674
-0.00218635
0.0044905
0.00302127
-0.00138354
0.0065908
0.0117611
0.00115135
0.0149963
0.0220365
0.0188904
-0.00301887
0.000520129
0.00247849
0.00175268
0.0092652
0.00173598
-0.00116301
0.00127362
0.00179405
0.00139028
0.000922502
0.00462723
0.00291068
-0.00291036
0.00172101
0.000503809
-0.00396518
0.00123906
0.00247896
-0.000696943
0.00470746
-0.000661829
0.00396738
-0.000943429
0.000748657
0.00381176
0.000802863
0.00662241
-0.00040132
0.000778103
-0.000683891
0.000802912
0.00381574
-0.00175944
0.0142275
-0.00880602
0.00180283
0.00385255
0.0132561
0.0143871
-0.00520833
0.0104226
-0.00248979
0.0167748
0.00291166
-0.0039656
-0.00462489
0.00466029
-0.000802781
0.00230967
0.000881192
0.00607744
-0.00175756
0.00972968
-0.000545338
-0.00229993
0.00129822
0.000945086
-0.00793245
-0.00123876
-0.000376869
0.0149225
-0.00358727
0.0156249
0.00124597
-0.000814443
0.00214878
0.000401558
0.00071858
0.0121482
-0.00462756
-0.00273488
0.000802594
0.00356146
-0.00175907
0.00116221
-0.00248983
0.00764751
0.00160526
-0.00302055
0.0174055
-0.00291187
0.00243872
0.00167109
0.00175959
0.00895153
-0.000661623
-0.000661962
-0.000465839
0.00381388
-0.00352237
-0.000661073
0.00176022
-0.00488579
0.00145569
-0.000581267
0.00462867
0.00163682
0.00123896
0.00299661
-0.00129949
-0.000803587
-0.0012457
0.00291359
-0.00179427
0.000558018
0.00259571
-0.00470742
-0.000981873
-0.00431073
0.00123874
0.00138419
0.000943693
0.00606721
0.0266574
0.00320977
-0.00878024
-0.00936264
0.00160613
-0.000465296
-0.00470731
-0.00105455
0.000617575
0.0114164
-0.00488285
0.000777964
0.00213531
0.00216813
0.00248801
-0.00094316
-0.00230059
-0.00105456
-0.000683324
-0.00462701
-0.00291029
0.00834529
0.00129869
-0.00232597
-0.0036967
0.00105503
0.000396499
-0.00433879
-0.0039656
0.0113666
-0.000748572
-0.000988791
0.0010545
-0.00100609
-0.00249317
-0.00118152
-0.00155144
0.000802835
0.00259617
0.000803133
-0.000814354
0.00542738
0.00382472
0.00052028
0.00301905
-0.0121443
0.0167717
0.0173971
0.0268068
-0.000803094
0.00105481
-0.00481123
0.0101439
-0.00138456
0.000547265
0.000611482
0.00291332
-0.000777797
0.00764902
0.0193344
-0.00075384
-0.000869156
-0.000748583
0.00205902
0.0013898
-0.000504187
0.000520299
-0.000869425
-0.00230009
0.000748368
-0.000982394
-0.00138904
0.0174015
0.0132513
-0.00121834
0.00105544
0.000683139
0.00129847
0.0173973
0.00382188
-0.0010542
-0.000428364
0.00229926
0.00356328
0.00276797
-0.000377497
-0.00291051
0.000802991
-0.00327034
-0.00247741
0.00230155
0.000802601
0.0012972
0.00396912
-0.00136674
-0.00195649
0.00342441
-0.00551087
-0.0040446
0.000778039
0.00104011
-0.00192174
0.00502159
0.0107018
0.000581505
0.00123945
0.000802645
0.00196616
-0.000943635
0.00396828
0.00485896
0.014383
0.000520315
0.00354882
0.0228513
0.00124109
-0.000868616
-0.000661597
0.00662224
-0.00105454
-0.00431276
-0.00352416
-0.00189519
0.000943661
-0.00382356
-0.00221736
0.00449416
0.00129835
0.000719108
0.000619843
0.000442532
0.00488055
0.0352184
0.0195944
0.0121966
0.00382444
0.00635389
-0.000802628
-0.000377179
-0.00120647
-0.00501966
-0.000401667
0.00462294
-0.00338687
0.000503485
0.00139274
-0.00047152
0.00260638
0.00570038
0.0104873
0.00299862
0.00449607
0.00662189
-0.00110977
0.00302154
0.00531391
0.00590302
-0.00462756
-0.00333229
0.00396818
-0.00583889
0.00301983
0.00612658
0.00713035
0.00837355
-0.00502079
0.00050422
-0.00221729
0.00449734
0.00192278
0.00937567
-0.000591885
-0.00462756
0.00105488
0.000898076
0.000496134
0.00105487
0.0092652
-0.000682493
0.00200271
0.000611482
0.000312175
0.00607765
-0.00396689
-0.00149719
-0.00166545
0.00796433
-0.000669865
-0.0012389
-0.00291008
0.0010051
0.000884775
0.00393731
-0.00283277
-0.00129883
0.00116123
0.0174099
0.0013061
-0.000682933
0.0007778
-0.000352083
-0.000428649
0.0016278
0.00123961
-0.00382396
-0.00104185
0.00878632
-0.00081489
-0.00205853
0.00210817
0.000683186
-0.00105445
-0.00105525
-0.00105417
0.00865566
-0.00121865
0.00607765
0.00105416
-0.00246859
0.00114031
0.00195796
-0.0024686
-0.00136569
-0.000868607
-0.000944654
0.00277056
-0.00396595
0.00881154
-0.00382298
0.00394119
0.00449237
-0.00120731
-0.000943717
-0.000520226
-0.00162624
0.00466247
0.00396874
-0.00271479
0.00196735
-0.00162668
-0.00194282
0.00396634
0.0039663
0.00257087
-0.000610901
0.00129764
-0.00243938
-0.00462517
-0.00466488
0.000943693
-0.00488495
-0.000803137
-0.0053102
0.00240034
-0.00136674
-0.00358574
0.00129903
-0.00086838
-0.000573848
-0.0013834
0.00105429
0.00217492
0.00606901
-0.00116258
0.00804407
0.00440896
0.00259616
-0.0104903
0.00607533
0.0132575
0.0014653
-0.000611729
0.00210898
-0.00195757
0.00428803
-0.000899982
0.0138696
-0.00325342
-0.00587274
0.00607466
0.00607765
0.00291161
0.0015752
0.000616633
-0.000802666
0.00196502
0.00230903
0.000802868
0.000562646
0.00230084
0.00221838
-0.000570352
-0.000989127
0.00520705
0.000802798
-0.00880944
-0.00228346
0.0188819
0.0173989
0.0143811
0.011756
0.0109946
0.00431421
-0.00381141
-0.00543655
0.00116317
0.00105414
0.00230085
0.00214423
0.000396453
-0.00084183
-0.0013416
-0.000970366
0.00167226
-0.0030217
-0.00105449
0.000661865
0.00335362
0.0013856
0.0046598
-0.00105393
-0.000718997
-0.00118184
0.00506462
0.000429151
0.00335608
-0.00176019
0.00302125
0.00301915
0.00273076
-0.0060397
-0.000640572
0.000814819
-0.000989623
-0.00303472
-0.000378974
0.000401319
-0.00439104
0.00462652
-0.000748125
0.00221767
-0.00239777
0.00713255
-0.000305482
0.000803029
-0.00188623
0.008256
0.00179354
-0.00606599
0.00440792
-0.00239907
-0.000879731
0.0140145
0.010561
-0.000546779
0.000611448
-0.00310527
-0.00129853
-0.00230053
0.00352496
0.000520604
0.000943347
0.0035484
0.00299847
0.0147214
0.0105613
-0.000802908
0.00074836
0.00356606
0.00385461
0.00276675
0.00433919
-0.00214402
-0.00462723
-0.0050199
-0.00493827
-0.00068313
-0.00583927
-0.00061145
-0.00219552
-0.00124096
0.00255394
-0.000305925
-0.00335387
-0.00163881
-0.00218741
-0.00787308
-0.00520844
-0.00068318
0.00471163
0.00302172
0.000442904
-0.00256995
-0.00175961
-0.00116197
-0.00281459
0.00188645
-0.000472038
-0.00121796
-0.00230962
0.000867968
0.00155852
0.000661776
-0.000503676
-0.00340597
0.00804464
0.00247851
-0.00404554
-0.00793066
0.00200439
-0.0023259
0.00155997
0.00116293
-0.00162648
-0.0037206
-0.00145673
-0.0011541
-0.00358659
0.000562551
-0.00291189
0.0035493
0.00105351
0.0013787
0.00138422
-0.0038216
-0.00291079
0.00382272
0.00518928
0.0132596
0.0143866
-0.00462756
-0.00302018
0.0048826
0.00232573
-0.000943404
0.000974542
-0.00531074
-0.00285352
0.000988531
-0.000988811
-0.000988861
-0.00105387
0.00381388
0.0159731
0.00229939
0.0109563
0.00266987
-0.00138424
-0.00173722
0.0062884
0.000569907
0.000897028
0.00479282
0.00273233
0.00118265
-0.000611364
-0.00058135
0.00221804
0.00068358
-0.00382228
0.00354845
0.00251104
0.00196473
0.000897118
-0.00302078
0.00138382
-0.0014642
0.00138379
0.00607765
0.00838115
0.0203005
0.00342418
0.00354791
-0.00607463
0.00714133
0.00869706
0.00356535
0.00638284
0.00247775
0.000504304
-0.0016005
-0.00382332
0.00869032
0.0127744
-0.00221742
0.0109558
-0.000943788
0.00302136
0.0138659
-0.00488728
-0.000868486
0.000465507
-0.00629015
-0.00520777
0.000801962
0.00325433
0.00502166
-0.00167171
-0.0012403
-0.00105452
0.00713035
0.00105412
-0.000982894
0.00926438
0.00151037
-0.00248904
0.00230099
0.00129813
-0.00206674
0.0143842
0.0071399
0.00111618
0.00553969
-0.0014373
0.000520324
-0.00396564
-0.00462701
-0.00543057
-0.00878135
-0.00936332
0.00291328
-0.000569839
0.00462686
-0.00302071
-0.000611318
0.00354908
0.00230014
-0.0017632
0.006124
-0.00185804
0.00834215
0.00611657
-0.00510142
0.00396791
0.000897609
0.0011018
-0.000661266
-0.0038115
-0.00118238
0.0104873
-0.00098908
-0.00138903
-0.00213464
0.00462892
-0.000802611
-0.00396579
0.000683157
0.00369811
0.00637871
-0.000802285
-0.000868149
-0.00162674
0.00175897
-0.00200477
-0.00118194
0.0109556
0.00407069
0.00230846
-0.000802666
0.00168863
-0.000611184
0.0149176
-0.00607288
0.00396809
-0.000896722
-0.000547546
-0.000563187
0.000428456
0.000803016
0.00105414
-0.00284359
0.000503901
-0.00195728
0.00612137
-0.0104131
0.00247819
0.00194101
0.00155201
0.00356526
-0.00102066
0.00239636
0.00352231
-0.00880602
0.0039668
0.00123937
0.000988897
0.00352366
-0.00382339
-0.00110818
0.00587741
-0.00129919
-0.00428762
-0.00092114
0.00249018
0.00230979
-0.00129923
0.0016726
-0.000545161
0.00502175
-0.00129864
0.00271433
-0.00230043
-0.000185322
0.00136636
0.00291126
-0.00162673
0.00479282
-0.00393615
-0.000119854
0.00160621
0.000803334
0.00105424
-0.00501601
0.0202942
0.00937103
0.00129983
-0.00162787
-0.00396701
0.00216712
0.0188857
0.0174043
0.0104137
0.0104948
-0.00105392
0.00260896
0.00973273
0.0165791
-0.0027708
0.00506462
-0.000815013
-0.00138551
0.00392914
-0.000504015
0.0011816
0.00462842
-0.0025513
0.00256896
0.000989303
0.000520125
-0.00138369
0.00396748
0.000260302
-0.00138348
0.00520996
-0.0084404
0.0132568
-0.00505005
-0.00216562
-0.000611207
-0.000545552
0.00449403
0.000611606
0.00172147
-0.00276939
-0.00149712
-0.00398906
0.00607246
0.000466013
-0.00129845
0.00369975
0.00382456
0.000107917
-0.0039648
0.00611657
0.0203037
-0.000802601
0.00352513
0.00277059
0.00329588
0.0312871
0.00381471
0.00638015
0.00210756
0.0258664
0.0268208
-0.00462421
-0.00303207
-0.00105399
-0.00155113
-0.00303844
-0.00514114
0.00302165
0.00462233
0.00218876
-0.00216593
0.00629197
0.00869729
-0.00371967
0.00302054
0.0127768
0.0021547
0.00502062
0.00105404
0.000868398
-0.0035228
0.00826384
0.00449237
-0.00396603
0.00123887
0.00352187
-0.00127334
-0.00382235
0.00210837
-0.000472535
0.00335299
-0.000803099
-0.000803078
0.00520822
0.00228362
0.000442753
0.0016894
0.00142222
-0.000683357
0.00105423
0.00895323
-0.000428799
0.00206632
0.001239
0.00466004
-0.000753115
0.0105609
0.00462689
-0.00470878
-0.00162676
-0.00080305
-0.000988965
-0.00179467
0.000868865
0.00612658
0.000730677
0.00129822
0.00068278
0.00271158
0.00431073
0.00638041
-0.0010542
-0.0038243
0.00138431
0.00138391
0.0013917
0.00192244
0.000484927
-0.00138366
0.00198476
0.00291327
0.0038133
-0.00205998
0.000484805
-0.00382323
-0.000563275
0.000841922
-0.0010545
0.00796563
0.000944116
0.000661592
0.00105425
-0.00116123
-0.00382171
0.0196832
0.0109956
0.015623
0.0100403
-0.00304071
-0.00963657
-0.00155224
0.00520837
-0.00146514
0.00404702
0.0127831
0.0105634
0.0110109
0.00105401
0.00162776
0.000802948
0.00138375
-0.000802666
0.0017376
0.00385461
0.00213578
0.00219512
-0.00141824
-0.00221726
-0.00604059
0.0071289
-0.00230796
0.00396682
0.00466055
0.00160719
-0.00462701
-0.00310373
0.00372073
-0.0035216
-0.000868198
-0.00493878
-0.000660788
-0.00666329
-0.00358764
0.000581258
0.0127744
-0.000245881
-0.000901918
0.00382524
0.00382163
0.00084232
-0.00105422
-0.00230078
0.0196014
-0.00226081
-0.00162779
0.00462876
0.00352532
0.00326852
0.00105443
0.00105355
0.00382267
0.00328296
-0.00562725
-0.00301998
0.00929048
-0.00462756
-0.00231015
-0.00162613
0.00449002
-0.00335445
0.0030206
0.000661154
0.00248727
-0.00462756
0.00440337
-0.000896808
-0.000815073
-0.000944116
-0.00210882
0.00120747
0.00291217
0.000232472
-0.00603923
-0.00382267
-0.000504065
-0.0017583
-0.000988406
-0.00184406
0.00248964
-0.00440453
0.00462674
0.0174001
-0.000983372
0.000878969
-0.00130669
-0.000396552
-0.00080255
-0.00723381
0.00462876
0.0101403
0.00517919
0.000868641
-0.000969891
0.00230996
0.0044921
-0.00501876
0.000143807
0.00964945
0.00342483
0.000803272
0.00188755
0.000442894
0.00355421
0.00206803
-0.00190387
-0.00255476
0.000141441
-0.00160564
0.00834201
-0.00291201
-0.00428639
0.000988308
0.00661938
0.0109573
-0.00182804
0.00838425
0.00276295
-0.00796242
0.00935134
-0.00443166
0.00431292
0.000944079
0.00382369
0.0029304
0.001957
-0.00116362
0.00221782
0.00188669
0.0195989
0.0174109
0.0258614
0.00399078
0.00500568
0.0159748
-0.00562771
0.00127806
-0.00513806
0.00462483
0.000519909
-0.00384311
-0.00138375
-0.000443091
-0.00335445
0.0110054
-0.000573755
0.00105419
-0.00105414
-0.0051391
0.000428588
0.00488678
0.0352184
0.00303146
0.000802787
0.000921875
0.0193282
0.000612455
0.0228487
-0.000982839
0.0410752
-0.00291187
0.000683203
0.00068343
0.000803436
-0.0056982
-0.00396523
0.0121649
0.0149148
0.0109892
0.0410559
-0.00607288
-0.00398953
-0.0012399
0.00291513
-0.0006615
0.00468183
-0.00607587
-0.00061124
-0.000401103
-0.000802127
-0.000545121
-0.00462517
-0.00146496
-0.0004023
-0.00462611
0.0165741
-0.00276905
0.00440677
-0.00325322
-0.0012985
0.00348124
-0.00607545
0.00397109
0.00463104
0.00221746
0.00603929
-0.0039373
0.000569865
-0.000900351
-0.000683018
-0.000484832
0.000943913
-0.0029818
0.00517663
0.00123864
-0.0021662
0.0038243
-0.00606947
0.0167717
0.0093549
0.00541013
0.00303317
-0.00105383
0.00180322
0.00074851
0.00259816
-0.000804026
-0.00382334
0.00077801
0.00713271
0.000840781
-0.000519751
-0.00179427
0.000520299
-0.00210871
0.00413935
-0.00723278
-0.00764568
0.00462565
-0.00248048
0.00299965
0.00714215
0.00607409
0.00302118
-0.00302035
0.00635431
0.00659028
-0.00239358
0.00162586
-0.00247777
0.00382449
-0.00628901
-0.00326984
0.00138422
0.00342281
0.000504349
-0.000982776
-0.00587827
0.00276848
0.00531287
-0.000878956
-0.00462495
0.000982414
0.00219568
0.00112625
-0.00121855
0.00105411
-0.00520777
-0.00381142
-0.00440536
0.00210827
0.00105357
-0.00826025
0.0132586
-0.00681129
0.00356488
-0.00531168
0.000661623
0.00826246
-0.00314962
-0.000996484
0.00129877
0.00258946
-0.00172024
-0.000718255
0.00396361
0.00146453
-0.00371979
-0.00328431
-0.00301971
-0.0039652
0.0027685
-0.00520687
0.00221832
0.000897876
-0.00210839
-0.000683045
0.00182799
0.00470924
0.00105377
-0.00302059
-0.00230046
0.00793331
0.012158
0.0266699
0.0127828
0.00635352
0.0100961
-0.000573577
-0.00110173
0.000869267
0.00175279
0.00354947
0.00612479
0.0109562
0.00606761
-0.0015529
-0.00338648
0.00255679
-0.00244508
0.00488784
0.00382191
0.00129872
-0.00129878
0.000683629
-0.000662008
0.00335362
0.00105429
-0.000651518
0.00733662
-0.000868639
0.0010542
0.00221856
-0.000682971
-0.000306055
0.000896374
0.000401285
0.00466098
-0.00151318
0.0195989
-0.0029117
-0.00358569
0.00186865
0.00044228
0.0127771
-0.00228716
0.00180302
0.00221789
0.0024613
0.0101343
0.00136537
-0.000310637
0.00105451
0.00380992
0.0039643
0.00110846
-0.00666329
-0.00080296
0.000749123
0.0147214
-0.00118112
0.0113631
-0.00352374
0.00352577
0.0127828
0.017411
0.00520691
0.000306297
0.00291328
0.0058968
-0.00157435
-0.00291162
0.00291061
0.00963559
-0.000683189
0.00215344
0.0126202
-0.00396393
0.000484927
-0.000868988
0.0046601
0.000683171
0.00382453
0.005702
-0.00167213
-0.00210825
-0.00124687
0.00302109
0.00834171
-0.0014643
0.0149227
0.00448917
-0.000869266
-0.00124658
0.00061134
-0.00177088
-0.00276912
-0.00281548
-0.00369717
0.00440537
0.0174043
-0.0043405
0.00162793
0.00191264
0.00465776
0.00611672
0.00303256
-0.00723674
0.0035519
0.00232366
-0.00606397
-0.000580833
0.000611369
0.000897534
-0.00462375
-0.0058378
0.00118219
0.00396806
0.00396825
-0.00142239
-0.010202
-0.00105422
0.0105619
0.00803967
-0.00396528
-0.000311422
0.00303434
0.00136639
-0.00108537
-0.00427184
-0.002109
0.00488721
0.00734798
0.00352362
0.00352285
-0.00712835
0.00160573
0.00381292
0.0132987
0.00488425
0.0174001
-0.00326697
0.00837761
0.0039668
0.00195659
0.00326587
0.00220822
0.0268293
-0.00123903
-0.00291298
-0.0039677
-0.00240035
-0.00230776
0.00145497
-0.00382357
0.00466191
0.0048825
-0.00366093
0.00123838
0.000558293
0.00713559
-0.00116207
0.00440844
0.016577
-0.00440536
-0.00138375
0.00607749
0.000637031
0.00118199
-0.00123831
0.000943132
-0.00105392
0.000442334
-0.00371936
-0.00284443
-0.000814657
-0.00138413
0.00206644
-0.00206663
-0.00121753
-0.000896857
-0.00138417
0.000428463
-0.000777252
-0.00413259
0.00210733
0.00764444
0.0238198
-0.000311082
-0.0029114
0.0101412
-0.00137793
-0.000683767
0.000989173
0.00189744
0.00149827
0.00301997
-0.00382313
0.00335632
0.0024906
0.000803702
-0.00105454
0.00310405
0.00271622
0.000803296
-0.00230877
0.0037222
-0.000921931
0.00240064
-0.00604153
-0.00877754
-0.00105447
0.00151744
-0.00129809
-0.00138382
-0.000873413
-0.00182771
0.000484857
-0.00129689
0.0228441
0.00396799
-0.00230034
0.0149244
0.0188877
0.00210994
0.00105478
0.00106015
0.000520268
0.000520672
-0.00162722
-0.00291165
0.00175161
0.00260694
0.0010536
0.00137731
0.000520589
-0.000611247
-0.000802516
-0.000982881
-0.000683186
-0.00462483
0.000868925
0.00105381
0.000982834
-0.00431089
-0.00129878
-0.00214394
-0.00195728
-0.00162728
-0.000897066
0.000611042
0.00291122
-0.000520906
-0.00935882
0.00611876
-0.00248764
0.0193253
0.00611663
-0.00120725
-2.47877e-05
-0.000777343
0.000802746
0.000802703
-0.00160531
-0.00188671
-0.00126873
-0.00431279
0.00396563
0.00502186
-0.00325357
0.00434159
0.00247822
0.00396647
0.00338794
0.00116287
0.00162547
-0.00935724
0.0147192
0.0093549
-0.00396582
0.000284776
-0.0039639
0.00219559
0.00462627
0.00520782
-0.000944031
0.00221854
0.0220338
0.00431466
0.000636912
-0.000503551
-0.000802382
0.000591484
-0.00105383
0.00129804
0.000802442
-0.00105451
0.0029039
0.0113622
-0.00764713
0.00590093
-0.00562711
0.000661614
-0.0032428
-0.00162677
-0.00068377
0.000233015
-0.000662142
0.00189635
0.00698859
0.0113632
0.000185872
0.00213578
0.00077871
0.00440601
0.00382272
-0.000311233
0.00869139
0.00302175
-0.00120714
0.00175884
0.00355019
-0.00162625
-0.00176009
0.0003964
-0.00221623
0.00834393
0.00230013
0.00376523
-0.00256941
0.000442655
-0.00216618
-0.00108329
0.00303111
-0.00080335
0.00218793
-0.000339447
-0.000867762
0.00520825
0.0138659
-0.00396613
-0.000683371
0.000753159
0.00513081
0.00129829
-0.00248631
-0.00133904
-0.00607301
0.00869241
-0.00071838
0.00443727
0.00281528
-0.00396384
0.0092652
-0.00523668
0.000989076
0.00105498
0.0025708
0.0052033
0.00396681
-0.00177043
0.00244015
0.000989805
-0.00247862
0.00320931
-0.00230939
0.0143833
-0.00396479
-0.000802531
0.00249023
0.0174109
0.0029113
-0.00604067
0.00462876
0.000683171
0.00249212
0.000982607
0.000896703
-0.00352416
0.00259609
0.000611294
-0.00712835
0.000360091
0.00396822
-0.0060759
-0.00607532
-0.00963644
0.00249015
-0.00206681
0.0109556
0.00301962
0.0174042
0.0008027
-0.00100592
-0.00138504
-0.00281488
-0.00105365
0.0114
0.000520586
0.000943623
0.00563123
-0.00384654
0.000428364
0.00569796
0.00843742
-0.00257115
-0.0032685
-0.00105456
0.000305893
-0.00121814
0.000900762
-0.000943423
-0.00335367
-0.00239874
0.00381413
-0.000777729
-0.00061159
0.000990694
-0.00520794
0.00396523
0.0132513
-0.00404312
-0.000503859
0.00139167
0.00291273
-0.000921573
-0.000802868
-0.000982498
0.00138362
-0.00493847
-0.00335428
0.00188761
-0.00277039
0.0127766
0.000943546
0.000683121
0.00118257
0.00607819
-0.000359285
0.012169
0.0142342
0.00612037
-0.00291243
-0.00248969
-0.0052068
0.010561
-0.00304219
-0.00105445
-0.00075349
0.000982579
0.00291301
0.00138414
-0.00305046
0.00276295
-0.00450479
-0.00462464
-0.000802884
-0.00722994
0.00382482
-0.00042862
0.000584635
-0.00680793
0.00337415
0.000922038
0.00612014
0.00276874
0.00105414
0.000485443
0.000802677
0.000617341
-0.00413429
0.00582784
0.00502212
0.00281791
0.00834412
-0.000944535
-0.00080257
0.00129805
-0.00168248
0.00273024
0.0143849
-0.00396396
-0.00393731
-0.0093603
-0.00428767
0.000943347
-0.00210789
0.00273092
0.00138362
-0.000640848
0.00765014
0.00291286
0.000683539
0.00881201
0.00553594
0.022847
-0.00664285
0.00106095
-0.000973278
0.00607422
0.00607752
0.00584137
0.00184524
0.000802902
-0.00221699
-0.000661567
0.00221706
0.00396932
0.00302169
-0.00105446
0.00195731
0.00664345
0.00382379
0.000198565
0.00138431
0.00462856
0.00462878
0.0174077
0.00210838
-0.000943222
-0.000803157
-0.00105485
-0.000879915
0.00192251
0.00123877
-0.0012064
0.00268455
-0.00551104
0.00203299
0.00229977
0.00661968
0.00584215
0.00210837
0.00714178
0.00713219
0.00869359
-0.000428642
-0.00363519
0.00837594
0.00104399
0.00834205
0.00071934
-0.0030196
0.00466365
-0.00470775
0.00230077
-0.00061169
0.00105424
0.000982902
-0.00162642
-0.00221698
0.000465719
-0.00105451
0.0127828
0.00531403
0.000802646
0.00369868
0.000868394
-0.0104148
0.00291244
-0.000337254
0.00281435
0.0024782
-0.00230042
0.00302135
0.00325322
-0.000697947
0.00146627
0.000802633
0.00396737
0.000748931
0.000868821
0.000982242
-0.00291215
-0.00216654
-0.000814839
0.000982126
-0.00607275
-0.000569658
0.00449345
0.0132513
0.0228516
0.00192161
-0.00325282
0.00712915
-0.00210728
-0.00195708
0.0019133
-0.00221748
0.00382264
0.000988472
-0.00642613
0.00793488
0.0167859
0.0149275
0.00765014
-0.00149036
0.0143821
0.00462876
0.00221855
-0.00396585
-0.00123791
0.00926499
0.00659131
0.00213578
-0.00146423
-0.00325342
-0.0065076
0.00188641
0.000611858
0.00302091
0.00302139
0.00396878
0.0228542
-0.00116232
0.00606527
0.00179406
-0.000943039
0.001054
-0.000520406
-0.00462593
0.00196877
-0.00210947
-0.000939251
-0.00058106
-0.00291221
-0.00520672
0.000897586
-0.00210871
0.0059028
0.000942941
0.00868981
0.00837579
0.00413619
-0.00325286
0.000898119
0.00369868
-0.000661298
0.000868288
-0.000636539
-0.00189476
-0.00291118
-0.0029116
-0.00105388
0.00133931
0.0013842
-0.000841428
0.00502114
-0.00047135
-0.000465321
-0.00342489
0.0019645
0.00523584
0.00129764
0.00611757
-0.00301931
0.00291231
-0.00146385
0.00462624
-0.00607301
0.00834265
0.000802914
0.0013834
-0.000900438
0.000570302
0.000982759
0.00219538
-0.00196433
0.0182077
0.00115527
0.00162649
0.0019581
-0.00501964
0.00521087
0.0126239
0.000662352
0.00520666
0.000116174
0.00501867
0.00066155
-0.00382321
0.00105325
-0.00243932
-0.000661571
-0.000611584
0.00138381
-0.00284636
-0.000802614
-0.00396546
-0.00239956
0.0121685
-0.0039656
-0.00058135
-0.00372073
-0.000661844
-0.00213588
0.00203431
-0.00268377
0.00216756
0.000945736
0.00129917
0.00195763
-0.00302019
-0.000611361
-0.000670338
-0.000802535
-0.000562835
0.00168816
0.000616365
0.000988359
0.0143843
0.0105587
0.00396717
-0.000617063
-0.00215674
-0.00206722
0.0410779
-0.00488491
-0.000682522
0.00382171
0.0077468
0.00151091
0.00219334
-0.000807463
-0.00138471
0.00239961
0.00589845
0.00396688
0.0203005
-0.0010546
0.000873118
-0.00303228
0.0028552
-0.00105455
0.000640664
-0.000616871
0.00239907
-0.000802428
0.00123947
0.00342236
0.00607136
0.00267053
-0.00138319
0.00296862
-0.00325214
0.00837014
-0.00427334
0.00837682
0.000661865
-0.000520053
0.00160536
-0.00607301
0.00351748
0.000310278
0.000616582
-0.00221695
0.00462409
0.019689
0.00587745
0.00230017
0.00129881
-0.000611597
-0.003823
-0.000868875
-0.00440312
0.00189573
0.00961109
-0.00396574
0.0033765
0.00129846
-0.000707039
0.00138397
-0.000497591
-0.000748026
-0.000377707
0.0014632
0.00137688
-0.000989067
-0.00382309
0.00964051
0.0266699
0.00291221
0.00611049
0.014918
-0.00342158
-0.000944085
-0.00281506
-0.000869011
-0.000378981
-0.00105371
0.000802639
0.000896441
-0.00607107
0.0173998
0.00520847
-0.00371832
0.014919
0.00936038
0.00254768
0.00963585
-0.00248915
0.0143829
-0.00225929
0.00682254
0.00462563
0.0188902
0.00270493
-0.000442637
0.000683189
-0.00421075
0.0083434
-0.00419607
-0.000897252
0.0020674
0.00354856
0.00520916
0.00607505
-0.00501799
0.000442764
-0.002489
0.0228542
-0.00513951
0.00123976
0.00584139
0.0297935
0.0014147
-0.00182326
-0.0010543
0.0155565
0.00114786
-0.000569881
0.0061213
0.0052101
0.00231102
-0.00380997
-0.00440376
0.00146563
0.00123968
0.00462469
0.0023102
0.00146394
-0.000616823
0.000563481
-0.000943957
0.00301983
0.000943795
-0.00488362
-0.00462202
-0.000611677
-0.000321038
-0.00221785
-0.00111512
0.00302405
-0.00302206
-0.000351542
0.00834075
0.0193225
0.00380685
0.00301983
0.00301983
0.000896545
0.0088477
0.0017595
0.00607495
-0.000661768
0.00273247
0.000802535
0.00106054
-0.00229976
0.0228578
-0.00335445
0.00017423
0.000868024
-0.00377459
0.00462381
0.000442879
-0.00230035
0.00369533
-0.00303571
0.000669376
-0.00607359
0.00384313
0.000802927
0.00136607
0.00462904
0.00396635
-0.0039662
-0.00044269
-0.0023103
-0.00421597
0.000305922
0.00167197
-0.00438941
0.00105468
-0.00129819
0.00129807
-0.00276674
-0.00301968
0.000581493
-0.00105442
0.00443379
0.00163999
0.00520617
0.00179361
0.00466031
0.00122267
-0.00396585
-0.00105376
-0.0010542
-0.00437291
-0.00606145
-0.00843537
0.000873393
0.0093549
0.00084128
-0.000519977
0.00127313
-0.00189508
0.00327079
0.00612162
-0.00462657
-0.00108082
0.0034232
0.00123841
-0.00382339
0.013867
0.0061211
0.00926634
0.00520492
-0.000569998
0.00192193
0.00246923
-0.00826056
0.00221661
-0.00935764
-0.0121517
0.00664558
0.00283373
0.00973544
0.00973256
-0.00230975
0.00520338
0.00303316
0.00302124
0.0046268
0.00247581
-0.00382228
0.0011015
-0.00064228
-0.00352326
-0.00210947
0.00136614
0.0127831
0.00291266
0.000989523
-0.000880395
-0.00256881
-0.00162553
-0.00193373
0.0156188
0.0016266
-0.0011081
-0.00219482
0.0220258
0.0188843
0.00342236
-0.00382217
0.000284661
-0.00438974
0.00462599
0.0113637
0.00865291
0.01056
0.0121661
0.000683109
-0.00520913
0.00151637
0.001761
-0.0043144
0.00291213
-0.00126926
0.00638095
-0.00129838
-0.000988931
0.0149193
0.0268106
0.00868755
0.00396609
-0.000305497
-0.00276797
-0.00105419
-0.00192351
0.00219727
-0.000803416
-0.000896808
-0.00105471
-0.00229966
0.00195698
0.00382472
0.00270392
0.00291332
0.00149705
-0.00061124
-0.00196633
-0.00303397
0.00146547
0.00138434
-0.000983345
-0.00461908
0.00105484
-0.00371947
0.00105481
-0.00520857
-0.000396373
-0.00124656
0.00058135
-0.00138421
0.00381641
-0.00302034
0.00160501
-0.001384
0.000879297
0.00046564
-0.00488581
-0.00764678
0.0167813
0.00723702
0.00612744
0.000873673
-0.001155
0.00129952
-0.00162616
-0.000983085
-0.00133962
0.000874188
0.00466018
0.000637434
-0.00136571
0.00146409
0.00834171
-0.00240035
0.00590174
-0.00141931
0.00462584
-0.000869188
0.00582537
0.000718736
0.00286477
0.00834266
-0.00129805
-0.00569788
-0.00146466
-0.00213506
0.0024703
0.0066201
0.0174097
0.00106105
-0.00177088
0.000815392
-0.00213438
-0.00105446
-0.000520767
0.000803418
-0.00105381
-0.0030378
-0.00501932
0.000988768
-0.00105433
-0.0022079
-0.00047086
-0.000988904
0.00302188
0.00396764
0.002912
-0.00440472
-0.00210884
0.00396854
0.00521147
-0.00607656
-0.000557982
-0.0032697
-0.000661497
-0.00145664
0.013259
0.000661654
-0.00230796
-0.00126824
-0.00302047
-0.0104094
0.00155094
0.00160542
0.000520244
0.00229992
0.0143835
0.0238198
-0.00607259
-0.00466033
0.00865224
-0.00150874
0.0149227
-0.00924898
0.00471042
-0.00382222
-0.00221743
-0.000988595
-0.000802751
-0.000803335
0.00213578
0.00196681
0.00219561
-0.000988629
-0.00520701
-0.00188732
-0.00404412
-0.00239777
0.00612239
-0.0104091
-0.0032696
-0.00162777
0.00440517
0.0182077
-0.00315072
0.000699151
0.0173989
0.0143811
0.00440537
0.00230105
-0.000896911
-0.000814215
0.00136641
0.00129878
-0.00285422
-0.00120586
0.000640945
0.00155925
0.000141497
-0.000718574
0.00396868
-0.000520246
0.00123968
0.000868394
0.0025108
0.00146354
0.00136608
0.00372137
-0.00369643
0.00570282
-0.00138406
0.00502124
-0.00793138
0.00501881
0.00937771
0.000814737
-0.000803185
-0.000802442
0.00089729
0.000389741
0.00868798
0.00105439
-0.00184311
-0.00205928
-0.000611598
0.00291273
0.00607094
-0.00462517
0.00505712
-0.00462517
-0.00520672
0.000943945
0.0027675
-0.000661192
-0.00133978
0.0105617
0.00138467
-0.00137873
0.00335583
0.000450301
0.000803495
0.00291328
-0.00302143
-0.00382324
0.00543083
0.00146442
-0.00179467
-0.00230996
0.0174105
-0.00382324
-0.00439296
-0.00963328
0.00352147
-0.00192228
0.0104202
0.0143827
0.00105352
-0.00786056
-0.0011615
0.000396257
0.00213585
0.000305503
-0.00302233
-0.00462504
0.00031097
0.00803256
-0.00382178
0.0156188
0.00105404
-0.00089729
-0.0021086
0.000802853
0.00211021
0.00176538
0.00335583
0.00611597
0.000753295
-0.00371946
-0.00396528
0.0054357
-0.00086879
-0.00063682
0.00325504
0.00486205
0.00196409
-0.000948836
0.000683342
-0.000611723
-0.0011494
-0.00068318
0.00713271
0.00179528
0.00105476
0.000802393
-0.000803497
0.0083406
0.00138495
0.00175944
0.00221811
0.0174017
-0.00935764
0.000520783
-0.000569737
0.00259552
0.00146339
-0.00396542
0.00611954
0.012618
0.00449083
0.00723611
-0.00206775
0.0010539
-0.00210862
0.000661975
0.00723046
0.00129767
-0.00299736
0.00461966
0.0130039
0.00221853
0.00168975
-0.00180508
-0.00116196
-0.00248861
-0.00355225
0.0113638
0.0174001
-0.00419545
0.00466253
0.00356201
0.00136515
-0.00570135
-0.00129831
-0.000464997
0.00462359
0.0138653
-0.00123878
-0.00162741
0.00834498
0.00094366
0.000868153
0.000544412
0.00123878
-0.0060718
0.000885276
0.000885393
0.00304855
-0.000902606
0.00382414
0.00355028
0.0165791
0.00230097
-0.00358621
0.00302096
0.00299876
0.00352324
0.0351995
-0.000988337
0.00396512
0.00466161
0.00635488
0.00175226
0.0132548
0.00230112
0.019588
0.0173993
-0.00195668
0.00465851
0.00834106
0.000251662
-0.00382249
0.00281708
-0.00396635
-0.000897089
0.000896808
-0.000841525
0.00206696
-0.00680667
0.00300359
0.00276517
0.0165744
-0.00221731
0.000359919
-0.00105451
-0.000611634
-0.012149
-0.00462756
0.00255503
0.00123897
0.00080294
0.00175936
-0.000880342
-0.00167124
0.00431276
-0.00146459
-0.00162723
0.0228659
-0.00299877
-0.00302085
-0.00123834
-0.0023007
-0.00221665
-0.00058106
-0.00136555
-0.00206004
0.0156207
0.00129852
-0.000495147
0.000364493
-0.00113995
-0.000683533
0.00396685
-0.00542875
0.0040444
0.00396573
0.00134048
-0.00146496
-0.00880827
0.000802423
0.000899714
-0.00123773
0.00098958
0.00611656
0.0113669
-0.0021355
0.00358957
-0.000683502
0.00230073
-0.00157779
0.00396555
-0.003523
0.014444
0.0188931
-0.00123736
0.0010548
-0.00149068
-0.00213453
0.00396701
-0.00396584
0.00111431
0.000748465
0.000287802
0.00145559
0.00611729
0.00111485
-0.00260787
0.0228441
0.00256941
-0.00160666
0.000683486
0.00081545
0.00796178
-0.00587445
0.00393661
0.00121851
0.00271604
-0.0010546
-0.00396589
-0.00116257
0.0126212
0.0138659
0.0016893
0.00219556
0.00124099
0.00723906
0.0410972
0.0174104
0.0143849
0.0143821
0.00587391
0.0027145
0.000982091
-0.00404494
-0.00337476
-0.000252014
0.00192298
0.0021361
0.00462701
0.00521375
0.00105467
0.00138919
-0.00723385
0.00270238
-0.000661121
-0.000640676
-0.00136611
-0.00213656
0.0156082
-0.00105412
0.00301965
0.00607749
-0.00105458
0.00520996
0.00231107
0.00972968
0.00680005
-0.00337429
-0.00129894
-0.00462605
-0.000868574
-0.0016263
0.000899844
0.000640901
0.00803418
-0.000683418
0.000814071
0.0228516
0.00697255
-0.000611434
-0.000252032
0.00501885
0.00723771
-0.00098839
-0.000442581
0.000520402
0.00462834
0.0143898
0.0143867
-0.00160676
-0.00137825
0.000503567
-0.00175849
0.000377801
-0.00396481
0.00267014
0.000785608
0.00518015
-0.000697502
0.00161446
0.00326972
0.00926572
0.000669535
0.00440175
-0.0017589
-0.00382295
0.000974242
-0.000682785
0.000943717
0.0109544
0.00259723
-0.000286889
0.00299824
-0.00173826
0.00303346
-0.00312624
0.000396054
0.00440548
0.00868695
-0.0039643
-0.00155129
0.00301952
0.00384855
-0.00302029
0.0016899
0.0015174
-0.00510209
-0.00587062
-0.000198039
0.0113656
0.0109575
0.0228624
0.00302062
0.00488946
0.00080313
0.00382747
0.0019361
0.001385
0.00195795
0.000879965
-0.000520398
0.000802628
-0.00086838
0.00257016
-0.00284588
-0.00182694
0.0104945
0.00570038
0.00098881
0.00505847
-0.00206085
0.00354991
0.00393768
-0.00105436
-0.000412385
-0.00138382
0.00462387
0.00466733
-0.00127391
0.00570232
0.00105409
0.00518949
0.00869131
0.00338893
0.000989165
0.00192281
0.00182945
0.00127425
0.00837122
0.00159931
0.000942441
-0.00372108
-0.00129784
-0.000610968
-0.00302051
-0.00302085
0.00468444
-0.00520777
-0.00168896
0.000802863
0.0127768
-0.00431295
-0.000948564
0.0143835
0.0143845
0.00606514
-0.00543917
0.00162577
0.00139226
-0.00129909
0.000496112
-0.00105428
0.00230155
0.00114025
-0.00213676
-0.00214386
-0.000988907
0.0052069
0.00149024
0.000520274
0.000305807
-0.00105419
0.000682836
-0.00431482
-0.000776897
0.000562622
-0.000879423
0.00520716
0.00628942
0.000683586
-0.00160581
-0.00607288
0.00449435
-0.0023096
0.00382478
0.00393865
0.0109561
-0.000640757
-0.00301855
-0.00449629
-0.00462575
0.00229931
-0.00165586
0.0022182
0.00607479
0.00229959
0.000520274
0.000897657
0.00162555
-0.00129784
-0.000660848
0.00066154
0.00240147
0.00259479
0.00607492
0.00105401
-0.000562813
0.00629231
0.00723862
-0.00146485
0.00173865
0.00335314
-0.00680987
-0.00520857
-0.000661346
0.0149208
0.00303567
0.000364618
-0.00138374
-0.00396545
0.000520398
-0.000896743
-0.0013743
0.00128657
0.00221654
0.00106037
0.00191201
-0.00055716
0.00396412
-0.00520592
-0.00138413
-0.00338789
0.00188682
0.00194299
-0.000944976
-0.00925119
0.00335314
-0.00382337
0.0109543
0.0132562
-0.00703843
0.00520858
0.00354994
0.00105424
-0.000841314
0.00111481
0.00326757
0.00230094
0.00145083
0.00206731
-0.00129891
-0.000808012
0.00221812
0.0126193
0.000897242
-0.000305951
0.00182972
-0.00281552
-0.000921721
-0.000545281
-0.000697668
0.00834201
0.0063536
0.00659182
-0.00104104
0.000921366
0.00250881
-0.000242689
0.00837248
0.00501776
0.000611859
0.00168812
-0.0016716
-0.00105457
0.000944054
-0.00514307
-0.00230043
-0.00369785
-0.00230866
-0.00192155
0.00431218
-0.00371946
0.00301868
0.0035507
0.00291255
0.00372186
-0.00076675
-0.000803594
0.00462621
0.0266574
-0.00180383
-0.00056296
0.000616709
-0.000885088
0.00162703
0.000674393
-0.000640815
0.00354995
0.00462686
0.000520544
0.0121644
0.0105612
0.0109562
0.00804321
0.000396016
-0.00369891
0.010561
-0.000803012
-0.000617276
0.00102131
-0.00302078
-0.000520142
0.00129812
-0.00137833
-0.00611738
0.000718643
-0.000748226
-0.000562952
0.00293151
-0.00129721
-0.00123811
0.00230978
-0.000305959
0.00382501
-0.00291243
0.00121811
-0.00520739
-0.00428599
0.00276693
0.00179417
0.00505982
-0.00230804
0.0188843
0.0143827
-0.00471018
0.0159752
-0.00335412
-0.00136544
-0.00607259
0.00166631
0.00734798
-0.00335509
-0.00381425
-0.000442888
0.000611916
0.000748603
-0.0029122
0.000802975
-0.00273334
-0.00358706
-0.0052079
0.00273258
0.00276757
0.00352269
0.00210792
-0.000682988
-0.00444667
-0.00550906
0.00488727
-0.00121697
-0.000529913
0.0113637
0.0188856
-0.00396554
0.00175933
0.00329547
-0.000900437
0.00335302
-0.00131016
-0.00068333
-0.000465409
0.000637435
-0.000618914
0.0080424
0.0109565
-0.000570047
0.000748079
0.00110952
0.00283498
0.00302205
0.000802711
0.00143743
0.0109934
0.00504889
-0.000443532
0.00105483
0.000520268
0.00440665
0.000868352
0.00138413
0.00247909
-0.00210763
0.0154571
-0.00335509
-0.00611758
0.000504036
0.00255613
0.00291287
0.00661774
-0.0044477
-0.00136567
-0.0017209
0.00281515
0.000802582
-0.00175833
0.00291134
-0.00302082
0.00926561
-0.00443083
0.00149112
-0.00121801
0.00303017
-0.00239924
-0.00337435
-0.00105365
0.00291346
0.000504406
0.00104232
-0.0032649
0.0188901
0.00928952
0.00372099
0.0165661
0.00239851
0.00358921
-0.000682971
-0.00520289
0.00629141
0.0038136
-0.00105408
0.0010208
-0.00162535
-0.000802628
0.000611543
0.00382451
-0.0054417
0.0266699
0.00713296
0.0013859
-0.00138408
0.00369728
0.0029139
0.000683571
-0.0027676
0.0093599
-0.00179569
0.014929
0.00152538
-0.000815111
0.00129823
0.00312838
0.00247692
-0.0030202
0.000748268
0.000944134
0.00128663
0.000988761
0.000610932
0.00713972
-0.000495896
0.000803206
-0.00290279
-0.00121813
0.00198418
0.000544795
0.00257055
0.00195793
0.00404689
0.00146466
-0.00272981
0.000544661
0.00485636
-0.00175979
0.0046791
-0.00935764
-0.00449639
0.00167201
-0.00213488
-0.0021563
0.00261014
0.0195864
0.00774407
0.00149705
0.00138461
0.00250973
-0.00145337
-0.00114026
0.00302109
-0.0016075
-0.00396628
0.0164988
0.0144475
0.00221815
0.00146408
0.00291127
-0.00221753
-0.00248962
-0.000545437
-0.000661905
0.00182827
-0.00111578
0.00230933
-0.00382412
-0.00396666
0.00385666
-0.00291159
0.00211007
0.00167205
-0.00105426
-0.000465835
0.00320609
-0.000777518
-0.00105442
0.00039617
-0.000989152
0.0018284
-0.00382339
0.00291135
0.0016275
-0.00371907
-0.000844789
0.0100945
0.00248915
0.0093549
0.00393679
0.000802628
0.00291068
-0.00501956
0.00205864
0.00248834
0.00302151
0.0026051
-0.00214406
-0.000611409
-0.00396466
-0.000982854
0.00180674
-0.0023001
-0.000442635
-0.000845353
-0.00105415
0.000683221
-0.00145475
-0.00129808
-0.00583867
0.0121523
0.0012392
-0.00396604
0.0133105
0.00303324
0.00303573
-0.000364986
0.000869573
0.0188925
-0.00440492
0.00328697
-0.000803099
0.00089825
0.00396825
0.00249114
-0.00056989
0.00304101
-0.000868112
0.00356291
0.00382591
-0.0100394
-0.00427183
0.00105423
0.00356348
0.00127287
0.00121796
-0.000442733
0.00834394
-0.00352202
-0.000868979
-0.00138466
-0.00162723
-0.00550731
-0.00326686
-0.00129768
0.000503632
0.00129845
-0.00440472
-0.00249007
0.00550916
0.0029147
-0.00161558
-0.000803299
0.00105422
-0.00230807
0.00465065
0.00291226
0.00562968
0.000178029
-0.00382314
0.0266574
-0.00271224
0.000683589
-0.00123793
0.000636779
-0.0010545
-0.00094363
0.00310345
-0.00155149
-0.00129817
0.00182701
0.0109518
0.0138659
-0.00396409
0.0032664
0.00369618
-0.00358438
0.00195674
-0.00146496
-0.00382178
0.010954
0.00834265
0.00485896
-0.000802414
0.00137717
0.002716
-0.00302113
-0.0013851
0.00105471
0.000442408
0.00304277
0.00606042
-0.00129963
0.00123875
0.0220285
0.0080368
0.010559
-0.00314962
0.0127793
0.00304126
-0.000611613
-0.00196542
0.00258935
-0.00502062
0.00105416
0.00247057
0.0149227
0.00189673
0.00396793
-0.000900443
-0.000396242
-0.000815038
-0.000802699
0.0149923
0.00180281
0.00965719
0.00838079
-0.000611672
0.00488209
0.0195855
-0.00607275
0.00372314
0.00123921
0.00382501
-0.00105452
-0.00188214
0.00342795
-0.00488361
0.00396426
-0.0030197
-0.000401789
-0.00291092
-0.000989025
-0.00225806
-0.000802383
0.000752831
-0.00273128
0.00061686
0.000669348
0.00257136
-0.00105443
-0.00162567
-0.000841961
-0.00217451
0.00219551
0.00105344
0.00111521
0.000449619
0.00285533
-0.00629046
-0.00097425
0.00123906
0.00612178
0.00230365
-0.00213378
-0.000285118
0.00139059
0.00366527
0.00123987
0.00965719
0.0038223
0.000869013
0.00102047
-0.000661121
0.00466159
-0.00450479
0.00105417
-0.000337322
-0.00488415
-0.000619962
0.00500002
-0.00607136
0.0030204
0.0086551
0.00118259
0.000921325
0.00137785
0.000802421
0.00110841
-0.00283242
0.00637572
0.012625
0.00869021
0.0040434
-0.000636539
-0.00680966
-0.000321144
-0.00628815
0.00248785
-0.00146466
0.000520299
0.0110067
-0.00535835
0.00239861
0.000611256
-0.00138463
-0.00192219
-0.00880943
0.000948359
0.0155542
-0.00162597
-0.00259853
-0.00137872
-0.00173725
0.0121472
0.00712463
0.000943522
0.00118262
0.000660922
0.00326871
-0.000752695
0.00399207
0.000988837
0.0352228
0.00210798
0.000753424
-0.00230009
0.00465967
0.000900802
-0.00444564
0.00520748
0.00531085
0.000683354
-0.00210839
0.00110818
0.000884964
0.000359617
0.00440612
-0.00291149
0.00607736
0.00465944
0.0063553
0.00712811
0.000396453
-0.000706687
0.0143798
0.00396374
0.000611827
-0.000982596
0.000520403
-0.00276863
0.00795938
-0.00105417
-0.00192221
0.00138424
0.00186508
-0.00604017
0.00271362
-0.00664246
0.00505712
0.0042881
0.000718945
-0.00152532
0.0127742
0.0048604
0.00396901
-0.00058072
0.00105404
0.000682398
0.00606901
0.0019223
-0.00607243
0.0031034
-0.00428734
0.00804546
0.0126183
0.0105621
0.00247851
0.00352175
-0.00120724
0.000777434
0.000661298
0.00118158
-0.00248861
-0.00607587
-0.0121519
-0.00793066
0.0174055
0.00964406
0.000989141
0.00130596
-0.000803032
0.0174001
-0.000988637
0.00221814
0.00123955
-0.00792748
-0.00611801
0.00413287
-0.00105446
0.00050378
-0.00301999
0.00291243
-0.00325275
-0.00299307
-0.00239853
-0.00502046
0.000359151
0.00569713
0.0055064
-0.00450086
-0.000803137
-0.000287268
-0.00302001
0.000352104
0.00134895
-0.0010543
0.00105415
-0.00793138
0.00192339
0.00215428
0.00936077
0.00221663
0.0029118
0.00285477
0.0149216
0.00774828
0.0069757
0.00462621
-0.00291037
-0.000471897
-0.00105411
-0.00230821
0.00301905
-0.00195753
0.000465643
0.000753166
-0.000395964
-0.000777361
-0.00326617
0.00143785
-0.00382258
0.00803131
0.00431421
-0.000232693
-0.000748163
0.00138416
0.00123833
-0.00877614
0.000520122
-0.00628892
0.00396671
0.000611501
-0.00428717
0.0029671
0.0022166
-0.00123874
-0.00192343
0.00396499
-0.00230805
-0.00470878
-0.00675105
0.00219693
0.0018049
0.000982252
-0.00382332
0.00462904
0.00213781
-0.00607587
-0.0048922
0.0025541
0.0105619
0.0059014
-0.000120049
-0.0013842
-0.00080296
-0.0037192
0.00502197
-0.00523759
-0.0043473
0.00520916
0.010135
0.00664197
0.000884981
0.00221704
-0.000232807
-0.00081489
-0.00167267
-0.00438941
0.000943989
0.00276572
0.00796465
0.000868693
0.00105349
-0.00175961
-0.000504183
0.0010206
0.0203037
0.00803517
-0.00358509
-0.000592101
0.00180333
-0.000520078
0.00115627
-0.000472579
-0.000884505
0.00462652
0.0126193
0.000753221
0.00607275
-0.00179353
0.010559
0.00219553
0.00462646
0.00105417
0.00697725
0.000185755
-0.00259725
-0.0029976
-0.00247704
0.0063807
0.0174109
0.00629132
0.000897047
0.000873129
-0.000989327
-0.00239862
-0.00764713
0.00124056
0.00105422
0.00326902
-0.00326888
0.00428722
0.0033731
-0.0062899
0.00175133
0.00141782
-0.00098333
0.00543544
0.000611098
-0.00287423
-0.00352247
0.00462599
-0.0032428
-0.00105452
-0.000869359
-0.00291184
0.00230025
0.00116182
-0.000144307
0.00428568
-0.00382223
-0.000802336
0.00637978
-0.00520844
0.00382449
0.00531405
-0.000989213
-0.000718853
0.00713523
0.0127744
0.00530937
-0.00461758
0.000868847
0.00466478
-0.00335358
0.0174055
-0.00793245
-0.0029116
0.00273137
-0.000570224
0.0174053
0.000402078
-0.000173737
-0.000662012
-0.0044454
0.00961044
0.00926561
-0.00283227
0.0143814
0.00291247
0.00607492
0.00229982
0.000748278
-0.0104169
0.0174071
0.00440598
-0.00396415
-0.000273898
0.000868685
-0.00179393
-0.00192436
-0.00462822
-0.00105455
0.00105387
-0.00173194
-0.00243927
0.00291525
-0.00146404
0.000802957
0.00276768
0.0046605
-0.00358544
0.00271391
0.004495
0.00895153
-0.00221723
-0.000777039
-0.000682962
-0.000305947
-0.0039444
0.000944745
-0.000661194
-0.00105348
0.0023009
-0.00281544
-0.00358719
0.0012733
0.00200485
0.000683003
0.0101337
0.00607123
0.00352366
0.00291298
0.00493659
0.00396771
0.000661413
-0.000989273
-0.0010608
0.00176039
-0.00218636
-0.000803099
-0.00068278
0.00105374
0.00382248
-0.00180373
0.00396522
-0.00116291
-0.00396432
-0.000753595
0.00325437
-0.000520476
-0.000520099
0.00325227
0.00796542
-0.00229959
0.000845035
0.00145502
-0.00138381
0.000305904
0.000520232
-0.00160614
0.0113638
0.000868964
-0.00162716
0.00133881
0.00837832
0.000545169
0.00231029
0.00449002
0.00160602
0.00042905
0.00192176
-0.00152536
0.00501881
-0.00105447
0.00335298
0.00213372
0.000814662
0.00352321
-0.00271416
-0.000802805
-0.00111569
0.0113667
0.00551191
-0.000611598
-0.000674125
0.00764444
0.00315255
0.00570122
0.00052055
0.00151319
0.010561
0.00501977
0.00340597
-0.0038473
-0.010417
-0.00488576
-0.00136731
-0.0060718
0.00521066
-0.00173851
0.000465543
0.00118195
-0.00301928
-0.000814403
0.00485861
0.00221664
-0.00054538
-0.00431031
0.00260585
0.0167717
0.0228435
0.00195813
0.0054302
0.0022169
0.0147171
-0.00221756
-0.00102036
0.00217732
-0.00488313
-0.000869221
-0.00396547
-0.0121517
-0.00175212
-0.00192358
0.00607356
0.000305809
0.000943969
0.00315041
-0.00194474
-0.00189479
-0.000611261
0.00162668
-0.00355004
-0.00335477
-0.00398879
0.0159731
0.00396495
0.0046186
-0.000641318
0.00382449
0.00123981
0.00213645
0.01821
0.00352519
-0.00131122
-0.000636601
-0.00550994
0.00321194
0.0113655
-0.00291085
0.000718491
-0.00121908
-0.000857944
-0.00271443
0.000900013
-0.00650717
0.012622
0.000683571
-0.000922109
-0.00335383
0.00335383
-0.00276299
0.000944641
-0.00712638
0.00058121
0.0165687
0.00151213
0.0149174
-0.00163964
-0.00291174
0.00444427
-0.00276918
0.00259716
0.000661377
-0.000748639
-0.000520122
-0.000943002
-0.00123948
0.000778143
-0.00382319
-0.00192376
-0.00230039
-0.000401546
-0.0012401
-0.00105433
0.00255447
-0.00372034
0.0065908
0.00290161
0.0266699
0.00192349
0.00356358
0.000777995
0.000803002
0.0016263
-0.000545008
-0.000921381
0.000570002
0.000802743
-0.00105462
0.0228522
0.00355278
0.00506191
0.00607723
-0.00844105
-0.00352362
0.00302205
-0.00281601
0.0165687
0.0046632
-0.000844128
0.00665065
-0.000868929
-0.0078644
0.00404603
-0.00462633
0.0195959
0.00637827
0.000563031
-0.00123998
0.0017376
0.0039663
0.00314839
-0.00520836
0.0410752
0.00431114
-0.00123858
-0.0047088
0.0132539
-0.00396647
0.0266574
0.0138679
0.0054079
0.00138515
-0.000305903
-0.00139091
0.00213599
-0.00192429
-0.00925409
0.022863
0.00326997
-0.000943514
0.00679362
-0.000582087
0.00462876
0.00146456
0.0204293
0.00834341
-0.00382325
0.016572
0.0203101
-0.00352367
0.00326625
-0.00301977
-0.00493827
0.00335378
0.00372081
0.00697639
0.000900667
0.0174027
0.000943347
0.00382451
-0.000390935
0.0228542
-0.00291256
-0.00248734
0.00449273
-0.0011625
0.00258911
0.000413252
0.000396014
0.000748017
0.00138419
0.0052044
-0.0012387
-0.000570039
0.0121966
0.00834271
0.00462679
0.00303138
-0.0121413
-0.000802483
-0.00680837
-0.00146489
-0.00844041
-0.00249244
0.00569867
0.00259584
0.00509533
-0.00167152
0.00192311
0.00342369
0.00249113
-0.00210964
0.000377364
-0.00276918
-0.000944039
-0.00239961
0.000995509
-0.00121811
0.00673885
-0.00396493
0.000989602
0.00699045
0.00302269
0.00358635
-0.00118236
0.00259535
0.000288674
0.00145553
0.000520257
0.000803323
0.00396511
0.0149176
0.00396653
0.00138432
0.00061686
0.00123807
0.00291412
-0.000884676
-0.00138416
0.0093569
0.00462605
-0.000661644
0.00192377
0.00440601
-0.000401419
0.00371892
-0.000637187
0.00123931
0.00149219
0.000718219
-0.000519994
0.00358577
0.00462595
-0.00281533
0.000885095
0.00110862
0.00146441
-0.00291132
0.000562897
0.000401108
0.0004009
0.00129835
0.0266699
0.00116251
-0.00229989
0.000611269
-0.00291166
-0.000802521
0.000547676
0.0039343
-0.000896533
0.0109534
-0.00440387
-0.00440606
-0.00218635
0.00543741
-0.00291132
-0.000465856
0.0193373
0.00291069
0.0018284
0.00834146
0.0173966
-0.000884987
-0.000683576
-0.00495568
0.00396555
0.0105612
0.00449585
-0.00104047
-0.00162787
0.00680982
0.00396566
-0.00176118
-0.000520122
-0.000778055
0.00440407
-0.00105368
0.000683571
-0.00192219
-0.00138469
-0.00268204
-0.00172121
-0.000729159
0.00381262
0.00326978
-0.00115518
-0.00136849
-0.00462707
0.0127813
-0.00143684
-0.000503672
-0.00230069
0.00122184
0.00276963
0.000683139
0.00337659
0.00133956
0.00151121
0.00167251
-0.0033542
-0.00650637
0.00396382
0.00105412
-0.000581177
-0.00105409
-0.0044034
-0.00291166
0.0114224
-0.00382367
-0.00291166
0.00462359
-0.00138388
-0.000803104
-0.000682697
0.000581163
0.00471079
0.000662538
-0.00276775
0.00014103
-0.000949037
0.000942949
-0.000611121
0.0034219
0.000922553
0.000141634
-0.000364735
0.0266574
-0.000377131
-0.00462668
0.0130064
-0.00462538
0.00291326
0.00230043
0.00638041
-0.000696645
-0.00129841
0.00396763
-0.000592047
0.0010836
0.00698882
0.00335706
0.010955
0.0113622
-0.00124022
0.00213579
0.000337691
-0.00150868
0.00382157
0.00138415
0.0127768
0.0174017
0.00105439
0.000544929
-0.00142332
0.0101365
0.00310392
-0.0130064
0.00138405
-0.00276928
0.00444609
0.00129925
0.000983643
0.00116266
0.00396535
0.0143854
0.003719
0.00569524
-0.000802223
-0.00221631
-0.000467209
-0.0017216
0.00291299
-0.00273093
0.00110846
0.0228513
0.014925
-0.00120582
0.00276643
0.000641557
0.00291342
-0.0016062
0.00155281
0.00281683
-0.00302075
-0.000983362
-0.000803061
-0.000611595
-0.000141565
0.000336735
0.00404801
0.0196954
0.0268211
-0.000764369
0.00196609
0.000988783
0.00419454
-0.000545224
0.00302012
0.0228548
-0.000802223
-0.00219572
-0.00145448
0.00413619
0.00486668
0.00302159
0.0138696
0.0013649
-0.00158074
0.0156249
-0.00462771
0.00570064
-0.000520366
-0.00358599
-0.00396525
0.0173989
0.0149222
0.017407
-0.00240033
-0.00138273
0.0010538
0.00335485
0.00834215
-0.0012865
-0.00127439
0.00105431
0.0023101
-0.00129777
-0.0129942
0.0114017
-0.00118146
0.00228854
0.000244251
-0.000467346
0.00440343
-0.000869194
0.002469
0.0109542
0.00520985
0.00196569
-0.000988952
0.0010437
-0.000897004
-0.00111495
0.00382459
-0.000611715
0.00607752
0.00427375
0.036703
0.00518557
-0.00302048
-0.00230042
0.00396606
0.00210847
0.00444625
0.000868648
0.0143854
0.00838027
0.00834553
-0.00210812
0.00221825
0.00466024
0.00520692
0.00126035
-0.00963631
0.0093601
-0.00587784
-0.00878231
0.00723679
-0.00105436
-0.00167117
0.000688947
-0.00213527
0.00138365
-0.002903
0.0060653
0.00024439
0.00838666
-0.00352344
-0.000943116
0.00679906
0.00520995
0.00302154
0.00396799
0.00356871
0.0228659
-0.00431317
0.00771971
0.0196905
-0.00155221
0.00195845
-0.00074841
0.000683694
-0.000661032
0.000896389
-0.00200206
-0.00196446
-0.00255091
0.000802749
-0.000616362
0.00210845
0.00461933
0.00230123
0.00607165
0.00569558
0.00210753
0.00105854
0.00260619
-0.00162607
-0.00384636
-0.00371895
0.000674326
0.00123786
-0.000748594
0.00094358
0.00219531
0.00138434
-0.00192179
-0.00488387
-0.00138906
0.000718541
0.00168952
0.00837803
-0.00520766
0.00382524
-0.00216716
0.013305
0.00834286
-0.0012408
-0.00301919
0.000984139
0.000719111
-0.000683171
-0.000661154
0.00439063
-0.000610825
-0.0042726
0.000581376
-0.00281538
0.00338785
-0.00325418
0.0048815
-0.00428536
0.00198494
0.00260804
-0.00168915
0.002911
-0.000442511
-0.00462375
0.00394293
-0.00642685
0.00176053
0.00231026
-0.00230805
-0.00151269
-0.00462551
-0.00175835
-0.00105448
0.00302061
0.00520994
-0.00100578
0.00074913
0.00384771
-0.00936264
0.000869954
-0.0088073
0.00173162
0.00213703
-0.00296617
-0.00470827
-0.000682952
0.000683074
-0.00116226
-0.00273105
0.00698751
0.00520415
-0.0039648
0.000868612
0.00124041
-0.00138456
0.00462723
0.000748079
0.000378881
-0.000636304
0.000683171
0.000232841
-0.00124659
0.00792895
-0.00114947
0.00868463
0.00219534
-0.00149657
0.00713523
0.0113614
-0.00228248
0.0138696
-0.00123948
-0.00175947
0.0109512
0.0121644
0.0100937
0.004883
-0.0060711
-0.000752832
0.000682768
0.000311246
-0.000802628
0.002217
0.00273064
0.000562422
-0.00054585
0.0174021
0.0133094
0.00396639
0.000988834
-0.000974545
0.0006112
-0.00105384
-0.00232613
0.00834363
0.0132568
0.00590062
0.00270633
0.00213578
-0.00352416
0.001385
0.00462599
-0.000815514
-0.00382414
-0.00124545
0.00185755
-0.00230871
-0.00105415
0.00081542
0.00105451
-0.000503395
-0.00324053
0.014919
-0.00302021
0.00501899
-0.00118132
0.000815928
0.0156272
0.00635349
0.0100976
-0.000611214
0.0188839
0.00543888
0.000569911
-0.00248958
0.017405
0.00440163
-0.00501977
0.00485774
-0.000878956
0.0023108
-0.00111463
-0.000869243
-0.00192169
-0.00462517
-0.002309
0.00312941
0.00203431
0.00532235
0.0266574
-0.000868094
-0.00019823
0.0058226
0.000921225
-0.000662296
-0.000660924
0.00231069
0.0062903
0.00372125
0.00230839
-0.00382295
-0.00291143
0.000683371
0.00164011
0.00255333
-0.000611261
-0.000802528
0.00037699
0.00123912
0.00462233
-0.00196428
0.00129865
0.000198175
0.00180255
0.000442473
0.00229967
0.00291363
0.00501875
0.0030404
0.0083792
-0.00502022
0.00935534
-0.00283286
-0.000377538
0.00042853
0.00168903
0.0113669
0.00270298
0.000611044
0.00384622
-0.000687857
0.00189712
0.00485966
-0.00162653
0.0188819
-0.00825611
-0.00149619
-0.00356344
0.00276784
-0.000803147
-0.0032085
-0.00138328
-0.000185017
-0.00501892
0.013867
0.00355421
0.013305
-0.00221688
-0.00248803
0.00249015
0.00089994
-0.000465528
0.00413377
0.00355219
0.00251135
0.00291273
0.00301946
0.00302205
0.00138413
-0.00431114
0.00056276
0.00115461
-0.000841483
-0.000753172
0.000640718
0.00419783
-0.00524012
0.00396867
-0.00230057
0.00115551
0.000611759
-0.00303383
0.00793254
0.000988478
-0.000802085
0.00152542
-0.000868792
0.000778271
0.000661987
-0.000886065
0.0038133
0.00155131
-0.00355225
0.00335543
0.00611733
-0.00569442
-0.000988285
0.000396518
-0.00217514
0.0100364
-0.00428699
0.00146426
-0.000943026
0.00189684
0.00144844
-0.00157564
0.000401948
-0.00105986
-0.000503848
0.00355015
-0.00120728
0.00837122
0.00160567
-0.00138887
0.00129965
0.000802559
-0.00935764
-0.000442985
0.00462345
0.000970064
0.00352381
0.0188842
0.00723082
0.00200382
0.000988829
0.0149206
0.00637704
0.00462387
0.0220261
0.0195855
0.0109543
0.00354784
0.00449371
0.00697654
-0.0049388
0.000683545
-0.00141743
0.0010542
-0.00230846
-0.0024454
-0.00377394
0.00301992
-0.00221713
-0.00301949
0.00210922
0.00301941
0.0195889
0.00186525
-0.00648175
-0.00221735
0.00372308
0.00342055
0.00662013
-0.000442632
0.000531238
0.0182098
-0.00449689
0.00449265
-0.0104103
-0.000777086
0.00219551
0.000943315
-0.00396464
-0.00302033
0.00124075
0.00342334
-0.000569963
-0.000921433
-0.00162702
0.0228542
-0.00190444
0.00130645
-0.000988181
0.000815771
-0.000485022
0.00488495
0.00837487
-0.00396708
-0.00221743
0.000988641
0.00937889
-0.00221791
0.0143873
-0.00127559
-0.00182639
0.0165687
0.000661346
-0.00488426
0.00098366
0.000896705
-0.00257029
-0.000611702
0.000982786
-0.00273043
0.00793717
0.00291307
-0.000683321
-0.00105422
-0.00302089
-0.00160634
0.000868371
0.00520937
0.00358696
-0.00141919
0.000637029
-0.00284736
0.00146547
0.00352353
0.00612563
-0.00698438
-0.0038223
0.00465703
-0.00713053
0.0026707
0.00936807
-0.00611772
0.00168958
-0.00105368
0.000868798
-0.00607288
-0.00629007
0.010955
0.00449329
0.00465781
0.00100524
0.000877477
0.00865623
-0.00521025
-0.00175918
0.000682957
0.00301905
0.00115188
-0.000807533
0.0193344
0.0132561
0.0010545
0.00137777
-0.00356348
-0.00175764
-0.000872806
-0.00396584
-0.0021443
0.00249241
0.00138384
0.00937084
0.000803323
-0.000683321
0.00151718
0.00260482
0.00221813
0.00105419
-0.00963782
0.00366522
0.00222006
0.000815291
0.00868749
-0.00358637
0.00105486
-0.000982231
-0.000752796
0.00502145
0.00145619
-0.00138456
-0.00371946
0.00723431
-0.0052062
0.00146392
0.0109509
0.00302092
-0.00127301
-0.00179381
0.00488411
0.00356904
0.00188755
-0.000803099
-0.00315029
0.00371975
-0.00206692
0.00382454
0.00774746
0.0188819
0.0188813
-0.00427115
0.00111048
0.00838425
-0.00206717
0.012778
-0.00137876
0.00168963
-0.00134006
0.00247777
0.00520739
0.0035549
0.00444878
0.000520299
-0.00382296
0.0140186
0.00928632
-0.00206709
-0.00094323
-0.00259117
0.00255597
0.00150898
0.00504123
0.00926561
0.00162844
-0.00680908
-0.00611366
-0.00247802
-0.00080249
-0.00138452
-0.00291127
0.0021345
-0.00587366
0.00338859
0.00291269
0.000697922
0.00118233
-0.000803344
0.00191131
0.00302227
0.00285561
-0.000748721
0.00414038
-0.000729388
-0.00146489
0.00138369
-0.0013401
-0.00116324
0.00612426
0.000611947
-0.00299508
0.00583934
0.014382
0.00713766
-0.00440505
0.00396554
0.00145167
-0.00325357
0.0167748
0.00393679
-0.000611621
0.000640567
-0.00607574
0.00144929
0.00138376
0.00869015
0.00936781
0.0140186
-0.000803457
-0.00129835
0.000661548
-0.00218221
-0.00144901
-0.0006615
-0.00219413
0.00221737
0.00517547
0.00396364
0.00354756
-0.00185029
-0.00302003
0.00642327
0.00335298
0.00348186
0.00796465
-0.00111515
0.000616517
-0.00105345
-0.00139039
-0.00462713
0.00145535
-0.000619221
-0.000503571
-0.000520405
-0.00105455
-0.00138456
-0.00138375
0.00200485
0.00520726
0.000868418
0.00068293
0.00086824
-0.00284363
-0.00371975
-0.00213579
-0.00206737
0.000807585
0.00123895
-0.00075315
-0.00358742
-0.000943259
-0.0016245
-0.00195747
0.00276644
-0.000982347
0.00192232
0.00155223
-0.00104076
0.000752624
0.000321706
0.000640665
0.0025951
0.0188886
0.00122291
0.00427083
0.000943282
0.00137723
0.00098245
0.00607921
0.00607781
0.00246943
-0.00168881
-0.000884807
0.000442463
0.00772047
0.0266449
0.000592221
0.00213598
0.006647
0.00506118
-0.000793671
0.000943705
0.000943929
-0.00844049
0.0258664
-0.00143759
-0.00501817
-0.00470731
-0.00352273
9.16802e-05
0.00358945
-0.000497965
-0.00431276
-0.000636943
0.0159752
0.000616607
-0.00127284
0.0138695
-0.00337452
0.00231102
0.00105451
0.000840942
0.000841459
-0.00123855
0.00302158
0.00396897
0.00342288
0.00155344
-0.00142286
0.000802755
-0.00382011
0.00303324
0.00231115
-0.00168896
0.00246087
0.00080257
-0.00105826
-0.00120636
0.00865358
0.000611406
0.00145022
0.00352517
-0.00105464
-0.00155149
-0.00105427
0.00251275
0.00462904
0.00138428
0.00583844
-0.00607288
0.0105585
0.00607533
-0.00569815
0.00151134
0.00249009
0.00221823
0.000376556
-0.0100379
-0.00210805
0.000879495
0.000748747
0.00590174
-0.00302078
-0.0022176
0.00180364
-0.00219475
-0.00138378
-0.00210889
-0.00211025
0.00068331
0.00192164
0.000351623
-0.00089701
0.00433683
0.00956717
0.0165658
0.00129768
-0.00396447
0.00285533
0.000753547
0.000802303
-0.00155229
0.0188842
0.00342061
0.00134062
-0.00113966
0.00356414
-0.00123795
-0.00256938
0.000377579
0.00192503
0.00301973
0.0188886
0.0140166
0.00191092
0.0220234
0.00542877
0.0156082
-0.00462517
-0.00221736
0.00342169
0.0138642
0.00354955
-0.0016267
0.00302063
-0.00219588
-0.000868352
-0.000719291
-0.00123978
0.000495682
0.000989903
-0.000611227
0.00431169
0.000869758
0.00433914
0.00466091
-0.00290274
-0.000661163
0.00734888
0.0195895
0.00129828
0.0080409
0.0143875
-0.00134113
-0.000988493
0.00141872
-0.00105412
0.00291051
0.0352129
-0.00396584
-0.00963644
-0.000683093
0.00221839
-0.0039649
-0.00291106
-0.00495434
-0.00195755
-0.00301977
0.00270295
-0.00173767
-0.000611583
0.00105481
-0.0008687
-0.000803147
0.00248826
-0.0030208
0.00396642
0.00138812
-0.000503685
-0.00218065
-0.00276902
-0.001042
0.0083433
0.0266449
-0.000683418
-0.000661588
0.000827606
-0.00105413
0.001162
-0.00105448
0.00195708
-0.000810473
0.0132548
0.000802393
0.0017382
-0.00338906
-0.000494597
0.000520147
-0.00514139
0.00210989
0.00116332
0.00804559
-0.00221767
0.000697564
0.00606956
0.00198365
0.0012978
-0.00382249
0.00162589
-0.0054417
-0.00105382
0.0048874
-0.00310255
-0.00542657
-0.00276871
-0.000803654
0.00167213
-0.00066219
0.00462698
-0.000988625
0.000591758
0.0205078
-0.000396206
-0.00488193
-0.000728909
0.000611106
0.000869011
0.000376278
-0.00066154
0.00105356
0.00108835
-0.00162666
0.00607123
0.00118119
-0.0029112
0.00116291
-0.000320929
0.0109539
0.0174042
-0.000868601
0.000719553
0.00168851
-0.00674686
0.00247912
-0.00607616
0.00230964
0.0410972
0.0010615
0.00291264
0.0127813
-0.00302076
0.00396388
-0.0039649
0.00130987
0.000868885
-0.00276852
-0.00303144
0.00115234
0.000232696
0.000803344
-0.000364953
0.0159777
0.014726
0.00471181
0.017405
-0.00462517
-0.00291187
-0.00462353
0.00134044
0.00466004
0.0021956
0.000611598
-0.00192345
0.0228487
0.00396764
0.0100387
-0.00382193
0.000520324
0.00774934
0.00186548
0.00195648
0.00382183
0.00110237
-0.000896722
-0.00335428
0.00713816
0.0268276
0.0039683
0.00190428
-0.0010546
0.00281595
-0.00396436
0.016778
0.0149218
0.01262
0.000840949
0.00369795
0.012622
-0.00162604
-0.00462554
0.00164097
0.011362
0.00589659
-0.00299661
0.00123835
0.00553557
-0.000899663
0.00302014
-0.00371943
0.00449515
0.00247987
-0.000662059
-0.000377551
0.00803132
0.00176267
0.00384412
-0.000698214
0.0174055
-0.00543655
0.00396667
-0.000641232
-0.0014637
-0.000868102
0.00303287
0.0025702
0.00712847
-0.00393005
0.00216749
-0.000640966
0.00185834
-0.00787087
-0.00301812
-0.00793012
-0.0029112
0.00637992
-0.00421615
-0.00413479
0.0174045
0.0101332
-0.00433763
0.0147214
0.00611649
0.00335612
0.000503538
0.000661398
0.00134085
0.00105375
0.00612014
0.00394117
-0.00080258
-0.00259754
0.00138384
-0.000815265
0.00382201
0.00880814
0.00191526
-0.000868593
0.00192154
0.00123957
-0.00352092
-0.00462517
-0.00438964
0.005208
0.00358488
0.00146387
-0.00182672
0.00342087
0.00504157
0.0100469
-0.00444611
0.000611286
-0.000748086
-0.00098894
-0.000867556
0.00145706
-0.000868676
0.00697654
0.0030211
0.00837579
0.0105606
0.0167827
-0.00312654
0.000868636
-0.00146412
0.00868562
-0.000802705
-0.00348333
0.00105388
0.000868934
0.000310566
0.0188863
0.0165711
0.00973544
0.0143889
-0.00255278
0.00466378
0.00129907
-0.00381148
-0.00382384
-0.00258968
0.00302103
-0.00324273
0.000683153
0.0060759
0.000495852
0.00963413
0.00230084
0.00302114
0.00335485
0.00285518
0.0121685
-0.00382339
0.0143796
-0.00162553
0.002714
-0.00291152
-0.0015254
0.00226025
-0.00221689
0.00221729
0.00493984
0.00342385
0.00273178
-0.00792991
-0.00380997
0.00123967
-0.00356348
0.000803438
-0.000520306
0.00248765
0.0167796
0.0228578
0.00352519
0.0015093
0.000305508
0.00302201
-0.00431089
-0.00935509
0.00607401
-0.00335309
0.00964012
0.000802778
-0.00470789
-0.00337384
0.00160495
0.0129952
0.00302171
0.00804393
-0.00105483
0.00179484
-0.00301957
0.00804226
-0.000661567
0.0016065
0.00521022
0.000897814
0.0014656
0.00138372
-0.00144912
0.00176004
0.00524339
0.000869749
-0.00462553
-0.00396448
-0.000802381
-0.000802242
-0.00173812
0.0105612
-0.00276922
-0.00188662
0.00291253
0.00061692
-0.000765472
-0.00120589
-0.00382207
-0.00151679
-0.000802943
-0.000803088
0.00192121
0.000661816
0.000989374
0.0195944
0.00206578
-0.00470801
0.000503677
0.00105426
0.00284738
0.00466038
0.00146509
0.0104202
-0.00587252
0.000802825
-0.000545341
-0.000520653
-0.000803061
0.00210825
-0.000814921
0.00869452
-0.00291064
0.00136518
-0.00381252
0.0113648
0.00372083
0.0060787
-0.00110179
0.0029144
0.00352475
0.00444734
0.00127425
0.00936899
0.0034222
0.016778
0.0121472
-0.00074841
0.00149094
0.00471199
-0.00296834
-0.000748107
-0.00105387
0.00372186
-0.00102069
-0.000611627
-0.00569854
0.0109518
-0.00628966
0.00175951
0.00396633
-0.000826745
-0.00352219
0.00928536
-0.00326328
0.00105349
0.00301932
-0.00221732
0.0105612
-0.00246802
-0.000748528
0.00278467
0.010135
0.00396616
0.00219697
-0.00404546
0.00834529
-0.00219436
0.0188863
0.00834299
0.00470828
-0.00302131
0.00404632
-0.00230057
0.00115111
0.000802419
0.00138495
0.00122143
0.00449908
-0.00413557
0.0126215
-0.00248822
0.00518578
-0.00188641
0.0266699
0.00713262
-0.000802901
-0.000251822
-0.00129891
0.00382412
0.00607065
0.00301887
-0.00843285
0.000562857
-0.00138388
-0.00369656
-0.00176108
0.0029113
0.00291239
0.00396717
0.00257112
0.00661843
0.00271443
-0.00268234
0.0144363
0.000573939
0.000683339
-0.00501874
-0.00124024
0.00259994
0.00612119
0.00396566
0.00462359
0.00162622
0.00315463
-0.00248762
0.000612218
-0.001887
-0.00315099
-0.00160637
-0.00462611
-0.00302076
-0.000661162
0.0017373
0.00111515
0.00149091
0.00129842
-0.000611664
-0.00094316
-0.00291061
-0.00291088
0.00281421
-0.00036472
-0.000988548
0.000841981
0.0007485
-0.000683371
0.000661367
0.00638084
0.0220338
0.00206843
0.00089679
-0.00105402
0.000442976
0.00169064
-0.00138385
0.0149193
0.010559
-0.00231056
0.00385517
0.00149712
0.000376686
-0.0038117
0.000803403
-0.000520445
0.0167717
-0.000943774
0.00213453
0.00371957
0.00192301
-0.000802912
0.0266574
-0.00138925
0.00213651
-0.000698033
0.000687207
0.000802787
0.00302158
-0.00190269
0.00396635
0.00393865
0.00825881
0.00542863
-0.00335563
-0.000377481
0.00175989
0.00138368
-0.00320924
-0.00607144
0.00612614
-0.000803137
-0.00139096
0.00273072
0.0149232
-0.00138346
0.00293136
0.00352519
0.000377617
0.00466243
-0.00168822
-0.00607115
-0.000544786
0.0114146
0.00284756
0.000544549
-0.00098877
-0.00105431
-0.00247659
0.033953
0.00240053
-0.00571011
0.00105428
0.0149208
0.0072393
0.00075292
-0.000520214
0.0126182
0.00302063
0.0024918
-0.000377213
0.0109556
0.00151248
0.00138432
-0.000841242
-0.000285104
0.00803176
-0.000874993
0.000983627
-0.00116276
-0.00302082
-0.00129828
0.0012981
0.00149726
-0.0038223
-0.00214386
0.000803705
0.00462698
-0.00080296
0.00382501
-0.00230052
-0.00129821
0.00520624
-0.00520777
0.0010541
0.000617299
0.000503854
0.00152573
-0.000869243
-0.0014639
0.00301984
-0.00231167
0.000443668
0.00124582
0.0013405
0.00040099
0.000683469
0.000660982
0.00302111
0.00138417
0.000484945
0.00629415
0.0046287
-0.00338569
0.00370052
0.00192199
0.000611214
0.0083759
-0.000943059
0.00928916
0.0113629
0.011362
0.00247593
0.0165661
-0.00396296
0.00465985
-0.00179683
0.00884661
0.00315171
-0.000661623
-0.00155235
-0.00105455
-0.00520672
0.00167345
-0.00325357
0.0034212
0.000989729
0.00315299
-0.00039623
-0.00291089
-0.000989068
-0.00520592
-0.00440377
-0.00413473
0.0109572
0.0228522
0.00844052
-0.00291142
-0.00396685
-0.00440416
0.000802521
0.00612094
-0.00116247
0.00837458
0.0193344
0.0266574
-0.00764383
0.00249003
0.000640858
0.0142278
0.00372073
-0.000900504
-0.00229902
-0.000581096
0.00291219
-0.00315172
0.00414052
0.00175993
0.000868665
0.000682722
0.00611829
0.00102184
0.00098299
0.00118207
0.00118168
-0.001115
-0.000982602
-0.00113928
0.000988442
0.0173989
0.00326398
-0.00192208
0.00209995
0.00188705
-0.00569779
0.00521065
0.00240132
-0.00431356
0.00166477
-0.00116197
0.0195949
0.00198606
0.00342082
0.002913
-0.00160426
-0.00110235
0.000682762
-0.00371887
0.002217
0.00175315
0.00325417
-0.00394253
0.000897028
-0.0093597
-0.00504998
0.000868012
-0.000428333
-0.00404382
-0.000868771
0.0109562
0.0029147
0.0133211
0.00325393
0.0149198
0.0155592
-0.00444598
-0.000428321
-0.00210857
-0.00257987
0.00381019
0.00462381
0.0113611
0.000921404
-0.00287503
0.00188702
-0.000803598
0.000562938
0.000748518
-0.00111587
-0.000988956
-0.000803344
0.000868434
-0.000545072
-0.00230961
0.0196937
0.000983189
0.00431356
0.00607214
0.00569651
0.000544978
0.000988032
-0.0029652
-0.000305903
-0.000519989
0.0118482
0.0212944
0.0105641
0.00774407
-0.00470794
-0.00221736
0.00604163
-0.00248648
0.00210789
-0.00371942
-0.00431482
0.00291305
0.0127831
0.00176419
0.000305907
-0.00105445
0.00146424
0.0109544
-0.00681163
-0.000376831
0.00160603
0.0044487
0.00291047
0.00611829
0.0140166
0.0114146
0.00305005
-0.00138419
0.00042869
0.0041291
0.00138499
0.00162628
0.000802319
0.0022189
0.00551279
0.00129969
-0.000140568
-0.00239879
-0.00461755
0.000519994
-0.00138378
0.00372078
0.00134091
-0.00129908
0.0188933
-0.00544182
-0.00127375
-0.00256989
0.00681796
0.0023081
0.00396744
-0.00162772
0.00175356
0.000753427
-0.00285379
-0.00179313
-0.00935554
0.0228441
-0.000683371
0.0038133
-0.00215281
0.00155082
-0.00291184
-0.000557622
0.000661039
0.000611427
0.000868473
0.0149166
0.0167748
0.0193253
-0.00413199
0.00218338
-0.00213602
0.0167815
0.00155202
-0.000896742
0.0188925
-0.000942536
-0.000662066
0.00291484
0.00305223
-0.00488568
-0.00628965
0.000943018
0.0101337
-0.00268293
0.00462483
-0.00354975
0.00462701
-0.00335358
-0.00488512
0.000803372
0.00126793
0.000555861
-0.000570117
-0.00326984
-0.00146376
0.00394689
0.00562977
-0.00296756
-0.00146577
-0.00141784
0.0113604
-0.000563187
0.0142275
0.00714147
0.00315287
0.00803702
0.00138416
-0.000885564
0.00149665
0.00116344
-0.0038229
-0.00462713
0.00123835
0.00326609
0.0113634
0.0149229
0.0149225
0.0228624
-0.00230035
0.00868801
0.0174001
0.0113655
0.0167827
-0.00299736
0.00431405
-0.00213521
0.00123873
0.00396727
0.000401873
-0.00138463
0.0204293
0.000885292
-0.000376366
0.00129938
0.0107018
0.00301867
-0.00271224
0.00145551
0.00243842
-0.00427169
0.00105384
0.00462599
-0.00080257
0.00281584
-0.0055087
0.000442972
0.00488731
0.00302206
-0.00271493
0.00182694
0.00381426
0.00382496
0.00213584
0.00162439
0.000401053
-0.000652451
0.00520675
0.00130701
0.00607822
0.000753893
0.00372353
0.012148
0.00129793
-0.00569882
0.00231102
-0.00502107
-0.00167256
0.00612356
-0.00120554
0.0113627
0.000802711
0.00214402
-0.000520337
0.0149248
0.000442526
-0.000376917
-0.00230202
0.00247713
-0.00276807
0.00136558
0.0021359
0.000611322
-0.00160573
-0.00531009
0.0032657
-0.00105433
-0.00173688
-0.00551104
0.000900013
0.00230961
0.0143847
-0.00105488
-0.00213521
-0.0012393
0.0021085
0.00335579
-0.000662067
0.00247045
-0.00111542
-0.00196522
0.0143838
-0.00608722
0.000867618
0.000899657
0.00230112
-0.00123877
-0.000802895
-0.000251778
-0.00284319
-0.00155139
0.0156166
0.0149252
0.00310281
0.00138384
0.00213497
0.0121523
0.00582621
0.00382477
0.00123831
-0.00843481
0.00145748
-0.00162699
0.00314909
-0.000661702
0.000337455
0.00146447
0.00116264
0.000359496
-0.000581125
-0.00301821
0.00462449
0.00160524
0.000813989
0.000807426
0.000825726
0.00207006
-0.00123905
-0.00302029
-0.00248882
-0.00121736
-0.00152492
0.00707578
0.00803451
-0.00825785
0.0029124
0.00428821
0.0113649
0.00210847
0.00123954
-0.000748536
0.00138382
0.0167827
0.00281479
-0.000815774
-0.00520899
-0.0012456
-0.0060733
0.00589935
-0.00124608
0.00138397
-0.00120772
0.0228441
0.00061134
0.00146447
0.00324507
0.00105414
-0.00520672
0.0104177
-0.00134042
-0.000748886
-0.000802836
0.00116308
-0.00179493
0.000803285
0.00192237
-0.00123877
0.000897492
0.000752851
0.000922408
0.00230003
-0.00419554
-0.00440536
0.0143851
-0.00106074
-0.00488477
-0.00089662
-0.000503583
-0.00173572
0.0031036
-0.00380991
0.00312865
-0.000765827
-0.000868303
-0.00303235
-0.00136442
0.000682739
0.00607479
0.0266449
0.00257016
0.000718104
0.00245995
0.000988667
0.00240144
-0.00449612
0.00192411
-0.00052044
0.012158
0.0266699
0.00337507
0.00382144
0.00503775
0.00230911
0.00291287
-0.0010542
0.000752843
-0.000718466
0.0167827
0.00412979
0.00166755
0.000520297
-0.000696882
0.00380872
0.0038217
0.000943302
0.00134089
0.00291273
-0.0039662
0.00188764
-0.00168891
-0.00138422
-0.000544698
0.0352165
0.0086551
0.00462599
0.000803213
0.00138499
0.00138391
0.00130576
0.00414086
-0.00200276
0.00240186
0.00834265
0.00865369
-0.003021
0.00137757
-0.000661744
0.00196428
-0.00462415
0.00861123
0.00213645
0.00210929
-0.00105457
-0.00281492
0.00606244
0.00302191
0.00231198
-0.0071242
0.00607463
0.0038095
-0.00221802
0.012618
0.0182035
0.0105578
-0.00129799
-0.000284841
0.000503996
-0.00471044
-0.00105363
0.00066118
0.00098862
-0.000611845
-0.00239924
0.00110197
-0.001464
-0.00386863
0.00239917
0.00111042
0.0029129
0.00105346
-0.00162725
0.00210939
-0.00160531
0.00231044
-0.0010055
0.000547385
-0.00268408
-0.000989139
-0.00127202
0.00926369
0.00120691
-0.00281435
0.0143798
-0.00155152
0.000401667
0.00291289
0.00257112
-0.00607187
-0.00138931
-0.00259003
0.00146446
0.00629256
-0.00302085
0.00335559
0.0109582
0.00219548
-0.00382384
0.00520624
0.00086829
0.00068298
-0.00878011
-0.00210897
-0.00380979
0.0023
0.00926582
0.0195925
0.0352111
0.0132513
-0.000365189
-0.000802853
-0.00105412
0.00150922
0.0114156
-0.00105387
-0.000868607
-0.00284729
0.00376513
-0.00122298
0.00229498
0.00354957
0.00396744
-0.000661767
-0.000868357
0.00118143
0.00138432
-0.000803099
-0.000337083
0.000611427
-0.00146376
-0.000921773
-0.000815543
0.00462505
-0.00136859
0.00123932
0.0114087
0.0410752
0.0203005
-0.00440472
0.00449841
-0.00335309
0.0121644
-0.00214374
0.00493647
0.00612333
0.0143868
0.00371812
0.00210971
-0.00259798
0.00213715
0.00502175
0.022847
0.00461715
0.0130056
-0.00028534
-0.000173759
-0.00105393
-0.00396732
0.0046601
-0.00607187
0.00270236
-0.00221756
0.0165696
0.000989753
-0.000396257
-0.00123932
0.00354735
0.000352152
-0.000921335
0.00129961
-0.00145082
-0.00514219
0.00105414
-0.00123795
0.000520409
0.00230069
0.00868397
0.00205856
0.0188839
0.00462381
0.0051857
-0.00247753
-0.0035225
-0.00396601
-0.00674771
0.00149557
-0.00335338
-0.000922086
-0.00381321
0.0020676
0.00291298
0.00173939
-0.000988769
-0.000661502
0.00502079
0.0149229
-0.00723361
-0.00138337
0.00260519
-0.0046186
0.0144349
0.00606632
-0.00358788
-0.00462495
0.0017525
-0.00509969
0.00843331
0.00105395
0.000520399
0.0202942
-0.000868033
0.00195765
0.0143811
-0.00607288
0.000973612
0.00271443
0.00123957
0.000428794
0.00735388
0.00973475
-0.00520764
0.0109596
0.00273465
0.00844151
0.00414084
0.00229959
-0.003267
-0.00570954
0.00321016
-0.00105291
0.00248762
-0.0027629
0.00271562
-0.00229985
0.00834222
-0.00382259
0.0109551
-0.000140836
9.12576e-05
-0.00195668
0.00382212
0.00123817
0.00221744
-0.00377355
-0.00440368
0.00188614
0.00697855
0.0143871
0.0195925
-0.00129769
-0.00176049
0.00326821
0.000803323
-0.00462655
-0.00396649
0.00271519
0.00520505
0.0165658
-0.00607115
0.00291085
-0.00221781
-0.00124048
0.00462842
0.0352228
-0.00299736
-0.00129856
-0.000868651
-0.00195715
0.026815
-0.00488266
0.00543581
-0.000611613
-0.00149628
-0.0012984
0.019585
0.000683333
0.000545748
-0.0021963
-0.00607656
0.00120631
0.00129745
0.000748703
0.00164095
-0.000802705
-0.00450514
0.0174132
0.00218612
-0.000116272
0.00382406
0.0027038
0.000662093
0.00396971
-0.00292922
0.000802884
0.000897326
-0.000803127
0.00145499
-0.00120649
0.00352362
0.0109546
0.00206153
-0.00276463
-0.00352387
-0.0121356
0.00226079
0.00963413
-0.00291132
0.0138696
0.016778
0.00246885
0.00229929
0.00186695
-0.000803568
-0.00185797
-0.00088437
-0.000305695
0.00372284
0.0143871
0.0113592
0.00310241
0.00341957
0.0110054
0.00396755
-0.00301976
-0.00189475
0.00372027
-0.00569815
0.00112528
0.0258525
-0.00116209
0.000869508
0.00638015
-0.00382339
0.00089691
0.000982494
0.00961399
0.0182077
0.00612335
-0.00144942
0.00356471
-0.00462627
0.00230873
0.022847
0.000802884
0.00285561
-0.00352134
0.00230127
-0.00105418
-0.00061165
0.000802317
0.000988491
0.000802618
0.000802463
0.00105414
0.00160588
0.000377582
-0.00291214
-0.000943287
0.000661542
-0.00136603
-0.00105406
0.00865701
0.00302088
0.00928832
0.00291136
-0.0046255
0.0017603
-0.000765113
-0.00461947
-0.00221747
-0.00382349
-0.00396331
0.00192404
0.0024907
-0.000989752
0.00277161
-0.00111584
0.00326888
0.00884661
0.00503988
0.00519543
0.00162819
0.000994713
0.000922046
-0.00461841
-0.00301914
-0.000884969
-0.00146406
-0.00301897
0.00440237
0.00105424
0.00713748
-0.00123855
-0.000899815
-0.0030204
0.00162657
0.000682526
-0.00291132
0.00200494
0.00231034
0.00150976
-0.00396517
0.000748483
0.0044061
0.003266
-0.000824958
0.000988314
-0.00138336
0.00218574
0.000233054
0.00320987
-0.00239861
-0.00396397
0.00291102
0.00612031
0.00230144
-0.00105431
-0.000637247
0.00291157
-0.00371955
0.00834423
0.00248804
-0.000786249
-0.000611546
-0.00108295
-0.000429025
-0.00179356
0.00105454
-0.0035641
0.00188743
-0.000825608
0.00167195
0.000661588
0.00230872
-0.000802634
-0.000868117
-0.00167256
-0.000802853
-0.00221743
0.00521003
-0.00471066
-0.00180345
-0.00290274
-0.00495528
0.0155592
-0.000305997
-0.00607259
0.00137682
-0.00162593
-0.00168894
0.00138388
0.000879315
-0.000803124
-0.00105386
-0.00462489
-0.000574057
0.000897838
0.000982807
-0.000868947
-0.00681157
0.012169
0.0109555
-0.00246859
-0.00470822
-0.000661962
-0.000868187
-0.00146456
0.0022166
0.00607479
-0.000305513
0.00281692
